{"learner":{"attributes":{"best_iteration":"68","best_score":"1.0533506024083013","scikit_learn":"{\"_estimator_type\": \"classifier\"}"},"feature_names":["atr_14","volatility_momentum","vol_ratio_lag3","volatility_regime","vol_ratio_lag4","hl_spread","normalised_ema50","vol_ratio_lag1","trend_strength","bb_width","vol_ratio","vol_momentum","dist_ema15","macd_hist","vol_trend"],"feature_types":["float","float","float","float","float","float","float","float","float","float","float","float","float","float","float"],"gradient_booster":{"model":{"cats":{"enc":[],"feature_segments":[],"sorted_idx":[]},"gbtree_model_param":{"num_parallel_tree":"1","num_trees":"357"},"iteration_indptr":[0,3,6,9,12,15,18,21,24,27,30,33,36,39,42,45,48,51,54,57,60,63,66,69,72,75,78,81,84,87,90,93,96,99,102,105,108,111,114,117,120,123,126,129,132,135,138,141,144,147,150,153,156,159,162,165,168,171,174,177,180,183,186,189,192,195,198,201,204,207,210,213,216,219,222,225,228,231,234,237,240,243,246,249,252,255,258,261,264,267,270,273,276,279,282,285,288,291,294,297,300,303,306,309,312,315,318,321,324,327,330,333,336,339,342,345,348,351,354,357],"tree_info":[0,1,2,0,1,2,0,1,2,0,1,2,0,1,2,0,1,2,0,1,2,0,1,2,0,1,2,0,1,2,0,1,2,0,1,2,0,1,2,0,1,2,0,1,2,0,1,2,0,1,2,0,1,2,0,1,2,0,1,2,0,1,2,0,1,2,0,1,2,0,1,2,0,1,2,0,1,2,0,1,2,0,1,2,0,1,2,0,1,2,0,1,2,0,1,2,0,1,2,0,1,2,0,1,2,0,1,2,0,1,2,0,1,2,0,1,2,0,1,2,0,1,2,0,1,2,0,1,2,0,1,2,0,1,2,0,1,2,0,1,2,0,1,2,0,1,2,0,1,2,0,1,2,0,1,2,0,1,2,0,1,2,0,1,2,0,1,2,0,1,2,0,1,2,0,1,2,0,1,2,0,1,2,0,1,2,0,1,2,0,1,2,0,1,2,0,1,2,0,1,2,0,1,2,0,1,2,0,1,2,0,1,2,0,1,2,0,1,2,0,1,2,0,1,2,0,1,2,0,1,2,0,1,2,0,1,2,0,1,2,0,1,2,0,1,2,0,1,2,0,1,2,0,1,2,0,1,2,0,1,2,0,1,2,0,1,2,0,1,2,0,1,2,0,1,2,0,1,2,0,1,2,0,1,2,0,1,2,0,1,2,0,1,2,0,1,2,0,1,2,0,1,2,0,1,2,0,1,2,0,1,2,0,1,2,0,1,2,0,1,2,0,1,2,0,1,2,0,1,2,0,1,2,0,1,2,0,1,2,0,1,2,0,1,2,0,1,2,0,1,2,0,1,2,0,1,2],"trees":[{"base_weights":[-0E0,-6.850082E-2,5.767031E-2,6.3025225E-3,-1.3397238E-1,-0E0,1.0703698E-1,-6.9886823E-3,4.47628E-3,-1.1524288E-2,-0E0,-9.713322E-3,1.2324256E-3,-3.7413507E-4,9.178035E-3],"categories":[],"categories_nodes":[],"categories_segments":[],"categories_sizes":[],"default_left":[0,0,0,0,0,0,0,0,0,0,0,0,0,0,0],"id":0,"left_children":[1,3,5,7,9,11,13,-1,-1,-1,-1,-1,-1,-1,-1],"loss_changes":[1.6560495E1,9.887619E0,7.085009E0,4.679733E0,3.8699818E0,2.8635755E0,3.1275606E0,0E0,0E0,0E0,0E0,0E0,0E0,0E0,0E0],"parents":[2147483647,0,0,1,1,2,2,3,3,4,4,5,5,6,6],"right_children":[2,4,6,8,10,12,14,-1,-1,-1,-1,-1,-1,-1,-1],"split_conditions":[7.5130564E-1,1.0388306E0,1.2457426E-1,9.126279E-2,2.2044923E-2,3.8764986E-1,6.562431E-4,-6.9886823E-3,4.47628E-3,-1.1524288E-2,-0E0,-9.713322E-3,1.2324256E-3,-3.7413507E-4,9.178035E-3],"split_indices":[2,7,1,1,9,4,8,0,0,0,0,0,0,0,0],"split_type":[0,0,0,0,0,0,0,0,0,0,0,0,0,0,0],"sum_hessian":[4.1683276E3,1.869322E3,2.2990056E3,8.44794E2,1.0245281E3,1.0258529E3,1.2731527E3,2.5922327E2,5.8557074E2,9.0617737E2,1.18350655E2,1.3248207E2,8.933708E2,1.3513171E2,1.138021E3],"tree_param":{"num_deleted":"0","num_feature":"15","num_nodes":"15","size_leaf_vector":"1"}},{"base_weights":[-1.3806654E-2,1.0809637E-1,-7.265233E-2,-9.612264E-3,1.4327942E-1,1.05514884E-1,-1.2893313E-1,1.7844193E-2,1.3538942E-3,1.6584449E-2,1.7191421E-3,-2.970143E-3,-1.266041E-2],"categories":[],"categories_nodes":[],"categories_segments":[],"categories_sizes":[],"default_left":[0,0,0,0,0,0,0,0,0,0,0,0,0],"id":1,"left_children":[1,3,5,-1,7,9,11,-1,-1,-1,-1,-1,-1],"loss_changes":[3.0703886E1,1.1932621E1,2.9717953E1,0E0,1.3744432E1,5.470761E0,7.3818245E0,0E0,0E0,0E0,0E0,0E0,0E0],"parents":[2147483647,0,0,1,1,2,2,4,4,5,5,6,6],"right_children":[2,4,6,-1,8,10,12,-1,-1,-1,-1,-1,-1],"split_conditions":[5.4305583E-1,7.719858E-1,1.2865497E-3,-9.612264E-3,3.375719E-3,-5.7111037E-1,9.509815E-1,1.7844193E-2,1.3538942E-3,1.6584449E-2,1.7191421E-3,-2.970143E-3,-1.266041E-2],"split_indices":[2,3,5,0,5,12,2,0,0,0,0,0,0],"split_type":[0,0,0,0,0,0,0,0,0,0,0,0,0],"sum_hessian":[4.267298E3,1.3571183E3,2.9101794E3,1.5023784E2,1.2068805E3,6.738077E2,2.2363718E3,6.4258356E2,5.6429694E2,2.375749E2,4.3623276E2,7.7698303E2,1.4593887E3],"tree_param":{"num_deleted":"0","num_feature":"15","num_nodes":"13","size_leaf_vector":"1"}},{"base_weights":[-4.673964E-3,-7.298415E-2,4.5942772E-2,9.598898E-2,-9.469668E-2,1.4061263E-1,5.389154E-3,-0E0,1.2194561E-2,-1.33935725E-2,-3.372692E-3,1.6592756E-3,1.6059818E-2,4.6893656E-3,-1.6848501E-3],"categories":[],"categories_nodes":[],"categories_segments":[],"categories_sizes":[],"default_left":[0,0,0,0,0,0,0,0,0,0,0,0,0,0,0],"id":2,"left_children":[1,3,5,7,9,11,13,-1,-1,-1,-1,-1,-1,-1,-1],"loss_changes":[1.4682021E1,6.8763056E0,8.388738E0,1.051118E0,5.7885323E0,4.8866787E0,3.0531368E0,0E0,0E0,0E0,0E0,0E0,0E0,0E0,0E0],"parents":[2147483647,0,0,1,1,2,2,3,3,4,4,5,5,6,6],"right_children":[2,4,6,8,10,12,14,-1,-1,-1,-1,-1,-1,-1,-1],"split_conditions":[1.2121891E-1,7.316353E-1,-8.0087944E-4,2.58536E-3,5.3533906E-1,1.8021157E-5,1.580873E-4,-0E0,1.2194561E-2,-1.33935725E-2,-3.372692E-3,1.6592756E-3,1.6059818E-2,4.6893656E-3,-1.6848501E-3],"split_indices":[1,3,14,8,4,13,13,0,0,0,0,0,0,0,0],"split_type":[0,0,0,0,0,0,0,0,0,0,0,0,0,0,0],"sum_hessian":[4.172565E3,1.8140632E3,2.3585017E3,1.7372891E2,1.6403344E3,6.5762537E2,1.7008762E3,8.861929E1,8.510962E1,5.369803E2,1.1033541E3,2.94374E2,3.6325137E2,6.0541895E2,1.0954573E3],"tree_param":{"num_deleted":"0","num_feature":"15","num_nodes":"15","size_leaf_vector":"1"}},{"base_weights":[-8.281204E-3,-9.0143256E-2,4.624379E-2,-1.4880641E-1,-2.8914767E-3,-0E0,9.891464E-2,-1.2432147E-2,-0E0,-2.419279E-3,7.0661237E-3,-5.9087314E-3,3.2270504E-3,9.490086E-3,-6.571515E-5],"categories":[],"categories_nodes":[],"categories_segments":[],"categories_sizes":[],"default_left":[0,0,0,0,0,0,0,0,0,0,0,0,0,0,0],"id":3,"left_children":[1,3,5,7,9,11,13,-1,-1,-1,-1,-1,-1,-1,-1],"loss_changes":[1.888367E1,7.9831734E0,6.45079E0,3.6181736E0,1.9267989E0,4.7538767E0,4.205117E0,0E0,0E0,0E0,0E0,0E0,0E0,0E0,0E0],"parents":[2147483647,0,0,1,1,2,2,3,3,4,4,5,5,6,6],"right_children":[2,4,6,8,10,12,14,-1,-1,-1,-1,-1,-1,-1,-1],"split_conditions":[1.0504369E-2,1.0288376E0,9.99908E-1,4.935243E-3,1.76477E-3,3.118294E-3,3.9804205E-3,-1.2432147E-2,-0E0,-2.419279E-3,7.0661237E-3,-5.9087314E-3,3.2270504E-3,9.490086E-3,-6.571515E-5],"split_indices":[9,2,2,8,14,5,14,0,0,0,0,0,0,0,0],"split_type":[0,0,0,0,0,0,0,0,0,0,0,0,0,0,0],"sum_hessian":[4.147661E3,1.6897103E3,2.4579507E3,9.690337E2,7.206767E2,1.2753241E3,1.1826267E3,8.778422E2,9.119144E1,6.0056195E2,1.2011475E2,4.7957062E2,7.957535E2,9.447399E2,2.3788675E2],"tree_param":{"num_deleted":"0","num_feature":"15","num_nodes":"15","size_leaf_vector":"1"}},{"base_weights":[-4.8549687E-3,9.502453E-2,-1.5410157E-1,2.1311001E-1,2.3048322E-3,-3.038881E-2,-2.2363819E-1,3.405445E-3,2.3228055E-2,1.3083173E-2,-4.7475044E-3,6.067799E-4,-1.2905732E-2,-5.0111865E-3,-1.8641608E-2],"categories":[],"categories_nodes":[],"categories_segments":[],"categories_sizes":[],"default_left":[0,0,0,0,0,0,0,0,0,0,0,0,0,0,0],"id":4,"left_children":[1,3,5,7,9,11,13,-1,-1,-1,-1,-1,-1,-1,-1],"loss_changes":[6.4164955E1,2.6822008E1,1.3571548E1,1.6626759E1,1.7919699E1,4.600295E0,3.0407562E0,0E0,0E0,0E0,0E0,0E0,0E0,0E0,0E0],"parents":[2147483647,0,0,1,1,2,2,3,3,4,4,5,5,6,6],"right_children":[2,4,6,8,10,12,14,-1,-1,-1,-1,-1,-1,-1,-1],"split_conditions":[2.9767347E-3,6.91869E-1,6.4771694E-1,9.151557E-1,1.9383681E-3,4.404863E-3,3.2388503E-3,3.405445E-3,2.3228055E-2,1.3083173E-2,-4.7475044E-3,6.067799E-4,-1.2905732E-2,-5.0111865E-3,-1.8641608E-2],"split_indices":[0,4,4,3,0,0,0,0,0,0,0,0,0,0,0],"split_type":[0,0,0,0,0,0,0,0,0,0,0,0,0,0,0],"sum_hessian":[4.249576E3,2.529894E3,1.719682E3,1.0791461E3,1.4507479E3,6.535487E2,1.0661333E3,4.3740594E2,6.4174023E2,4.1235385E2,1.038394E3,5.021607E2,1.5138797E2,2.045833E2,8.6155E2],"tree_param":{"num_deleted":"0","num_feature":"15","num_nodes":"15","size_leaf_vector":"1"}},{"base_weights":[-8.457608E-3,-8.562219E-2,2.4560165E-2,-1.6719025E-1,-3.9514195E-2,-4.7773015E-2,4.817269E-2,-4.6731118E-4,-1.4453005E-2,-5.630427E-3,1.7636672E-3,6.225433E-3,-5.8815572E-3,-3.8612904E-3,4.7952863E-3],"categories":[],"categories_nodes":[],"categories_segments":[],"categories_sizes":[],"default_left":[0,0,0,0,0,0,0,0,0,0,0,0,0,0,0],"id":5,"left_children":[1,3,5,7,9,11,13,-1,-1,-1,-1,-1,-1,-1,-1],"loss_changes":[1.1004483E1,3.7630968E0,4.9973373E0,9.579706E-1,2.3832674E0,2.938024E0,3.9355974E0,0E0,0E0,0E0,0E0,0E0,0E0,0E0,0E0],"parents":[2147483647,0,0,1,1,2,2,3,3,4,4,5,5,6,6],"right_children":[2,4,6,8,10,12,14,-1,-1,-1,-1,-1,-1,-1,-1],"split_conditions":[9.20511E-3,4.8068148E-1,4.5063305E-1,7.62618E-4,2.9538986E-3,-8.455349E-3,-1.1932205E-3,-4.6731118E-4,-1.4453005E-2,-5.630427E-3,1.7636672E-3,6.225433E-3,-5.8815572E-3,-3.8612904E-3,4.7952863E-3],"split_indices":[9,4,4,8,8,6,13,0,0,0,0,0,0,0,0],"split_type":[0,0,0,0,0,0,0,0,0,0,0,0,0,0,0],"sum_hessian":[4.168363E3,1.2854235E3,2.8829395E3,4.0864792E2,8.767756E2,6.535531E2,2.2293865E3,9.148985E1,3.1715805E2,6.0149255E2,2.7528302E2,9.1623146E1,5.6192993E2,2.7290982E2,1.9564766E3],"tree_param":{"num_deleted":"0","num_feature":"15","num_nodes":"15","size_leaf_vector":"1"}},{"base_weights":[-2.5833707E-4,-8.5691385E-2,8.094248E-2,-1.15224365E-2,-1.2206852E-1,1.3605136E-1,-2.1701735E-3,8.849481E-4,-1.1168678E-2,-1.2790325E-2,-1.1255628E-4,-0E0,1.18453875E-2,-7.7822553E-3,1.005066E-3],"categories":[],"categories_nodes":[],"categories_segments":[],"categories_sizes":[],"default_left":[0,0,0,0,0,0,0,0,0,0,0,0,0,0,0],"id":6,"left_children":[1,3,5,7,9,11,13,-1,-1,-1,-1,-1,-1,-1,-1],"loss_changes":[2.8883007E1,4.864751E0,1.0299832E1,3.1618397E0,7.3969994E0,4.420063E0,1.819975E0,0E0,0E0,0E0,0E0,0E0,0E0,0E0,0E0],"parents":[2147483647,0,0,1,1,2,2,3,3,4,4,5,5,6,6],"right_children":[2,4,6,8,10,12,14,-1,-1,-1,-1,-1,-1,-1,-1],"split_conditions":[2.725085E-3,5.2842855E-1,3.543686E-1,1.0277342E0,2.5563121E-3,1.0782074E-3,1.0595472E-3,8.849481E-4,-1.1168678E-2,-1.2790325E-2,-1.1255628E-4,-0E0,1.18453875E-2,-7.7822553E-3,1.005066E-3],"split_indices":[0,10,11,3,14,8,8,0,0,0,0,0,0,0,0],"split_type":[0,0,0,0,0,0,0,0,0,0,0,0,0,0,0],"sum_hessian":[4.1244854E3,2.0390168E3,2.0854685E3,7.2335596E2,1.3156609E3,1.2828956E3,8.025729E2,6.030091E2,1.20346855E2,8.880319E2,4.2762903E2,1.9691649E2,1.0859791E3,1.3442392E2,6.68149E2],"tree_param":{"num_deleted":"0","num_feature":"15","num_nodes":"15","size_leaf_vector":"1"}},{"base_weights":[-2.589549E-3,1.20072E-1,-1.6237438E-1,4.307262E-2,2.5006896E-1,-9.564187E-2,-1.9021617E-2,1.2564625E-2,-7.454004E-4,2.0987986E-2,-0E0,-9.670443E-3,1.9852922E-3],"categories":[],"categories_nodes":[],"categories_segments":[],"categories_sizes":[],"default_left":[0,0,0,0,0,0,0,0,0,0,0,0,0],"id":7,"left_children":[1,3,5,7,9,11,-1,-1,-1,-1,-1,-1,-1],"loss_changes":[8.535261E1,2.2787586E1,9.966301E0,1.1510197E1,8.712635E0,5.7175274E0,0E0,0E0,0E0,0E0,0E0,0E0,0E0],"parents":[2147483647,0,0,1,1,2,2,3,3,4,4,5,5],"right_children":[2,4,6,8,10,12,-1,-1,-1,-1,-1,-1,-1],"split_conditions":[2.8770964E-3,1.1463023E0,3.947757E-3,1.9032642E-3,7.8489835E-4,1.6637838E0,-1.9021617E-2,1.2564625E-2,-7.454004E-4,2.0987986E-2,-0E0,-9.670443E-3,1.9852922E-3],"split_indices":[0,7,0,0,13,10,0,0,0,0,0,0,0],"split_type":[0,0,0,0,0,0,0,0,0,0,0,0,0],"sum_hessian":[4.308669E3,2.422511E3,1.8861581E3,1.5601173E3,8.623938E2,1.1623746E3,7.237835E2,4.7535834E2,1.0847589E3,7.6883215E2,9.356165E1,9.3140576E2,2.3096883E2],"tree_param":{"num_deleted":"0","num_feature":"15","num_nodes":"13","size_leaf_vector":"1"}},{"base_weights":[4.2005205E-3,-5.3572897E-2,9.186955E-2,-1.829248E-1,-2.1404397E-2,2.3931125E-2,1.550874E-1,-1.6470928E-2,-0E0,9.194719E-4,-6.3528446E-3,-5.243633E-3,4.250614E-3,-0E0,1.3890108E-2],"categories":[],"categories_nodes":[],"categories_segments":[],"categories_sizes":[],"default_left":[0,0,0,0,0,0,0,0,0,0,0,0,0,0,0],"id":8,"left_children":[1,3,5,7,9,11,13,-1,-1,-1,-1,-1,-1,-1,-1],"loss_changes":[2.1180767E1,9.1786785E0,6.2651815E0,3.4283638E0,4.825828E0,2.7906556E0,3.712574E0,0E0,0E0,0E0,0E0,0E0,0E0,0E0,0E0],"parents":[2147483647,0,0,1,1,2,2,3,3,4,4,5,5,6,6],"right_children":[2,4,6,8,10,12,14,-1,-1,-1,-1,-1,-1,-1,-1],"split_conditions":[2.9767347E-3,1.7547756E-3,9.4634515E-1,2.2058825E-3,1.1851908E0,6.46146E-1,1.9040237E-3,-1.6470928E-2,-0E0,9.194719E-4,-6.3528446E-3,-5.243633E-3,4.250614E-3,-0E0,1.3890108E-2],"split_indices":[0,0,4,5,10,10,5,0,0,0,0,0,0,0,0],"split_type":[0,0,0,0,0,0,0,0,0,0,0,0,0,0,0],"sum_hessian":[4.109396E3,2.4472651E3,1.6621306E3,4.402088E2,2.0070564E3,8.5063275E2,8.1149786E2,3.5791168E2,8.229712E1,1.2771793E3,7.298771E2,1.7925172E2,6.7138104E2,1.6282643E2,6.4867145E2],"tree_param":{"num_deleted":"0","num_feature":"15","num_nodes":"15","size_leaf_vector":"1"}},{"base_weights":[-6.508849E-4,3.9789107E-2,-7.213743E-2,-3.8994048E-2,8.818956E-2,1.0069814E-1,-1.02009594E-1,-4.404448E-3,4.05214E-3,-0E0,8.464484E-3,1.3086183E-2,-0E0,-1.8350601E-2,-4.800037E-3],"categories":[],"categories_nodes":[],"categories_segments":[],"categories_sizes":[],"default_left":[0,0,0,0,0,0,0,0,0,0,0,0,0,0,0],"id":9,"left_children":[1,3,5,7,9,11,13,-1,-1,-1,-1,-1,-1,-1,-1],"loss_changes":[1.2369148E1,1.0422332E1,8.295251E0,1.9991835E0,4.243351E0,1.1421158E0,5.597331E0,0E0,0E0,0E0,0E0,0E0,0E0,0E0,0E0],"parents":[2147483647,0,0,1,1,2,2,3,3,4,4,5,5,6,6],"right_children":[2,4,6,8,10,12,14,-1,-1,-1,-1,-1,-1,-1,-1],"split_conditions":[3.3626124E-1,1.0063432E-2,5.0002605E-1,1.0858438E0,9.194563E-2,-1.9102608E-3,2.3874994E-3,-4.404448E-3,4.05214E-3,-0E0,8.464484E-3,1.3086183E-2,-0E0,-1.8350601E-2,-4.800037E-3],"split_indices":[11,9,7,12,1,14,5,0,0,0,0,0,0,0,0],"split_type":[0,0,0,0,0,0,0,0,0,0,0,0,0,0,0],"sum_hessian":[4.1878896E3,2.635698E3,1.5521917E3,9.6552405E2,1.670174E3,1.9815962E2,1.354032E3,8.392269E2,1.26297104E2,3.7022702E2,1.299947E3,8.794388E1,1.10215744E2,2.2442671E2,1.1296053E3],"tree_param":{"num_deleted":"0","num_feature":"15","num_nodes":"15","size_leaf_vector":"1"}},{"base_weights":[-5.6451503E-3,1.5288413E-1,-1.2690262E-1,3.788991E-3,2.2478029E-1,-2.1320087E-1,-2.8233936E-2,7.881028E-3,-4.2694975E-3,2.9252257E-2,1.0820685E-2,-9.194229E-3,-2.0841178E-2,2.5516695E-3,-1.1656371E-2],"categories":[],"categories_nodes":[],"categories_segments":[],"categories_sizes":[],"default_left":[0,0,0,0,0,0,0,0,0,0,0,0,0,0,0],"id":10,"left_children":[1,3,5,7,9,11,13,-1,-1,-1,-1,-1,-1,-1,-1],"loss_changes":[8.225396E1,1.8579918E1,1.952372E1,4.418072E0,1.2631336E1,5.2018433E0,1.0405484E1,0E0,0E0,0E0,0E0,0E0,0E0,0E0,0E0],"parents":[2147483647,0,0,1,1,2,2,3,3,4,4,5,5,6,6],"right_children":[2,4,6,8,10,12,14,-1,-1,-1,-1,-1,-1,-1,-1],"split_conditions":[2.5575594E-3,8.58766E-1,1.08809E0,1.8189728E-3,1.8715555E-3,3.2887359E-3,3.947757E-3,7.881028E-3,-4.2694975E-3,2.9252257E-2,1.0820685E-2,-9.194229E-3,-2.0841178E-2,2.5516695E-3,-1.1656371E-2],"split_indices":[0,3,7,0,0,0,0,0,0,0,0,0,0,0,0],"split_type":[0,0,0,0,0,0,0,0,0,0,0,0,0,0,0],"sum_hessian":[4.249861E3,1.8221969E3,2.4276638E3,6.212658E2,1.2009312E3,1.2572911E3,1.1703726E3,2.5766064E2,3.6360513E2,3.3223657E2,8.686946E2,6.062268E2,6.5106433E2,7.7190405E2,3.9846854E2],"tree_param":{"num_deleted":"0","num_feature":"15","num_nodes":"15","size_leaf_vector":"1"}},{"base_weights":[5.5820937E-3,-9.4032735E-2,5.2539095E-2,-1.1486749E-1,1.2257771E-2,9.5707186E-2,-4.7426324E-2,-1.5675493E-2,-4.926301E-3,-3.64078E-3,9.009173E-3,-5.4970983E-4,8.798786E-3,-1.1081745E-2,-0E0],"categories":[],"categories_nodes":[],"categories_segments":[],"categories_sizes":[],"default_left":[0,0,0,0,0,0,0,0,0,0,0,0,0,0,0],"id":11,"left_children":[1,3,5,7,9,11,13,-1,-1,-1,-1,-1,-1,-1,-1],"loss_changes":[1.9236864E1,3.406701E0,1.2648546E1,3.6560202E0,1.7548455E0,5.5339108E0,3.850587E0,0E0,0E0,0E0,0E0,0E0,0E0,0E0,0E0],"parents":[2147483647,0,0,1,1,2,2,3,3,4,4,5,5,6,6],"right_children":[2,4,6,8,10,12,14,-1,-1,-1,-1,-1,-1,-1,-1],"split_conditions":[9.853272E-2,1.9687902E-2,1.1385562E0,5.766403E-2,-1.1932205E-3,3.759904E-1,1.6326188E-1,-1.5675493E-2,-4.926301E-3,-3.64078E-3,9.009173E-3,-5.4970983E-4,8.798786E-3,-1.1081745E-2,-0E0],"split_indices":[1,9,12,1,13,2,1,0,0,0,0,0,0,0,0],"split_type":[0,0,0,0,0,0,0,0,0,0,0,0,0,0,0],"sum_hessian":[4.119724E3,1.2804232E3,2.839301E3,1.108212E3,1.7221114E2,2.0180137E3,8.2128735E2,3.1120673E2,7.970053E2,8.785369E1,8.4357445E1,3.3959198E2,1.6784216E3,2.361369E2,5.8515045E2],"tree_param":{"num_deleted":"0","num_feature":"15","num_nodes":"15","size_leaf_vector":"1"}},{"base_weights":[1.362156E-2,-5.270376E-2,7.476096E-2,3.905781E-3,-9.45287E-2,1.4594269E-1,-0E0,-2.171312E-3,5.524879E-3,-0E0,-9.243212E-3,6.71823E-3,1.44577185E-2,3.323289E-3,-5.3877537E-3],"categories":[],"categories_nodes":[],"categories_segments":[],"categories_sizes":[],"default_left":[0,0,0,0,0,0,0,0,0,0,0,0,0,0,0],"id":12,"left_children":[1,3,5,7,9,11,13,-1,-1,-1,-1,-1,-1,-1,-1],"loss_changes":[1.7047075E1,5.1111517E0,1.1237113E1,2.1660092E0,3.2844114E0,1.309433E0,3.6496902E0,0E0,0E0,0E0,0E0,0E0,0E0,0E0,0E0],"parents":[2147483647,0,0,1,1,2,2,3,3,4,4,5,5,6,6],"right_children":[2,4,6,8,10,12,14,-1,-1,-1,-1,-1,-1,-1,-1],"split_conditions":[2.6590892E-3,5.8027697E-1,1.0179878E0,1.9645285E-4,5.0002605E-1,1.8156447E-1,3.639528E-4,-2.171312E-3,5.524879E-3,-0E0,-9.243212E-3,6.71823E-3,1.44577185E-2,3.323289E-3,-5.3877537E-3],"split_indices":[0,10,10,13,7,1,13,0,0,0,0,0,0,0,0],"split_type":[0,0,0,0,0,0,0,0,0,0,0,0,0,0,0],"sum_hessian":[4.141904E3,1.9491361E3,2.1927678E3,7.8488837E2,1.1642477E3,1.0898584E3,1.1029095E3,4.9387854E2,2.910098E2,3.011986E2,8.6304913E2,5.9181085E2,4.9804752E2,7.1691E2,3.8599957E2],"tree_param":{"num_deleted":"0","num_feature":"15","num_nodes":"15","size_leaf_vector":"1"}},{"base_weights":[1.3567148E-2,1.1487877E-1,-1.2093203E-1,-1.6497761E-2,1.7718941E-1,-6.658264E-2,-1.9839112E-1,1.014962E-2,-6.0603E-3,2.2956043E-2,5.270711E-3,-6.6744196E-3,1.0664887E-2,-1.605759E-2,-8.0490543E-4],"categories":[],"categories_nodes":[],"categories_segments":[],"categories_sizes":[],"default_left":[0,0,0,0,0,0,0,0,0,0,0,0,0,0,0],"id":13,"left_children":[1,3,5,7,9,11,13,-1,-1,-1,-1,-1,-1,-1,-1],"loss_changes":[5.8574154E1,2.1087856E1,6.1507454E0,7.892921E0,2.1886032E1,5.7255774E0,1.4029198E0,0E0,0E0,0E0,0E0,0E0,0E0,0E0,0E0],"parents":[2147483647,0,0,1,1,2,2,3,3,4,4,5,5,6,6],"right_children":[2,4,6,8,10,12,14,-1,-1,-1,-1,-1,-1,-1,-1],"split_conditions":[2.8867752E-3,8.5702866E-1,3.947757E-3,1.6729485E-3,2.206843E-3,2.530273E-2,1.5269718E0,1.014962E-2,-6.0603E-3,2.2956043E-2,5.270711E-3,-6.6744196E-3,1.0664887E-2,-1.605759E-2,-8.0490543E-4],"split_indices":[0,3,0,0,0,9,12,0,0,0,0,0,0,0,0],"split_type":[0,0,0,0,0,0,0,0,0,0,0,0,0,0,0],"sum_hessian":[4.2648325E3,2.454949E3,1.8098837E3,7.6849475E2,1.6864542E3,1.1205237E3,6.893599E2,2.0136636E2,5.671284E2,7.0719714E2,9.7925714E2,1.0365454E3,8.3978325E1,5.981753E2,9.118465E1],"tree_param":{"num_deleted":"0","num_feature":"15","num_nodes":"15","size_leaf_vector":"1"}},{"base_weights":[-0E0,-1.4648995E-1,4.2832308E-2,-2.1932341E-1,-7.825409E-2,-9.722538E-3,1.0128547E-1,-4.4056872E-4,-2.111965E-2,-0E0,-1.1561655E-2,2.2553417E-3,-6.2302044E-3,9.808084E-3,-0E0],"categories":[],"categories_nodes":[],"categories_segments":[],"categories_sizes":[],"default_left":[0,0,0,0,0,0,0,0,0,0,0,0,0,0,0],"id":14,"left_children":[1,3,5,7,9,11,13,-1,-1,-1,-1,-1,-1,-1,-1],"loss_changes":[2.6297443E1,2.9539394E0,1.0313187E1,4.4764023E0,3.0083313E0,5.3142643E0,5.2477226E0,0E0,0E0,0E0,0E0,0E0,0E0,0E0,0E0],"parents":[2147483647,0,0,1,1,2,2,3,3,4,4,5,5,6,6],"right_children":[2,4,6,8,10,12,14,-1,-1,-1,-1,-1,-1,-1,-1],"split_conditions":[2.1133202E-3,1.7062604E-3,3.0891227E-3,4.907385E-3,8.5259116E-1,1.2193106E0,2.4311734E-2,-4.4056872E-4,-2.111965E-2,-0E0,-1.1561655E-2,2.2553417E-3,-6.2302044E-3,9.808084E-3,-0E0],"split_indices":[0,0,0,9,7,7,9,0,0,0,0,0,0,0,0],"split_type":[0,0,0,0,0,0,0,0,0,0,0,0,0,0,0],"sum_hessian":[4.1201836E3,9.3370795E2,3.1864758E3,3.9756564E2,5.3614233E2,1.6412301E3,1.5452457E3,1.1742317E2,2.8014246E2,2.9370773E2,2.4243457E2,1.0303187E3,6.109113E2,1.184616E3,3.606298E2],"tree_param":{"num_deleted":"0","num_feature":"15","num_nodes":"15","size_leaf_vector":"1"}},{"base_weights":[3.0489039E-2,-5.0797816E-2,7.3110424E-2,3.5383865E-2,-1.2000605E-1,2.7118666E-2,1.3173176E-1,-0E0,1.43129835E-2,-1.4456595E-2,-2.934207E-3,-4.254677E-3,3.7542777E-3,-1.9515206E-3,1.12341E-2],"categories":[],"categories_nodes":[],"categories_segments":[],"categories_sizes":[],"default_left":[0,0,0,0,0,0,0,0,0,0,0,0,0,0,0],"id":15,"left_children":[1,3,5,7,9,11,13,-1,-1,-1,-1,-1,-1,-1,-1],"loss_changes":[1.4735893E1,8.940303E0,6.712037E0,3.054057E0,3.7082653E0,3.3325837E0,4.5519524E0,0E0,0E0,0E0,0E0,0E0,0E0,0E0,0E0],"parents":[2147483647,0,0,1,1,2,2,3,3,4,4,5,5,6,6],"right_children":[2,4,6,8,10,12,14,-1,-1,-1,-1,-1,-1,-1,-1],"split_conditions":[2.3551572E-3,8.731959E-1,1.120779E0,1.3358358E-1,7.460333E-1,1.1193707E-3,5.0734276E-1,-0E0,1.43129835E-2,-1.4456595E-2,-2.934207E-3,-4.254677E-3,3.7542777E-3,-1.9515206E-3,1.12341E-2],"split_indices":[0,3,4,1,4,8,2,0,0,0,0,0,0,0,0],"split_type":[0,0,0,0,0,0,0,0,0,0,0,0,0,0,0],"sum_hessian":[4.1846304E3,1.3983857E3,2.7862449E3,5.949194E2,8.0346643E2,1.6231027E3,1.1631422E3,5.1134943E2,8.356993E1,3.6751828E2,4.3594812E2,3.0466626E2,1.3184364E3,1.0611934E2,1.0570228E3],"tree_param":{"num_deleted":"0","num_feature":"15","num_nodes":"15","size_leaf_vector":"1"}},{"base_weights":[-2.973065E-4,8.427757E-2,-1.1017202E-1,-1.8973533E-2,1.0841714E-1,-3.194681E-2,-1.9116941E-1,1.8957322E-2,3.6527826E-3,-7.2048753E-3,1.3696002E-3,-1.6145505E-2,-2.0717091E-3],"categories":[],"categories_nodes":[],"categories_segments":[],"categories_sizes":[],"default_left":[0,0,0,0,0,0,0,0,0,0,0,0,0],"id":16,"left_children":[1,3,5,-1,7,9,11,-1,-1,-1,-1,-1,-1],"loss_changes":[3.9675087E1,1.9384386E1,1.0678476E1,0E0,1.794447E1,3.7698188E0,2.697586E0,0E0,0E0,0E0,0E0,0E0,0E0],"parents":[2147483647,0,0,1,1,2,2,4,4,5,5,6,6],"right_children":[2,4,6,-1,8,10,12,-1,-1,-1,-1,-1,-1],"split_conditions":[1.4193611E-1,6.885617E-1,9.630376E-1,-1.8973533E-2,4.6619138E-1,1.0237001E0,9.75841E-3,1.8957322E-2,3.6527826E-3,-7.2048753E-3,1.3696002E-3,-1.6145505E-2,-2.0717091E-3],"split_indices":[1,3,4,0,2,3,6,0,0,0,0,0,0],"split_type":[0,0,0,0,0,0,0,0,0,0,0,0,0],"sum_hessian":[4.220159E3,2.3615732E3,1.8585859E3,1.3099812E2,2.2305752E3,9.8911487E2,8.6947107E2,5.917441E2,1.638831E3,4.6490277E2,5.242121E2,7.116153E2,1.5785579E2],"tree_param":{"num_deleted":"0","num_feature":"15","num_nodes":"13","size_leaf_vector":"1"}},{"base_weights":[-0E0,-1.5636264E-1,2.5065105E-2,-0E0,-2.3467384E-1,-1.9526357E-3,1.1000929E-1,-1.223761E-3,2.9703472E-3,-2.0573953E-2,-5.78999E-3,1.1969498E-2,-1.1889554E-3,1.2873254E-2,-0E0],"categories":[],"categories_nodes":[],"categories_segments":[],"categories_sizes":[],"default_left":[0,0,0,0,0,0,0,0,0,0,0,0,0,0,0],"id":17,"left_children":[1,3,5,7,9,11,13,-1,-1,-1,-1,-1,-1,-1,-1],"loss_changes":[1.5735385E1,7.337199E0,8.806185E0,1.992039E-1,4.6335793E-1,5.629256E0,6.541815E0,0E0,0E0,0E0,0E0,0E0,0E0,0E0,0E0],"parents":[2147483647,0,0,1,1,2,2,3,3,4,4,5,5,6,6],"right_children":[2,4,6,8,10,12,14,-1,-1,-1,-1,-1,-1,-1,-1],"split_conditions":[1.8189728E-3,7.891614E-1,3.7048408E-3,-2.7426076E-5,1.3279017E0,7.445153E-1,2.3306547E-2,-1.223761E-3,2.9703472E-3,-2.0573953E-2,-5.78999E-3,1.1969498E-2,-1.1889554E-3,1.2873254E-2,-0E0],"split_indices":[0,3,0,14,2,3,9,0,0,0,0,0,0,0,0],"split_type":[0,0,0,0,0,0,0,0,0,0,0,0,0,0,0],"sum_hessian":[4.118365E3,5.3320276E2,3.5851624E3,1.731578E2,3.6004495E2,2.6891184E3,8.9604407E2,8.584814E1,8.730968E1,2.4479079E2,1.1525416E2,1.7111346E2,2.518005E3,5.5944684E2,3.3659723E2],"tree_param":{"num_deleted":"0","num_feature":"15","num_nodes":"15","size_leaf_vector":"1"}},{"base_weights":[-2.6458362E-3,-6.644988E-2,3.9102666E-2,-1.2232963E-1,-1.1819016E-2,-1.760154E-2,8.6759344E-2,2.91021E-4,-1.1320904E-2,1.9462547E-3,-4.712634E-3,-6.570121E-3,5.2537513E-3,1.15434155E-2,1.0184706E-3],"categories":[],"categories_nodes":[],"categories_segments":[],"categories_sizes":[],"default_left":[0,0,0,0,0,0,0,0,0,0,0,0,0,0,0],"id":18,"left_children":[1,3,5,7,9,11,13,-1,-1,-1,-1,-1,-1,-1,-1],"loss_changes":[1.1407517E1,4.5635457E0,7.1568995E0,3.9197712E0,2.075815E0,7.2850723E0,6.3277197E0,0E0,0E0,0E0,0E0,0E0,0E0,0E0,0E0],"parents":[2147483647,0,0,1,1,2,2,3,3,4,4,5,5,6,6],"right_children":[2,4,6,8,10,12,14,-1,-1,-1,-1,-1,-1,-1,-1],"split_conditions":[1.0548301E-2,7.460333E-1,1.457211E-1,7.891614E-1,1.3857492E0,1.0291897E0,1.0545748E0,2.91021E-4,-1.1320904E-2,1.9462547E-3,-4.712634E-3,-6.570121E-3,5.2537513E-3,1.15434155E-2,1.0184706E-3],"split_indices":[9,4,1,3,4,3,3,0,0,0,0,0,0,0,0],"split_type":[0,0,0,0,0,0,0,0,0,0,0,0,0,0,0],"sum_hessian":[4.1966763E3,1.7024956E3,2.4941807E3,7.8603906E2,9.1645654E2,1.0967893E3,1.3973914E3,1.2759577E2,6.5844324E2,4.7907712E2,4.3737943E2,6.38468E2,4.5832132E2,6.6896844E2,7.284229E2],"tree_param":{"num_deleted":"0","num_feature":"15","num_nodes":"15","size_leaf_vector":"1"}},{"base_weights":[-7.2398586E-3,9.4499856E-2,-1.4633387E-1,2.2642441E-1,4.4864602E-2,-1.6965362E-1,-0E0,-0E0,1.8993743E-2,-3.1796398E-3,9.031419E-3,-6.270469E-3,-1.3732633E-2,4.62145E-3,-1.0531753E-2],"categories":[],"categories_nodes":[],"categories_segments":[],"categories_sizes":[],"default_left":[0,0,0,0,0,0,0,0,0,0,0,0,0,0,0],"id":19,"left_children":[1,3,5,7,9,11,13,-1,-1,-1,-1,-1,-1,-1,-1],"loss_changes":[6.079166E1,1.4528187E1,5.498905E0,4.1508217E0,1.2990286E1,5.583496E-1,3.14541E0,0E0,0E0,0E0,0E0,0E0,0E0,0E0,0E0],"parents":[2147483647,0,0,1,1,2,2,3,3,4,4,5,5,6,6],"right_children":[2,4,6,8,10,12,14,-1,-1,-1,-1,-1,-1,-1,-1],"split_conditions":[2.8867752E-3,1.8715555E-3,7.023173E-1,4.12606E-3,-2.3572129E-1,4.6331596E-1,3.947757E-3,-0E0,1.8993743E-2,-3.1796398E-3,9.031419E-3,-6.270469E-3,-1.3732633E-2,4.62145E-3,-1.0531753E-2],"split_indices":[0,0,11,9,11,10,0,0,0,0,0,0,0,0,0],"split_type":[0,0,0,0,0,0,0,0,0,0,0,0,0,0,0],"sum_hessian":[4.242517E3,2.4330693E3,1.8094476E3,6.2062354E2,1.8124457E3,1.5326921E3,2.7675543E2,8.279351E1,5.3783E2,8.234776E2,9.8896814E2,3.1835123E2,1.214341E3,1.7817369E2,9.858173E1],"tree_param":{"num_deleted":"0","num_feature":"15","num_nodes":"15","size_leaf_vector":"1"}},{"base_weights":[4.123569E-3,-1.1176708E-1,4.169587E-2,-1.2605307E-1,-0E0,-2.6782332E-2,6.2100325E-2,-4.995125E-3,-1.3577328E-2,1.6991138E-3,-7.6295245E-3,8.608101E-3,-0E0],"categories":[],"categories_nodes":[],"categories_segments":[],"categories_sizes":[],"default_left":[0,0,0,0,0,0,0,0,0,0,0,0,0],"id":20,"left_children":[1,3,5,7,-1,9,11,-1,-1,-1,-1,-1,-1],"loss_changes":[1.775513E1,2.014635E0,4.633403E0,1.589097E0,0E0,3.056535E0,8.877824E0,0E0,0E0,0E0,0E0,0E0,0E0],"parents":[2147483647,0,0,1,1,2,2,3,3,5,5,6,6],"right_children":[2,4,6,8,-1,10,12,-1,-1,-1,-1,-1,-1],"split_conditions":[2.1133202E-3,1.3353692E-2,1.0061643E-1,8.5259116E-1,-0E0,1.0823119E0,1.4832256E-3,-4.995125E-3,-1.3577328E-2,1.6991138E-3,-7.6295245E-3,8.608101E-3,-0E0],"split_indices":[0,9,1,7,0,7,14,0,0,0,0,0,0],"split_type":[0,0,0,0,0,0,0,0,0,0,0,0,0],"sum_hessian":[4.1202227E3,9.679693E2,3.1522532E3,8.839802E2,8.398909E1,6.668206E2,2.4854326E3,5.029678E2,3.810124E2,3.7275995E2,2.9406064E2,1.3414253E3,1.1440073E3],"tree_param":{"num_deleted":"0","num_feature":"15","num_nodes":"13","size_leaf_vector":"1"}},{"base_weights":[6.127261E-3,-3.0003883E-2,9.342065E-2,-6.1666712E-2,1.3281611E-2,-0E0,1.5878302E-1,-0E0,-7.6858057E-3,-2.5506034E-3,5.633851E-3,7.792654E-3,-3.042393E-3,-0E0,1.2959085E-2],"categories":[],"categories_nodes":[],"categories_segments":[],"categories_sizes":[],"default_left":[0,0,0,0,0,0,0,0,0,0,0,0,0,0,0],"id":21,"left_children":[1,3,5,7,9,11,13,-1,-1,-1,-1,-1,-1,-1,-1],"loss_changes":[1.3587669E1,4.281498E0,7.124131E0,4.1865106E0,3.8521013E0,2.810392E0,1.5558281E0,0E0,0E0,0E0,0E0,0E0,0E0,0E0,0E0],"parents":[2147483647,0,0,1,1,2,2,3,3,4,4,5,5,6,6],"right_children":[2,4,6,8,10,12,14,-1,-1,-1,-1,-1,-1,-1,-1],"split_conditions":[3.3776523E-3,1.1323774E0,7.994422E-1,9.2208254E-1,2.4443876E-3,1.0025313E0,1.1651802E-2,-0E0,-7.6858057E-3,-2.5506034E-3,5.633851E-3,7.792654E-3,-3.042393E-3,-0E0,1.2959085E-2],"split_indices":[0,2,2,3,0,3,9,0,0,0,0,0,0,0,0],"split_type":[0,0,0,0,0,0,0,0,0,0,0,0,0,0,0],"sum_hessian":[4.17515E3,2.921182E3,1.2539683E3,1.7486066E3,1.1725752E3,5.4896814E2,7.050001E2,7.631889E2,9.854176E2,6.269736E2,5.456017E2,1.7383134E2,3.7513678E2,8.268797E1,6.2231213E2],"tree_param":{"num_deleted":"0","num_feature":"15","num_nodes":"15","size_leaf_vector":"1"}},{"base_weights":[5.5047512E-6,1.7567535E-1,-7.876589E-2,-0E0,1.9219595E-1,-1.7176791E-3,-1.6384852E-1,1.9785369E-2,7.914706E-3,4.6546655E-3,-5.4191616E-3,-7.874829E-3,-2.2470709E-2],"categories":[],"categories_nodes":[],"categories_segments":[],"categories_sizes":[],"default_left":[0,0,0,0,0,0,0,0,0,0,0,0,0],"id":22,"left_children":[1,3,5,-1,7,9,11,-1,-1,-1,-1,-1,-1],"loss_changes":[5.9651466E1,4.3764076E0,1.8404272E1,0E0,5.650528E0,7.5256233E0,8.345856E0,0E0,0E0,0E0,0E0,0E0,0E0],"parents":[2147483647,0,0,1,1,2,2,4,4,5,5,6,6],"right_children":[2,4,6,-1,8,10,12,-1,-1,-1,-1,-1,-1],"split_conditions":[2.2677432E-3,4.3177693E-3,9.7462577E-1,-0E0,1.9032642E-3,3.1567914E-3,3.947757E-3,1.9785369E-2,7.914706E-3,4.6546655E-3,-5.4191616E-3,-7.874829E-3,-2.2470709E-2],"split_indices":[0,9,4,0,0,0,0,0,0,0,0,0,0],"split_type":[0,0,0,0,0,0,0,0,0,0,0,0,0],"sum_hessian":[4.2405825E3,1.3254484E3,2.9151343E3,1.02524055E2,1.2229243E3,1.569785E3,1.3453492E3,5.933749E2,6.295494E2,7.897176E2,7.800675E2,1.00503314E3,3.4031613E2],"tree_param":{"num_deleted":"0","num_feature":"15","num_nodes":"13","size_leaf_vector":"1"}},{"base_weights":[-0E0,-3.460152E-2,5.6753125E-2,-1.2945345E-1,-2.6219853E-3,7.8536615E-2,-3.5824522E-2,-0E0,-1.1533017E-2,1.9142906E-3,-6.0988283E-3,9.295613E-3,2.9561995E-4,-6.1530066E-3,5.6444213E-4],"categories":[],"categories_nodes":[],"categories_segments":[],"categories_sizes":[],"default_left":[0,0,0,0,0,0,0,0,0,0,0,0,0,0,0],"id":23,"left_children":[1,3,5,7,9,11,13,-1,-1,-1,-1,-1,-1,-1,-1],"loss_changes":[8.2137165E0,7.239955E0,3.451858E0,2.150361E0,4.90864E0,4.0607004E0,9.4584227E-1,0E0,0E0,0E0,0E0,0E0,0E0,0E0,0E0],"parents":[2147483647,0,0,1,1,2,2,3,3,4,4,5,5,6,6],"right_children":[2,4,6,8,10,12,14,-1,-1,-1,-1,-1,-1,-1,-1],"split_conditions":[3.0578806E-3,5.382197E-1,2.0705752E0,2.042899E-1,1.2193106E0,1.0904863E-3,1.5835244E-2,-0E0,-1.1533017E-2,1.9142906E-3,-6.0988283E-3,9.295613E-3,2.9561995E-4,-6.1530066E-3,5.6444213E-4],"split_indices":[5,2,10,2,7,6,9,0,0,0,0,0,0,0,0],"split_type":[0,0,0,0,0,0,0,0,0,0,0,0,0,0,0],"sum_hessian":[4.1504263E3,2.5859866E3,1.5644398E3,5.9941986E2,1.9865668E3,1.3118077E3,2.5263205E2,1.0670581E2,4.9271405E2,1.4275071E3,5.5905963E2,7.5286127E2,5.589465E2,1.6693015E2,8.5701904E1],"tree_param":{"num_deleted":"0","num_feature":"15","num_nodes":"15","size_leaf_vector":"1"}},{"base_weights":[1.750616E-3,-6.5874174E-2,5.6749202E-2,-1.4533709E-1,-4.7022426E-3,1.1459013E-1,-1.4832687E-2,-0E0,-1.29995E-2,1.442507E-3,-7.0308372E-3,-4.114418E-4,1.0658472E-2,7.3422696E-3,-2.6869432E-3],"categories":[],"categories_nodes":[],"categories_segments":[],"categories_sizes":[],"default_left":[0,0,0,0,0,0,0,0,0,0,0,0,0,0,0],"id":24,"left_children":[1,3,5,7,9,11,13,-1,-1,-1,-1,-1,-1,-1,-1],"loss_changes":[1.556907E1,8.20512E0,1.0274155E1,3.9137363E0,2.8165085E0,5.539366E0,2.3007004E0,0E0,0E0,0E0,0E0,0E0,0E0,0E0,0E0],"parents":[2147483647,0,0,1,1,2,2,3,3,4,4,5,5,6,6],"right_children":[2,4,6,8,10,12,14,-1,-1,-1,-1,-1,-1,-1,-1],"split_conditions":[2.59569E-3,6.753755E-1,2.542307E-1,5.2842855E-1,1.6774808E0,1.0233968E-2,-1.1651315E-3,-0E0,-1.29995E-2,1.442507E-3,-7.0308372E-3,-4.114418E-4,1.0658472E-2,7.3422696E-3,-2.6869432E-3],"split_indices":[0,4,11,10,4,9,13,0,0,0,0,0,0,0,0],"split_type":[0,0,0,0,0,0,0,0,0,0,0,0,0,0,0],"sum_hessian":[4.162467E3,1.8250884E3,2.3373787E3,7.480921E2,1.0769962E3,1.3250043E3,1.0123744E3,1.1970492E2,6.2838715E2,8.1764124E2,2.59355E2,2.3460808E2,1.0903961E3,1.14343544E2,8.980308E2],"tree_param":{"num_deleted":"0","num_feature":"15","num_nodes":"15","size_leaf_vector":"1"}},{"base_weights":[6.0629626E-3,1.4876147E-1,-6.272321E-2,4.442512E-2,2.8062153E-1,-1.0962283E-3,-1.6098908E-1,1.0587396E-2,-3.7361383E-3,1.2160235E-2,2.7024202E-2,-4.393336E-3,6.7880056E-3,1.0081196E-3,-1.3672316E-2],"categories":[],"categories_nodes":[],"categories_segments":[],"categories_sizes":[],"default_left":[0,0,0,0,0,0,0,0,0,0,0,0,0,0,0],"id":25,"left_children":[1,3,5,7,9,11,13,-1,-1,-1,-1,-1,-1,-1,-1],"loss_changes":[4.2194786E1,1.7533258E1,1.6450153E1,8.395783E0,2.2377548E0,9.746553E0,5.4537773E0,0E0,0E0,0E0,0E0,0E0,0E0,0E0,0E0],"parents":[2147483647,0,0,1,1,2,2,3,3,4,4,5,5,6,6],"right_children":[2,4,6,8,10,12,14,-1,-1,-1,-1,-1,-1,-1,-1],"split_conditions":[2.294868E-3,9.2729247E-1,3.4961079E-3,1.8715555E-3,2.2152415E-1,3.543686E-1,3.3385172E-1,1.0587396E-2,-3.7361383E-3,1.2160235E-2,2.7024202E-2,-4.393336E-3,6.7880056E-3,1.0081196E-3,-1.3672316E-2],"split_indices":[0,3,0,0,11,11,4,0,0,0,0,0,0,0,0],"split_type":[0,0,0,0,0,0,0,0,0,0,0,0,0,0,0],"sum_hessian":[4.2206963E3,1.3894108E3,2.8312856E3,8.098536E2,5.795571E2,1.781979E3,1.0493065E3,4.173854E2,3.924682E2,2.9369766E2,2.8585944E2,1.1311874E3,6.5079156E2,1.05099464E2,9.442071E2],"tree_param":{"num_deleted":"0","num_feature":"15","num_nodes":"15","size_leaf_vector":"1"}},{"base_weights":[5.8944863E-3,-1.1863651E-1,4.8923545E-2,4.3512497E-2,-1.7778133E-1,-1.6715704E-2,8.5517816E-2,-1.8451018E-3,1.2723969E-2,-2.1362154E-2,-7.5325817E-3,-4.1772393E-3,4.2141713E-3,-2.925695E-3,7.905945E-3],"categories":[],"categories_nodes":[],"categories_segments":[],"categories_sizes":[],"default_left":[0,0,0,0,0,0,0,0,0,0,0,0,0,0,0],"id":26,"left_children":[1,3,5,7,9,11,13,-1,-1,-1,-1,-1,-1,-1,-1],"loss_changes":[2.1885448E1,1.0737302E1,7.8376994E0,3.184664E0,4.1839085E0,3.242883E0,5.9807024E0,0E0,0E0,0E0,0E0,0E0,0E0,0E0,0E0],"parents":[2147483647,0,0,1,1,2,2,3,3,4,4,5,5,6,6],"right_children":[2,4,6,8,10,12,14,-1,-1,-1,-1,-1,-1,-1,-1],"split_conditions":[2.14817E-3,7.859438E-1,5.8794844E-1,1.795977E-3,1.7062604E-3,4.368402E-3,-1.0495409E-3,-1.8451018E-3,1.2723969E-2,-2.1362154E-2,-7.5325817E-3,-4.1772393E-3,4.2141713E-3,-2.925695E-3,7.905945E-3],"split_indices":[0,3,4,5,0,5,13,0,0,0,0,0,0,0,0],"split_type":[0,0,0,0,0,0,0,0,0,0,0,0,0,0,0],"sum_hessian":[4.1114297E3,1.01830334E3,3.0931265E3,2.5110541E2,7.6719794E2,1.0623428E3,2.0307837E3,1.484056E2,1.02699814E2,2.6256198E2,5.04636E2,7.355926E2,3.2675018E2,2.6445026E2,1.7663334E3],"tree_param":{"num_deleted":"0","num_feature":"15","num_nodes":"15","size_leaf_vector":"1"}},{"base_weights":[-7.8832125E-3,-6.847203E-2,3.5238083E-2,-0E0,-1.2496632E-1,1.5520067E-2,1.5460297E-1,-6.3182535E-3,4.351015E-3,-1.08178165E-2,-0E0,1.1688074E-2,2.6397634E-4,1.803326E-2,2.5935887E-4],"categories":[],"categories_nodes":[],"categories_segments":[],"categories_sizes":[],"default_left":[0,0,0,0,0,0,0,0,0,0,0,0,0,0,0],"id":27,"left_children":[1,3,5,7,9,11,13,-1,-1,-1,-1,-1,-1,-1,-1],"loss_changes":[1.0904625E1,7.2037926E0,4.662923E0,3.9749956E0,2.8817463E0,2.7368352E0,2.7922802E0,0E0,0E0,0E0,0E0,0E0,0E0,0E0,0E0],"parents":[2147483647,0,0,1,1,2,2,3,3,4,4,5,5,6,6],"right_children":[2,4,6,8,10,12,14,-1,-1,-1,-1,-1,-1,-1,-1],"split_conditions":[7.253639E-1,9.581844E-1,2.3739409E-2,2.3874994E-3,6.358896E-3,-1.2875162E-3,1.1987808E0,-6.3182535E-3,4.351015E-3,-1.08178165E-2,-0E0,1.1688074E-2,2.6397634E-4,1.803326E-2,2.5935887E-4],"split_indices":[2,3,9,5,5,13,3,0,0,0,0,0,0,0,0],"split_type":[0,0,0,0,0,0,0,0,0,0,0,0,0,0,0],"sum_hessian":[4.0766902E3,1.7382914E3,2.3383987E3,7.675902E2,9.707012E2,2.059651E3,2.7874786E2,2.8703653E2,4.805537E2,8.329753E2,1.3772589E2,1.0998121E2,1.9496697E3,1.472945E2,1.3145337E2],"tree_param":{"num_deleted":"0","num_feature":"15","num_nodes":"15","size_leaf_vector":"1"}},{"base_weights":[-4.5496165E-3,7.806147E-2,-7.364818E-2,-9.430449E-2,1.2231747E-1,-1.1384028E-1,7.640535E-2,-0E0,-1.0893472E-2,-1.038281E-2,1.0809508E-2,-5.047667E-3,-1.2643195E-2,9.168698E-3,-3.5183833E-3],"categories":[],"categories_nodes":[],"categories_segments":[],"categories_sizes":[],"default_left":[0,0,0,0,0,0,0,0,0,0,0,0,0,0,0],"id":28,"left_children":[1,3,5,7,9,11,13,-1,-1,-1,-1,-1,-1,-1,-1],"loss_changes":[2.4076548E1,1.47666855E1,1.4396478E1,2.0497932E0,1.0214907E1,3.5017815E0,3.324635E0,0E0,0E0,0E0,0E0,0E0,0E0,0E0,0E0],"parents":[2147483647,0,0,1,1,2,2,3,3,4,4,5,5,6,6],"right_children":[2,4,6,8,10,12,14,-1,-1,-1,-1,-1,-1,-1,-1],"split_conditions":[1.2121891E-1,-7.905805E-3,6.191773E-1,5.162587E-3,6.962633E-1,1.9329646E-1,5.6204125E-3,-0E0,-1.0893472E-2,-1.038281E-2,1.0809508E-2,-5.047667E-3,-1.2643195E-2,9.168698E-3,-3.5183833E-3],"split_indices":[1,6,11,8,3,1,8,0,0,0,0,0,0,0,0],"split_type":[0,0,0,0,0,0,0,0,0,0,0,0,0,0,0],"sum_hessian":[4.185885E3,1.8729288E3,2.3129558E3,3.557326E2,1.5171963E3,1.8536545E3,4.593013E2,1.2751018E2,2.2822241E2,1.0389508E2,1.4133011E3,1.107067E3,7.4658746E2,3.5996042E2,9.93409E1],"tree_param":{"num_deleted":"0","num_feature":"15","num_nodes":"15","size_leaf_vector":"1"}},{"base_weights":[1.0733237E-2,-5.595171E-2,4.7807936E-2,-1.6593762E-1,-0E0,-1.4225397E-1,6.409765E-2,-0E0,-1.5843233E-2,4.8720306E-3,-2.1837137E-3,-1.4624146E-2,-1.6783498E-3,5.442698E-4,6.8290574E-3],"categories":[],"categories_nodes":[],"categories_segments":[],"categories_sizes":[],"default_left":[0,0,0,0,0,0,0,0,0,0,0,0,0,0,0],"id":29,"left_children":[1,3,5,7,9,11,13,-1,-1,-1,-1,-1,-1,-1,-1],"loss_changes":[1.0238454E1,8.670141E0,8.187726E0,4.534458E0,1.9093297E0,1.4233303E-1,3.6021233E0,0E0,0E0,0E0,0E0,0E0,0E0,0E0,0E0],"parents":[2147483647,0,0,1,1,2,2,3,3,4,4,5,5,6,6],"right_children":[2,4,6,8,10,12,14,-1,-1,-1,-1,-1,-1,-1,-1],"split_conditions":[5.849582E-1,9.853272E-2,8.1349234E-4,2.122044E-1,-1.498195E-4,-1.75849E-5,1.729249E-3,-0E0,-1.5843233E-2,4.8720306E-3,-2.1837137E-3,-1.4624146E-2,-1.6783498E-3,5.442698E-4,6.8290574E-3],"split_indices":[2,1,5,2,13,13,5,0,0,0,0,0,0,0,0],"split_type":[0,0,0,0,0,0,0,0,0,0,0,0,0,0,0],"sum_hessian":[4.120417E3,1.4214528E3,2.6989644E3,4.607019E2,9.607509E2,1.7826212E2,2.5207021E3,9.503269E1,3.656692E2,2.7879282E2,6.8195807E2,8.518114E1,9.308098E1,9.0914374E2,1.6115585E3],"tree_param":{"num_deleted":"0","num_feature":"15","num_nodes":"15","size_leaf_vector":"1"}},{"base_weights":[1.1686888E-3,-5.240904E-2,5.066102E-2,-7.900215E-2,-0E0,8.537159E-2,-4.8034374E-2,2.4280314E-4,-7.1212733E-3,-3.9428845E-3,5.014278E-3,-0E0,7.3103867E-3,9.848735E-4,-6.280406E-3],"categories":[],"categories_nodes":[],"categories_segments":[],"categories_sizes":[],"default_left":[0,0,0,0,0,0,0,0,0,0,0,0,0,0,0],"id":30,"left_children":[1,3,5,7,9,11,13,-1,-1,-1,-1,-1,-1,-1,-1],"loss_changes":[1.1135253E1,3.0579276E0,7.9046063E0,2.431178E0,2.4177122E0,2.2725716E0,1.6413906E0,0E0,0E0,0E0,0E0,0E0,0E0,0E0,0E0],"parents":[2147483647,0,0,1,1,2,2,3,3,4,4,5,5,6,6],"right_children":[2,4,6,8,10,12,14,-1,-1,-1,-1,-1,-1,-1,-1],"split_conditions":[2.67904E-3,1.314191E-3,1.5688006E0,5.7094137E-4,7.167742E-1,8.04903E-4,1.3237087E-1,2.4280314E-4,-7.1212733E-3,-3.9428845E-3,5.014278E-3,-0E0,7.3103867E-3,9.848735E-4,-6.280406E-3],"split_indices":[0,14,10,8,2,8,1,0,0,0,0,0,0,0,0],"split_type":[0,0,0,0,0,0,0,0,0,0,0,0,0,0,0],"sum_hessian":[4.1669277E3,1.9524717E3,2.2144558E3,1.3392266E3,6.132451E2,1.6770726E3,5.3738324E2,1.889978E2,1.1502288E3,3.1293307E2,3.00312E2,2.0748749E2,1.4695852E3,1.5680357E2,3.8057965E2],"tree_param":{"num_deleted":"0","num_feature":"15","num_nodes":"15","size_leaf_vector":"1"}},{"base_weights":[-0E0,1.1263209E-1,-3.644112E-2,1.593112E-1,-1.0819021E-2,3.3126693E-2,-7.12665E-2,2.3274664E-2,8.036266E-3,1.1178101E-2,-0E0,-0E0,-7.3544392E-3],"categories":[],"categories_nodes":[],"categories_segments":[],"categories_sizes":[],"default_left":[0,0,0,0,0,0,0,0,0,0,0,0,0],"id":31,"left_children":[1,3,5,7,-1,9,11,-1,-1,-1,-1,-1,-1],"loss_changes":[1.7563528E1,1.3205419E1,7.9453363E0,4.4926376E0,0E0,4.2894216E0,4.307933E0,0E0,0E0,0E0,0E0,0E0,0E0],"parents":[2147483647,0,0,1,1,2,2,3,3,5,5,6,6],"right_children":[2,4,6,8,-1,10,12,-1,-1,-1,-1,-1,-1],"split_conditions":[4.5063305E-1,6.044544E-3,1.0123669E-1,6.872987E-2,-1.0819021E-2,4.8744974E-1,7.65393E-1,2.3274664E-2,8.036266E-3,1.1178101E-2,-0E0,-0E0,-7.3544392E-3],"split_indices":[4,8,1,1,0,2,4,0,0,0,0,0,0],"split_type":[0,0,0,0,0,0,0,0,0,0,0,0,0],"sum_hessian":[4.1999478E3,1.033334E3,3.1666138E3,8.976912E2,1.3564279E2,1.00936774E3,2.157246E3,1.7171739E2,7.259739E2,2.1780186E2,7.9156586E2,6.3212646E2,1.5251195E3],"tree_param":{"num_deleted":"0","num_feature":"15","num_nodes":"13","size_leaf_vector":"1"}},{"base_weights":[-6.4334725E-3,-1.2800302E-1,9.856494E-3,3.4857467E-3,-1.7814094E-1,-2.251752E-2,7.2507694E-2,-3.8841176E-3,-1.9791475E-2,-1.5419962E-2,-7.595733E-4,1.1357183E-2,1.335904E-3],"categories":[],"categories_nodes":[],"categories_segments":[],"categories_sizes":[],"default_left":[0,0,0,0,0,0,0,0,0,0,0,0,0],"id":32,"left_children":[1,3,5,-1,7,9,11,-1,-1,-1,-1,-1,-1],"loss_changes":[8.779959E0,5.4084635E0,7.6194134E0,0E0,3.0769987E0,4.2324576E0,4.8198676E0,0E0,0E0,0E0,0E0,0E0,0E0],"parents":[2147483647,0,0,1,1,2,2,4,4,5,5,6,6],"right_children":[2,4,6,-1,8,10,12,-1,-1,-1,-1,-1,-1],"split_conditions":[3.152901E-1,-6.265206E-4,1.6598935E-1,3.4857467E-3,9.373347E-1,3.7386663E-2,2.1177034E-3,-3.8841176E-3,-1.9791475E-2,-1.5419962E-2,-7.595733E-4,1.1357183E-2,1.335904E-3],"split_indices":[4,13,1,0,3,1,6,0,0,0,0,0,0],"split_type":[0,0,0,0,0,0,0,0,0,0,0,0,0],"sum_hessian":[4.1097812E3,5.0701315E2,3.602768E3,9.109007E1,4.1592307E2,2.330905E3,1.2718629E3,2.0878185E2,2.0714124E2,1.0070362E2,2.2302014E3,4.594952E2,8.123677E2],"tree_param":{"num_deleted":"0","num_feature":"15","num_nodes":"13","size_leaf_vector":"1"}},{"base_weights":[1.7106958E-2,-3.9957456E-2,5.8266502E-2,2.4109129E-2,-8.8503204E-2,9.27949E-2,1.37534E-2,-3.3924074E-4,1.4458293E-2,-8.367892E-3,2.2378745E-3,-1.9271232E-3,7.7757966E-3,-3.3253566E-3,4.215523E-3],"categories":[],"categories_nodes":[],"categories_segments":[],"categories_sizes":[],"default_left":[0,0,0,0,0,0,0,0,0,0,0,0,0,0,0],"id":33,"left_children":[1,3,5,7,9,11,13,-1,-1,-1,-1,-1,-1,-1,-1],"loss_changes":[9.83161E0,5.614666E0,3.2271137E0,4.4139113E0,3.472135E0,2.4283113E0,3.061924E0,0E0,0E0,0E0,0E0,0E0,0E0,0E0,0E0],"parents":[2147483647,0,0,1,1,2,2,3,3,4,4,5,5,6,6],"right_children":[2,4,6,8,10,12,14,-1,-1,-1,-1,-1,-1,-1,-1],"split_conditions":[2.540806E-3,5.620024E-1,1.0663851E0,4.479198E-3,1.496789E-1,7.491725E-2,3.3924498E-3,-3.3924074E-4,1.4458293E-2,-8.367892E-3,2.2378745E-3,-1.9271232E-3,7.7757966E-3,-3.3253566E-3,4.215523E-3],"split_indices":[0,7,3,8,1,1,0,0,0,0,0,0,0,0,0],"split_type":[0,0,0,0,0,0,0,0,0,0,0,0,0,0,0],"sum_hessian":[4.1119507E3,1.6730112E3,2.4389397E3,6.812316E2,9.9177966E2,1.3001698E3,1.1387698E3,5.740408E2,1.0719081E2,8.543989E2,1.3738075E2,8.5914795E1,1.214255E3,4.3491666E2,7.0385315E2],"tree_param":{"num_deleted":"0","num_feature":"15","num_nodes":"15","size_leaf_vector":"1"}},{"base_weights":[4.028115E-3,9.598427E-2,-1.13622114E-1,5.0394867E-2,2.0383595E-1,-1.7571406E-1,-2.9581144E-2,1.207199E-2,6.720552E-4,1.7439475E-2,-0E0,-8.803217E-3,-1.6862433E-2,2.5699658E-3,-7.7318507E-3],"categories":[],"categories_nodes":[],"categories_segments":[],"categories_sizes":[],"default_left":[0,0,0,0,0,0,0,0,0,0,0,0,0,0,0],"id":34,"left_children":[1,3,5,7,9,11,13,-1,-1,-1,-1,-1,-1,-1,-1],"loss_changes":[4.6294838E1,1.0507423E1,8.587017E0,7.3715515E0,4.0602913E0,8.717861E-1,4.5084143E0,0E0,0E0,0E0,0E0,0E0,0E0,0E0,0E0],"parents":[2147483647,0,0,1,1,2,2,3,3,4,4,5,5,6,6],"right_children":[2,4,6,8,10,12,14,-1,-1,-1,-1,-1,-1,-1,-1],"split_conditions":[2.8670654E-3,4.9208438E-1,1.1849203E0,1.8189728E-3,4.925018E-3,3.7250835E-3,7.994422E-1,1.207199E-2,6.720552E-4,1.7439475E-2,-0E0,-8.803217E-3,-1.6862433E-2,2.5699658E-3,-7.7318507E-3],"split_indices":[0,11,7,0,6,0,2,0,0,0,0,0,0,0,0],"split_type":[0,0,0,0,0,0,0,0,0,0,0,0,0,0,0],"sum_hessian":[4.2514565E3,2.4117026E3,1.8397539E3,1.7456974E3,6.660054E2,1.01308215E3,8.2667175E2,4.1997382E2,1.3257236E3,5.6247943E2,1.0352593E2,5.6455457E2,4.4852762E2,4.1526376E2,4.11408E2],"tree_param":{"num_deleted":"0","num_feature":"15","num_nodes":"15","size_leaf_vector":"1"}},{"base_weights":[5.9610535E-3,-1.2040124E-1,3.2930158E-2,6.0988837E-3,-1.8188632E-1,5.311326E-2,-1.0307284E-1,-1.9656856E-2,-5.6427023E-3,1.7290845E-3,1.1414626E-2,-1.1346824E-2,-0E0],"categories":[],"categories_nodes":[],"categories_segments":[],"categories_sizes":[],"default_left":[0,0,0,0,0,0,0,0,0,0,0,0,0],"id":35,"left_children":[1,3,5,-1,7,9,11,-1,-1,-1,-1,-1,-1],"loss_changes":[1.3787923E1,9.523768E0,9.369863E0,0E0,2.9687424E0,8.2960415E0,2.873711E0,0E0,0E0,0E0,0E0,0E0,0E0],"parents":[2147483647,0,0,1,1,2,2,4,4,5,5,6,6],"right_children":[2,4,6,-1,8,10,12,-1,-1,-1,-1,-1,-1],"split_conditions":[1.958273E-3,7.4043304E-1,1.6930665E0,6.0988837E-3,-2.4706651E-1,3.97388E-3,1.5428434E-2,-1.9656856E-2,-5.6427023E-3,1.7290845E-3,1.1414626E-2,-1.1346824E-2,-0E0],"split_indices":[0,3,12,0,12,0,14,0,0,0,0,0,0],"split_type":[0,0,0,0,0,0,0,0,0,0,0,0,0],"sum_hessian":[4.134109E3,6.840858E2,3.450023E3,1.3886325E2,5.4522253E2,3.045259E3,4.0476398E2,2.610695E2,2.8415308E2,2.4123276E3,6.3293134E2,2.9301508E2,1.11748886E2],"tree_param":{"num_deleted":"0","num_feature":"15","num_nodes":"13","size_leaf_vector":"1"}},{"base_weights":[9.589662E-3,1.162025E-2,-4.3592867E-3,2.3655241E-2,-4.726507E-2,-1.8062307E-3,4.9980814E-3,-5.7965727E-3,-0E0],"categories":[],"categories_nodes":[],"categories_segments":[],"categories_sizes":[],"default_left":[0,0,0,0,0,0,0,0,0],"id":36,"left_children":[1,-1,3,5,7,-1,-1,-1,-1],"loss_changes":[9.384207E0,0E0,4.7037797E0,5.007021E0,2.1462052E0,0E0,0E0,0E0,0E0],"parents":[2147483647,0,0,2,2,3,3,4,4],"right_children":[2,-1,4,6,8,-1,-1,-1,-1],"split_conditions":[-1.1400166E-3,1.162025E-2,2.542307E-1,2.540806E-3,1.404539E-3,-1.8062307E-3,4.9980814E-3,-5.7965727E-3,-0E0],"split_indices":[13,0,11,0,6,0,0,0,0],"split_type":[0,0,0,0,0,0,0,0,0],"sum_hessian":[4.154431E3,3.7244644E2,3.7819846E3,2.223258E3,1.5587264E3,1.01356396E3,1.2096941E3,8.990438E2,6.596826E2],"tree_param":{"num_deleted":"0","num_feature":"15","num_nodes":"9","size_leaf_vector":"1"}},{"base_weights":[1.5540624E-3,-4.691587E-2,6.692435E-2,1.9512983E-2,-8.4607854E-2,9.985621E-2,-2.852479E-2,5.039413E-3,-8.377101E-3,-1.2076574E-2,-2.5615112E-3,8.404312E-3,-1.7362469E-3,-0E0,-6.8492815E-3],"categories":[],"categories_nodes":[],"categories_segments":[],"categories_sizes":[],"default_left":[0,0,0,0,0,0,0,0,0,0,0,0,0,0,0],"id":37,"left_children":[1,3,5,7,9,11,13,-1,-1,-1,-1,-1,-1,-1,-1],"loss_changes":[1.3703443E1,6.4164624E0,6.2851686E0,5.4035554E0,5.222637E0,2.996809E0,1.104191E0,0E0,0E0,0E0,0E0,0E0,0E0,0E0,0E0],"parents":[2147483647,0,0,1,1,2,2,3,3,4,4,5,5,6,6],"right_children":[2,4,6,8,10,12,14,-1,-1,-1,-1,-1,-1,-1,-1],"split_conditions":[1.08809E0,4.3329233E-1,5.1227594E-3,4.6312944E-3,6.840305E-3,2.3865259E0,1.7590137E0,5.039413E-3,-8.377101E-3,-1.2076574E-2,-2.5615112E-3,8.404312E-3,-1.7362469E-3,-0E0,-6.8492815E-3],"split_indices":[7,10,8,8,11,10,7,0,0,0,0,0,0,0,0],"split_type":[0,0,0,0,0,0,0,0,0,0,0,0,0,0,0],"sum_hessian":[4.2582754E3,2.4047358E3,1.8535397E3,8.2620667E2,1.5785292E3,1.4159255E3,4.3761423E2,6.3793146E2,1.882752E2,5.558602E2,1.02266895E3,1.3074523E3,1.0847318E2,2.8456613E2,1.530481E2],"tree_param":{"num_deleted":"0","num_feature":"15","num_nodes":"15","size_leaf_vector":"1"}},{"base_weights":[1.3368303E-2,-1.0535734E-1,3.7085578E-2,3.4003144E-3,-1.6577324E-1,-9.000464E-2,5.1648382E-2,-1.7476171E-2,-5.328219E-3,-1.2853763E-2,-0E0,1.3816259E-3,9.244738E-3],"categories":[],"categories_nodes":[],"categories_segments":[],"categories_sizes":[],"default_left":[0,0,0,0,0,0,0,0,0,0,0,0,0],"id":38,"left_children":[1,3,5,-1,7,9,11,-1,-1,-1,-1,-1,-1],"loss_changes":[1.14553585E1,6.7960434E0,6.404151E0,0E0,1.5082693E0,2.4239447E0,7.0183907E0,0E0,0E0,0E0,0E0,0E0,0E0],"parents":[2147483647,0,0,1,1,2,2,4,4,5,5,6,6],"right_children":[2,4,6,-1,8,10,12,-1,-1,-1,-1,-1,-1],"split_conditions":[1.9263198E-3,7.4874055E-1,-1.2228315E-3,3.4003144E-3,1.6576594E-3,3.3363465E-3,3.5140305E-3,-1.7476171E-2,-5.328219E-3,-1.2853763E-2,-0E0,1.3816259E-3,9.244738E-3],"split_indices":[0,3,13,0,0,8,0,0,0,0,0,0,0],"split_type":[0,0,0,0,0,0,0,0,0,0,0,0,0],"sum_hessian":[4.1453726E3,6.453501E2,3.5000227E3,1.619011E2,4.83449E2,3.1548294E2,3.1845396E3,2.2884003E2,2.5460898E2,1.5074619E2,1.6473676E2,2.2637446E3,9.207949E2],"tree_param":{"num_deleted":"0","num_feature":"15","num_nodes":"13","size_leaf_vector":"1"}},{"base_weights":[-2.3538293E-3,4.4508874E-2,-4.6991974E-2,-0E0,8.6541966E-2,-1.3428469E-1,-8.14158E-3,-9.254953E-3,1.882304E-3,-1.22024845E-4,8.413889E-3,-1.3270461E-2,-0E0,4.1862065E-3,-3.0095293E-3],"categories":[],"categories_nodes":[],"categories_segments":[],"categories_sizes":[],"default_left":[0,0,0,0,0,0,0,0,0,0,0,0,0,0,0],"id":39,"left_children":[1,3,5,7,9,11,13,-1,-1,-1,-1,-1,-1,-1,-1],"loss_changes":[8.8010025E0,4.1299353E0,6.7561526E0,3.5094569E0,3.1850872E0,3.29523E0,3.3237822E0,0E0,0E0,0E0,0E0,0E0,0E0,0E0,0E0],"parents":[2147483647,0,0,1,1,2,2,3,3,4,4,5,5,6,6],"right_children":[2,4,6,8,10,12,14,-1,-1,-1,-1,-1,-1,-1,-1],"split_conditions":[8.4051204E-1,2.5156476E-3,2.635135E-3,4.288694E-1,-1.2439928E0,3.6260453E-3,8.981868E-1,-9.254953E-3,1.882304E-3,-1.22024845E-4,8.413889E-3,-1.3270461E-2,-0E0,4.1862065E-3,-3.0095293E-3],"split_indices":[10,8,5,4,12,8,7,0,0,0,0,0,0,0,0],"split_type":[0,0,0,0,0,0,0,0,0,0,0,0,0,0,0],"sum_hessian":[4.165781E3,1.9783136E3,2.187467E3,9.167005E2,1.0616132E3,6.210955E2,1.5663716E3,1.7339462E2,7.4330585E2,2.1428796E2,8.473252E2,4.3945267E2,1.8164287E2,4.694756E2,1.096896E3],"tree_param":{"num_deleted":"0","num_feature":"15","num_nodes":"15","size_leaf_vector":"1"}},{"base_weights":[-1.9291298E-3,1.1450203E-1,-5.208793E-2,-1.1405484E-2,1.4080171E-1,-1.0118703E-1,1.1172974E-2,1.7837014E-2,4.7040535E-3,-3.172403E-3,-1.4853303E-2,6.595508E-3,-6.082114E-3],"categories":[],"categories_nodes":[],"categories_segments":[],"categories_sizes":[],"default_left":[0,0,0,0,0,0,0,0,0,0,0,0,0],"id":40,"left_children":[1,3,5,-1,7,9,11,-1,-1,-1,-1,-1,-1],"loss_changes":[2.4590433E1,9.198679E0,9.810438E0,0E0,7.315687E0,8.785395E0,9.603852E0,0E0,0E0,0E0,0E0,0E0,0E0],"parents":[2147483647,0,0,1,1,2,2,4,4,5,5,6,6],"right_children":[2,4,6,-1,8,10,12,-1,-1,-1,-1,-1,-1],"split_conditions":[9.337269E-2,6.885617E-1,2.714428E-1,-1.1405484E-2,6.4771694E-1,1.8371232E-1,4.3329513E-3,1.7837014E-2,4.7040535E-3,-3.172403E-3,-1.4853303E-2,6.595508E-3,-6.082114E-3],"split_indices":[1,3,11,0,4,1,5,0,0,0,0,0,0],"split_type":[0,0,0,0,0,0,0,0,0,0,0,0,0],"sum_hessian":[4.2274346E3,1.2363269E3,2.9911077E3,8.558349E1,1.1507434E3,1.721987E3,1.2691205E3,4.5315564E2,6.9758777E2,1.1372207E3,5.8476636E2,7.204702E2,5.486503E2],"tree_param":{"num_deleted":"0","num_feature":"15","num_nodes":"13","size_leaf_vector":"1"}},{"base_weights":[1.753203E-2,-3.0515332E-2,1.0003373E-1,-1.5795861E-1,-5.227929E-3,-3.89295E-3,1.22086264E-1,-0E0,-1.4935804E-2,7.5630785E-4,-1.1340822E-2,-6.9317888E-3,1.7961449E-3,1.0499958E-2,-0E0],"categories":[],"categories_nodes":[],"categories_segments":[],"categories_sizes":[],"default_left":[0,0,0,0,0,0,0,0,0,0,0,0,0,0,0],"id":41,"left_children":[1,3,5,7,9,11,13,-1,-1,-1,-1,-1,-1,-1,-1],"loss_changes":[1.6901361E1,7.580929E0,4.200095E0,2.4355097E0,5.8600287E0,1.0307393E0,3.0043354E0,0E0,0E0,0E0,0E0,0E0,0E0,0E0,0E0],"parents":[2147483647,0,0,1,1,2,2,3,3,4,4,5,5,6,6],"right_children":[2,4,6,8,10,12,14,-1,-1,-1,-1,-1,-1,-1,-1],"split_conditions":[3.1157127E-3,1.7062604E-3,-1.1651315E-3,3.3810306E-1,1.852335E0,2.6995128E-3,1.5502576E0,-0E0,-1.4935804E-2,7.5630785E-4,-1.1340822E-2,-6.9317888E-3,1.7961449E-3,1.0499958E-2,-0E0],"split_indices":[0,0,13,4,12,8,12,0,0,0,0,0,0,0,0],"split_type":[0,0,0,0,0,0,0,0,0,0,0,0,0,0,0],"sum_hessian":[4.145612E3,2.589127E3,1.5564849E3,3.8088086E2,2.208246E3,2.3583377E2,1.3206511E3,9.698959E1,2.8389127E2,1.9847545E3,2.2349164E2,8.810233E1,1.4773143E2,1.113772E3,2.0687921E2],"tree_param":{"num_deleted":"0","num_feature":"15","num_nodes":"15","size_leaf_vector":"1"}},{"base_weights":[-6.953984E-4,-4.8399504E-2,4.935739E-2,1.6953811E-2,-9.3882374E-2,7.900024E-2,-4.1605007E-2,7.5244773E-3,-2.5176825E-3,-9.666863E-3,-0E0,-0E0,6.4159986E-3,-7.93233E-3,3.260694E-3],"categories":[],"categories_nodes":[],"categories_segments":[],"categories_sizes":[],"default_left":[0,0,0,0,0,0,0,0,0,0,0,0,0,0,0],"id":42,"left_children":[1,3,5,7,9,11,13,-1,-1,-1,-1,-1,-1,-1,-1],"loss_changes":[9.9806E0,6.9225893E0,5.609919E0,4.181001E0,4.618269E0,1.2193584E0,3.0028005E0,0E0,0E0,0E0,0E0,0E0,0E0,0E0,0E0],"parents":[2147483647,0,0,1,1,2,2,3,3,4,4,5,5,6,6],"right_children":[2,4,6,8,10,12,14,-1,-1,-1,-1,-1,-1,-1,-1],"split_conditions":[2.829282E-3,5.722037E-1,1.607884E0,8.5702866E-1,1.3358358E-1,2.881799E-1,4.090424E-3,7.5244773E-3,-2.5176825E-3,-9.666863E-3,-0E0,-0E0,6.4159986E-3,-7.93233E-3,3.260694E-3],"split_indices":[0,7,10,3,1,10,0,0,0,0,0,0,0,0,0],"split_type":[0,0,0,0,0,0,0,0,0,0,0,0,0,0,0],"sum_hessian":[4.1463237E3,2.1737815E3,1.972542E3,8.5207E2,1.3217115E3,1.5304292E3,4.4211276E2,3.492615E2,5.0280853E2,9.374586E2,3.842529E2,1.1149787E2,1.4189313E3,2.7991525E2,1.6219754E2],"tree_param":{"num_deleted":"0","num_feature":"15","num_nodes":"15","size_leaf_vector":"1"}},{"base_weights":[9.003717E-3,7.41259E-2,-7.336563E-2,-1.3980906E-1,1.0648516E-1,-5.019661E-3,-1.3196573E-1,-0E0,-1.4523442E-2,-6.9005473E-4,1.1050452E-2,3.8346376E-3,-7.008228E-3,-1.11903E-2,-2.0455278E-3],"categories":[],"categories_nodes":[],"categories_segments":[],"categories_sizes":[],"default_left":[0,0,0,0,0,0,0,0,0,0,0,0,0,0,0],"id":43,"left_children":[1,3,5,7,9,11,13,-1,-1,-1,-1,-1,-1,-1,-1],"loss_changes":[2.267133E1,1.6661476E1,6.65446E0,1.7427855E0,1.1319542E1,4.9415607E0,9.9596596E-1,0E0,0E0,0E0,0E0,0E0,0E0,0E0,0E0],"parents":[2147483647,0,0,1,1,2,2,3,3,4,4,5,5,6,6],"right_children":[2,4,6,8,10,12,14,-1,-1,-1,-1,-1,-1,-1,-1],"split_conditions":[1.4193611E-1,7.564373E-1,8.45754E-1,4.0684608E-1,-6.979171E-4,2.0278203E-1,1.0790472E-3,-0E0,-1.4523442E-2,-6.9005473E-4,1.1050452E-2,3.8346376E-3,-7.008228E-3,-1.11903E-2,-2.0455278E-3],"split_indices":[1,3,4,10,13,1,13,0,0,0,0,0,0,0,0],"split_type":[0,0,0,0,0,0,0,0,0,0,0,0,0,0,0],"sum_hessian":[4.189955E3,2.3744297E3,1.8155251E3,2.841471E2,2.0902827E3,8.858917E2,9.296335E2,1.0496825E2,1.7917883E2,5.425501E2,1.5477325E3,5.133886E2,3.7250314E2,7.3442975E2,1.952037E2],"tree_param":{"num_deleted":"0","num_feature":"15","num_nodes":"15","size_leaf_vector":"1"}},{"base_weights":[-6.0071703E-3,-8.356128E-2,1.7179199E-2,5.6450777E-3,-1.0926745E-1,-3.5685305E-2,4.7179848E-2,2.8306192E-3,-9.696345E-3,-8.4660845E-3,6.4813066E-5,5.254152E-3,-5.789266E-4],"categories":[],"categories_nodes":[],"categories_segments":[],"categories_sizes":[],"default_left":[0,0,0,0,0,0,0,0,0,0,0,0,0],"id":44,"left_children":[1,3,5,-1,7,9,11,-1,-1,-1,-1,-1,-1],"loss_changes":[7.8144603E0,4.455791E0,5.0983953E0,0E0,3.5131273E0,3.732429E0,3.0848193E0,0E0,0E0,0E0,0E0,0E0,0E0],"parents":[2147483647,0,0,1,1,2,2,4,4,5,5,6,6],"right_children":[2,4,6,-1,8,10,12,-1,-1,-1,-1,-1,-1],"split_conditions":[4.551984E-1,7.445153E-1,1.795977E-3,5.6450777E-3,-8.622395E-3,-2.5047832E-3,4.2790356E-3,2.8306192E-3,-9.696345E-3,-8.4660845E-3,6.4813066E-5,5.254152E-3,-5.789266E-4],"split_indices":[4,3,5,0,6,6,6,0,0,0,0,0,0],"split_type":[0,0,0,0,0,0,0,0,0,0,0,0,0],"sum_hessian":[4.131417E3,9.8922614E2,3.1421907E3,1.0539097E2,8.838352E2,1.0767963E3,2.0653945E3,8.502228E1,7.988129E2,3.7087476E2,7.059215E2,1.4953153E3,5.700792E2],"tree_param":{"num_deleted":"0","num_feature":"15","num_nodes":"13","size_leaf_vector":"1"}},{"base_weights":[1.0899656E-2,5.9651297E-2,-4.098614E-2,-2.2514758E-3,8.458625E-2,-8.2346484E-2,3.1085784E-2,9.461046E-3,-3.1087138E-3,1.2177003E-3,8.947255E-3,-7.3674098E-3,-0E0,-1.7734505E-3,6.454852E-3],"categories":[],"categories_nodes":[],"categories_segments":[],"categories_sizes":[],"default_left":[0,0,0,0,0,0,0,0,0,0,0,0,0,0,0],"id":45,"left_children":[1,3,5,7,9,11,13,-1,-1,-1,-1,-1,-1,-1,-1],"loss_changes":[1.0715949E1,3.825489E0,6.223914E0,2.7769077E0,3.3759289E0,2.0295467E0,2.5126019E0,0E0,0E0,0E0,0E0,0E0,0E0,0E0,0E0],"parents":[2147483647,0,0,1,1,2,2,3,3,4,4,5,5,6,6],"right_children":[2,4,6,8,10,12,14,-1,-1,-1,-1,-1,-1,-1,-1],"split_conditions":[9.8920614E-1,9.058431E-2,9.8537284E-1,8.2658336E-4,2.2478998E-3,1.0049534E-2,1.3175091E-1,9.461046E-3,-3.1087138E-3,1.2177003E-3,8.947255E-3,-7.3674098E-3,-0E0,-1.7734505E-3,6.454852E-3],"split_indices":[10,1,4,8,8,14,1,0,0,0,0,0,0,0,0],"split_type":[0,0,0,0,0,0,0,0,0,0,0,0,0,0,0],"sum_hessian":[4.1649077E3,2.1949976E3,1.9699103E3,5.7807184E2,1.6169258E3,1.2935465E3,6.763637E2,9.7139725E1,4.8093213E2,6.2332623E2,9.9359955E2,1.0758021E3,2.1774435E2,3.0314026E2,3.7322345E2],"tree_param":{"num_deleted":"0","num_feature":"15","num_nodes":"15","size_leaf_vector":"1"}},{"base_weights":[1.8680435E-2,1.1004223E-1,-7.583522E-2,1.8217359E-2,1.9692214E-1,-1.4852361E-1,-0E0,4.7249654E-3,-8.964308E-3,7.121655E-3,1.8512357E-2,-1.3472751E-2,-3.4005477E-3,7.5636003E-3,-3.1514908E-3],"categories":[],"categories_nodes":[],"categories_segments":[],"categories_sizes":[],"default_left":[0,0,0,0,0,0,0,0,0,0,0,0,0,0,0],"id":46,"left_children":[1,3,5,7,9,11,13,-1,-1,-1,-1,-1,-1,-1,-1],"loss_changes":[3.696945E1,1.6361822E1,1.0960894E1,6.9931817E0,3.8142052E0,2.3527355E0,4.507733E0,0E0,0E0,0E0,0E0,0E0,0E0,0E0,0E0],"parents":[2147483647,0,0,1,1,2,2,3,3,4,4,5,5,6,6],"right_children":[2,4,6,8,10,12,14,-1,-1,-1,-1,-1,-1,-1,-1],"split_conditions":[2.725085E-3,9.308012E-1,1.0737832E0,4.047155E-3,7.690562E-1,2.783461E-1,3.1302457E-3,4.7249654E-3,-8.964308E-3,7.121655E-3,1.8512357E-2,-1.3472751E-2,-3.4005477E-3,7.5636003E-3,-3.1514908E-3],"split_indices":[0,3,7,8,7,11,0,0,0,0,0,0,0,0,0],"split_type":[0,0,0,0,0,0,0,0,0,0,0,0,0,0,0],"sum_hessian":[4.226715E3,2.174292E3,2.0524226E3,1.0951659E3,1.0791261E3,1.01879816E3,1.0336244E3,8.584577E2,2.367082E2,4.2779086E2,6.5133527E2,7.169613E2,3.018369E2,2.7578604E2,7.578384E2],"tree_param":{"num_deleted":"0","num_feature":"15","num_nodes":"15","size_leaf_vector":"1"}},{"base_weights":[-0E0,-4.008645E-2,1.2896995E-1,1.1858326E-1,-5.924821E-2,1.560961E-1,-0E0,-7.707995E-4,1.6225643E-2,-1.9268325E-2,-2.577707E-3,5.5998336E-3,1.6319744E-2,-3.810078E-3,6.3735386E-3],"categories":[],"categories_nodes":[],"categories_segments":[],"categories_sizes":[],"default_left":[0,0,0,0,0,0,0,0,0,0,0,0,0,0,0],"id":47,"left_children":[1,3,5,7,9,11,13,-1,-1,-1,-1,-1,-1,-1,-1],"loss_changes":[2.118425E1,9.550331E0,2.7289677E0,5.3014097E0,1.2566002E1,2.2633686E0,1.170762E0,0E0,0E0,0E0,0E0,0E0,0E0,0E0,0E0],"parents":[2147483647,0,0,1,1,2,2,3,3,4,4,5,5,6,6],"right_children":[2,4,6,8,10,12,14,-1,-1,-1,-1,-1,-1,-1,-1],"split_conditions":[3.6833445E-3,7.5242287E-1,8.398968E-3,4.41549E-1,1.7062604E-3,1.141861E0,1.3429505E-2,-7.707995E-4,1.6225643E-2,-1.9268325E-2,-2.577707E-3,5.5998336E-3,1.6319744E-2,-3.810078E-3,6.3735386E-3],"split_indices":[0,3,6,10,0,3,14,0,0,0,0,0,0,0,0],"split_type":[0,0,0,0,0,0,0,0,0,0,0,0,0,0,0],"sum_hessian":[4.1255615E3,3.1785576E3,9.4700366E2,3.0477582E2,2.873782E3,7.528123E2,1.9419138E2,1.1980591E2,1.8496991E2,2.6778156E2,2.6060002E3,3.89175E2,3.636373E2,9.604196E1,9.814942E1],"tree_param":{"num_deleted":"0","num_feature":"15","num_nodes":"15","size_leaf_vector":"1"}},{"base_weights":[9.473852E-3,2.9353067E-2,-7.119147E-2,1.421766E-2,1.03348136E-1,-1.2811877E-1,4.6470627E-2,-2.6637325E-3,2.154815E-3,1.0205932E-2,-0E0,-1.8499588E-3,-1.4954019E-2,1.3334231E-2,-4.4771857E-3],"categories":[],"categories_nodes":[],"categories_segments":[],"categories_sizes":[],"default_left":[0,0,0,0,0,0,0,0,0,0,0,0,0,0,0],"id":48,"left_children":[1,3,5,7,9,11,13,-1,-1,-1,-1,-1,-1,-1,-1],"loss_changes":[6.4889474E0,3.193273E0,5.713956E0,2.1711407E0,1.6770926E0,3.0695915E0,4.220058E0,0E0,0E0,0E0,0E0,0E0,0E0,0E0,0E0],"parents":[2147483647,0,0,1,1,2,2,3,3,4,4,5,5,6,6],"right_children":[2,4,6,8,10,12,14,-1,-1,-1,-1,-1,-1,-1,-1],"split_conditions":[6.265017E-1,4.0809726E-3,5.6870636E-3,1.0782074E-3,1.5222421E0,1.012706E0,1.8021157E-5,-2.6637325E-3,2.154815E-3,1.0205932E-2,-0E0,-1.8499588E-3,-1.4954019E-2,1.3334231E-2,-4.4771857E-3],"split_indices":[11,5,5,8,10,3,13,0,0,0,0,0,0,0,0],"split_type":[0,0,0,0,0,0,0,0,0,0,0,0,0,0,0],"sum_hessian":[4.1343965E3,3.3751587E3,7.592377E2,2.8750383E3,5.001203E2,5.3889264E2,2.20345E2,5.789988E2,2.2960396E3,3.583492E2,1.4177109E2,2.643227E2,2.7456995E2,1.1277684E2,1.0756816E2],"tree_param":{"num_deleted":"0","num_feature":"15","num_nodes":"15","size_leaf_vector":"1"}},{"base_weights":[6.970696E-3,7.459817E-2,-4.0696234E-2,-1.1637531E-2,9.218973E-2,8.289828E-4,-1.188206E-1,2.3047114E-2,5.1167123E-3,3.2301834E-3,-8.659665E-3,-0E0,-1.1287271E-2],"categories":[],"categories_nodes":[],"categories_segments":[],"categories_sizes":[],"default_left":[0,0,0,0,0,0,0,0,0,0,0,0,0],"id":49,"left_children":[1,3,5,-1,7,9,11,-1,-1,-1,-1,-1,-1],"loss_changes":[1.393862E1,7.3298025E0,8.580044E0,0E0,6.326454E0,7.7912307E0,2.9985304E0,0E0,0E0,0E0,0E0,0E0,0E0],"parents":[2147483647,0,0,1,1,2,2,4,4,5,5,6,6],"right_children":[2,4,6,-1,8,10,12,-1,-1,-1,-1,-1,-1],"split_conditions":[7.021081E-1,1.3539985E-1,6.8957984E-1,-1.1637531E-2,4.9345866E-2,1.7550583E-1,9.540408E-3,2.3047114E-2,5.1167123E-3,3.2301834E-3,-8.659665E-3,-0E0,-1.1287271E-2],"split_indices":[2,4,10,0,1,1,9,0,0,0,0,0,0],"split_type":[0,0,0,0,0,0,0,0,0,0,0,0,0],"sum_hessian":[4.237433E3,1.7905769E3,2.446856E3,9.623722E1,1.6943397E3,1.5678937E3,8.7896234E2,1.17205635E2,1.577134E3,1.1888326E3,3.7906097E2,2.2873787E2,6.502245E2],"tree_param":{"num_deleted":"0","num_feature":"15","num_nodes":"13","size_leaf_vector":"1"}},{"base_weights":[-4.373966E-3,-9.6593566E-2,2.3312092E-2,-0E0,-1.217005E-1,1.2125559E-3,9.062783E-2,-4.6193064E-3,2.4843614E-3,-1.7770002E-2,-4.423672E-3,2.3264063E-3,-3.17122E-3,9.257254E-3,-5.251788E-3],"categories":[],"categories_nodes":[],"categories_segments":[],"categories_sizes":[],"default_left":[0,0,0,0,0,0,0,0,0,0,0,0,0,0,0],"id":50,"left_children":[1,3,5,7,9,11,13,-1,-1,-1,-1,-1,-1,-1,-1],"loss_changes":[1.098585E1,2.085473E0,4.2475624E0,6.425094E-1,3.9392757E0,3.2600195E0,4.5330114E0,0E0,0E0,0E0,0E0,0E0,0E0,0E0,0E0],"parents":[2147483647,0,0,1,1,2,2,3,3,4,4,5,5,6,6],"right_children":[2,4,6,8,10,12,14,-1,-1,-1,-1,-1,-1,-1,-1],"split_conditions":[2.14817E-3,5.532542E-3,3.995711E-3,-5.9803197E-4,1.6729485E-3,1.2193106E0,1.1820702E-2,-4.6193064E-3,2.4843614E-3,-1.7770002E-2,-4.423672E-3,2.3264063E-3,-3.17122E-3,9.257254E-3,-5.251788E-3],"split_indices":[0,9,0,6,0,10,6,0,0,0,0,0,0,0,0],"split_type":[0,0,0,0,0,0,0,0,0,0,0,0,0,0,0],"sum_hessian":[4.127551E3,9.839922E2,3.1435586E3,2.2990218E2,7.5408997E2,2.4354775E3,7.080811E2,1.04391754E2,1.2551042E2,2.1207625E2,5.4201373E2,1.5137076E3,9.217699E2,6.107405E2,9.734064E1],"tree_param":{"num_deleted":"0","num_feature":"15","num_nodes":"15","size_leaf_vector":"1"}},{"base_weights":[-1.4789131E-2,-6.720059E-2,1.9543635E-2,2.4280172E-2,-9.070026E-2,7.363459E-2,-2.7683394E-2,-1.5631176E-3,4.677422E-3,-0E0,-8.316414E-3,-6.276648E-3,7.943341E-3,6.693281E-3,-3.60507E-3],"categories":[],"categories_nodes":[],"categories_segments":[],"categories_sizes":[],"default_left":[0,0,0,0,0,0,0,0,0,0,0,0,0,0,0],"id":51,"left_children":[1,3,5,7,9,11,13,-1,-1,-1,-1,-1,-1,-1,-1],"loss_changes":[7.6457877E0,3.99116E0,6.4893684E0,7.948143E-1,3.1285858E0,6.7184095E0,3.0530536E0,0E0,0E0,0E0,0E0,0E0,0E0,0E0,0E0],"parents":[2147483647,0,0,1,1,2,2,3,3,4,4,5,5,6,6],"right_children":[2,4,6,8,10,12,14,-1,-1,-1,-1,-1,-1,-1,-1],"split_conditions":[2.540806E-3,7.7542317E-1,9.5017374E-1,-2.9106613E-3,5.90043E-3,-8.766372E-3,-1.876287E0,-1.5631176E-3,4.677422E-3,-0E0,-8.316414E-3,-6.276648E-3,7.943341E-3,6.693281E-3,-3.60507E-3],"split_indices":[0,3,10,6,9,6,12,0,0,0,0,0,0,0,0],"split_type":[0,0,0,0,0,0,0,0,0,0,0,0,0,0,0],"sum_hessian":[4.0874297E3,1.6679512E3,2.4194785E3,2.9783105E2,1.3701201E3,1.1718768E3,1.2476017E3,8.325124E1,2.145798E2,2.4483032E2,1.1252898E3,1.769382E2,9.9493866E2,1.4527855E2,1.1023231E3],"tree_param":{"num_deleted":"0","num_feature":"15","num_nodes":"15","size_leaf_vector":"1"}},{"base_weights":[-2.6079477E-3,1.4256325E-1,-2.98689E-2,-2.1373136E-3,1.7702495E-1,-6.675451E-2,2.814895E-2,1.5277243E-2,-0E0,-2.4150338E-3,-1.1330014E-2,1.6117766E-2,-0E0],"categories":[],"categories_nodes":[],"categories_segments":[],"categories_sizes":[],"default_left":[0,0,0,0,0,0,0,0,0,0,0,0,0],"id":52,"left_children":[1,3,5,-1,7,9,11,-1,-1,-1,-1,-1,-1],"loss_changes":[1.6475597E1,4.6759615E0,8.036351E0,0E0,2.7727184E0,5.7544746E0,6.572042E0,0E0,0E0,0E0,0E0,0E0,0E0],"parents":[2147483647,0,0,1,1,2,2,4,4,5,5,6,6],"right_children":[2,4,6,-1,8,10,12,-1,-1,-1,-1,-1,-1],"split_conditions":[6.8045706E-2,7.316353E-1,3.543686E-1,-2.1373136E-3,5.244829E-3,1.9076902E-1,2.1506993E-3,1.5277243E-2,-0E0,-2.4150338E-3,-1.1330014E-2,1.6117766E-2,-0E0],"split_indices":[1,3,11,0,8,1,5,0,0,0,0,0,0],"split_type":[0,0,0,0,0,0,0,0,0,0,0,0,0],"sum_hessian":[4.266765E3,6.34019E2,3.632746E3,8.256205E1,5.514569E2,2.2712153E3,1.3615308E3,4.621848E2,8.927212E1,1.6911646E3,5.8005066E2,1.4255472E2,1.2189761E3],"tree_param":{"num_deleted":"0","num_feature":"15","num_nodes":"13","size_leaf_vector":"1"}},{"base_weights":[-1.2421317E-4,-9.100834E-2,3.379954E-2,-2.7218463E-3,-2.1624121E-1,5.7546522E-2,-4.950276E-2,-8.016162E-3,1.3360201E-3,-2.5259549E-2,-5.3845574E-3,2.1956584E-3,9.700264E-3,-6.1208224E-3,6.204551E-3],"categories":[],"categories_nodes":[],"categories_segments":[],"categories_sizes":[],"default_left":[0,0,0,0,0,0,0,0,0,0,0,0,0,0,0],"id":53,"left_children":[1,3,5,7,9,11,13,-1,-1,-1,-1,-1,-1,-1,-1],"loss_changes":[1.3131589E1,1.187006E1,6.0156116E0,2.092849E0,5.8527145E0,4.0359635E0,2.932247E0,0E0,0E0,0E0,0E0,0E0,0E0,0E0,0E0],"parents":[2147483647,0,0,1,1,2,2,3,3,4,4,5,5,6,6],"right_children":[2,4,6,8,10,12,14,-1,-1,-1,-1,-1,-1,-1,-1],"split_conditions":[2.258394E-3,9.292058E-1,1.1569642E0,3.113559E-1,7.334538E-1,3.97388E-3,2.7967396E0,-8.016162E-3,1.3360201E-3,-2.5259549E-2,-5.3845574E-3,2.1956584E-3,9.700264E-3,-6.1208224E-3,6.204551E-3],"split_indices":[0,3,12,10,2,0,12,0,0,0,0,0,0,0,0],"split_type":[0,0,0,0,0,0,0,0,0,0,0,0,0,0,0],"sum_hessian":[4.13198E3,1.1545219E3,2.9774583E3,7.1094354E2,4.4357834E2,2.3673713E3,6.100869E2,1.4340283E2,5.675407E2,2.0413383E2,2.394445E2,1.7883589E3,5.790125E2,5.226857E2,8.740117E1],"tree_param":{"num_deleted":"0","num_feature":"15","num_nodes":"15","size_leaf_vector":"1"}},{"base_weights":[-1.9640578E-3,-4.2443905E-2,3.5956044E-2,-9.276706E-2,-0E0,2.0872004E-2,1.2583119E-1,-8.448103E-3,-0E0,9.30685E-3,-1.6596213E-3,3.3804346E-3,-4.6961964E-3,-0E0,1.2480225E-2],"categories":[],"categories_nodes":[],"categories_segments":[],"categories_sizes":[],"default_left":[0,0,0,0,0,0,0,0,0,0,0,0,0,0,0],"id":54,"left_children":[1,3,5,7,9,11,13,-1,-1,-1,-1,-1,-1,-1,-1],"loss_changes":[6.4466577E0,4.0221434E0,2.0692766E0,2.2007418E0,2.9759412E0,3.8988667E0,7.7355623E-1,0E0,0E0,0E0,0E0,0E0,0E0,0E0,0E0],"parents":[2147483647,0,0,1,1,2,2,3,3,4,4,5,5,6,6],"right_children":[2,4,6,8,10,12,14,-1,-1,-1,-1,-1,-1,-1,-1],"split_conditions":[1.3299039E-1,7.288534E-1,2.530273E-2,1.9120018E0,5.453661E-3,7.7631664E-3,3.206846E-3,-8.448103E-3,-0E0,9.30685E-3,-1.6596213E-3,3.3804346E-3,-4.6961964E-3,-0E0,1.2480225E-2],"split_indices":[1,4,9,7,9,6,5,0,0,0,0,0,0,0,0],"split_type":[0,0,0,0,0,0,0,0,0,0,0,0,0,0,0],"sum_hessian":[4.143397E3,2.0660105E3,2.0773865E3,8.857903E2,1.1802203E3,1.8446705E3,2.3271587E2,7.419492E2,1.4384105E2,1.3512569E2,1.0450946E3,1.4753971E3,3.6927344E2,8.51167E1,1.4759917E2],"tree_param":{"num_deleted":"0","num_feature":"15","num_nodes":"15","size_leaf_vector":"1"}},{"base_weights":[-1.3983665E-2,2.9585367E-2,-7.726951E-2,-4.152373E-2,6.513196E-2,-1.0766573E-1,2.9875288E-2,1.5759316E-3,-7.652053E-3,1.0108375E-2,1.5958573E-3,9.881711E-4,-9.650553E-3,-6.298703E-3,7.0076343E-3],"categories":[],"categories_nodes":[],"categories_segments":[],"categories_sizes":[],"default_left":[0,0,0,0,0,0,0,0,0,0,0,0,0,0,0],"id":55,"left_children":[1,3,5,7,9,11,13,-1,-1,-1,-1,-1,-1,-1,-1],"loss_changes":[1.1908439E1,6.3960934E0,6.2100773E0,3.525959E0,4.474625E0,4.6053734E0,2.9691741E0,0E0,0E0,0E0,0E0,0E0,0E0,0E0,0E0],"parents":[2147483647,0,0,1,1,2,2,3,3,4,4,5,5,6,6],"right_children":[2,4,6,8,10,12,14,-1,-1,-1,-1,-1,-1,-1,-1],"split_conditions":[1.4277168E-1,-5.11351E-3,6.326368E-1,7.272377E-2,5.297605E-1,1.428184E-3,1.0644814E-2,1.5759316E-3,-7.652053E-3,1.0108375E-2,1.5958573E-3,9.881711E-4,-9.650553E-3,-6.298703E-3,7.0076343E-3],"split_indices":[1,6,11,1,4,5,9,0,0,0,0,0,0,0,0],"split_type":[0,0,0,0,0,0,0,0,0,0,0,0,0,0,0],"sum_hessian":[4.200911E3,2.4474377E3,1.7534733E3,7.683978E2,1.6790399E3,1.4017921E3,3.5168124E2,3.4864056E2,4.197573E2,5.751278E2,1.1039121E3,1.9273083E2,1.2090613E3,9.764313E1,2.540381E2],"tree_param":{"num_deleted":"0","num_feature":"15","num_nodes":"15","size_leaf_vector":"1"}},{"base_weights":[3.8604294E-3,-3.3142228E-2,4.640283E-2,-7.060214E-2,-0E0,-2.793915E-2,8.946685E-2,-7.9799285E-3,-0E0,1.4846225E-3,-6.8716267E-3,2.5913168E-3,-7.905833E-3,-4.974028E-3,8.054349E-3],"categories":[],"categories_nodes":[],"categories_segments":[],"categories_sizes":[],"default_left":[0,0,0,0,0,0,0,0,0,0,0,0,0,0,0],"id":56,"left_children":[1,3,5,7,9,11,13,-1,-1,-1,-1,-1,-1,-1,-1],"loss_changes":[6.555259E0,2.4322824E0,6.684535E0,2.7565508E0,2.525746E0,3.912371E0,4.372633E0,0E0,0E0,0E0,0E0,0E0,0E0,0E0,0E0],"parents":[2147483647,0,0,1,1,2,2,3,3,4,4,5,5,6,6],"right_children":[2,4,6,8,10,12,14,-1,-1,-1,-1,-1,-1,-1,-1],"split_conditions":[9.4634515E-1,2.6325681E-3,4.0179282E-1,1.0452952E-2,1.1759399E0,1.5482773E0,1.8476932E-3,-7.9799285E-3,-0E0,1.4846225E-3,-6.8716267E-3,2.5913168E-3,-7.905833E-3,-4.974028E-3,8.054349E-3],"split_indices":[4,0,7,9,12,4,0,0,0,0,0,0,0,0,0],"split_type":[0,0,0,0,0,0,0,0,0,0,0,0,0,0,0],"sum_hessian":[4.0874355E3,2.1260786E3,1.9613568E3,9.425675E2,1.1835112E3,6.796551E2,1.2817017E3,6.2604376E2,3.1652374E2,9.5605975E2,2.274514E2,3.493585E2,3.3029663E2,1.1075233E2,1.1709493E3],"tree_param":{"num_deleted":"0","num_feature":"15","num_nodes":"15","size_leaf_vector":"1"}},{"base_weights":[1.6761264E-2,-1.2175621E-2,8.5597664E-2,-6.0312573E-2,2.0672843E-2,-0E0,1.1184926E-1,-0E0,-7.799556E-3,2.9072687E-3,-4.6017296E-3,-3.1266417E-3,3.7598384E-3,1.3264694E-2,3.8853975E-3],"categories":[],"categories_nodes":[],"categories_segments":[],"categories_sizes":[],"default_left":[0,0,0,0,0,0,0,0,0,0,0,0,0,0,0],"id":57,"left_children":[1,3,5,7,9,11,13,-1,-1,-1,-1,-1,-1,-1,-1],"loss_changes":[8.675303E0,4.7982287E0,3.20016E0,3.5044508E0,2.540226E0,6.51384E-1,2.7430563E0,0E0,0E0,0E0,0E0,0E0,0E0,0E0,0E0],"parents":[2147483647,0,0,1,1,2,2,3,3,4,4,5,5,6,6],"right_children":[2,4,6,8,10,12,14,-1,-1,-1,-1,-1,-1,-1,-1],"split_conditions":[3.3776523E-3,7.253639E-1,1.30166225E-2,9.236252E-1,1.1298201E0,1.135914E0,8.396392E-1,-0E0,-7.799556E-3,2.9072687E-3,-4.6017296E-3,-3.1266417E-3,3.7598384E-3,1.3264694E-2,3.8853975E-3],"split_indices":[0,2,9,3,3,3,7,0,0,0,0,0,0,0,0],"split_type":[0,0,0,0,0,0,0,0,0,0,0,0,0,0,0],"sum_hessian":[4.1461406E3,2.878871E3,1.2672693E3,1.2226287E3,1.6562426E3,2.766348E2,9.906345E2,5.242043E2,6.984244E2,1.4072592E3,2.4898337E2,1.8258253E2,9.405225E1,4.0482675E2,5.858078E2],"tree_param":{"num_deleted":"0","num_feature":"15","num_nodes":"15","size_leaf_vector":"1"}},{"base_weights":[-3.5443268E-4,9.440822E-2,-4.706104E-2,-7.287446E-2,1.3570146E-1,1.0587374E-2,-9.258167E-2,1.8081681E-3,-1.4848958E-2,1.5334021E-2,4.7875764E-3,-9.228372E-3,3.140117E-3,5.116047E-5,-7.4999174E-3],"categories":[],"categories_nodes":[],"categories_segments":[],"categories_sizes":[],"default_left":[0,0,0,0,0,0,0,0,0,0,0,0,0,0,0],"id":58,"left_children":[1,3,5,7,9,11,13,-1,-1,-1,-1,-1,-1,-1,-1],"loss_changes":[1.8621141E1,9.96065E0,8.001911E0,4.209785E0,4.192156E0,5.086392E0,1.9200382E0,0E0,0E0,0E0,0E0,0E0,0E0,0E0,0E0],"parents":[2147483647,0,0,1,1,2,2,3,3,4,4,5,5,6,6],"right_children":[2,4,6,8,10,12,14,-1,-1,-1,-1,-1,-1,-1,-1],"split_conditions":[2.2762092E-3,7.655238E-1,7.021081E-1,5.7464343E-1,1.8931952E-3,8.58766E-1,2.3796219E-1,1.8081681E-3,-1.4848958E-2,1.5334021E-2,4.7875764E-3,-9.228372E-3,3.140117E-3,5.116047E-5,-7.4999174E-3],"split_indices":[0,3,2,10,0,3,10,0,0,0,0,0,0,0,0],"split_type":[0,0,0,0,0,0,0,0,0,0,0,0,0,0,0],"sum_hessian":[4.2243145E3,1.3537664E3,2.870548E3,2.4164532E2,1.1121211E3,1.2247236E3,1.6458246E3,1.23819664E2,1.1782565E2,4.9849857E2,6.136225E2,1.9432599E2,1.0303976E3,1.00292305E2,1.5455322E3],"tree_param":{"num_deleted":"0","num_feature":"15","num_nodes":"15","size_leaf_vector":"1"}},{"base_weights":[-6.790705E-3,-7.4054815E-2,2.0906653E-2,-1.03223436E-1,1.8378902E-2,5.934463E-2,-1.3323346E-2,2.25184E-3,-9.085744E-3,9.415582E-3,-1.9967405E-3,-1.0348793E-4,5.342766E-3,1.4879176E-3,-5.2914745E-3],"categories":[],"categories_nodes":[],"categories_segments":[],"categories_sizes":[],"default_left":[0,0,0,0,0,0,0,0,0,0,0,0,0,0,0],"id":59,"left_children":[1,3,5,7,9,11,13,-1,-1,-1,-1,-1,-1,-1,-1],"loss_changes":[8.103643E0,3.9016166E0,4.099902E0,3.2445745E0,1.9570295E0,1.5110888E0,3.2140543E0,0E0,0E0,0E0,0E0,0E0,0E0,0E0,0E0],"parents":[2147483647,0,0,1,1,2,2,3,3,4,4,5,5,6,6],"right_children":[2,4,6,8,10,12,14,-1,-1,-1,-1,-1,-1,-1,-1],"split_conditions":[9.853272E-2,4.7376775E-3,4.1277778E-1,7.316353E-1,6.0135996E-1,-1.4251578E0,1.0568603E0,2.25184E-3,-9.085744E-3,9.415582E-3,-1.9967405E-3,-1.0348793E-4,5.342766E-3,1.4879176E-3,-5.2914745E-3],"split_indices":[1,8,12,3,7,12,3,0,0,0,0,0,0,0,0],"split_type":[0,0,0,0,0,0,0,0,0,0,0,0,0,0,0],"sum_hessian":[4.176228E3,1.2613816E3,2.9148464E3,9.978402E2,2.6354135E2,1.4348221E3,1.4800243E3,9.6567505E1,9.012727E2,9.983433E1,1.6370702E2,1.9093945E2,1.2438827E3,8.944772E2,5.855471E2],"tree_param":{"num_deleted":"0","num_feature":"15","num_nodes":"15","size_leaf_vector":"1"}},{"base_weights":[-3.1715927E-3,3.250207E-2,-4.401907E-2,1.6428713E-2,1.8831333E-2,9.580775E-3,-5.5527344E-2,-0E0,6.333145E-3,-6.8435133E-3,2.4642854E-4],"categories":[],"categories_nodes":[],"categories_segments":[],"categories_sizes":[],"default_left":[0,0,0,0,0,0,0,0,0,0,0],"id":60,"left_children":[1,3,5,-1,7,-1,9,-1,-1,-1,-1],"loss_changes":[6.169517E0,4.3932247E0,3.8044724E0,0E0,2.5168939E0,0E0,4.6928034E0,0E0,0E0,0E0,0E0],"parents":[2147483647,0,0,1,1,2,2,4,4,6,6],"right_children":[2,4,6,-1,8,-1,10,-1,-1,-1,-1],"split_conditions":[9.398174E-1,6.885617E-1,-2.0771015E-2,1.6428713E-2,3.0441026E-3,9.580775E-3,9.99908E-1,-0E0,6.333145E-3,-6.8435133E-3,2.4642854E-4],"split_indices":[7,3,14,0,14,0,2,0,0,0,0],"split_type":[0,0,0,0,0,0,0,0,0,0,0],"sum_hessian":[4.159561E3,2.157816E3,2.0017451E3,1.02132774E2,2.0556833E3,8.620532E1,1.9155398E3,1.6327968E3,4.2288654E2,1.2176337E3,6.979061E2],"tree_param":{"num_deleted":"0","num_feature":"15","num_nodes":"11","size_leaf_vector":"1"}},{"base_weights":[-6.3597886E-3,1.01060145E-1,-5.756632E-2,1.3976546E-1,4.0387575E-2,6.8374006E-3,-1.1419671E-1,-0E0,1.2217934E-2,1.3781781E-2,-0E0,3.446458E-3,-3.515786E-3,-9.804644E-4,-1.0576361E-2],"categories":[],"categories_nodes":[],"categories_segments":[],"categories_sizes":[],"default_left":[0,0,0,0,0,0,0,0,0,0,0,0,0,0,0],"id":61,"left_children":[1,3,5,7,9,11,13,-1,-1,-1,-1,-1,-1,-1,-1],"loss_changes":[2.3043379E1,2.143117E0,1.1095614E1,3.5336733E0,2.894032E0,2.9286926E0,3.861044E0,0E0,0E0,0E0,0E0,0E0,0E0,0E0,0E0],"parents":[2147483647,0,0,1,1,2,2,3,3,4,4,5,5,6,6],"right_children":[2,4,6,8,10,12,14,-1,-1,-1,-1,-1,-1,-1,-1],"split_conditions":[2.258394E-3,1.0833577E0,7.65393E-1,2.042899E-1,5.189268E-2,7.253639E-1,2.6686972E-3,-0E0,1.2217934E-2,1.3781781E-2,-0E0,3.446458E-3,-3.515786E-3,-9.804644E-4,-1.0576361E-2],"split_indices":[0,2,4,2,1,2,0,0,0,0,0,0,0,0,0],"split_type":[0,0,0,0,0,0,0,0,0,0,0,0,0,0,0],"sum_hessian":[4.191649E3,1.3163909E3,2.8752583E3,7.398304E2,5.765605E2,1.3118286E3,1.5634297E3,9.013558E1,6.496948E2,9.27469E1,4.838136E2,8.111734E2,5.0065518E2,3.9527286E2,1.1681567E3],"tree_param":{"num_deleted":"0","num_feature":"15","num_nodes":"15","size_leaf_vector":"1"}},{"base_weights":[-1.0702288E-2,-4.0563878E-2,8.0086835E-2,-1.2158111E-1,-1.7412532E-2,1.1157554E-1,-1.4869224E-2,-1.1436005E-2,-0E0,6.555874E-4,-5.0491733E-3,-0E0,1.0130803E-2,-5.7519316E-3,1.7877409E-3],"categories":[],"categories_nodes":[],"categories_segments":[],"categories_sizes":[],"default_left":[0,0,0,0,0,0,0,0,0,0,0,0,0,0,0],"id":62,"left_children":[1,3,5,7,9,11,13,-1,-1,-1,-1,-1,-1,-1,-1],"loss_changes":[1.1063474E1,5.2061453E0,3.4600434E0,2.1625671E0,3.700526E0,2.0255003E0,8.4914005E-1,0E0,0E0,0E0,0E0,0E0,0E0,0E0,0E0],"parents":[2147483647,0,0,1,1,2,2,3,3,4,4,5,5,6,6],"right_children":[2,4,6,8,10,12,14,-1,-1,-1,-1,-1,-1,-1,-1],"split_conditions":[3.6642705E-3,1.9263198E-3,1.1199206E0,1.4032615E0,1.2193106E0,-1.5209438E0,1.4310637E0,-1.1436005E-2,-0E0,6.555874E-4,-5.0491733E-3,-0E0,1.0130803E-2,-5.7519316E-3,1.7877409E-3],"split_indices":[0,0,12,4,7,12,7,0,0,0,0,0,0,0,0],"split_type":[0,0,0,0,0,0,0,0,0,0,0,0,0,0,0],"sum_hessian":[4.113632E3,3.1438276E3,9.698044E2,6.3448566E2,2.509342E3,7.6500214E2,2.0480228E2,4.727694E2,1.6171625E2,1.6022123E3,9.0712964E2,1.5948175E2,6.055204E2,1.1984364E2,8.4958626E1],"tree_param":{"num_deleted":"0","num_feature":"15","num_nodes":"15","size_leaf_vector":"1"}},{"base_weights":[-7.4985097E-3,-3.4310505E-2,5.149267E-2,-1.0565625E-1,-6.6971397E-3,7.7540986E-2,-7.052615E-2,-1.3342605E-4,-1.1747511E-2,4.2374507E-3,-1.5235306E-3,-0E0,7.947881E-3,-0E0,-7.917142E-3],"categories":[],"categories_nodes":[],"categories_segments":[],"categories_sizes":[],"default_left":[0,0,0,0,0,0,0,0,0,0,0,0,0,0,0],"id":63,"left_children":[1,3,5,7,9,11,13,-1,-1,-1,-1,-1,-1,-1,-1],"loss_changes":[6.4418316E0,5.1292834E0,4.050329E0,3.4129686E0,1.7699775E0,2.8043113E0,2.673005E-1,0E0,0E0,0E0,0E0,0E0,0E0,0E0,0E0],"parents":[2147483647,0,0,1,1,2,2,3,3,4,4,5,5,6,6],"right_children":[2,4,6,8,10,12,14,-1,-1,-1,-1,-1,-1,-1,-1],"split_conditions":[4.4068377E-3,4.5942482E-1,1.7590137E0,9.3178385E-1,3.0595732E-1,-8.766372E-3,5.8176666E-1,-1.3342605E-4,-1.1747511E-2,4.2374507E-3,-1.5235306E-3,-0E0,7.947881E-3,-0E0,-7.917142E-3],"split_indices":[8,4,10,10,7,6,4,0,0,0,0,0,0,0,0],"split_type":[0,0,0,0,0,0,0,0,0,0,0,0,0,0,0],"sum_hessian":[4.0887427E3,2.87375E3,1.2149926E3,7.3794684E2,2.1358032E3,1.0399446E3,1.7504802E2,2.8912085E2,4.4882602E2,3.0868347E2,1.8271196E3,2.6927496E2,7.706696E2,8.6502525E1,8.85455E1],"tree_param":{"num_deleted":"0","num_feature":"15","num_nodes":"15","size_leaf_vector":"1"}},{"base_weights":[2.8742072E-3,8.785181E-2,-2.9889258E-2,1.3038608E-1,-8.169633E-2,7.3536895E-2,-5.245443E-2,1.1570397E-2,-3.5801574E-3,-0E0,-1.0432378E-2,-3.6220476E-3,9.491498E-3,-6.579919E-3,-4.2766434E-4],"categories":[],"categories_nodes":[],"categories_segments":[],"categories_sizes":[],"default_left":[0,0,0,0,0,0,0,0,0,0,0,0,0,0,0],"id":64,"left_children":[1,3,5,7,9,11,13,-1,-1,-1,-1,-1,-1,-1,-1],"loss_changes":[1.2166831E1,9.294682E0,7.057151E0,5.484602E0,1.02054E0,3.9767256E0,3.8894215E0,0E0,0E0,0E0,0E0,0E0,0E0,0E0,0E0],"parents":[2147483647,0,0,1,1,2,2,3,3,4,4,5,5,6,6],"right_children":[2,4,6,8,10,12,14,-1,-1,-1,-1,-1,-1,-1,-1],"split_conditions":[4.8525146E-1,5.347544E-3,7.350447E-2,5.459569E-3,3.428341E-3,-1.0257736E-3,2.042097E-4,1.1570397E-2,-3.5801574E-3,-0E0,-1.0432378E-2,-3.6220476E-3,9.491498E-3,-6.579919E-3,-4.2766434E-4],"split_indices":[4,8,1,5,5,13,13,0,0,0,0,0,0,0,0],"split_type":[0,0,0,0,0,0,0,0,0,0,0,0,0,0,0],"sum_hessian":[4.232621E3,1.2114042E3,3.0212168E3,9.950204E2,2.1638382E2,4.9470856E2,2.5265083E3,8.9235956E2,1.0266087E2,1.0517064E2,1.1121317E2,1.263974E2,3.6831116E2,1.3441807E3,1.1823276E3],"tree_param":{"num_deleted":"0","num_feature":"15","num_nodes":"15","size_leaf_vector":"1"}},{"base_weights":[-4.113789E-3,-1.5288424E-1,1.679807E-2,-1.9038104E-1,-0E0,4.1627448E-2,-1.3466779E-2,-1.0040436E-3,-1.9771913E-2,-1.2351972E-3,5.731286E-3,-3.578368E-3,7.6833144E-3],"categories":[],"categories_nodes":[],"categories_segments":[],"categories_sizes":[],"default_left":[0,0,0,0,0,0,0,0,0,0,0,0,0],"id":65,"left_children":[1,3,5,7,-1,9,11,-1,-1,-1,-1,-1,-1],"loss_changes":[1.3472841E1,2.3120136E0,2.840447E0,4.1763697E0,0E0,4.6707087E0,6.1629753E0,0E0,0E0,0E0,0E0,0E0,0E0],"parents":[2147483647,0,0,1,1,2,2,3,3,5,5,6,6],"right_children":[2,4,6,8,-1,10,12,-1,-1,-1,-1,-1,-1],"split_conditions":[1.8476932E-3,2.0666008E-3,1.1308349E0,5.73827E-3,-0E0,4.4728768E-1,1.3108315E0,-1.0040436E-3,-1.9771913E-2,-1.2351972E-3,5.731286E-3,-3.578368E-3,7.6833144E-3],"split_indices":[0,5,7,9,0,7,2,0,0,0,0,0,0],"split_type":[0,0,0,0,0,0,0,0,0,0,0,0,0],"sum_hessian":[4.0821262E3,5.183361E2,3.56379E3,3.9172894E2,1.266072E2,2.043642E3,1.520148E3,1.4552647E2,2.4620247E2,7.3242285E2,1.3112191E3,1.2115217E3,3.0862622E2],"tree_param":{"num_deleted":"0","num_feature":"15","num_nodes":"13","size_leaf_vector":"1"}},{"base_weights":[-2.2971998E-3,-6.885945E-2,3.300313E-2,4.09659E-3,-1.180599E-1,9.0066195E-2,-1.888379E-2,7.487136E-3,-3.963344E-3,-0E0,-1.0952981E-2,9.8850215E-3,1.0851958E-3,-6.1237044E-3,-0E0],"categories":[],"categories_nodes":[],"categories_segments":[],"categories_sizes":[],"default_left":[0,0,0,0,0,0,0,0,0,0,0,0,0,0,0],"id":66,"left_children":[1,3,5,7,9,11,13,-1,-1,-1,-1,-1,-1,-1,-1],"loss_changes":[9.995666E0,5.942624E0,8.325371E0,3.6008883E0,4.032735E0,3.6283426E0,1.8334856E0,0E0,0E0,0E0,0E0,0E0,0E0,0E0,0E0],"parents":[2147483647,0,0,1,1,2,2,3,3,4,4,5,5,6,6],"right_children":[2,4,6,8,10,12,14,-1,-1,-1,-1,-1,-1,-1,-1],"split_conditions":[2.4443876E-3,8.636179E-1,9.4011885E-1,4.5943162E-1,5.629434E-3,1.0524648E0,1.2119513E0,7.487136E-3,-3.963344E-3,-0E0,-1.0952981E-2,9.8850215E-3,1.0851958E-3,-6.1237044E-3,-0E0],"split_indices":[0,3,10,7,9,3,10,0,0,0,0,0,0,0,0],"split_type":[0,0,0,0,0,0,0,0,0,0,0,0,0,0,0],"sum_hessian":[4.143695E3,1.4785985E3,2.6650964E3,5.6168304E2,9.1691547E2,1.30832E3,1.3567765E3,2.3600954E2,3.2567352E2,1.6179333E2,7.5512213E2,7.7572015E2,5.3259973E2,3.1897055E2,1.037806E3],"tree_param":{"num_deleted":"0","num_feature":"15","num_nodes":"15","size_leaf_vector":"1"}},{"base_weights":[8.062006E-3,5.4994848E-2,-4.6413336E-2,1.2817657E-1,6.4544487E-3,8.027848E-3,-6.4327866E-2,5.951799E-3,2.5143454E-2,-1.21229235E-2,2.2863827E-3,1.2977815E-3,-6.4216177E-3],"categories":[],"categories_nodes":[],"categories_segments":[],"categories_sizes":[],"default_left":[0,0,0,0,0,0,0,0,0,0,0,0,0],"id":67,"left_children":[1,3,5,7,9,-1,11,-1,-1,-1,-1,-1,-1],"loss_changes":[1.0907554E1,7.5979786E0,5.245349E0,6.39295E0,5.560752E0,0E0,3.656351E0,0E0,0E0,0E0,0E0,0E0,0E0],"parents":[2147483647,0,0,1,1,2,2,3,3,4,4,6,6],"right_children":[2,4,6,8,10,-1,12,-1,-1,-1,-1,-1,-1],"split_conditions":[9.8537284E-1,2.217967E-3,8.513405E-4,1.3247868E0,7.950495E-1,8.027848E-3,5.9098184E-1,5.951799E-3,2.5143454E-2,-1.21229235E-2,2.2863827E-3,1.2977815E-3,-6.4216177E-3],"split_indices":[4,5,5,10,3,0,2,0,0,0,0,0,0],"split_type":[0,0,0,0,0,0,0,0,0,0,0,0,0],"sum_hessian":[4.214134E3,2.312385E3,1.9017487E3,8.6991895E2,1.4424661E3,1.588219E2,1.7429268E3,7.504272E2,1.1949181E2,1.4324101E2,1.2992251E3,3.3286542E2,1.4100614E3],"tree_param":{"num_deleted":"0","num_feature":"15","num_nodes":"13","size_leaf_vector":"1"}},{"base_weights":[-0E0,1.3765137E-1,-1.0451196E-2,1.6960196E-4,1.5666438E-2,-6.239497E-2,2.3601416E-2,-9.546427E-3,2.6932053E-4,6.1328723E-3,-1.4540607E-3],"categories":[],"categories_nodes":[],"categories_segments":[],"categories_sizes":[],"default_left":[0,0,0,0,0,0,0,0,0,0,0],"id":68,"left_children":[1,3,5,-1,-1,7,9,-1,-1,-1,-1],"loss_changes":[5.77337E0,1.7923818E0,7.042479E0,0E0,0E0,7.6765356E0,6.244218E0,0E0,0E0,0E0,0E0],"parents":[2147483647,0,0,1,1,2,2,5,5,6,6],"right_children":[2,4,6,-1,-1,8,10,-1,-1,-1,-1],"split_conditions":[7.316353E-1,1.8095677E-3,1.2196386E-1,1.6960196E-4,1.5666438E-2,9.7462577E-1,4.1277778E-1,-9.546427E-3,2.6932053E-4,6.1328723E-3,-1.4540607E-3],"split_indices":[3,5,1,0,0,4,12,0,0,0,0],"split_type":[0,0,0,0,0,0,0,0,0,0,0],"sum_hessian":[4.105178E3,2.6464838E2,3.84053E3,1.2426728E2,1.403811E2,1.5723107E3,2.2682192E3,8.0856494E2,7.637458E2,9.9597656E2,1.2722428E3],"tree_param":{"num_deleted":"0","num_feature":"15","num_nodes":"11","size_leaf_vector":"1"}},{"base_weights":[-0E0,-2.867909E-2,6.2416524E-2,-3.7567906E-2,8.876999E-3,8.1636325E-2,-1.2612117E-2,-4.3108296E-3,1.9015837E-3,-4.7384703E-4,6.961102E-3,-6.8778023E-3,1.6060193E-3],"categories":[],"categories_nodes":[],"categories_segments":[],"categories_sizes":[],"default_left":[0,0,0,0,0,0,0,0,0,0,0,0,0],"id":69,"left_children":[1,3,5,7,-1,9,11,-1,-1,-1,-1,-1,-1],"loss_changes":[7.286149E0,3.5136516E0,2.1734633E0,3.871923E0,0E0,1.6348181E0,9.987216E-1,0E0,0E0,0E0,0E0,0E0,0E0],"parents":[2147483647,0,0,1,1,2,2,3,3,5,5,6,6],"right_children":[2,4,6,8,-1,10,12,-1,-1,-1,-1,-1,-1],"split_conditions":[3.3776523E-3,5.6870636E-3,6.6134244E-1,4.6579094E-4,8.876999E-3,1.6168378E-3,4.041258E-3,-4.3108296E-3,1.9015837E-3,-4.7384703E-4,6.961102E-3,-6.8778023E-3,1.6060193E-3],"split_indices":[0,5,11,13,0,5,0,0,0,0,0,0,0],"split_type":[0,0,0,0,0,0,0,0,0,0,0,0,0],"sum_hessian":[4.121768E3,2.8814148E3,1.2403533E3,2.7631152E3,1.18299576E2,1.038553E3,2.0180025E2,2.1372437E3,6.258715E2,8.384075E1,9.547122E2,9.4111595E1,1.0768865E2],"tree_param":{"num_deleted":"0","num_feature":"15","num_nodes":"13","size_leaf_vector":"1"}},{"base_weights":[8.252959E-3,6.252126E-2,-6.51446E-2,1.4459029E-1,-1.6658795E-4,-1.019425E-2,-1.042871E-1,1.169727E-2,-0E0,-1.7934438E-3,8.678603E-3,2.6677446E-3,-2.7997363E-3,-1.0356957E-2,1.7518146E-3],"categories":[],"categories_nodes":[],"categories_segments":[],"categories_sizes":[],"default_left":[0,0,0,0,0,0,0,0,0,0,0,0,0,0,0],"id":70,"left_children":[1,3,5,7,9,11,13,-1,-1,-1,-1,-1,-1,-1,-1],"loss_changes":[1.689525E1,1.3461059E1,3.2158685E0,2.6607246E0,3.5443878E0,1.0734092E0,5.16613E0,0E0,0E0,0E0,0E0,0E0,0E0,0E0,0E0],"parents":[2147483647,0,0,1,1,2,2,3,3,4,4,5,5,6,6],"right_children":[2,4,6,8,10,12,14,-1,-1,-1,-1,-1,-1,-1,-1],"split_conditions":[2.8867752E-3,6.9896805E-1,3.5631615E-3,4.9124537E-3,1.9637351E0,4.9007887E-1,1.3054355E0,1.169727E-2,-0E0,-1.7934438E-3,8.678603E-3,2.6677446E-3,-2.7997363E-3,-1.0356957E-2,1.7518146E-3],"split_indices":[0,4,0,5,4,4,12,0,0,0,0,0,0,0,0],"split_type":[0,0,0,0,0,0,0,0,0,0,0,0,0,0,0],"sum_hessian":[4.2089067E3,2.4599746E3,1.7489319E3,1.0893419E3,1.3706327E3,7.8936664E2,9.5956525E2,1.00730304E3,8.203891E1,1.1839946E3,1.8663806E2,2.2711127E2,5.622554E2,7.767998E2,1.8276543E2],"tree_param":{"num_deleted":"0","num_feature":"15","num_nodes":"15","size_leaf_vector":"1"}},{"base_weights":[-5.814989E-3,-5.97787E-2,1.9379845E-2,-9.742211E-2,-0E0,1.3525222E-1,2.204932E-3,-2.2674226E-3,-1.086374E-2,3.2198834E-3,-2.6875357E-3,3.0693954E-3,1.8099882E-2,1.2257966E-3,-7.1807723E-3],"categories":[],"categories_nodes":[],"categories_segments":[],"categories_sizes":[],"default_left":[0,0,0,0,0,0,0,0,0,0,0,0,0,0,0],"id":71,"left_children":[1,3,5,7,9,11,13,-1,-1,-1,-1,-1,-1,-1,-1],"loss_changes":[5.9007244E0,3.3659759E0,4.8870053E0,1.9710426E0,8.94981E-1,1.744214E0,3.2116807E0,0E0,0E0,0E0,0E0,0E0,0E0,0E0,0E0],"parents":[2147483647,0,0,1,1,2,2,3,3,4,4,5,5,6,6],"right_children":[2,4,6,8,10,12,14,-1,-1,-1,-1,-1,-1,-1,-1],"split_conditions":[5.7138026E-1,1.307826E-2,7.8258955E-1,9.47289E-1,1.8593295E-2,3.7201361E-3,2.530273E-2,-2.2674226E-3,-1.086374E-2,3.2198834E-3,-2.6875357E-3,3.0693954E-3,1.8099882E-2,1.2257966E-3,-7.1807723E-3],"split_indices":[4,9,3,3,9,8,9,0,0,0,0,0,0,0,0],"split_type":[0,0,0,0,0,0,0,0,0,0,0,0,0,0,0],"sum_hessian":[4.160327E3,1.3787592E3,2.781568E3,8.626626E2,5.1609656E2,3.0615396E2,2.475414E3,4.2412125E2,4.3854135E2,2.617965E2,2.5430005E2,2.0305873E2,1.0309522E2,2.2185889E3,2.5682526E2],"tree_param":{"num_deleted":"0","num_feature":"15","num_nodes":"15","size_leaf_vector":"1"}},{"base_weights":[1.3092847E-2,1.4944243E-1,-8.494398E-4,-0E0,1.9327457E-1,7.50364E-2,-2.7449246E-2,1.9352471E-2,6.4764884E-3,7.6288637E-3,-0E0,-2.8886807E-3,5.7815784E-3],"categories":[],"categories_nodes":[],"categories_segments":[],"categories_sizes":[],"default_left":[0,0,0,0,0,0,0,0,0,0,0,0,0],"id":72,"left_children":[1,3,5,-1,7,9,11,-1,-1,-1,-1,-1,-1],"loss_changes":[8.6490755E0,3.212925E0,7.3939786E0,0E0,3.1595898E-1,1.8926568E0,3.3968806E0,0E0,0E0,0E0,0E0,0E0,0E0],"parents":[2147483647,0,0,1,1,2,2,4,4,5,5,6,6],"right_children":[2,4,6,-1,8,10,12,-1,-1,-1,-1,-1,-1],"split_conditions":[-1.1158809E-3,5.0206554E-1,4.4728768E-1,-0E0,1.2700514E0,1.6761703E0,2.4311734E-2,1.9352471E-2,6.4764884E-3,7.6288637E-3,-0E0,-2.8886807E-3,5.7815784E-3],"split_indices":[13,2,7,0,2,2,9,0,0,0,0,0,0],"split_type":[0,0,0,0,0,0,0,0,0,0,0,0,0],"sum_hessian":[4.1447446E3,4.0129932E2,3.7434456E3,8.252955E1,3.1876978E2,9.15004E2,2.8284414E3,1.4812943E2,1.7064035E2,6.4941486E2,2.6558914E2,2.5983218E3,2.3011964E2],"tree_param":{"num_deleted":"0","num_feature":"15","num_nodes":"13","size_leaf_vector":"1"}},{"base_weights":[3.1246147E-3,4.9550682E-2,-9.352249E-2,-8.484006E-2,7.9849444E-2,-1.3200991E-1,-0E0,6.5630476E-4,-1.0285505E-2,1.0983513E-2,1.4613447E-3,-5.6377845E-3,-1.4075167E-2,-3.836596E-3,3.062914E-3],"categories":[],"categories_nodes":[],"categories_segments":[],"categories_sizes":[],"default_left":[0,0,0,0,0,0,0,0,0,0,0,0,0,0,0],"id":73,"left_children":[1,3,5,7,9,11,13,-1,-1,-1,-1,-1,-1,-1,-1],"loss_changes":[1.8825878E1,1.1907047E1,4.585494E0,3.292839E0,9.099433E0,1.485714E0,9.73992E-1,0E0,0E0,0E0,0E0,0E0,0E0,0E0,0E0],"parents":[2147483647,0,0,1,1,2,2,3,3,4,4,5,5,6,6],"right_children":[2,4,6,8,10,12,14,-1,-1,-1,-1,-1,-1,-1,-1],"split_conditions":[3.2105972E-3,7.983783E-1,4.8641086E-1,1.2865497E-3,2.2855739E-3,3.3497885E-3,3.9143087E-3,6.5630476E-4,-1.0285505E-2,1.0983513E-2,1.4613447E-3,-5.6377845E-3,-1.4075167E-2,-3.836596E-3,3.062914E-3],"split_indices":[0,3,11,5,0,5,8,0,0,0,0,0,0,0,0],"split_type":[0,0,0,0,0,0,0,0,0,0,0,0,0,0,0],"sum_hessian":[4.207891E3,2.8828381E3,1.3250531E3,4.944916E2,2.3883467E3,9.193092E2,4.05744E2,1.5439107E2,3.4010052E2,1.059472E3,1.3288745E3,5.374148E2,3.8189438E2,1.982035E2,2.0754047E2],"tree_param":{"num_deleted":"0","num_feature":"15","num_nodes":"15","size_leaf_vector":"1"}},{"base_weights":[-7.889864E-4,3.6084138E-2,-3.994289E-2,-6.4852335E-2,6.465084E-2,-1.0857994E-1,2.6755823E-2,1.0916097E-3,-1.0849045E-2,9.248898E-3,-0E0,-9.133656E-3,5.352433E-5,-0E0,1.2207622E-2],"categories":[],"categories_nodes":[],"categories_segments":[],"categories_sizes":[],"default_left":[0,0,0,0,0,0,0,0,0,0,0,0,0,0,0],"id":74,"left_children":[1,3,5,7,9,11,13,-1,-1,-1,-1,-1,-1,-1,-1],"loss_changes":[6.0210876E0,6.060438E0,9.982926E0,3.5035443E0,6.018298E0,2.3933764E0,3.2662873E0,0E0,0E0,0E0,0E0,0E0,0E0,0E0,0E0],"parents":[2147483647,0,0,1,1,2,2,3,3,4,4,5,5,6,6],"right_children":[2,4,6,8,10,12,14,-1,-1,-1,-1,-1,-1,-1,-1],"split_conditions":[9.8839223E-1,1.8476932E-3,8.9410275E-1,7.983783E-1,2.7771094E-3,5.100198E-3,7.900748E-3,1.0916097E-3,-1.0849045E-2,9.248898E-3,-0E0,-9.133656E-3,5.352433E-5,-0E0,1.2207622E-2],"split_indices":[3,0,4,3,8,0,8,0,0,0,0,0,0,0,0],"split_type":[0,0,0,0,0,0,0,0,0,0,0,0,0,0,0],"sum_hessian":[4.1217363E3,2.0584663E3,2.0632698E3,4.1095383E2,1.6475126E3,1.0478333E3,1.0154366E3,1.8577335E2,2.2518047E2,8.0681805E2,8.406945E2,9.5661786E2,9.121543E1,8.871457E2,1.2829088E2],"tree_param":{"num_deleted":"0","num_feature":"15","num_nodes":"15","size_leaf_vector":"1"}},{"base_weights":[-1.022345E-2,-1.0905461E-1,1.6667439E-2,2.0449385E-2,-1.5483612E-1,7.267484E-2,-0E0,1.04204295E-2,-2.7975922E-3,-1.3130678E-2,-0E0,8.864601E-3,-1.2109744E-3,-1.9370405E-3,4.590191E-3],"categories":[],"categories_nodes":[],"categories_segments":[],"categories_sizes":[],"default_left":[0,0,0,0,0,0,0,0,0,0,0,0,0,0,0],"id":75,"left_children":[1,3,5,7,9,11,13,-1,-1,-1,-1,-1,-1,-1,-1],"loss_changes":[1.1518839E1,6.23005E0,3.154694E0,2.2319534E0,2.5870552E0,3.8013668E0,4.035983E0,0E0,0E0,0E0,0E0,0E0,0E0,0E0,0E0],"parents":[2147483647,0,0,1,1,2,2,3,3,4,4,5,5,6,6],"right_children":[2,4,6,8,10,12,14,-1,-1,-1,-1,-1,-1,-1,-1],"split_conditions":[2.1034966E-3,7.690019E-1,8.9230496E-1,2.2271017E-3,4.047155E-3,4.51833E-3,1.4446447E0,1.04204295E-2,-2.7975922E-3,-1.3130678E-2,-0E0,8.864601E-3,-1.2109744E-3,-1.9370405E-3,4.590191E-3],"split_indices":[0,3,3,8,8,8,2,0,0,0,0,0,0,0,0],"split_type":[0,0,0,0,0,0,0,0,0,0,0,0,0,0,0],"sum_hessian":[4.132576E3,9.115602E2,3.2210159E3,2.1248782E2,6.990724E2,7.4984406E2,2.4711719E3,8.850929E1,1.2397853E2,6.055148E2,9.3557556E1,5.209294E2,2.2891467E2,1.765456E3,7.057159E2],"tree_param":{"num_deleted":"0","num_feature":"15","num_nodes":"15","size_leaf_vector":"1"}},{"base_weights":[7.7635245E-3,5.118921E-2,-7.636707E-2,-6.4281235E-3,1.14664614E-1,3.0638564E-3,-9.3041286E-2,-8.37339E-3,1.4214042E-3,1.183172E-2,-1.4806545E-3,-1.9341024E-3,-9.569048E-3],"categories":[],"categories_nodes":[],"categories_segments":[],"categories_sizes":[],"default_left":[0,0,0,0,0,0,0,0,0,0,0,0,0],"id":76,"left_children":[1,3,5,7,9,-1,11,-1,-1,-1,-1,-1,-1],"loss_changes":[1.5515656E1,1.1008495E1,3.1139765E0,4.568997E0,9.412163E0,0E0,2.3261175E0,0E0,0E0,0E0,0E0,0E0,0E0],"parents":[2147483647,0,0,1,1,2,2,3,3,4,4,6,6],"right_children":[2,4,6,8,10,-1,12,-1,-1,-1,-1,-1,-1],"split_conditions":[3.1440067E-3,9.47289E-1,3.2239473E-1,7.5242287E-1,1.5012892E0,3.0638564E-3,3.118294E-3,-8.37339E-3,1.4214042E-3,1.183172E-2,-1.4806545E-3,-1.9341024E-3,-9.569048E-3],"split_indices":[0,3,2,3,2,0,5,0,0,0,0,0,0],"split_type":[0,0,0,0,0,0,0,0,0,0,0,0,0],"sum_hessian":[4.244043E3,2.8424949E3,1.401548E3,1.457616E3,1.384879E3,1.3364676E2,1.2679011E3,3.0743695E2,1.1501791E3,1.058235E3,3.2664404E2,5.0851605E2,7.5938513E2],"tree_param":{"num_deleted":"0","num_feature":"15","num_nodes":"13","size_leaf_vector":"1"}},{"base_weights":[2.755569E-4,-5.8747124E-2,2.7009958E-2,4.7404114E-2,-9.195326E-2,7.194892E-2,-2.0633655E-2,-1.3116614E-3,8.301395E-3,-8.408034E-3,-0E0,8.085758E-3,7.9960306E-4,-6.9082053E-3,5.6063844E-4],"categories":[],"categories_nodes":[],"categories_segments":[],"categories_sizes":[],"default_left":[0,0,0,0,0,0,0,0,0,0,0,0,0,0,0],"id":77,"left_children":[1,3,5,7,9,11,13,-1,-1,-1,-1,-1,-1,-1,-1],"loss_changes":[6.3285728E0,4.611032E0,6.459239E0,1.6426167E0,2.1055841E0,2.9398432E0,3.2470434E0,0E0,0E0,0E0,0E0,0E0,0E0,0E0,0E0],"parents":[2147483647,0,0,1,1,2,2,3,3,4,4,5,5,6,6],"right_children":[2,4,6,8,10,12,14,-1,-1,-1,-1,-1,-1,-1,-1],"split_conditions":[9.994098E-2,-8.13513E-3,2.2570838E-3,-2.5615284E0,2.954941E-3,3.0557418E-3,1.6151363E-1,-1.3116614E-3,8.301395E-3,-8.408034E-3,-0E0,8.085758E-3,7.9960306E-4,-6.9082053E-3,5.6063844E-4],"split_indices":[1,6,6,12,5,8,1,0,0,0,0,0,0,0,0],"split_type":[0,0,0,0,0,0,0,0,0,0,0,0,0,0,0],"sum_hessian":[4.0742627E3,1.2059095E3,2.8683533E3,2.5009894E2,9.558106E2,1.5247313E3,1.343622E3,9.365987E1,1.5643907E2,7.76966E2,1.7884462E2,8.8394904E2,6.407823E2,4.1174057E2,9.3188135E2],"tree_param":{"num_deleted":"0","num_feature":"15","num_nodes":"15","size_leaf_vector":"1"}},{"base_weights":[6.937984E-3,-0E0,1.65345E-2,4.689324E-2,-2.1500414E-2,-0E0,7.322412E-3,8.401375E-4,-3.8009533E-3],"categories":[],"categories_nodes":[],"categories_segments":[],"categories_sizes":[],"default_left":[0,0,0,0,0,0,0,0,0],"id":78,"left_children":[1,3,-1,5,7,-1,-1,-1,-1],"loss_changes":[5.3059473E0,4.222737E0,0E0,3.2331173E0,2.9133976E0,0E0,0E0,0E0,0E0],"parents":[2147483647,0,0,1,1,3,3,4,4],"right_children":[2,4,-1,6,8,-1,-1,-1,-1],"split_conditions":[1.5107814E-2,-6.740189E-1,1.65345E-2,2.7608972E-3,7.443689E-1,-0E0,7.322412E-3,8.401375E-4,-3.8009533E-3],"split_indices":[6,12,0,5,10,0,0,0,0],"split_type":[0,0,0,0,0,0,0,0,0],"sum_hessian":[4.1366743E3,4.0450234E3,9.165108E1,1.3274908E3,2.7175325E3,7.1770294E2,6.097879E2,1.2243325E3,1.4932001E3],"tree_param":{"num_deleted":"0","num_feature":"15","num_nodes":"9","size_leaf_vector":"1"}},{"base_weights":[5.4736705E-3,8.036771E-2,-3.106392E-2,2.7144212E-2,1.5719864E-1,-5.156135E-2,5.194292E-2,1.0032844E-2,-0E0,1.4411463E-2,-0E0,-1.5757997E-3,-1.0012443E-2,7.7257417E-3,-0E0],"categories":[],"categories_nodes":[],"categories_segments":[],"categories_sizes":[],"default_left":[0,0,0,0,0,0,0,0,0,0,0,0,0,0,0],"id":79,"left_children":[1,3,5,7,9,11,13,-1,-1,-1,-1,-1,-1,-1,-1],"loss_changes":[1.1743135E1,4.8281994E0,4.7793264E0,2.470878E0,2.9582958E0,4.9905915E0,1.4872435E0,0E0,0E0,0E0,0E0,0E0,0E0,0E0,0E0],"parents":[2147483647,0,0,1,1,2,2,3,3,4,4,5,5,6,6],"right_children":[2,4,6,8,10,12,14,-1,-1,-1,-1,-1,-1,-1,-1],"split_conditions":[2.3053056E-3,3.2286814E-1,6.6134244E-1,5.2898757E-2,3.4847383E-3,3.8458705E-3,3.1567914E-3,1.0032844E-2,-0E0,1.4411463E-2,-0E0,-1.5757997E-3,-1.0012443E-2,7.7257417E-3,-0E0],"split_indices":[0,11,11,1,5,5,0,0,0,0,0,0,0,0,0],"split_type":[0,0,0,0,0,0,0,0,0,0,0,0,0,0,0],"sum_hessian":[4.168363E3,1.4040817E3,2.7642812E3,8.8167725E2,5.224045E2,2.2699724E3,4.9430875E2,1.5139224E2,7.30285E2,4.089447E2,1.1345979E2,1.7307792E3,5.391933E2,2.4343579E2,2.5087297E2],"tree_param":{"num_deleted":"0","num_feature":"15","num_nodes":"15","size_leaf_vector":"1"}},{"base_weights":[-8.234188E-3,-3.1727664E-2,6.779753E-2,1.05068E-1,-4.872816E-2,2.0777628E-2,3.5200402E-2,-0E0,1.0608416E-2,-1.369156E-2,-2.4153444E-3,9.58908E-3,-0E0],"categories":[],"categories_nodes":[],"categories_segments":[],"categories_sizes":[],"default_left":[0,0,0,0,0,0,0,0,0,0,0,0,0],"id":80,"left_children":[1,3,5,7,9,-1,11,-1,-1,-1,-1,-1,-1],"loss_changes":[7.2834325E0,7.3398E0,4.7958016E0,8.011694E-1,5.205826E0,0E0,3.0548768E0,0E0,0E0,0E0,0E0,0E0,0E0],"parents":[2147483647,0,0,1,1,2,2,3,3,4,4,6,6],"right_children":[2,4,6,8,10,-1,12,-1,-1,-1,-1,-1,-1],"split_conditions":[3.7250835E-3,7.5242287E-1,8.04903E-4,1.494758E-3,1.7062604E-3,2.0777628E-2,-8.766372E-3,-0E0,1.0608416E-2,-1.369156E-2,-2.4153444E-3,9.58908E-3,-0E0],"split_indices":[0,3,8,5,0,0,6,0,0,0,0,0,0],"split_type":[0,0,0,0,0,0,0,0,0,0,0,0,0],"sum_hessian":[4.1379565E3,3.2187075E3,9.1924884E2,3.134914E2,2.905216E3,8.347966E1,8.357692E2,1.1597878E2,1.975126E2,2.5120282E2,2.6540132E3,2.252751E2,6.104941E2],"tree_param":{"num_deleted":"0","num_feature":"15","num_nodes":"13","size_leaf_vector":"1"}},{"base_weights":[-5.5230013E-3,-3.9716017E-2,2.1483552E-2,2.786016E-2,-5.3692404E-2,-7.4130674E-3,5.806814E-2,-1.992615E-3,1.0244342E-2,-2.3313374E-3,-1.1560564E-2,6.4887293E-3,-2.925718E-3,1.275448E-2,1.2721178E-3],"categories":[],"categories_nodes":[],"categories_segments":[],"categories_sizes":[],"default_left":[0,0,0,0,0,0,0,0,0,0,0,0,0,0,0],"id":81,"left_children":[1,3,5,7,9,11,13,-1,-1,-1,-1,-1,-1,-1,-1],"loss_changes":[3.8835237E0,1.9415879E0,2.6014156E0,2.2996252E0,2.7016668E0,3.4544704E0,3.959759E0,0E0,0E0,0E0,0E0,0E0,0E0,0E0,0E0],"parents":[2147483647,0,0,1,1,2,2,3,3,4,4,5,5,6,6],"right_children":[2,4,6,8,10,12,14,-1,-1,-1,-1,-1,-1,-1,-1],"split_conditions":[-5.597809E-4,-1.3758557E-2,2.4172717E-3,6.8809736E-1,6.463423E-1,1.5956194E-4,-1.6525084E-1,-1.992615E-3,1.0244342E-2,-2.3313374E-3,-1.1560564E-2,6.4887293E-3,-2.925718E-3,1.275448E-2,1.2721178E-3],"split_indices":[14,14,5,2,11,14,11,0,0,0,0,0,0,0,0],"split_type":[0,0,0,0,0,0,0,0,0,0,0,0,0,0,0],"sum_hessian":[4.073767E3,1.8746821E3,2.199085E3,2.5770392E2,1.6169783E3,1.1611641E3,1.0379209E3,1.517577E2,1.05946205E2,1.3905327E3,2.264455E2,2.4700958E2,9.141545E2,2.2515813E2,8.1276276E2],"tree_param":{"num_deleted":"0","num_feature":"15","num_nodes":"15","size_leaf_vector":"1"}},{"base_weights":[-0E0,1.04169324E-1,-4.268863E-2,-7.6218925E-2,1.5278554E-1,-9.39343E-2,2.0821808E-2,-0E0,-9.517979E-3,-0E0,1.4094697E-2,-1.0140077E-3,-9.943749E-3,5.272767E-3,-1.9913837E-3],"categories":[],"categories_nodes":[],"categories_segments":[],"categories_sizes":[],"default_left":[0,0,0,0,0,0,0,0,0,0,0,0,0,0,0],"id":82,"left_children":[1,3,5,7,9,11,13,-1,-1,-1,-1,-1,-1,-1,-1],"loss_changes":[1.853364E1,1.1102551E1,1.0255066E1,1.2482803E0,5.0405426E0,4.889127E0,3.4658675E0,0E0,0E0,0E0,0E0,0E0,0E0,0E0,0E0],"parents":[2147483647,0,0,1,1,2,2,3,3,4,4,5,5,6,6],"right_children":[2,4,6,8,10,12,14,-1,-1,-1,-1,-1,-1,-1,-1],"split_conditions":[2.1672556E-3,7.655238E-1,2.783461E-1,1.5071604E-3,5.532542E-3,2.7332974E-3,5.997708E-1,-0E0,-9.517979E-3,-0E0,1.4094697E-2,-1.0140077E-3,-9.943749E-3,