{"learner":{"attributes":{"scikit_learn":"{\"_estimator_type\": \"classifier\"}"},"feature_names":["return","oc_spread","body_ratio","normalised_ema15","normalised_ema50","rsi_14","vol_ratio","bb_position","vol_ratio_lag1","vol_ratio_lag3","vol_ratio_lag4"],"feature_types":["float","float","float","float","float","float","float","float","float","float","float"],"gradient_booster":{"model":{"cats":{"enc":[],"feature_segments":[],"sorted_idx":[]},"gbtree_model_param":{"num_parallel_tree":"1","num_trees":"300"},"iteration_indptr":[0,1,2,3,4,5,6,7,8,9,10,11,12,13,14,15,16,17,18,19,20,21,22,23,24,25,26,27,28,29,30,31,32,33,34,35,36,37,38,39,40,41,42,43,44,45,46,47,48,49,50,51,52,53,54,55,56,57,58,59,60,61,62,63,64,65,66,67,68,69,70,71,72,73,74,75,76,77,78,79,80,81,82,83,84,85,86,87,88,89,90,91,92,93,94,95,96,97,98,99,100,101,102,103,104,105,106,107,108,109,110,111,112,113,114,115,116,117,118,119,120,121,122,123,124,125,126,127,128,129,130,131,132,133,134,135,136,137,138,139,140,141,142,143,144,145,146,147,148,149,150,151,152,153,154,155,156,157,158,159,160,161,162,163,164,165,166,167,168,169,170,171,172,173,174,175,176,177,178,179,180,181,182,183,184,185,186,187,188,189,190,191,192,193,194,195,196,197,198,199,200,201,202,203,204,205,206,207,208,209,210,211,212,213,214,215,216,217,218,219,220,221,222,223,224,225,226,227,228,229,230,231,232,233,234,235,236,237,238,239,240,241,242,243,244,245,246,247,248,249,250,251,252,253,254,255,256,257,258,259,260,261,262,263,264,265,266,267,268,269,270,271,272,273,274,275,276,277,278,279,280,281,282,283,284,285,286,287,288,289,290,291,292,293,294,295,296,297,298,299,300],"tree_info":[0,0,0,0,0,0,0,0,0,0,0,0,0,0,0,0,0,0,0,0,0,0,0,0,0,0,0,0,0,0,0,0,0,0,0,0,0,0,0,0,0,0,0,0,0,0,0,0,0,0,0,0,0,0,0,0,0,0,0,0,0,0,0,0,0,0,0,0,0,0,0,0,0,0,0,0,0,0,0,0,0,0,0,0,0,0,0,0,0,0,0,0,0,0,0,0,0,0,0,0,0,0,0,0,0,0,0,0,0,0,0,0,0,0,0,0,0,0,0,0,0,0,0,0,0,0,0,0,0,0,0,0,0,0,0,0,0,0,0,0,0,0,0,0,0,0,0,0,0,0,0,0,0,0,0,0,0,0,0,0,0,0,0,0,0,0,0,0,0,0,0,0,0,0,0,0,0,0,0,0,0,0,0,0,0,0,0,0,0,0,0,0,0,0,0,0,0,0,0,0,0,0,0,0,0,0,0,0,0,0,0,0,0,0,0,0,0,0,0,0,0,0,0,0,0,0,0,0,0,0,0,0,0,0,0,0,0,0,0,0,0,0,0,0,0,0,0,0,0,0,0,0,0,0,0,0,0,0,0,0,0,0,0,0,0,0,0,0,0,0,0,0,0,0,0,0,0,0,0,0,0,0,0,0,0,0,0,0,0,0,0,0,0,0,0,0,0,0,0,0],"trees":[{"base_weights":[-2.7486288E-3,9.321911E-2,-1.0099426E-1,1.3465805E-1,-6.526827E-3,-7.8463444E-4,-1.5492423E-1,1.71014E-1,6.835887E-2,-1.9372527E-1,1.4949321E-2,1.1136799E-2,-3.700937E-1,1.3425285E-1,-1.6349481E-1,2.539026E-1,1.21799864E-1,-4.8438538E-2,1.0508897E-1,1.0143068E-2,-4.533171E-1,1.0720365E-1,-1.8636337E-2,2.3705217E-1,-8.512959E-3,-5.742568E-2,-6.049716E-1,3.7994125E-1,-5.423849E-3,-1.6996525E-1,1.2907921E-1,-1.273473E-2,5.796679E-3,7.208333E-3,2.1597429E-3,9.363483E-5,-5.757695E-3,2.7987855E-3,-2.610409E-3,-7.5679296E-3,3.1233893E-3,-1.6820742E-2,-4.3050232E-3,3.0815313E-3,-1.158633E-2,-7.2318333E-4,6.794557E-3,-8.154503E-3,5.879824E-3,7.2235696E-4,-1.5549914E-3,-6.556911E-3,1.7189968E-2,-1.5605582E-2,1.5940553E-3,-2.478144E-4,1.2587936E-2,3.928248E-3,-5.3269574E-3,-3.3153796E-3,-5.5713165E-3,1.6555041E-2,3.997945E-4],"categories":[],"categories_nodes":[],"categories_segments":[],"categories_sizes":[],"default_left":[0,0,0,0,0,0,0,0,0,0,0,0,0,0,0,0,0,0,0,0,0,0,0,0,0,0,0,0,0,0,0,0,0,0,0,0,0,0,0,0,0,0,0,0,0,0,0,0,0,0,0,0,0,0,0,0,0,0,0,0,0,0,0],"id":0,"left_children":[1,3,5,7,9,11,13,15,17,19,21,23,25,27,29,31,33,35,37,39,41,43,45,47,49,51,53,55,57,59,61,-1,-1,-1,-1,-1,-1,-1,-1,-1,-1,-1,-1,-1,-1,-1,-1,-1,-1,-1,-1,-1,-1,-1,-1,-1,-1,-1,-1,-1,-1,-1,-1],"loss_changes":[1.681787E2,3.7297646E1,4.7633934E1,1.5354324E1,1.0654201E1,1.3585815E1,1.4223862E1,1.6761742E1,9.697862E0,1.4438572E1,7.3689365E0,1.3272351E1,7.0517855E0,5.681258E0,1.0558334E1,1.2383476E1,1.2541267E1,6.083649E0,8.526932E0,7.2264814E0,9.472963E0,1.3296438E1,8.140105E0,4.49162E0,7.074095E0,8.810083E0,3.940014E0,4.518511E0,4.681117E0,8.699112E0,8.352102E0,0E0,0E0,0E0,0E0,0E0,0E0,0E0,0E0,0E0,0E0,0E0,0E0,0E0,0E0,0E0,0E0,0E0,0E0,0E0,0E0,0E0,0E0,0E0,0E0,0E0,0E0,0E0,0E0,0E0,0E0,0E0,0E0],"parents":[2147483647,0,0,1,1,2,2,3,3,4,4,5,5,6,6,7,7,8,8,9,9,10,10,11,11,12,12,13,13,14,14,15,15,16,16,17,17,18,18,19,19,20,20,21,21,22,22,23,23,24,24,25,25,26,26,27,27,28,28,29,29,30,30],"right_children":[2,4,6,8,10,12,14,16,18,20,22,24,26,28,30,32,34,36,38,40,42,44,46,48,50,52,54,56,58,60,62,-1,-1,-1,-1,-1,-1,-1,-1,-1,-1,-1,-1,-1,-1,-1,-1,-1,-1,-1,-1,-1,-1,-1,-1,-1,-1,-1,-1,-1,-1,-1,-1],"split_conditions":[9.090909E-3,6.167918E-1,-6.672038E-5,1.1205791E0,3.0370107E-1,8.684211E-1,1.292192E-1,-5.6962025E-1,1.3209108E0,6.766275E1,-5.631579E-1,2.6570538E-1,7.537546E-1,4.8687277E-4,2.8075838E0,3.0736048E-2,-4.9839523E-3,1.2816123E0,1.1557684E-3,4.401626E-1,7.1677953E-1,9.3879175E-1,2.5192375E0,1.2321808E-1,2.926674E-1,7.7389383E-1,4.4339622E1,4.570397E1,6.1764705E-1,4.2355917E-3,5.306931E-4,-1.273473E-2,5.796679E-3,7.208333E-3,2.1597429E-3,9.363483E-5,-5.757695E-3,2.7987855E-3,-2.610409E-3,-7.5679296E-3,3.1233893E-3,-1.6820742E-2,-4.3050232E-3,3.0815313E-3,-1.158633E-2,-7.2318333E-4,6.794557E-3,-8.154503E-3,5.879824E-3,7.2235696E-4,-1.5549914E-3,-6.556911E-3,1.7189968E-2,-1.5605582E-2,1.5940553E-3,-2.478144E-4,1.2587936E-2,3.928248E-3,-5.3269574E-3,-3.3153796E-3,-5.5713165E-3,1.6555041E-2,3.997945E-4],"split_indices":[2,7,3,8,10,2,9,2,8,5,2,9,9,3,8,10,4,8,4,8,7,7,9,7,7,10,5,5,2,4,3,0,0,0,0,0,0,0,0,0,0,0,0,0,0,0,0,0,0,0,0,0,0,0,0,0,0,0,0,0,0,0,0],"split_type":[0,0,0,0,0,0,0,0,0,0,0,0,0,0,0,0,0,0,0,0,0,0,0,0,0,0,0,0,0,0,0,0,0,0,0,0,0,0,0,0,0,0,0,0,0,0,0,0,0,0,0,0,0,0,0,0,0,0,0,0,0,0,0],"sum_hessian":[1.783544E4,9.02234E3,8.8131E3,6.3739604E3,2.6483796E3,3.0838599E3,5.7292397E3,4.115563E3,2.2583975E3,2.7173767E2,2.376642E3,2.9883643E3,9.549566E1,1.6449252E2,5.564747E3,1.5316804E3,2.5838826E3,5.4022546E2,1.718172E3,1.5274306E2,1.189946E2,6.337212E2,1.7429208E3,2.3823918E2,2.750125E3,4.1498116E1,5.3997547E1,5.8997322E1,1.0549521E2,5.444753E3,1.1999455E2,1.6749239E1,1.5149312E3,2.6473798E2,2.3191448E3,4.339803E2,1.0624517E2,1.563929E3,1.54243E2,4.099814E1,1.1174493E2,5.2997593E1,6.5997E1,6.032226E2,3.0498615E1,1.6711741E3,7.174674E1,1.0749512E1,2.2748967E2,1.6519249E3,1.0982001E3,3.2748512E1,8.749602E0,4.6747875E1,7.2496705E0,1.9749104E1,3.924822E1,5.94973E1,4.599791E1,4.424049E3,1.0207036E3,1.7249216E1,1.0274533E2],"tree_param":{"num_deleted":"0","num_feature":"11","num_nodes":"63","size_leaf_vector":"1"}},{"base_weights":[-3.8075398E-4,9.048572E-2,-8.870257E-2,1.2960702E-1,-9.553205E-3,6.018912E-3,-1.2994848E-1,2.4715927E-1,1.0468355E-1,3.8487587E-2,-1.04311645E-1,1.8646605E-2,-3.8262945E-1,-1.5778111E-1,-2.2012599E-2,1.399585E-1,4.0858474E-1,2.8266594E-1,8.912328E-2,9.612771E-2,-5.4683864E-2,-1.3721934E-1,1.7223363E-1,1.03716545E-1,-2.1344915E-2,-2.9100826E-1,-2.879648E-2,-9.911159E-2,-2.0664169E-1,-1.7959401E-2,-1.565807E-2,5.2898154E-3,-1.8800666E-4,1.6398408E-2,7.287625E-3,8.951165E-3,1.8131888E-3,2.1005962E-3,-4.588029E-3,8.03353E-3,1.32185E-3,5.692392E-3,-1.9711372E-3,1.1684163E-2,-3.4250538E-3,8.493737E-3,-2.120069E-3,1.2196763E-3,6.022255E-3,-1.0609679E-3,6.1471206E-3,-1.3801703E-2,-1.6862054E-3,-6.747005E-4,-3.41683E-3,-8.71704E-3,-3.6788103E-3,-2.0558757E-3,1.088088E-3],"categories":[],"categories_nodes":[],"categories_segments":[],"categories_sizes":[],"default_left":[0,0,0,0,0,0,0,0,0,0,0,0,0,0,0,0,0,0,0,0,0,0,0,0,0,0,0,0,0,0,0,0,0,0,0,0,0,0,0,0,0,0,0,0,0,0,0,0,0,0,0,0,0,0,0,0,0,0,0],"id":1,"left_children":[1,3,5,7,9,11,13,15,17,19,21,23,25,27,29,31,33,35,37,39,41,43,45,47,49,51,-1,53,55,-1,57,-1,-1,-1,-1,-1,-1,-1,-1,-1,-1,-1,-1,-1,-1,-1,-1,-1,-1,-1,-1,-1,-1,-1,-1,-1,-1,-1,-1],"loss_changes":[1.4325798E2,3.443528E1,3.5365524E1,1.8505348E1,1.1268087E1,1.3488047E1,1.8940811E1,1.9077164E1,1.4432289E1,8.827121E0,7.601659E0,9.056448E0,6.9591713E0,1.4350349E1,6.518289E0,9.94035E0,1.12317505E1,1.0393738E1,9.1088295E0,9.822466E0,6.9004087E0,9.272757E0,5.14897E0,6.971696E0,1.4656214E1,5.7190294E0,0E0,8.764528E0,2.037024E1,0E0,6.512028E0,0E0,0E0,0E0,0E0,0E0,0E0,0E0,0E0,0E0,0E0,0E0,0E0,0E0,0E0,0E0,0E0,0E0,0E0,0E0,0E0,0E0,0E0,0E0,0E0,0E0,0E0,0E0,0E0],"parents":[2147483647,0,0,1,1,2,2,3,3,4,4,5,5,6,6,7,7,8,8,9,9,10,10,11,11,12,12,13,13,14,14,15,15,16,16,17,17,18,18,19,19,20,20,21,21,22,22,23,23,24,24,25,25,27,27,28,28,30,30],"right_children":[2,4,6,8,10,12,14,16,18,20,22,24,26,28,30,32,34,36,38,40,42,44,46,48,50,52,-1,54,56,-1,58,-1,-1,-1,-1,-1,-1,-1,-1,-1,-1,-1,-1,-1,-1,-1,-1,-1,-1,-1,-1,-1,-1,-1,-1,-1,-1,-1,-1],"split_conditions":[-8.925065E-6,1.1228162E-3,3.8878644E-1,3.942034E-1,-2.4603272E-4,8.684211E-1,1.5134913E0,6.830811E-1,-8.358209E-1,1.1642027E0,-2.5641026E-2,1.7617877E-4,2.2496219E0,4.1666666E-1,3.9781728E-1,-1.5958054E-4,1.7073646E-1,1.1992958E0,6.966102E1,-8.148148E-1,8.529713E-1,9.263011E-2,6.6860466E1,1.327889E-4,4.665392E1,5.897947E-1,-2.879648E-2,6.7739505E-1,3.424431E-1,-1.7959401E-2,9.7603756E-1,5.2898154E-3,-1.8800666E-4,1.6398408E-2,7.287625E-3,8.951165E-3,1.8131888E-3,2.1005962E-3,-4.588029E-3,8.03353E-3,1.32185E-3,5.692392E-3,-1.9711372E-3,1.1684163E-2,-3.4250538E-3,8.493737E-3,-2.120069E-3,1.2196763E-3,6.022255E-3,-1.0609679E-3,6.1471206E-3,-1.3801703E-2,-1.6862054E-3,-6.747005E-4,-3.41683E-3,-8.71704E-3,-3.6788103E-3,-2.0558757E-3,1.088088E-3],"split_indices":[0,4,7,6,1,2,6,10,2,8,2,0,10,2,7,0,7,8,5,2,6,6,5,1,5,8,0,7,6,0,10,0,0,0,0,0,0,0,0,0,0,0,0,0,0,0,0,0,0,0,0,0,0,0,0,0,0,0,0],"split_type":[0,0,0,0,0,0,0,0,0,0,0,0,0,0,0,0,0,0,0,0,0,0,0,0,0,0,0,0,0,0,0,0,0,0,0,0,0,0,0,0,0,0,0,0,0,0,0,0,0,0,0,0,0,0,0,0,0,0,0],"sum_hessian":[1.784837E4,8.797439E3,9.05093E3,6.324054E3,2.4733857E3,2.745872E3,6.3050576E3,1.104716E3,5.219338E3,1.6416786E3,8.3170715E2,2.6603848E3,8.548735E1,5.0121494E3,1.2929081E3,6.649786E2,4.397374E2,4.1823962E2,4.8010986E3,1.0142101E3,6.274685E2,7.437124E2,8.7994774E1,8.5021484E2,1.8101699E3,7.8988686E1,6.4986696E0,2.2788457E3,2.7333037E3,9.249458E0,1.2836587E3,3.9623862E2,2.6873996E2,8.049817E1,3.5923923E2,2.57495E2,1.6074463E2,4.7013545E3,9.9743866E1,1.1874629E2,8.9546375E2,6.2246685E1,5.652218E2,1.9249111E1,7.2446326E2,4.8747356E1,3.9247417E1,6.632231E2,1.8699173E2,1.6624272E3,1.4774265E2,2.9996544E1,4.899214E1,1.028186E3,1.2506597E3,4.6896704E2,2.2643367E3,5.847084E2,6.9895026E2],"tree_param":{"num_deleted":"0","num_feature":"11","num_nodes":"59","size_leaf_vector":"1"}},{"base_weights":[4.2957575E-3,9.394702E-2,-9.842513E-2,1.3171643E-1,1.8233385E-2,-1.0927763E-3,-1.4583197E-1,1.7801096E-1,6.3114144E-2,5.065862E-5,2.6657453E-1,1.0219393E-2,-3.3544326E-1,-1.5409493E-1,2.4061531E-1,2.7899426E-1,1.2831171E-1,4.2383963E-1,5.6865398E-2,-2.9012665E-1,9.7807655E-3,-1.8566431E-2,3.5399354E-1,3.8827258E-1,3.210399E-3,3.0693614E-1,-4.7196645E-1,-3.068058E-2,-1.6698459E-1,-2.7923506E-1,3.700928E-1,-1.124694E-3,6.512627E-3,5.2582007E-3,1.7412411E-3,1.23238405E-2,-7.3723146E-3,1.1969341E-3,1.8643914E-2,8.94832E-3,-9.389039E-3,2.95543E-4,-1.7774126E-2,1.3071159E-2,-6.398497E-3,-7.254384E-3,8.723291E-3,8.2672096E-4,1.3679109E-2,3.0164216E-3,-3.8634535E-4,-8.170977E-3,1.7539226E-2,-1.374184E-2,1.0326082E-3,1.1548726E-2,-1.0802792E-3,-2.378502E-3,-4.5362054E-3,-1.2809529E-2,2.2168541E-3,1.4902815E-2,2.8512962E-3],"categories":[],"categories_nodes":[],"categories_segments":[],"categories_sizes":[],"default_left":[0,0,0,0,0,0,0,0,0,0,0,0,0,0,0,0,0,0,0,0,0,0,0,0,0,0,0,0,0,0,0,0,0,0,0,0,0,0,0,0,0,0,0,0,0,0,0,0,0,0,0,0,0,0,0,0,0,0,0,0,0,0,0],"id":2,"left_children":[1,3,5,7,9,11,13,15,17,19,21,23,25,27,29,31,33,35,37,39,41,43,45,47,49,51,53,55,57,59,61,-1,-1,-1,-1,-1,-1,-1,-1,-1,-1,-1,-1,-1,-1,-1,-1,-1,-1,-1,-1,-1,-1,-1,-1,-1,-1,-1,-1,-1,-1,-1,-1],"loss_changes":[1.6437933E2,2.7253563E1,3.8383423E1,2.018396E1,1.4329227E1,1.0312287E1,1.7899673E1,1.9016457E1,5.7546434E0,8.354174E0,5.4029636E0,6.987201E0,7.970113E0,8.708221E0,8.011837E0,7.051178E0,1.3837097E1,4.6885624E0,4.855795E0,9.314858E0,8.56231E0,8.805719E0,4.9492455E0,3.9071236E0,7.2070374E0,5.6992264E0,5.889988E0,5.340457E0,1.1424255E1,2.8220544E0,6.8958864E0,0E0,0E0,0E0,0E0,0E0,0E0,0E0,0E0,0E0,0E0,0E0,0E0,0E0,0E0,0E0,0E0,0E0,0E0,0E0,0E0,0E0,0E0,0E0,0E0,0E0,0E0,0E0,0E0,0E0,0E0,0E0,0E0],"parents":[2147483647,0,0,1,1,2,2,3,3,4,4,5,5,6,6,7,7,8,8,9,9,10,10,11,11,12,12,13,13,14,14,15,15,16,16,17,17,18,18,19,19,20,20,21,21,22,22,23,23,24,24,25,25,26,26,27,27,28,28,29,29,30,30],"right_children":[2,4,6,8,10,12,14,16,18,20,22,24,26,28,30,32,34,36,38,40,42,44,46,48,50,52,54,56,58,60,62,-1,-1,-1,-1,-1,-1,-1,-1,-1,-1,-1,-1,-1,-1,-1,-1,-1,-1,-1,-1,-1,-1,-1,-1,-1,-1,-1,-1,-1,-1,-1,-1],"split_conditions":[6.896552E-2,5.8337516E-1,-1.2082453E-4,1.035093E0,2.1681712E0,8.684211E-1,2.8075838E0,-1.2006311E-3,1.9898264E-1,4.8427673E1,6.386287E-4,-4.781866E-3,2.5E1,2.5406104E-1,8.4621805E-1,-1.6088404E-1,-5.769231E-1,-2.3116317E-4,1.3957759E-4,-5.5714285E-1,2.827968E-4,1.6034124E0,4.0832087E-1,1.4012401E0,3.4920126E-1,4.3071464E-1,4.4339622E1,6.472588E-2,4.3037975E-1,2.6103053E-3,1.2911233E0,-1.124694E-3,6.512627E-3,5.2582007E-3,1.7412411E-3,1.23238405E-2,-7.3723146E-3,1.1969341E-3,1.8643914E-2,8.94832E-3,-9.389039E-3,2.95543E-4,-1.7774126E-2,1.3071159E-2,-6.398497E-3,-7.254384E-3,8.723291E-3,8.2672096E-4,1.3679109E-2,3.0164216E-3,-3.8634535E-4,-8.170977E-3,1.7539226E-2,-1.374184E-2,1.0326082E-3,1.1548726E-2,-1.0802792E-3,-2.378502E-3,-4.5362054E-3,-1.2809529E-2,2.2168541E-3,1.4902815E-2,2.8512962E-3],"split_indices":[2,7,3,8,10,2,8,3,10,5,3,3,5,9,10,7,2,3,1,2,0,9,8,8,9,8,5,8,2,3,10,0,0,0,0,0,0,0,0,0,0,0,0,0,0,0,0,0,0,0,0,0,0,0,0,0,0,0,0,0,0,0,0],"split_type":[0,0,0,0,0,0,0,0,0,0,0,0,0,0,0,0,0,0,0,0,0,0,0,0,0,0,0,0,0,0,0,0,0,0,0,0,0,0,0,0,0,0,0,0,0,0,0,0,0,0,0,0,0,0,0,0,0,0,0,0,0,0,0],"sum_hessian":[1.7847742E4,9.530197E3,8.317544E3,6.3578657E3,3.1723318E3,2.724604E3,5.5929404E3,3.795185E3,2.5626807E3,2.9568418E3,2.1549008E2,2.6363762E3,8.822779E1,5.476445E3,1.1649549E2,1.2502346E3,2.5449507E3,4.2498753E1,2.520182E3,9.499595E1,2.8618457E3,5.0748283E1,1.6474179E2,4.6997818E1,2.5893782E3,1.5245456E1,7.298233E1,5.182019E2,4.9582427E3,2.2998838E1,9.349665E1,6.1249092E1,1.1889855E3,7.814943E2,1.7634562E3,3.624898E1,6.2497706E0,2.5134321E3,6.7498035E0,1.524973E1,7.9746216E1,2.8500967E3,1.174907E1,1.5249519E1,3.5498764E1,9.249523E0,1.5549226E2,1.92491E1,2.774872E1,3.4698804E2,2.2423901E3,6.4979157E0,8.7475395E0,5.6234303E1,1.6748028E1,1.5748444E1,5.0245346E2,1.9835658E3,2.974677E3,1.2499439E1,1.0499398E1,4.0248444E1,5.3248207E1],"tree_param":{"num_deleted":"0","num_feature":"11","num_nodes":"63","size_leaf_vector":"1"}},{"base_weights":[-3.4372804E-3,8.764913E-2,-9.572145E-2,1.2408296E-1,2.1250824E-2,-2.963613E-2,-1.7799532E-1,1.7308299E-1,4.0052492E-2,4.957524E-3,2.4563833E-1,2.8315514E-1,-4.1697107E-2,-1.9332053E-1,8.777411E-2,-1.6559575E-1,1.8503542E-1,1.5215805E-1,6.145036E-3,2.0216316E-1,-8.975773E-3,8.635357E-1,2.0165277E-1,6.469155E-1,1.8541142E-1,-6.1292578E-2,1.2367374E-1,-1.9717118E-1,8.2454604E-1,1.4045791E-1,-3.2446346E-1,5.424328E-4,-1.0059157E-2,7.997942E-3,3.6421153E-3,8.597717E-4,5.6551825E-3,-4.0795994E-3,1.0048476E-3,7.257163E-3,-5.2649784E-3,1.9660071E-4,-3.960135E-3,2.756438E-2,6.4930073E-3,-7.467826E-3,5.8384594E-3,-1.0396249E-3,1.8146604E-2,-1.5386089E-3,7.7512893E-3,-1.5411674E-4,-2.8031003E-3,-2.239489E-3,4.904934E-3,1.037639E-2,-4.4522667E-3,2.5498671E-2,9.697283E-3,-8.971972E-4,6.9637536E-3,-1.4241573E-2,1.6165853E-2],"categories":[],"categories_nodes":[],"categories_segments":[],"categories_sizes":[],"default_left":[0,0,0,0,0,0,0,0,0,0,0,0,0,0,0,0,0,0,0,0,0,0,0,0,0,0,0,0,0,0,0,0,0,0,0,0,0,0,0,0,0,0,0,0,0,0,0,0,0,0,0,0,0,0,0,0,0,0,0,0,0,0,0],"id":3,"left_children":[1,3,5,7,9,11,13,15,17,19,21,23,25,27,29,31,33,35,37,39,41,43,45,47,49,51,53,55,57,59,61,-1,-1,-1,-1,-1,-1,-1,-1,-1,-1,-1,-1,-1,-1,-1,-1,-1,-1,-1,-1,-1,-1,-1,-1,-1,-1,-1,-1,-1,-1,-1,-1],"loss_changes":[1.498471E2,2.1700768E1,4.814042E1,2.3844353E1,1.1624358E1,1.8542055E1,1.6081589E1,1.4841248E1,8.114483E0,8.150486E0,5.675913E0,6.3686485E0,1.533636E1,1.478009E1,4.730731E0,6.9605913E0,1.2233276E1,5.870118E0,1.2430102E1,1.1115218E1,8.490207E0,2.7287092E0,7.064561E0,4.7632847E0,6.215326E0,1.5182393E1,1.1247568E1,1.3031448E1,1.3181019E0,6.1392803E0,8.939808E0,0E0,0E0,0E0,0E0,0E0,0E0,0E0,0E0,0E0,0E0,0E0,0E0,0E0,0E0,0E0,0E0,0E0,0E0,0E0,0E0,0E0,0E0,0E0,0E0,0E0,0E0,0E0,0E0,0E0,0E0,0E0,0E0],"parents":[2147483647,0,0,1,1,2,2,3,3,4,4,5,5,6,6,7,7,8,8,9,9,10,10,11,11,12,12,13,13,14,14,15,15,16,16,17,17,18,18,19,19,20,20,21,21,22,22,23,23,24,24,25,25,26,26,27,27,28,28,29,29,30,30],"right_children":[2,4,6,8,10,12,14,16,18,20,22,24,26,28,30,32,34,36,38,40,42,44,46,48,50,52,54,56,58,60,62,-1,-1,-1,-1,-1,-1,-1,-1,-1,-1,-1,-1,-1,-1,-1,-1,-1,-1,-1,-1,-1,-1,-1,-1,-1,-1,-1,-1,-1,-1,-1,-1],"split_conditions":[9.090909E-3,4.5321525E-5,5.767607E-4,1.1205791E0,2.1681712E0,1.5426463E-1,1.2066495E0,1.1325826E-1,-2.8905824E-3,-7.9545456E-1,1.0765545E0,3.036441E-1,1.8410716E0,4.7600245E0,1.7513436E0,-2.6133895E-4,-8.25E-1,2.3294117E1,-7.236181E-1,1.3401581E0,7.777778E1,6.492538E1,1.3714008E0,3.0736048E-2,2.2818895E-4,4.3037975E-1,8.82983E-1,4.1454773E-2,5.53878E-4,9.840713E-1,2.454208E0,5.424328E-4,-1.0059157E-2,7.997942E-3,3.6421153E-3,8.597717E-4,5.6551825E-3,-4.0795994E-3,1.0048476E-3,7.257163E-3,-5.2649784E-3,1.9660071E-4,-3.960135E-3,2.756438E-2,6.4930073E-3,-7.467826E-3,5.8384594E-3,-1.0396249E-3,1.8146604E-2,-1.5386089E-3,7.7512893E-3,-1.5411674E-4,-2.8031003E-3,-2.239489E-3,4.904934E-3,1.037639E-2,-4.4522667E-3,2.5498671E-2,9.697283E-3,-8.971972E-4,6.9637536E-3,-1.4241573E-2,1.6165853E-2],"split_indices":[2,3,3,8,10,9,7,10,3,2,9,7,8,10,10,0,2,5,2,9,5,5,9,10,0,2,10,8,1,10,10,0,0,0,0,0,0,0,0,0,0,0,0,0,0,0,0,0,0,0,0,0,0,0,0,0,0,0,0,0,0,0,0],"split_type":[0,0,0,0,0,0,0,0,0,0,0,0,0,0,0,0,0,0,0,0,0,0,0,0,0,0,0,0,0,0,0,0,0,0,0,0,0,0,0,0,0,0,0,0,0,0,0,0,0,0,0,0,0,0,0,0,0,0,0,0,0,0,0],"sum_hessian":[1.782456E4,8.97052E3,8.85404E3,5.7916685E3,3.1788513E3,4.910839E3,3.9432017E3,3.6577144E3,2.133954E3,2.9646064E3,2.1424489E2,1.8149304E2,4.7293457E3,3.728477E3,2.1472452E2,1.2424726E2,3.533467E3,4.9474158E2,1.6392126E3,1.9474623E2,2.7698604E3,1.2999476E1,2.012454E2,3.7249153E1,1.4424388E2,4.228878E3,5.0046777E2,3.7152285E3,1.3248666E1,1.90977E2,2.3747507E1,7.574811E1,4.8499157E1,3.4599652E2,3.1874707E3,2.3874603E2,2.5599556E2,2.7974377E2,1.3594689E3,1.512474E2,4.3498825E1,2.5081294E3,2.6173096E2,6.9998274E0,5.999649E0,2.074961E1,1.804958E2,7.749585E0,2.9499569E1,5.7248367E1,8.699552E1,2.3228547E3,1.9060234E3,1.5298958E2,3.474782E2,2.7995377E1,3.6872332E3,5.999407E0,7.2492585E0,9.448732E1,9.6489685E1,1.8497967E1,5.2495403E0],"tree_param":{"num_deleted":"0","num_feature":"11","num_nodes":"63","size_leaf_vector":"1"}},{"base_weights":[-1.7774149E-3,7.103296E-2,-1.030053E-1,1.0990019E-1,-1.5091981E-2,-2.9028919E-2,-1.5786563E-1,1.4681482E-1,3.7089303E-2,-4.1083775E-2,1.3424645E-1,-7.523926E-1,-2.0984609E-2,-1.6989365E-1,7.82616E-2,-1.190991E-1,1.580523E-1,6.5560736E-2,-1.1464843E-1,6.9545377E-3,-1.1194124E-1,2.3891035E-1,7.0720054E-3,-3.7718385E-3,-9.7793084E-1,2.9525822E-1,-3.3495434E-2,-1.3914214E-1,-2.3282701E-1,-1.291919E-1,2.5180855E-1,-1.9556703E-2,-9.5480785E-4,5.72852E-3,2.9178981E-3,-6.681259E-4,2.5066475E-3,-2.8301945E-5,-4.6663233E-3,-6.5904493E-3,6.389536E-4,-9.341251E-3,-1.6260004E-3,-1.5550295E-3,6.842483E-3,-5.49421E-3,2.888274E-3,-2.9146334E-2,-1.1191526E-2,1.0648575E-2,-1.090727E-5,-2.0273451E-3,5.449439E-4,-2.3293043E-3,-5.4469914E-3,-5.431806E-3,8.572797E-3,6.619013E-4,-1.1789015E-2,9.881514E-3,-2.5080105E-3],"categories":[],"categories_nodes":[],"categories_segments":[],"categories_sizes":[],"default_left":[0,0,0,0,0,0,0,0,0,0,0,0,0,0,0,0,0,0,0,0,0,0,0,0,0,0,0,0,0,0,0,0,0,0,0,0,0,0,0,0,0,0,0,0,0,0,0,0,0,0,0,0,0,0,0,0,0,0,0,0,0],"id":4,"left_children":[1,3,5,7,9,11,13,15,17,19,21,23,25,27,29,31,33,35,37,39,41,43,45,-1,47,49,51,53,55,57,59,-1,-1,-1,-1,-1,-1,-1,-1,-1,-1,-1,-1,-1,-1,-1,-1,-1,-1,-1,-1,-1,-1,-1,-1,-1,-1,-1,-1,-1,-1],"loss_changes":[1.3170265E2,3.4792885E1,3.0334373E1,1.9243423E1,1.2553786E1,1.8514435E1,1.2203766E1,1.4218506E1,1.0422188E1,9.376074E0,6.3804245E0,4.417597E0,1.2474554E1,7.8722763E0,7.547296E0,1.1222858E1,1.1827049E1,9.426614E0,4.211559E0,1.1128871E1,1.3202282E1,5.8932114E0,6.9705534E0,0E0,3.3947773E0,6.6993465E0,1.0362817E1,9.88089E0,1.182859E1,6.21737E0,8.280468E0,0E0,0E0,0E0,0E0,0E0,0E0,0E0,0E0,0E0,0E0,0E0,0E0,0E0,0E0,0E0,0E0,0E0,0E0,0E0,0E0,0E0,0E0,0E0,0E0,0E0,0E0,0E0,0E0,0E0,0E0],"parents":[2147483647,0,0,1,1,2,2,3,3,4,4,5,5,6,6,7,7,8,8,9,9,10,10,11,11,12,12,13,13,14,14,15,15,16,16,17,17,18,18,19,19,20,20,21,21,22,22,24,24,25,25,26,26,27,27,28,28,29,29,30,30],"right_children":[2,4,6,8,10,12,14,16,18,20,22,24,26,28,30,32,34,36,38,40,42,44,46,-1,48,50,52,54,56,58,60,-1,-1,-1,-1,-1,-1,-1,-1,-1,-1,-1,-1,-1,-1,-1,-1,-1,-1,-1,-1,-1,-1,-1,-1,-1,-1,-1,-1,-1,-1],"split_conditions":[1.2037005E-4,6.126255E-1,5.531725E-1,1.1205791E0,1.7196574E0,6.472588E-2,1.2066495E0,1.2732477E-1,4.0852855E-4,6.766275E1,1.8034225E0,4.339166E-1,1.800102E1,3.170935E-3,9.840713E-1,1.0500309E-1,2.8476822E1,1.411741E0,1.5134913E0,4.959128E1,2.6505616E-1,6.8879086E-1,2.0687053E0,-3.7718385E-3,-1.3285563E-3,9.92834E-1,3.9271255E1,1.3503532E0,3.1230528E0,2.5192375E0,1.5511235E0,-1.9556703E-2,-9.5480785E-4,5.72852E-3,2.9178981E-3,-6.681259E-4,2.5066475E-3,-2.8301945E-5,-4.6663233E-3,-6.5904493E-3,6.389536E-4,-9.341251E-3,-1.6260004E-3,-1.5550295E-3,6.842483E-3,-5.49421E-3,2.888274E-3,-2.9146334E-2,-1.1191526E-2,1.0648575E-2,-1.090727E-5,-2.0273451E-3,5.449439E-4,-2.3293043E-3,-5.4469914E-3,-5.431806E-3,8.572797E-3,6.619013E-4,-1.1789015E-2,9.881514E-3,-2.5080105E-3],"split_indices":[0,7,7,8,10,8,7,10,4,5,9,9,5,4,10,8,5,8,8,5,10,7,9,0,4,8,5,9,10,6,10,0,0,0,0,0,0,0,0,0,0,0,0,0,0,0,0,0,0,0,0,0,0,0,0,0,0,0,0,0,0],"split_type":[0,0,0,0,0,0,0,0,0,0,0,0,0,0,0,0,0,0,0,0,0,0,0,0,0,0,0,0,0,0,0,0,0,0,0,0,0,0,0,0,0,0,0,0,0,0,0,0,0,0,0,0,0,0,0,0,0,0,0,0,0],"sum_hessian":[1.7867043E4,1.0392388E4,7.4746543E3,7.1606084E3,3.231779E3,3.1834553E3,4.291199E3,4.7509116E3,2.409697E3,2.753302E3,4.78477E2,3.399519E1,3.1494602E3,4.0834727E3,2.0772653E2,1.9224297E2,4.5586685E3,2.0294647E3,3.8023233E2,1.6414032E3,1.1118988E3,2.619856E2,2.164914E2,9.99921E0,2.399598E1,1.1899364E2,3.0304666E3,2.745253E3,1.3382196E3,9.4736534E1,1.12990005E2,1.624914E1,1.7599382E2,9.0523663E2,3.653432E3,6.804826E2,1.348982E3,1.7624164E2,2.039907E2,1.09489204E2,1.531914E3,1.19481384E2,9.924175E2,4.949798E1,2.1248763E2,7.024675E1,1.4624463E2,1.2747892E1,1.1248086E1,7.22456E1,4.6748035E1,1.5098762E3,1.5205903E3,2.1023652E3,6.428878E2,1.3092244E3,2.8995176E1,6.873977E1,2.599677E1,7.3246315E1,3.9743687E1],"tree_param":{"num_deleted":"0","num_feature":"11","num_nodes":"61","size_leaf_vector":"1"}},{"base_weights":[1.0414885E-3,9.916077E-2,-8.371798E-2,1.343782E-1,9.094545E-3,-3.1715024E-2,-1.5116245E-1,1.7317468E-1,6.921441E-2,-4.3454014E-2,9.096401E-2,-1.959181E-2,-3.1947556E-1,-1.6710708E-1,1.459425E-1,2.7101406E-1,1.22938596E-1,-4.1491836E-2,1.0448544E-1,1.0377215E-2,-1.5680541E-1,1.1518293E-1,-4.3822333E-1,2.5440413E-1,-3.0273337E-2,2.5380108E-1,-3.729995E-1,-1.4311484E-1,-2.825639E-1,-8.353473E-2,3.3443508E-1,1.4272676E-3,6.983009E-3,2.2916382E-3,8.009097E-3,2.6022492E-4,-4.6535023E-3,1.2679562E-2,2.1266015E-3,3.6460045E-3,-9.793625E-4,-8.844192E-3,-2.4615936E-3,3.7032848E-3,-2.7300757E-3,-1.7726734E-2,-1.8591093E-3,7.0667807E-3,-5.155795E-3,2.585045E-3,-1.0251076E-3,-8.502467E-3,1.34322755E-2,-7.5118733E-3,-2.6992714E-2,-3.3688934E-3,4.2272536E-3,6.0150153E-3,-6.5773968E-3,5.046292E-3,-5.8656735E-3,9.371045E-3,-1.8931567E-3],"categories":[],"categories_nodes":[],"categories_segments":[],"categories_sizes":[],"default_left":[0,0,0,0,0,0,0,0,0,0,0,0,0,0,0,0,0,0,0,0,0,0,0,0,0,0,0,0,0,0,0,0,0,0,0,0,0,0,0,0,0,0,0,0,0,0,0,0,0,0,0,0,0,0,0,0,0,0,0,0,0,0,0],"id":5,"left_children":[1,3,5,7,9,11,13,15,17,19,21,23,25,27,29,31,33,35,37,39,41,43,45,47,49,51,53,55,57,59,61,-1,-1,-1,-1,-1,-1,-1,-1,-1,-1,-1,-1,-1,-1,-1,-1,-1,-1,-1,-1,-1,-1,-1,-1,-1,-1,-1,-1,-1,-1,-1,-1],"loss_changes":[1.4833792E2,2.6220047E1,3.3559326E1,1.5012352E1,1.000581E1,1.8848515E1,1.9759926E1,1.8272423E1,8.670717E0,8.645949E0,1.17029915E1,1.5189289E1,6.796898E0,1.0913315E1,9.229269E0,1.2055847E1,1.1109325E1,4.8708315E0,6.157587E0,8.206434E0,4.9794636E0,1.1087292E1,5.131762E0,6.434638E0,1.2050182E1,4.6324506E0,4.9744167E0,1.1030975E1,6.279007E0,5.602976E0,4.5389156E0,0E0,0E0,0E0,0E0,0E0,0E0,0E0,0E0,0E0,0E0,0E0,0E0,0E0,0E0,0E0,0E0,0E0,0E0,0E0,0E0,0E0,0E0,0E0,0E0,0E0,0E0,0E0,0E0,0E0,0E0,0E0,0E0],"parents":[2147483647,0,0,1,1,2,2,3,3,4,4,5,5,6,6,7,7,8,8,9,9,10,10,11,11,12,12,13,13,14,14,15,15,16,16,17,17,18,18,19,19,20,20,21,21,22,22,23,23,24,24,25,25,26,26,27,27,28,28,29,29,30,30],"right_children":[2,4,6,8,10,12,14,16,18,20,22,24,26,28,30,32,34,36,38,40,42,44,46,48,50,52,54,56,58,60,62,-1,-1,-1,-1,-1,-1,-1,-1,-1,-1,-1,-1,-1,-1,-1,-1,-1,-1,-1,-1,-1,-1,-1,-1,-1,-1,-1,-1,-1,-1,-1,-1],"split_conditions":[-4.9199683E-5,1.1228162E-3,6.7001003E-1,1.1205791E0,3.3073619E-3,8.561151E-1,1.2066495E0,2.0851399E-1,1.3209108E0,1.1642027E0,1.0153488E-2,1.5426463E-1,2.2187364E-1,7.3846155E-1,9.840713E-1,-2.9412122E-2,1.8207092E0,1.6906762E0,1.3303705E0,-6.228835E-4,4.0995598E-1,7.777778E1,1.0020343E0,1.6450101E-3,2.4568966E1,9.864574E-2,2.6004875E0,2.6901555E0,9.864574E-2,6.792453E-1,1.7679257E0,1.4272676E-3,6.983009E-3,2.2916382E-3,8.009097E-3,2.6022492E-4,-4.6535023E-3,1.2679562E-2,2.1266015E-3,3.6460045E-3,-9.793625E-4,-8.844192E-3,-2.4615936E-3,3.7032848E-3,-2.7300757E-3,-1.7726734E-2,-1.8591093E-3,7.0667807E-3,-5.155795E-3,2.585045E-3,-1.0251076E-3,-8.502467E-3,1.34322755E-2,-7.5118733E-3,-2.6992714E-2,-3.3688934E-3,4.2272536E-3,6.0150153E-3,-6.5773968E-3,5.046292E-3,-5.8656735E-3,9.371045E-3,-1.8931567E-3],"split_indices":[0,4,7,8,4,2,7,7,8,8,4,9,9,2,10,7,10,9,8,0,7,5,9,4,5,9,9,9,9,2,10,0,0,0,0,0,0,0,0,0,0,0,0,0,0,0,0,0,0,0,0,0,0,0,0,0,0,0,0,0,0,0,0],"split_type":[0,0,0,0,0,0,0,0,0,0,0,0,0,0,0,0,0,0,0,0,0,0,0,0,0,0,0,0,0,0,0,0,0,0,0,0,0,0,0,0,0,0,0,0,0,0,0,0,0,0,0,0,0,0,0,0,0,0,0,0,0,0,0],"sum_hessian":[1.78345E4,8.26574E3,9.568759E3,5.941875E3,2.3238655E3,5.403708E3,4.165051E3,3.723413E3,2.2184617E3,1.4156737E3,9.0819196E2,5.186281E3,2.1742747E2,3.9533264E3,2.117242E2,1.2617139E3,2.4616992E3,5.35982E2,1.6824797E3,9.6045605E2,4.5521762E2,8.691945E2,3.8997425E1,1.9374089E2,4.99254E3,1.8247105E1,1.9918037E2,3.27501E3,6.783163E2,9.573275E1,1.1599145E2,2.3224243E2,1.0294714E3,2.2852026E3,1.7649669E2,4.087363E2,1.2724572E2,2.6249537E1,1.6562302E3,2.5024332E2,7.102127E2,6.924391E1,3.859737E2,7.114614E2,1.5773311E2,1.8498383E1,2.0499044E1,1.7074313E2,2.2997755E1,4.959806E2,4.496559E3,6.4993405E0,1.1747764E1,1.9343341E2,5.746955E0,3.1805286E3,9.448162E1,1.8996534E1,6.5931976E2,3.524429E1,6.048846E1,9.524732E1,2.0744125E1],"tree_param":{"num_deleted":"0","num_feature":"11","num_nodes":"63","size_leaf_vector":"1"}},{"base_weights":[4.0153977E-3,8.539312E-2,-8.125375E-2,1.19215585E-1,-7.3459465E-4,-3.0238852E-2,-1.691249E-1,1.494878E-1,6.5893464E-2,2.2915107E-1,-2.2678558E-2,-1.4754346E-2,-1.8150401E-1,-1.8544614E-1,6.301836E-2,3.374007E-1,1.3129511E-1,-3.0683568E-2,9.862881E-2,4.466616E-1,-9.131238E-2,-6.8707116E-2,5.1750533E-2,-4.8939116E-2,6.0907647E-2,-6.660184E-1,-1.5498008E-1,7.321538E-1,-1.897031E-1,-5.3756297E-1,1.00378364E-1,-2.257797E-2,8.003492E-3,3.4838062E-4,3.5194508E-3,3.830064E-3,-2.1504431E-3,2.6167985E-3,-2.6559026E-3,-1.2578955E-2,1.09773455E-2,-1.0044338E-2,2.1234122E-3,-6.305516E-4,-5.428301E-3,8.264532E-3,4.4838502E-4,3.187284E-3,-1.4772895E-3,5.677608E-3,4.952363E-4,-8.40696E-3,-2.7255943E-2,-3.8305756E-3,1.0307798E-2,-1.4184195E-3,2.6785117E-2,-6.5612295E-3,-3.4738285E-3,-4.4382424E-3,-1.7462261E-2,2.0165069E-4,7.4022324E-3],"categories":[],"categories_nodes":[],"categories_segments":[],"categories_sizes":[],"default_left":[0,0,0,0,0,0,0,0,0,0,0,0,0,0,0,0,0,0,0,0,0,0,0,0,0,0,0,0,0,0,0,0,0,0,0,0,0,0,0,0,0,0,0,0,0,0,0,0,0,0,0,0,0,0,0,0,0,0,0,0,0,0,0],"id":6,"left_children":[1,3,5,7,9,11,13,15,17,19,21,23,25,27,29,31,33,35,37,39,41,43,45,47,49,51,53,55,57,59,61,-1,-1,-1,-1,-1,-1,-1,-1,-1,-1,-1,-1,-1,-1,-1,-1,-1,-1,-1,-1,-1,-1,-1,-1,-1,-1,-1,-1,-1,-1,-1,-1],"loss_changes":[1.23668E2,2.6564583E1,3.9008205E1,1.0559479E1,1.2981548E1,1.2897312E1,1.2122879E1,1.4231422E1,7.5050993E0,1.5671077E1,8.051205E0,1.2928028E1,6.4681377E0,1.1805939E1,4.7820582E0,1.3617424E1,1.2610107E1,8.277187E0,7.913391E0,7.4102573E0,6.3209248E0,1.0344208E1,9.11872E0,1.216013E1,1.1770752E1,3.7934875E0,5.8818865E0,5.4908643E0,1.0217278E1,9.150686E-1,4.286995E0,0E0,0E0,0E0,0E0,0E0,0E0,0E0,0E0,0E0,0E0,0E0,0E0,0E0,0E0,0E0,0E0,0E0,0E0,0E0,0E0,0E0,0E0,0E0,0E0,0E0,0E0,0E0,0E0,0E0,0E0,0E0,0E0],"parents":[2147483647,0,0,1,1,2,2,3,3,4,4,5,5,6,6,7,7,8,8,9,9,10,10,11,11,12,12,13,13,14,14,15,15,16,16,17,17,18,18,19,19,20,20,21,21,22,22,23,23,24,24,25,25,26,26,27,27,28,28,29,29,30,30],"right_children":[2,4,6,8,10,12,14,16,18,20,22,24,26,28,30,32,34,36,38,40,42,44,46,48,50,52,54,56,58,60,62,-1,-1,-1,-1,-1,-1,-1,-1,-1,-1,-1,-1,-1,-1,-1,-1,-1,-1,-1,-1,-1,-1,-1,-1,-1,-1,-1,-1,-1,-1,-1,-1],"split_conditions":[1.7828808E-5,1.1228162E-3,8.577499E-4,1.1109345E0,-7.8698224E-1,7.777778E-1,1.2066495E0,-8.25E-1,1.3209108E0,8.10255E-1,3.3073619E-3,1.1109464E0,1.2048193E-1,1.6880777E-2,3.399009E-1,8.933162E0,3.2546675E-1,-2.0919011E-3,2.8075838E0,8.584994E-2,5.446571E1,8.3282334E-1,3.0034658E-4,2.4121557E1,9.8450106E-1,3.2613435E-4,2.65614E-3,6.666667E-1,5.298292E-1,3.4475161E-3,3.4425166E-3,-2.257797E-2,8.003492E-3,3.4838062E-4,3.5194508E-3,3.830064E-3,-2.1504431E-3,2.6167985E-3,-2.6559026E-3,-1.2578955E-2,1.09773455E-2,-1.0044338E-2,2.1234122E-3,-6.305516E-4,-5.428301E-3,8.264532E-3,4.4838502E-4,3.187284E-3,-1.4772895E-3,5.677608E-3,4.952363E-4,-8.40696E-3,-2.7255943E-2,-3.8305756E-3,1.0307798E-2,-1.4184195E-3,2.6785117E-2,-6.5612295E-3,-3.4738285E-3,-4.4382424E-3,-1.7462261E-2,2.0165069E-4,7.4022324E-3],"split_indices":[0,4,3,8,2,2,7,2,8,6,4,6,8,8,9,5,9,3,8,8,5,7,3,5,8,4,0,2,6,4,0,0,0,0,0,0,0,0,0,0,0,0,0,0,0,0,0,0,0,0,0,0,0,0,0,0,0,0,0,0,0,0,0],"split_type":[0,0,0,0,0,0,0,0,0,0,0,0,0,0,0,0,0,0,0,0,0,0,0,0,0,0,0,0,0,0,0,0,0,0,0,0,0,0,0,0,0,0,0,0,0,0,0,0,0,0,0,0,0,0,0,0,0,0,0,0,0,0,0],"sum_hessian":[1.782014E4,9.118131E3,8.702009E3,6.546807E3,2.571324E3,5.506483E3,3.195526E3,4.1748467E3,2.3719607E3,2.2323755E2,2.3480864E3,4.996142E3,5.1034073E2,2.985805E3,2.09721E2,3.6695975E2,3.8078867E3,6.0047626E2,1.7714845E3,1.3274486E2,9.049269E1,1.4508971E3,8.971892E2,3.4415652E3,1.554577E3,2.5236364E1,4.8510434E2,1.2998307E1,2.9728066E3,1.1497882E1,1.982231E2,6.2484727E0,3.6071127E2,7.579766E2,3.0499102E3,1.4774513E2,4.5273114E2,1.6217355E3,1.4974902E2,5.999809E0,1.2674505E2,3.0246305E1,6.0246387E1,1.1854185E3,2.6547867E2,7.8248245E1,8.189409E2,2.949902E2,3.146575E3,2.5246512E2,1.3021119E3,1.7989193E1,7.247173E0,4.7135815E2,1.3746196E1,5.2494054E0,7.748902E0,6.717728E2,2.301034E3,5.748975E0,5.7489066E0,1.437312E2,5.449191E1],"tree_param":{"num_deleted":"0","num_feature":"11","num_nodes":"63","size_leaf_vector":"1"}},{"base_weights":[-2.4268662E-3,8.4736876E-2,-9.04176E-2,1.2306666E-1,-6.3215466E-3,-2.472966E-2,-1.5305047E-1,1.7300203E-1,8.32602E-2,-2.2520749E-2,2.1200934E-1,-1.2429965E-2,-3.4769407E-1,-1.6179799E-1,1.2113143E-1,2.963243E-1,1.3857299E-1,1.5083288E-1,4.252812E-2,1.1388887E-1,-5.088007E-2,4.8077476E-1,8.501354E-2,4.284491E-2,-5.355119E-2,4.5409936E-2,-4.300824E-1,-5.5197027E-2,-1.8195304E-1,-1.2603123E-1,3.3045572E-1,-2.0128492E-2,6.884015E-3,1.1933701E-3,3.7312647E-3,-9.252958E-4,4.0635215E-3,-3.5348923E-3,1.4620217E-3,3.354954E-3,-1.640954E-2,-4.521212E-3,-6.676163E-4,8.266474E-3,2.3263594E-2,4.92823E-3,-3.6012928E-3,2.1441767E-3,-1.4016908E-3,-1.6070622E-3,2.8972023E-3,-8.839331E-3,7.926236E-3,7.1484706E-4,-1.1078855E-2,-8.0723915E-4,-1.3923811E-2,-2.7820996E-3,-5.0517316E-3,1.2993878E-3,-1.2270793E-2,9.4229095E-3,-9.983702E-3],"categories":[],"categories_nodes":[],"categories_segments":[],"categories_sizes":[],"default_left":[0,0,0,0,0,0,0,0,0,0,0,0,0,0,0,0,0,0,0,0,0,0,0,0,0,0,0,0,0,0,0,0,0,0,0,0,0,0,0,0,0,0,0,0,0,0,0,0,0,0,0,0,0,0,0,0,0,0,0,0,0,0,0],"id":7,"left_children":[1,3,5,7,9,11,13,15,17,19,21,23,25,27,29,31,33,35,37,39,41,43,45,47,49,51,53,55,57,59,61,-1,-1,-1,-1,-1,-1,-1,-1,-1,-1,-1,-1,-1,-1,-1,-1,-1,-1,-1,-1,-1,-1,-1,-1,-1,-1,-1,-1,-1,-1,-1,-1],"loss_changes":[1.3697707E2,3.1315453E1,3.6562164E1,1.2536705E1,9.408441E0,1.7232714E1,1.0931053E1,1.1846725E1,9.669224E0,9.584448E0,6.230653E0,9.505777E0,5.174103E0,9.463379E0,7.3485003E0,1.2544472E1,5.72316E0,8.643414E0,1.0681583E1,1.4270825E1,6.5046945E0,3.1606112E0,4.392333E0,1.0389872E1,8.670208E0,4.155212E0,4.493292E0,7.4868517E0,9.779518E0,5.2659845E0,6.084239E0,0E0,0E0,0E0,0E0,0E0,0E0,0E0,0E0,0E0,0E0,0E0,0E0,0E0,0E0,0E0,0E0,0E0,0E0,0E0,0E0,0E0,0E0,0E0,0E0,0E0,0E0,0E0,0E0,0E0,0E0,0E0,0E0],"parents":[2147483647,0,0,1,1,2,2,3,3,4,4,5,5,6,6,7,7,8,8,9,9,10,10,11,11,12,12,13,13,14,14,15,15,16,16,17,17,18,18,19,19,20,20,21,21,22,22,23,23,24,24,25,25,26,26,27,27,28,28,29,29,30,30],"right_children":[2,4,6,8,10,12,14,16,18,20,22,24,26,28,30,32,34,36,38,40,42,44,46,48,50,52,54,56,58,60,62,-1,-1,-1,-1,-1,-1,-1,-1,-1,-1,-1,-1,-1,-1,-1,-1,-1,-1,-1,-1,-1,-1,-1,-1,-1,-1,-1,-1,-1,-1,-1,-1],"split_conditions":[9.090909E-3,6.126255E-1,6.005385E-1,7.747094E-1,2.1681712E0,8.684211E-1,1.2449331E0,1.790559E-1,8.755826E-1,-6.5868264E-1,6.7789185E-1,2.9624236E-1,3.0276382E1,3.4920126E-1,9.840713E-1,-2.1525235E-1,3.641109E-1,2.6016766E-1,1.0020343E0,-2.2707455E-4,3.0370107E-1,3.8382509E0,-3.4760198E-4,4.6296296E-1,1.1834216E-3,4.4934186E-1,2.9903996E-1,8.665283E1,4.5714286E-1,9.377243E-1,9.235197E-3,-2.0128492E-2,6.884015E-3,1.1933701E-3,3.7312647E-3,-9.252958E-4,4.0635215E-3,-3.5348923E-3,1.4620217E-3,3.354954E-3,-1.640954E-2,-4.521212E-3,-6.676163E-4,8.266474E-3,2.3263594E-2,4.92823E-3,-3.6012928E-3,2.1441767E-3,-1.4016908E-3,-1.6070622E-3,2.8972023E-3,-8.839331E-3,7.926236E-3,7.1484706E-4,-1.1078855E-2,-8.0723915E-4,-1.3923811E-2,-2.7820996E-3,-5.0517316E-3,1.2993878E-3,-1.2270793E-2,9.4229095E-3,-9.983702E-3],"split_indices":[2,7,7,6,10,2,7,7,9,2,6,7,5,9,10,7,9,9,9,0,10,10,0,2,1,6,10,5,2,9,4,0,0,0,0,0,0,0,0,0,0,0,0,0,0,0,0,0,0,0,0,0,0,0,0,0,0,0,0,0,0,0,0],"split_type":[0,0,0,0,0,0,0,0,0,0,0,0,0,0,0,0,0,0,0,0,0,0,0,0,0,0,0,0,0,0,0,0,0,0,0,0,0,0,0,0,0,0,0,0,0,0,0,0,0,0,0,0,0,0,0,0,0,0,0,0,0,0,0],"sum_hessian":[1.7857736E4,8.971044E3,8.886691E3,6.313227E3,2.6578167E3,4.3382393E3,4.5484526E3,2.7988508E3,3.5143762E3,2.4750737E3,1.8274286E2,4.1800845E3,1.5815479E2,4.408222E3,1.4023029E2,6.0918555E2,2.1896653E3,1.3206969E3,2.1936792E3,4.2547995E2,2.0495938E3,5.774643E1,1.2499644E2,1.7831476E3,2.3969368E3,2.7481178E1,1.3067361E2,7.0153143E2,3.706691E3,6.448574E1,7.5744545E1,7.497133E0,6.016884E2,5.897292E2,1.5999362E3,1.9724135E2,1.1234556E3,2.3049246E2,1.9631869E3,4.079818E2,1.7498154E1,2.3921158E2,1.8103822E3,5.024671E1,7.4997168E0,8.0247475E1,4.474896E1,1.1789485E3,6.041991E2,2.1692273E3,2.2770955E2,1.1240656E1,1.6240522E1,1.7993246E1,1.1268037E2,6.807887E2,2.074273E1,1.7144973E3,1.9921936E3,4.5739338E1,1.8746399E1,6.774529E1,7.99925E0],"tree_param":{"num_deleted":"0","num_feature":"11","num_nodes":"63","size_leaf_vector":"1"}},{"base_weights":[-9.043423E-4,6.939739E-2,-8.872E-2,1.0653009E-1,-5.1449253E-3,-6.7500323E-3,-1.2701143E-1,1.4612754E-1,3.6097918E-2,1.1006971E-1,-2.512885E-2,4.7796452E-3,-3.129803E-1,-1.787857E-1,-7.71781E-2,-6.086344E-1,1.5074332E-1,-8.048563E-2,7.323775E-2,2.2350956E-1,-4.7563463E-2,3.4053865E-1,-3.1996094E-2,2.1763091E-1,-1.0290071E-2,-1.5543822E-2,-5.975247E-1,-3.5356585E-2,-2.185156E-1,-8.8191524E-2,1.8315077E-1,-2.493358E-2,-3.2667613E-3,7.357234E-3,2.9194185E-3,1.3609891E-3,-4.2661517E-3,6.9623925E-3,1.2985513E-3,3.0269558E-3,1.8975109E-2,-2.221945E-3,1.4286744E-2,-1.34601565E-2,1.1050116E-2,-2.0943815E-2,-6.541485E-4,-1.0478107E-2,5.678053E-3,-7.9194416E-4,3.205232E-3,-1.5842916E-2,3.3368228E-3,-2.5739197E-2,-9.270048E-3,6.9019746E-4,-4.6073655E-3,-4.25971E-3,-9.820442E-3,6.2520336E-4,-2.4937314E-3,1.926022E-2,1.5340379E-3],"categories":[],"categories_nodes":[],"categories_segments":[],"categories_sizes":[],"default_left":[0,0,0,0,0,0,0,0,0,0,0,0,0,0,0,0,0,0,0,0,0,0,0,0,0,0,0,0,0,0,0,0,0,0,0,0,0,0,0,0,0,0,0,0,0,0,0,0,0,0,0,0,0,0,0,0,0,0,0,0,0,0,0],"id":8,"left_children":[1,3,5,7,9,11,13,15,17,19,21,23,25,27,29,31,33,35,37,39,41,43,45,47,49,51,53,55,57,59,61,-1,-1,-1,-1,-1,-1,-1,-1,-1,-1,-1,-1,-1,-1,-1,-1,-1,-1,-1,-1,-1,-1,-1,-1,-1,-1,-1,-1,-1,-1,-1,-1],"loss_changes":[1.1040392E2,2.7492062E1,2.4955963E1,1.8484314E1,7.608718E0,8.943904E0,1.396888E1,1.4875092E1,1.0342202E1,8.74542E0,7.0821295E0,7.8346376E0,7.7696934E0,1.5134209E1,7.938719E0,6.107218E0,1.3935432E1,9.332296E0,6.2418747E0,1.5486338E1,7.709104E0,8.316312E0,5.7258453E0,4.6572165E0,9.153132E0,5.5248427E0,4.2412586E0,6.715467E0,1.1715294E1,7.783243E0,8.771425E0,0E0,0E0,0E0,0E0,0E0,0E0,0E0,0E0,0E0,0E0,0E0,0E0,0E0,0E0,0E0,0E0,0E0,0E0,0E0,0E0,0E0,0E0,0E0,0E0,0E0,0E0,0E0,0E0,0E0,0E0,0E0,0E0],"parents":[2147483647,0,0,1,1,2,2,3,3,4,4,5,5,6,6,7,7,8,8,9,9,10,10,11,11,12,12,13,13,14,14,15,15,16,16,17,17,18,18,19,19,20,20,21,21,22,22,23,23,24,24,25,25,26,26,27,27,28,28,29,29,30,30],"right_children":[2,4,6,8,10,12,14,16,18,20,22,24,26,28,30,32,34,36,38,40,42,44,46,48,50,52,54,56,58,60,62,-1,-1,-1,-1,-1,-1,-1,-1,-1,-1,-1,-1,-1,-1,-1,-1,-1,-1,-1,-1,-1,-1,-1,-1,-1,-1,-1,-1,-1,-1,-1,-1],"split_conditions":[1.0526316E-1,1.5658214E-4,-1.3120056E-4,1.1205791E0,-6.5868264E-1,8.684211E-1,8.529713E-1,1.6880777E-2,1.3209108E0,7.9522365E-1,9.263011E-2,2.421875E-1,8.1736493E-1,3.399009E-1,2.8075838E0,2.0709991E-1,-8.25E-1,1.1562953E0,4.0668967E-1,9.684544E-1,-6.666667E-1,-2.6723678E-4,4.1799474E-1,1.2825435E-1,1.6034662E0,2.564378E-1,5.897947E-1,6.792453E1,7.777778E1,6.005385E-1,1.7364603E0,-2.493358E-2,-3.2667613E-3,7.357234E-3,2.9194185E-3,1.3609891E-3,-4.2661517E-3,6.9623925E-3,1.2985513E-3,3.0269558E-3,1.8975109E-2,-2.221945E-3,1.4286744E-2,-1.34601565E-2,1.1050116E-2,-2.0943815E-2,-6.541485E-4,-1.0478107E-2,5.678053E-3,-7.9194416E-4,3.205232E-3,-1.5842916E-2,3.3368228E-3,-2.5739197E-2,-9.270048E-3,6.9019746E-4,-4.6073655E-3,-4.25971E-3,-9.820442E-3,6.2520336E-4,-2.4937314E-3,1.926022E-2,1.5340379E-3],"split_indices":[2,3,3,8,2,2,6,8,8,6,6,9,9,9,8,9,2,9,9,8,2,1,7,7,6,8,8,5,5,7,6,0,0,0,0,0,0,0,0,0,0,0,0,0,0,0,0,0,0,0,0,0,0,0,0,0,0,0,0,0,0,0,0],"split_type":[0,0,0,0,0,0,0,0,0,0,0,0,0,0,0,0,0,0,0,0,0,0,0,0,0,0,0,0,0,0,0,0,0,0,0,0,0,0,0,0,0,0,0,0,0,0,0,0,0,0,0,0,0,0,0,0,0,0,0,0,0,0,0],"sum_hessian":[1.7881258E4,9.931057E3,7.9502E3,6.6286265E3,3.3024302E3,2.531732E3,5.4184683E3,4.242429E3,2.3861973E3,4.8747144E2,2.8149587E3,2.4408186E3,9.091329E1,2.656213E3,2.7622554E3,2.499168E1,4.2174375E3,5.7622736E2,1.80997E3,2.832292E2,2.0424226E2,5.099481E1,2.763964E3,1.6049371E2,2.280325E3,4.496532E1,4.594797E1,5.765818E2,2.079631E3,2.6507734E3,1.1148193E2,1.0993091E1,1.39985895E1,3.756546E2,3.8417827E3,2.5574113E2,3.2048624E2,9.874748E1,1.7112225E3,2.5073071E2,3.249846E1,1.904928E2,1.3749459E1,6.9991546E0,4.399565E1,5.7495356E0,2.7582146E3,8.249438E0,1.5224428E2,1.958341E3,3.2198398E2,7.990395E0,3.6974922E1,9.484853E0,3.646312E1,4.17394E2,1.5918774E2,1.8764921E3,2.0313904E2,4.7041022E2,2.180363E3,1.4747315E1,9.673462E1],"tree_param":{"num_deleted":"0","num_feature":"11","num_nodes":"63","size_leaf_vector":"1"}},{"base_weights":[-6.417751E-5,7.822297E-2,-7.9780385E-2,1.10880345E-1,-4.524556E-3,9.434642E-3,-1.2321378E-1,1.4840443E-1,6.0944073E-2,-1.9509237E-2,2.9596865E-1,2.0608954E-2,-3.2191592E-1,-1.5102534E-1,-3.524746E-2,2.3565556E-1,1.1094953E-1,2.6503623E-1,4.814444E-2,3.008394E-2,-1.20250106E-1,3.6235365E-1,-3.3859402E-1,2.4253997E-1,4.848386E-3,-2.5495452E-1,-2.4100982E-2,-2.4764836E-2,-1.8047418E-1,-1.4269802E-1,3.2633443E-3,6.5312E-3,2.1485575E-3,-1.8810375E-2,2.5411288E-3,-2.430876E-3,9.413443E-3,-2.975059E-4,2.0907314E-3,1.1428126E-2,4.5283788E-4,7.5117387E-3,-3.3486967E-3,3.749773E-3,1.54389E-2,-1.2427895E-2,-1.735331E-3,2.2289865E-3,1.0034217E-2,8.9201226E-4,-1.6817186E-3,8.468915E-3,-7.359597E-3,1.3430922E-2,-1.0332746E-3,-2.6768208E-3,-5.0501674E-3,-3.8507555E-3,8.827752E-3,-1.6578747E-2,2.1487848E-4],"categories":[],"categories_nodes":[],"categories_segments":[],"categories_sizes":[],"default_left":[0,0,0,0,0,0,0,0,0,0,0,0,0,0,0,0,0,0,0,0,0,0,0,0,0,0,0,0,0,0,0,0,0,0,0,0,0,0,0,0,0,0,0,0,0,0,0,0,0,0,0,0,0,0,0,0,0,0,0,0,0],"id":9,"left_children":[1,3,5,7,9,11,13,15,17,19,21,23,25,27,29,31,33,35,37,39,41,43,45,47,49,51,-1,53,55,57,59,-1,-1,-1,-1,-1,-1,-1,-1,-1,-1,-1,-1,-1,-1,-1,-1,-1,-1,-1,-1,-1,-1,-1,-1,-1,-1,-1,-1,-1,-1],"loss_changes":[1.11478546E2,2.4354534E1,3.429689E1,1.2099571E1,1.1493589E1,1.0740291E1,1.4558022E1,1.2028946E1,7.234209E0,1.2149139E1,5.230091E0,9.811109E0,4.6227255E0,1.681131E1,5.922984E0,9.322819E0,1.1466358E1,1.004553E1,7.5529733E0,7.5669627E0,1.1889669E1,7.0612774E0,6.6072893E-1,5.563182E0,7.6069026E0,4.629895E0,0E0,1.2108778E1,1.0554634E1,6.7129064E0,5.1985345E0,0E0,0E0,0E0,0E0,0E0,0E0,0E0,0E0,0E0,0E0,0E0,0E0,0E0,0E0,0E0,0E0,0E0,0E0,0E0,0E0,0E0,0E0,0E0,0E0,0E0,0E0,0E0,0E0,0E0,0E0],"parents":[2147483647,0,0,1,1,2,2,3,3,4,4,5,5,6,6,7,7,8,8,9,9,10,10,11,11,12,12,13,13,14,14,15,15,16,16,17,17,18,18,19,19,20,20,21,21,22,22,23,23,24,24,25,25,27,27,28,28,29,29,30,30],"right_children":[2,4,6,8,10,12,14,16,18,20,22,24,26,28,30,32,34,36,38,40,42,44,46,48,50,52,-1,54,56,58,60,-1,-1,-1,-1,-1,-1,-1,-1,-1,-1,-1,-1,-1,-1,-1,-1,-1,-1,-1,-1,-1,-1,-1,-1,-1,-1,-1,-1,-1,-1],"split_conditions":[9.090909E-3,1.1228162E-3,-1.452144E-4,9.8450106E-1,2.3980825E0,8.684211E-1,1.4328829E0,-1.2006311E-3,3.734453E-1,-2.5316456E-1,4.6489974E-3,2.421875E-1,2.3361824E0,3.4443524E-1,3.3333334E-1,1.2532473E0,-9.02871E-2,2.4826482E-1,1.411741E0,9.263011E-2,4.2098766E1,7.057143E1,5.8020977E-3,1.8313928E-1,5.074627E-1,2.24E1,-2.4100982E-2,-2.4984442E-3,4.3037975E-1,8.4044945E1,-3.6296337E-3,6.5312E-3,2.1485575E-3,-1.8810375E-2,2.5411288E-3,-2.430876E-3,9.413443E-3,-2.975059E-4,2.0907314E-3,1.1428126E-2,4.5283788E-4,7.5117387E-3,-3.3486967E-3,3.749773E-3,1.54389E-2,-1.2427895E-2,-1.735331E-3,2.2289865E-3,1.0034217E-2,8.9201226E-4,-1.6817186E-3,8.468915E-3,-7.359597E-3,1.3430922E-2,-1.0332746E-3,-2.6768208E-3,-5.0501674E-3,-3.8507555E-3,8.827752E-3,-1.6578747E-2,2.1487848E-4],"split_indices":[2,4,3,8,10,2,6,3,9,2,3,9,9,9,2,10,7,9,8,6,5,5,3,9,2,5,0,4,2,5,4,0,0,0,0,0,0,0,0,0,0,0,0,0,0,0,0,0,0,0,0,0,0,0,0,0,0,0,0,0,0],"split_type":[0,0,0,0,0,0,0,0,0,0,0,0,0,0,0,0,0,0,0,0,0,0,0,0,0,0,0,0,0,0,0,0,0,0,0,0,0,0,0,0,0,0,0,0,0,0,0,0,0,0,0,0,0,0,0,0,0,0,0,0,0],"sum_hessian":[1.7860992E4,9.011277E3,8.849714E3,6.4610146E3,2.550263E3,2.8979397E3,5.951775E3,3.6878481E3,2.7731665E3,2.4300203E3,1.20242645E2,2.8043064E3,9.363331E1,4.521526E3,1.4302489E3,1.1060396E3,2.5818086E3,1.6249242E2,2.610674E3,1.6288594E3,8.01161E2,1.0924311E2,1.09995365E1,1.8499048E2,2.619316E3,8.739773E1,6.2355785E0,8.554905E2,3.6660352E3,3.766466E2,1.0536023E3,7.653582E2,3.4068137E2,1.1244546E1,2.570564E3,4.9247616E1,1.13244804E2,1.1279384E3,1.4827356E3,2.99971E1,1.5988623E3,5.124686E1,7.499141E2,7.074509E1,3.8498024E1,5.2498446E0,5.749692E0,1.12242035E2,7.274844E1,1.8204066E3,7.9890924E2,9.241549E0,7.815618E1,2.799466E1,8.274958E2,1.6694175E3,1.9966178E3,3.561529E2,2.0493713E1,7.998209E0,1.0456041E3],"tree_param":{"num_deleted":"0","num_feature":"11","num_nodes":"61","size_leaf_vector":"1"}},{"base_weights":[-1.1260466E-4,8.401591E-2,-8.1579775E-2,1.179663E-1,1.4258837E-2,-3.6434617E-2,-1.6392824E-1,1.5388048E-1,5.2853737E-2,2.5082916E-1,-2.7223714E-3,6.225226E-3,-8.973472E-2,-2.7063397E-1,-1.2568356E-1,1.9035364E-2,1.813822E-1,-6.528893E-2,8.5004136E-2,6.0611385E-1,1.01558946E-1,1.963695E-3,-5.446922E-1,-6.0713063E-3,2.8917253E-1,2.4037637E-1,-1.0477806E-1,4.178262E-3,-3.3069304E-1,-1.4096567E-1,3.4256857E-2,-3.6753187E-5,1.2344895E-2,5.1329387E-3,2.4948944E-3,-2.2466737E-3,5.087027E-3,7.153164E-4,3.7560964E-3,1.5915338E-2,-8.138561E-3,6.0589556E-3,-4.5760316E-3,5.239396E-4,-2.0874543E-3,-2.5947642E-2,-6.391151E-3,1.3719246E-3,-9.6203E-4,4.5556477E-3,1.5992412E-2,6.7583085E-3,-9.813322E-3,-2.8238818E-3,2.3189418E-3,1.9014664E-2,-2.0309156E-3,-8.234859E-3,3.0553754E-4,-5.4513133E-4,-3.7473147E-3,2.3045621E-3,-8.297059E-3],"categories":[],"categories_nodes":[],"categories_segments":[],"categories_sizes":[],"default_left":[0,0,0,0,0,0,0,0,0,0,0,0,0,0,0,0,0,0,0,0,0,0,0,0,0,0,0,0,0,0,0,0,0,0,0,0,0,0,0,0,0,0,0,0,0,0,0,0,0,0,0,0,0,0,0,0,0,0,0,0,0,0,0],"id":10,"left_children":[1,3,5,7,9,11,13,15,17,19,21,23,25,27,29,31,33,35,37,39,41,43,45,47,49,51,53,55,57,59,61,-1,-1,-1,-1,-1,-1,-1,-1,-1,-1,-1,-1,-1,-1,-1,-1,-1,-1,-1,-1,-1,-1,-1,-1,-1,-1,-1,-1,-1,-1,-1,-1],"loss_changes":[1.2224593E2,2.0779736E1,3.3681576E1,1.37938385E1,1.1545254E1,1.3311615E1,1.3059174E1,1.4101578E1,7.980872E0,1.0146078E1,6.813259E0,1.1318365E1,1.2949564E1,1.3958893E1,5.7823296E0,7.245618E0,1.1125908E1,4.9353113E0,7.4234743E0,6.7645893E0,7.4158187E0,5.632197E0,3.367724E0,8.037897E0,4.7186756E0,5.35378E0,1.2353718E1,1.2749537E1,1.0436142E1,7.3581924E0,6.0416617E0,0E0,0E0,0E0,0E0,0E0,0E0,0E0,0E0,0E0,0E0,0E0,0E0,0E0,0E0,0E0,0E0,0E0,0E0,0E0,0E0,0E0,0E0,0E0,0E0,0E0,0E0,0E0,0E0,0E0,0E0,0E0,0E0],"parents":[2147483647,0,0,1,1,2,2,3,3,4,4,5,5,6,6,7,7,8,8,9,9,10,10,11,11,12,12,13,13,14,14,15,15,16,16,17,17,18,18,19,19,20,20,21,21,22,22,23,23,24,24,25,25,26,26,27,27,28,28,29,29,30,30],"right_children":[2,4,6,8,10,12,14,16,18,20,22,24,26,28,30,32,34,36,38,40,42,44,46,48,50,52,54,56,58,60,62,-1,-1,-1,-1,-1,-1,-1,-1,-1,-1,-1,-1,-1,-1,-1,-1,-1,-1,-1,-1,-1,-1,-1,-1,-1,-1,-1,-1,-1,-1,-1,-1],"split_conditions":[-8.925065E-6,5.7897466E-1,8.7747275E-4,1.1377317E0,-8.0487806E-1,4.3037975E-1,5.9007657E-1,2.9430366E-1,1.3102458E0,3.9914703E-1,1.0821301E0,7.385524E-4,1.5426463E-1,2.3801354E-1,1.2066495E0,6.19214E1,-3.3925657E-4,-1.21212125E-1,1.4789581E0,-2.4693535E-4,-9.535027E-4,-1.0517143E-4,1.7045506E0,2.9624236E-1,1.8568887E0,7.3303474E-4,1.8207092E0,9.263011E-2,1.411741E0,5.0008404E-1,8.220025E1,-3.6753187E-5,1.2344895E-2,5.1329387E-3,2.4948944E-3,-2.2466737E-3,5.087027E-3,7.153164E-4,3.7560964E-3,1.5915338E-2,-8.138561E-3,6.0589556E-3,-4.5760316E-3,5.239396E-4,-2.0874543E-3,-2.5947642E-2,-6.391151E-3,1.3719246E-3,-9.6203E-4,4.5556477E-3,1.5992412E-2,6.7583085E-3,-9.813322E-3,-2.8238818E-3,2.3189418E-3,1.9014664E-2,-2.0309156E-3,-8.234859E-3,3.0553754E-4,-5.4513133E-4,-3.7473147E-3,2.3045621E-3,-8.297059E-3],"split_indices":[0,7,3,8,2,2,6,9,8,6,7,1,9,8,7,5,0,2,9,0,1,0,8,7,9,3,8,6,9,9,5,0,0,0,0,0,0,0,0,0,0,0,0,0,0,0,0,0,0,0,0,0,0,0,0,0,0,0,0,0,0,0,0],"split_type":[0,0,0,0,0,0,0,0,0,0,0,0,0,0,0,0,0,0,0,0,0,0,0,0,0,0,0,0,0,0,0,0,0,0,0,0,0,0,0,0,0,0,0,0,0,0,0,0,0,0,0,0,0,0,0,0,0,0,0,0,0,0,0],"sum_hessian":[1.7834457E4,8.7739E3,9.060556E3,5.901151E3,2.8727495E3,5.8531685E3,3.2073872E3,3.8024617E3,2.0986895E3,1.9147551E2,2.6812742E3,3.2515813E3,2.6015872E3,8.446551E2,2.362732E3,6.444274E2,3.1580342E3,4.4872702E2,1.6499623E3,5.5741703E1,1.3573381E2,2.6592773E3,2.199669E1,3.1170947E3,1.3448645E2,1.1273568E2,2.4888516E3,1.5165555E2,6.929995E2,2.1567737E3,2.0595837E2,6.2167865E2,2.2748781E1,1.7889187E3,1.3691155E3,3.997293E2,4.899771E1,1.0242238E3,6.257386E2,4.999202E1,5.7496843E0,8.699054E1,4.874328E1,2.1703394E3,4.8893805E2,5.248982E0,1.674771E1,1.106212E3,2.0108827E3,1.1448813E2,1.9998327E1,1.0323864E2,9.497036E0,2.2381472E3,2.5070424E2,1.4494645E1,1.371609E2,6.1505646E2,7.794308E1,4.3552106E2,1.7212526E3,1.7646504E2,2.9493322E1],"tree_param":{"num_deleted":"0","num_feature":"11","num_nodes":"63","size_leaf_vector":"1"}},{"base_weights":[2.471898E-3,7.8772575E-2,-7.135662E-2,1.1189571E-1,-5.0721723E-3,-2.5405096E-2,-1.5431888E-1,1.5323062E-1,6.9458105E-2,2.0847863E-2,-1.476893E-1,-1.5536333E-2,-2.9622585E-1,-1.6506375E-1,2.782229E-1,8.318702E-1,1.4709403E-1,4.442898E-2,2.2346845E-1,5.1777504E-2,-1.17653176E-1,-4.8551688E-1,-7.896774E-2,-2.2153972E-1,-6.048699E-3,-3.485955E-1,1.4330608E-1,-2.4896619E-1,-1.2077561E-1,3.867965E-2,6.9705397E-1,3.3589248E-2,1.2900627E-2,3.3167852E-3,-1.9067183E-2,1.3098317E-2,8.7502005E-4,4.3332954E-3,2.0067995E-2,8.4448623E-4,7.527843E-3,-3.0133498E-3,2.1564253E-2,-1.6069267E-2,-2.1371203E-3,-1.3879985E-3,-1.8937336E-2,3.738507E-4,-7.1288496E-3,9.51339E-3,-2.2691599E-4,6.9782184E-3,-8.5550025E-3,-8.740899E-3,1.5823277E-2,5.9648226E-3,-5.9119915E-3,-3.1086146E-3,1.7915338E-3,1.2570731E-2,-6.8038167E-3,2.5359336E-2,5.609175E-3],"categories":[],"categories_nodes":[],"categories_segments":[],"categories_sizes":[],"default_left":[0,0,0,0,0,0,0,0,0,0,0,0,0,0,0,0,0,0,0,0,0,0,0,0,0,0,0,0,0,0,0,0,0,0,0,0,0,0,0,0,0,0,0,0,0,0,0,0,0,0,0,0,0,0,0,0,0,0,0,0,0,0,0],"id":11,"left_children":[1,3,5,7,9,11,13,15,17,19,21,23,25,27,29,31,33,35,37,39,41,43,45,47,49,51,53,55,57,59,61,-1,-1,-1,-1,-1,-1,-1,-1,-1,-1,-1,-1,-1,-1,-1,-1,-1,-1,-1,-1,-1,-1,-1,-1,-1,-1,-1,-1,-1,-1,-1,-1],"loss_changes":[1.001878E2,2.4290585E1,3.4455414E1,1.0987022E1,9.162337E0,1.5545799E1,1.5019638E1,1.3100822E1,1.1921722E1,8.991515E0,8.811228E0,1.0972705E1,4.757412E0,1.1653954E1,7.845404E0,3.9219723E0,1.1839493E1,6.80871E0,7.713377E0,6.6576624E0,8.2612E0,6.039177E0,3.8922935E0,6.0489073E0,1.004587E1,5.030369E0,7.2856703E0,1.1227852E1,8.561056E0,9.625364E0,5.445098E0,0E0,0E0,0E0,0E0,0E0,0E0,0E0,0E0,0E0,0E0,0E0,0E0,0E0,0E0,0E0,0E0,0E0,0E0,0E0,0E0,0E0,0E0,0E0,0E0,0E0,0E0,0E0,0E0,0E0,0E0,0E0,0E0],"parents":[2147483647,0,0,1,1,2,2,3,3,4,4,5,5,6,6,7,7,8,8,9,9,10,10,11,11,12,12,13,13,14,14,15,15,16,16,17,17,18,18,19,19,20,20,21,21,22,22,23,23,24,24,25,25,26,26,27,27,28,28,29,29,30,30],"right_children":[2,4,6,8,10,12,14,16,18,20,22,24,26,28,30,32,34,36,38,40,42,44,46,48,50,52,54,56,58,60,62,-1,-1,-1,-1,-1,-1,-1,-1,-1,-1,-1,-1,-1,-1,-1,-1,-1,-1,-1,-1,-1,-1,-1,-1,-1,-1,-1,-1,-1,-1,-1,-1],"split_conditions":[-8.925065E-6,1.1228162E-3,8.7747275E-4,8.673693E-1,-1.0517143E-4,8.684211E-1,2.9403322E0,-5.177566E-3,1.9192027E0,1.4901261E0,1.5704465E-3,1.6781014E-1,1.6073834E-3,6.777055E-1,7.286203E1,5.727954E-1,1.462691E-3,-1.2390937E-2,7.796952E-1,2.3980825E0,1.0153488E-2,-7.692308E-2,2.1337743E0,2.1111111E-1,-4.781866E-3,2.24E1,9.116608E-1,1.106104E-1,1.2066495E0,5.309734E-4,8.008048E1,3.3589248E-2,1.2900627E-2,3.3167852E-3,-1.9067183E-2,1.3098317E-2,8.7502005E-4,4.3332954E-3,2.0067995E-2,8.4448623E-4,7.527843E-3,-3.0133498E-3,2.1564253E-2,-1.6069267E-2,-2.1371203E-3,-1.3879985E-3,-1.8937336E-2,3.738507E-4,-7.1288496E-3,9.51339E-3,-2.2691599E-4,6.9782184E-3,-8.5550025E-3,-8.740899E-3,1.5823277E-2,5.9648226E-3,-5.9119915E-3,-3.1086146E-3,1.7915338E-3,1.2570731E-2,-6.8038167E-3,2.5359336E-2,5.609175E-3],"split_indices":[0,4,3,8,0,2,10,3,10,6,4,8,4,8,5,10,3,4,7,10,4,2,6,2,3,5,2,6,7,0,5,0,0,0,0,0,0,0,0,0,0,0,0,0,0,0,0,0,0,0,0,0,0,0,0,0,0,0,0,0,0,0,0],"split_type":[0,0,0,0,0,0,0,0,0,0,0,0,0,0,0,0,0,0,0,0,0,0,0,0,0,0,0,0,0,0,0,0,0,0,0,0,0,0,0,0,0,0,0,0,0,0,0,0,0,0,0,0,0,0,0,0,0,0,0,0,0,0,0],"sum_hessian":[1.7783348E4,8.745223E3,9.038125E3,6.268498E3,2.476725E3,5.8173125E3,3.2208132E3,3.1741824E3,3.0943157E3,2.0965417E3,3.801834E2,5.613802E3,2.035107E2,3.143347E3,7.746617E1,2.7239511E1,3.1469429E3,2.662849E3,4.3146664E2,1.714329E3,3.822127E2,6.323958E1,3.1694382E2,2.4618031E2,5.3676216E3,1.8202905E2,2.1481634E1,1.0843878E3,2.058959E3,4.997575E1,2.7490417E1,5.7480235E0,2.1491488E1,3.136443E3,1.0499683E1,2.1248486E1,2.6416006E3,4.1671808E2,1.4748595E1,1.6398394E3,7.448958E1,3.7646384E2,5.748869E0,3.8243195E1,2.4996384E1,3.1169473E2,5.2490816E0,7.42415E1,1.7193881E2,5.0748173E1,5.316873E3,9.9894E0,1.7203966E2,1.12404995E1,1.0241135E1,3.922701E1,1.0451609E3,1.8694984E3,1.894607E2,1.9491388E1,3.0484364E1,1.2746166E1,1.4744251E1],"tree_param":{"num_deleted":"0","num_feature":"11","num_nodes":"63","size_leaf_vector":"1"}},{"base_weights":[6.223927E-3,7.143463E-2,-6.229302E-2,9.252595E-2,-5.077205E-2,-7.2912765E-3,-1.2986018E-1,1.4709134E-1,5.2551437E-2,-4.012847E-1,-2.536105E-2,1.4406247E-1,-2.3549981E-2,-2.4667619E-1,-9.4860554E-2,3.274982E-1,1.1930187E-1,5.913988E-2,-1.8209139E-1,1.7169887E-1,-5.305174E-1,-5.0230317E-2,2.828715E-1,2.5923535E-1,-2.2222351E-2,-3.7508228E-1,-1.90315E-2,-1.2025362E-1,-3.4268206E-1,-1.0292994E-1,3.0506533E-1,7.75283E-3,-9.393218E-3,8.974095E-3,2.2963772E-3,4.321305E-3,1.0919195E-3,7.7768574E-3,-4.9743894E-3,1.0873346E-2,-5.0156913E-3,5.576237E-3,-1.3685691E-2,-4.8587736E-4,-5.445362E-3,8.268787E-3,-6.5857433E-3,7.8102536E-3,-2.9277592E-3,-4.4489484E-3,6.3326173E-3,-3.76175E-4,-1.3905366E-2,-6.4301966E-3,-2.9868024E-4,-3.5695639E-3,8.878298E-3,1.6555551E-2,-8.288219E-3,-1.564325E-3,-3.5326122E-3,-1.1767767E-2,1.0438712E-2],"categories":[],"categories_nodes":[],"categories_segments":[],"categories_sizes":[],"default_left":[0,0,0,0,0,0,0,0,0,0,0,0,0,0,0,0,0,0,0,0,0,0,0,0,0,0,0,0,0,0,0,0,0,0,0,0,0,0,0,0,0,0,0,0,0,0,0,0,0,0,0,0,0,0,0,0,0,0,0,0,0,0,0],"id":12,"left_children":[1,3,5,7,9,11,13,15,17,19,21,23,25,27,29,31,33,35,37,39,41,43,45,47,49,51,53,55,57,59,61,-1,-1,-1,-1,-1,-1,-1,-1,-1,-1,-1,-1,-1,-1,-1,-1,-1,-1,-1,-1,-1,-1,-1,-1,-1,-1,-1,-1,-1,-1,-1,-1],"loss_changes":[7.975774E1,2.3578487E1,3.2348595E1,1.700624E1,1.1985586E1,1.1814384E1,1.5946838E1,1.6493233E1,6.9729834E0,6.8273277E0,9.64844E0,8.924859E0,6.8784E0,1.0881077E1,9.736198E0,8.409584E0,1.2269558E1,5.708647E0,2.9854374E0,2.3683715E0,5.503462E0,6.456901E0,5.200541E0,1.0388533E1,1.0745941E1,5.0451136E0,6.37728E0,8.644455E0,1.9340088E1,5.3974743E0,8.753814E0,0E0,0E0,0E0,0E0,0E0,0E0,0E0,0E0,0E0,0E0,0E0,0E0,0E0,0E0,0E0,0E0,0E0,0E0,0E0,0E0,0E0,0E0,0E0,0E0,0E0,0E0,0E0,0E0,0E0,0E0,0E0,0E0],"parents":[2147483647,0,0,1,1,2,2,3,3,4,4,5,5,6,6,7,7,8,8,9,9,10,10,11,11,12,12,13,13,14,14,15,15,16,16,17,17,18,18,19,19,20,20,21,21,22,22,23,23,24,24,25,25,26,26,27,27,28,28,29,29,30,30],"right_children":[2,4,6,8,10,12,14,16,18,20,22,24,26,28,30,32,34,36,38,40,42,44,46,48,50,52,54,56,58,60,62,-1,-1,-1,-1,-1,-1,-1,-1,-1,-1,-1,-1,-1,-1,-1,-1,-1,-1,-1,-1,-1,-1,-1,-1,-1,-1,-1,-1,-1,-1,-1,-1],"split_conditions":[1.7828808E-5,6.5855515E1,5.767607E-4,7.0264554E-1,2.136341E-1,2.4568966E1,5.2495545E-1,-3.922635E-3,3.1230528E0,2.4736166E-4,2.1681712E0,9.29201E-1,6.472588E-2,4.2372882E-1,3.1230528E0,-8.925065E-6,-1.2914182E-3,-8.468085E-1,1.3083498E1,6.966102E1,-8.4292836E-4,-4.3190576E-5,4.6489974E-3,6.375E-1,1.8034225E0,1.8382522E-4,2.892054E-5,1.7679257E0,7.2516315E-2,2.145024E-3,9.062997E-1,7.75283E-3,-9.393218E-3,8.974095E-3,2.2963772E-3,4.321305E-3,1.0919195E-3,7.7768574E-3,-4.9743894E-3,1.0873346E-2,-5.0156913E-3,5.576237E-3,-1.3685691E-2,-4.8587736E-4,-5.445362E-3,8.268787E-3,-6.5857433E-3,7.8102536E-3,-2.9277592E-3,-4.4489484E-3,6.3326173E-3,-3.76175E-4,-1.3905366E-2,-6.4301966E-3,-2.9868024E-4,-3.5695639E-3,8.878298E-3,1.6555551E-2,-8.288219E-3,-1.564325E-3,-3.5326122E-3,-1.1767767E-2,1.0438712E-2],"split_indices":[0,5,3,8,10,5,6,4,8,3,10,8,8,2,10,0,0,2,5,5,0,1,3,2,8,1,0,10,6,3,8,0,0,0,0,0,0,0,0,0,0,0,0,0,0,0,0,0,0,0,0,0,0,0,0,0,0,0,0,0,0,0,0],"split_type":[0,0,0,0,0,0,0,0,0,0,0,0,0,0,0,0,0,0,0,0,0,0,0,0,0,0,0,0,0,0,0,0,0,0,0,0,0,0,0,0,0,0,0,0,0,0,0,0,0,0,0,0,0,0,0,0,0,0,0,0,0,0,0],"sum_hessian":[1.7848732E4,9.144988E3,8.703744E3,7.79919E3,1.3457982E3,4.7986245E3,3.9051199E3,3.296615E3,4.5025747E3,8.997094E1,1.2558273E3,4.647126E2,4.333912E3,8.988934E2,3.0062263E3,4.3858362E2,2.8580315E3,4.380329E3,1.2224556E2,1.6497374E1,7.3473564E1,1.1628422E3,9.2985085E1,2.7422128E2,1.9049129E2,5.3958958E1,4.279953E3,3.889579E2,5.099355E2,2.9474968E3,5.872967E1,4.250854E2,1.3498239E1,1.3920071E2,2.7188306E3,2.8242767E2,4.0979014E3,8.749854E0,1.13495705E2,8.998797E0,7.4985757E0,7.498545E0,6.597502E1,1.01863495E3,1.4420724E2,8.048577E1,1.2499311E1,2.2048842E2,5.3732872E1,1.2074411E2,6.974717E1,2.2993961E1,3.0964996E1,8.274281E1,4.1972104E3,3.607252E2,2.8232687E1,1.4741894E1,4.951936E2,1.9004902E3,1.0470065E3,9.495478E0,4.923419E1],"tree_param":{"num_deleted":"0","num_feature":"11","num_nodes":"63","size_leaf_vector":"1"}},{"base_weights":[2.719591E-4,7.349847E-2,-7.662174E-2,1.08881705E-1,-1.0315955E-2,3.4898438E-2,-1.05259396E-1,1.4569037E-1,4.1551825E-2,-1.8537161E-1,8.856213E-3,4.9095893E-1,2.4097573E-2,-1.1213079E-2,-1.255983E-1,1.904719E-1,7.7769116E-2,1.4751248E-1,4.918136E-3,2.2561662E-2,-3.923944E-1,3.0067766E-2,-1.0213774E-1,-1.0911293E-2,7.087792E-1,9.194496E-2,-3.7644453E-2,5.410952E-2,-1.1729456E-1,-1.8344061E-1,-6.823468E-2,4.316887E-3,-1.3225009E-2,4.025614E-3,6.6600354E-5,1.932773E-3,1.1401921E-2,2.916766E-3,-9.6048124E-4,-1.7149877E-3,1.5347189E-2,-4.891884E-3,-1.623997E-2,1.027167E-3,-3.273825E-3,-3.9063827E-3,2.9595536E-3,-3.9452193E-3,1.99198E-2,1.3514335E-3,7.5708623E-3,-2.7814948E-3,1.4111775E-3,-1.656625E-2,1.4188512E-3,2.6921527E-2,-2.9887897E-3,-4.399342E-3,1.7951366E-3,-1.7694678E-3,4.075773E-3],"categories":[],"categories_nodes":[],"categories_segments":[],"categories_sizes":[],"default_left":[0,0,0,0,0,0,0,0,0,0,0,0,0,0,0,0,0,0,0,0,0,0,0,0,0,0,0,0,0,0,0,0,0,0,0,0,0,0,0,0,0,0,0,0,0,0,0,0,0,0,0,0,0,0,0,0,0,0,0,0,0],"id":13,"left_children":[1,3,5,7,9,11,13,15,17,19,21,23,25,27,29,31,33,35,37,39,41,43,45,-1,47,49,51,53,55,57,59,-1,-1,-1,-1,-1,-1,-1,-1,-1,-1,-1,-1,-1,-1,-1,-1,-1,-1,-1,-1,-1,-1,-1,-1,-1,-1,-1,-1,-1,-1],"loss_changes":[1.00180305E2,2.7027702E1,2.7720482E1,1.5875366E1,9.083999E0,8.72668E0,1.320771E1,1.2585777E1,8.796862E0,1.1509631E1,5.747642E0,9.163313E0,7.267338E0,8.52269E0,1.882618E1,1.1479408E1,1.295723E1,1.2832723E1,1.0456228E1,9.162592E0,7.7105217E0,6.099933E0,7.0159793E0,0E0,6.0992336E0,6.339019E0,8.21933E0,6.429004E0,1.1831136E1,1.2398758E1,8.832712E0,0E0,0E0,0E0,0E0,0E0,0E0,0E0,0E0,0E0,0E0,0E0,0E0,0E0,0E0,0E0,0E0,0E0,0E0,0E0,0E0,0E0,0E0,0E0,0E0,0E0,0E0,0E0,0E0,0E0,0E0],"parents":[2147483647,0,0,1,1,2,2,3,3,4,4,5,5,6,6,7,7,8,8,9,9,10,10,11,11,12,12,13,13,14,14,15,15,16,16,17,17,18,18,19,19,20,20,21,21,22,22,24,24,25,25,26,26,27,27,28,28,29,29,30,30],"right_children":[2,4,6,8,10,12,14,16,18,20,22,24,26,28,30,32,34,36,38,40,42,44,46,-1,48,50,52,54,56,58,60,-1,-1,-1,-1,-1,-1,-1,-1,-1,-1,-1,-1,-1,-1,-1,-1,-1,-1,-1,-1,-1,-1,-1,-1,-1,-1,-1,-1,-1,-1],"split_conditions":[1.7839462E-5,6.167918E-1,2.9624236E-1,1.1205791E0,2.9374963E-1,1.6468799E-1,3.5438412E-1,-2.6826517E-4,8.755826E-1,6.6104866E1,1.4901261E0,1.3367058E-1,3.3115325E-4,7.1677953E-1,8.760594E-1,3.395848E0,3.8423153E1,7.954756E-1,-2.6454558E-3,1.2466873E-3,-1.1568718E-4,9.3879175E-1,2.1681712E0,-1.0911293E-2,2.0957096E1,2.7513874E-1,1.1205791E0,2.4455858E-5,7.2516315E-2,1.1642027E0,2.8075838E0,4.316887E-3,-1.3225009E-2,4.025614E-3,6.6600354E-5,1.932773E-3,1.1401921E-2,2.916766E-3,-9.6048124E-4,-1.7149877E-3,1.5347189E-2,-4.891884E-3,-1.623997E-2,1.027167E-3,-3.273825E-3,-3.9063827E-3,2.9595536E-3,-3.9452193E-3,1.99198E-2,1.3514335E-3,7.5708623E-3,-2.7814948E-3,1.4111775E-3,-1.656625E-2,1.4188512E-3,2.6921527E-2,-2.9887897E-3,-4.399342E-3,1.7951366E-3,-1.7694678E-3,4.075773E-3],"split_indices":[1,7,7,8,10,9,9,0,9,5,6,7,0,7,6,6,5,9,3,3,1,7,6,0,5,7,6,1,6,8,8,0,0,0,0,0,0,0,0,0,0,0,0,0,0,0,0,0,0,0,0,0,0,0,0,0,0,0,0,0,0],"split_type":[0,0,0,0,0,0,0,0,0,0,0,0,0,0,0,0,0,0,0,0,0,0,0,0,0,0,0,0,0,0,0,0,0,0,0,0,0,0,0,0,0,0,0,0,0,0,0,0,0,0,0,0,0,0,0,0,0,0,0,0,0],"sum_hessian":[1.7789938E4,9.11228E3,8.677656E3,6.407135E3,2.7051458E3,1.7730116E3,6.904645E3,4.1417256E3,2.265409E3,2.661684E2,2.4389773E3,3.9990242E1,1.7330214E3,1.227995E3,5.67665E3,2.4949573E3,1.6467683E3,5.812251E2,1.684184E3,1.3323671E2,1.3293167E2,2.0482708E3,3.907067E2,6.999426E0,3.2990814E1,8.254536E2,9.075678E2,7.603057E2,4.6768933E2,2.825437E3,2.851213E3,2.4777112E3,1.724597E1,6.833604E2,9.634079E2,5.0172806E2,7.9497055E1,4.637326E2,1.2204513E3,1.1673844E2,1.649827E1,9.0213394E1,4.2718273E1,1.8748E3,1.7347057E2,2.9647046E2,9.423622E1,5.9971204E0,2.6993694E1,7.374595E2,8.799416E1,4.846133E2,4.2295447E2,8.748787E0,7.5155695E2,5.498062E0,4.6219125E2,2.6598E3,1.6563693E2,2.7209895E3,1.3022336E2],"tree_param":{"num_deleted":"0","num_feature":"11","num_nodes":"61","size_leaf_vector":"1"}},{"base_weights":[6.0214903E-3,8.376563E-2,-5.4345053E-2,1.4790098E-1,4.5477595E-2,6.6253776E-3,-1.04933485E-1,2.787747E-1,1.016244E-1,8.525866E-2,-2.3345197E-2,1.6058572E-2,-2.9719114E-1,-7.5081095E-2,-1.6208304E-1,9.436418E-2,3.5091358E-1,1.8588077E-1,5.872469E-2,2.873009E-1,6.559581E-2,-4.053452E-2,2.1902739E-1,1.1224558E-1,-5.4990174E-3,-2.4468264E-2,-2.3999819E-1,-6.1692704E-2,-2.8736487E-1,-3.15602E-1,-1.1335892E-1,-2.2183338E-2,3.3949115E-3,1.019031E-2,5.0435346E-3,4.984321E-3,-1.8618202E-3,8.9494884E-4,7.6827793E-3,-1.1509509E-2,6.968517E-3,9.588299E-4,4.888403E-3,1.075493E-2,-1.0036139E-3,7.017395E-3,-5.9046648E-3,-8.557555E-3,3.065026E-3,1.0585322E-3,-1.2571731E-3,8.961647E-3,-6.6435984E-3,-1.141808E-2,-1.2732324E-3,-9.42042E-3,3.5089771E-3,2.3317852E-3,-8.1048915E-3,-3.0506235E-3,1.790294E-3],"categories":[],"categories_nodes":[],"categories_segments":[],"categories_sizes":[],"default_left":[0,0,0,0,0,0,0,0,0,0,0,0,0,0,0,0,0,0,0,0,0,0,0,0,0,0,0,0,0,0,0,0,0,0,0,0,0,0,0,0,0,0,0,0,0,0,0,0,0,0,0,0,0,0,0,0,0,0,0,0,0],"id":14,"left_children":[1,3,5,7,9,11,13,15,17,19,21,23,25,27,29,31,33,35,37,39,41,43,45,47,49,-1,51,53,55,57,59,-1,-1,-1,-1,-1,-1,-1,-1,-1,-1,-1,-1,-1,-1,-1,-1,-1,-1,-1,-1,-1,-1,-1,-1,-1,-1,-1,-1,-1,-1],"loss_changes":[8.37618E1,1.9149502E1,3.098884E1,1.7630463E1,1.3379792E1,1.3064438E1,9.355618E0,1.0091873E1,7.780781E0,1.2283329E1,7.4688973E0,9.1668825E0,6.1318035E0,1.0238754E1,1.405069E1,1.4393637E1,7.362221E0,8.016987E0,7.4809623E0,6.713749E0,9.723052E0,4.524969E0,5.8699403E0,1.103772E1,1.000448E1,0E0,5.3211308E0,5.9000263E0,1.3524973E1,1.012632E1,7.0634804E0,0E0,0E0,0E0,0E0,0E0,0E0,0E0,0E0,0E0,0E0,0E0,0E0,0E0,0E0,0E0,0E0,0E0,0E0,0E0,0E0,0E0,0E0,0E0,0E0,0E0,0E0,0E0,0E0,0E0,0E0],"parents":[2147483647,0,0,1,1,2,2,3,3,4,4,5,5,6,6,7,7,8,8,9,9,10,10,11,11,12,12,13,13,14,14,15,15,16,16,17,17,18,18,19,19,20,20,21,21,22,22,23,23,24,24,26,26,27,27,28,28,29,29,30,30],"right_children":[2,4,6,8,10,12,14,16,18,20,22,24,26,28,30,32,34,36,38,40,42,44,46,48,50,-1,52,54,56,58,60,-1,-1,-1,-1,-1,-1,-1,-1,-1,-1,-1,-1,-1,-1,-1,-1,-1,-1,-1,-1,-1,-1,-1,-1,-1,-1,-1,-1,-1,-1],"split_conditions":[-8.82327E-5,2.4255048E-1,5.438882E-1,7.281983E-1,1.0007643E0,8.684211E-1,5.8441556E-1,3.6599028E-1,8.831786E-1,-8.148148E-1,2.5192375E0,3.8300037E-1,1.2048193E-1,8.3023254E1,5.2495545E-1,8.933162E0,5.397729E-1,2.1681712E0,-1.7807537E-4,9.864574E-2,1.0007643E0,2.9382715E1,5.1210155E-3,1.2048193E-1,2.8568757E-1,-2.4468264E-2,2.2187364E-1,-8.268411E-5,1.4901261E0,1.9181438E-1,1.2066495E0,-2.2183338E-2,3.3949115E-3,1.019031E-2,5.0435346E-3,4.984321E-3,-1.8618202E-3,8.9494884E-4,7.6827793E-3,-1.1509509E-2,6.968517E-3,9.588299E-4,4.888403E-3,1.075493E-2,-1.0036139E-3,7.017395E-3,-5.9046648E-3,-8.557555E-3,3.065026E-3,1.0585322E-3,-1.2571731E-3,8.961647E-3,-6.6435984E-3,-1.141808E-2,-1.2732324E-3,-9.42042E-3,3.5089771E-3,2.3317852E-3,-8.1048915E-3,-3.0506235E-3,1.790294E-3],"split_indices":[0,7,7,6,8,2,2,8,9,2,9,9,8,5,6,5,6,6,1,9,6,5,4,8,7,0,9,0,9,9,7,0,0,0,0,0,0,0,0,0,0,0,0,0,0,0,0,0,0,0,0,0,0,0,0,0,0,0,0,0,0],"split_type":[0,0,0,0,0,0,0,0,0,0,0,0,0,0,0,0,0,0,0,0,0,0,0,0,0,0,0,0,0,0,0,0,0,0,0,0,0,0,0,0,0,0,0,0,0,0,0,0,0,0,0,0,0,0,0,0,0,0,0,0,0],"sum_hessian":[1.7845723E4,7.799984E3,1.0045738E4,2.9147295E3,4.8852544E3,4.5558203E3,5.489918E3,7.600959E2,2.1546335E3,3.095658E3,1.7895963E3,4.419545E3,1.3627524E2,3.6077197E3,1.8821985E3,2.143796E2,5.457163E2,7.2580237E2,1.4288313E3,2.7334424E2,2.8223137E3,1.671859E3,1.1773728E2,8.0839417E2,3.611151E3,7.726456E0,1.2854878E2,3.3948994E3,2.1282014E2,4.5213702E2,1.4300614E3,1.0238414E1,2.0414117E2,2.8233817E2,2.6337814E2,6.3106494E2,9.473742E1,1.3463378E3,8.249353E1,8.99649E0,2.6434775E2,2.4756143E3,3.4669934E2,1.4998612E1,1.6568604E3,9.799012E1,1.974716E1,4.074277E1,7.6765137E2,1.7718352E3,1.8393156E3,1.0746132E1,1.1780265E2,2.6995117E1,3.3679043E3,1.618518E2,5.096834E1,5.0212677E1,4.0192435E2,1.2658527E3,1.642087E2],"tree_param":{"num_deleted":"0","num_feature":"11","num_nodes":"61","size_leaf_vector":"1"}},{"base_weights":[-7.503583E-3,6.0935147E-2,-7.9380624E-2,9.180577E-2,-3.3363458E-2,-3.983515E-2,-1.4959572E-1,-1.6572012E-1,9.76271E-2,-3.9223872E-2,5.136957E-1,-5.710557E-2,1.2193397E-1,-1.5787333E-1,2.7422154E-1,-8.6369795E-1,-8.0679245E-2,1.3676564E-1,5.9655715E-2,1.110294E-1,-5.7509355E-2,7.9580754E-1,1.6556792E-3,-1.5803127E-2,-1.1685857E-1,3.929876E-1,5.819802E-2,-1.6515604E-1,1.5076752E-1,-1.10296026E-1,5.770703E-1,-2.8613899E-2,-8.8704686E-4,6.5049795E-3,-6.7842794E-3,5.916983E-3,2.2862097E-3,1.3641035E-3,-1.5218444E-2,-9.6723484E-4,5.867534E-3,-3.6021117E-3,-7.3370646E-4,2.6693368E-2,5.377476E-3,4.7852288E-4,-2.248937E-3,2.4054E-2,-2.6539345E-3,1.0287549E-3,1.362422E-2,-6.062523E-3,2.6983067E-3,-2.5931469E-3,-4.7071055E-3,-1.5820622E-2,6.1499425E-3,5.1212655E-3,-2.1461176E-2,5.9128385E-3,2.041101E-2],"categories":[],"categories_nodes":[],"categories_segments":[],"categories_sizes":[],"default_left":[0,0,0,0,0,0,0,0,0,0,0,0,0,0,0,0,0,0,0,0,0,0,0,0,0,0,0,0,0,0,0,0,0,0,0,0,0,0,0,0,0,0,0,0,0,0,0,0,0,0,0,0,0,0,0,0,0,0,0,0,0],"id":15,"left_children":[1,3,5,7,9,11,13,15,17,19,21,23,25,27,29,31,33,35,37,39,41,43,-1,45,47,49,51,53,55,57,59,-1,-1,-1,-1,-1,-1,-1,-1,-1,-1,-1,-1,-1,-1,-1,-1,-1,-1,-1,-1,-1,-1,-1,-1,-1,-1,-1,-1,-1,-1],"loss_changes":[8.784534E1,2.6632614E1,2.4179092E1,1.0348095E1,7.2555866E0,1.5577682E1,1.1051186E1,8.995074E0,1.0008705E1,6.1438017E0,2.9075599E0,1.2427578E1,9.270245E0,6.944084E0,7.1060414E0,5.8775024E0,1.1851582E1,1.4380058E1,6.0843754E0,5.8678875E0,5.106902E0,3.0400982E0,0E0,9.670808E0,9.534754E0,7.981018E0,9.427916E0,6.9158783E0,8.20862E0,8.385531E0,3.425848E0,0E0,0E0,0E0,0E0,0E0,0E0,0E0,0E0,0E0,0E0,0E0,0E0,0E0,0E0,0E0,0E0,0E0,0E0,0E0,0E0,0E0,0E0,0E0,0E0,0E0,0E0,0E0,0E0,0E0,0E0],"parents":[2147483647,0,0,1,1,2,2,3,3,4,4,5,5,6,6,7,7,8,8,9,9,10,10,11,11,12,12,13,13,14,14,15,15,16,16,17,17,18,18,19,19,20,20,21,21,23,23,24,24,25,25,26,26,27,27,28,28,29,29,30,30],"right_children":[2,4,6,8,10,12,14,16,18,20,22,24,26,28,30,32,34,36,38,40,42,44,-1,46,48,50,52,54,56,58,60,-1,-1,-1,-1,-1,-1,-1,-1,-1,-1,-1,-1,-1,-1,-1,-1,-1,-1,-1,-1,-1,-1,-1,-1,-1,-1,-1,-1,-1,-1],"split_conditions":[1.7828808E-5,5.9420288E1,8.7747275E-4,1.1325826E-1,3.8382509E0,1.8568887E0,3.1230528E0,1.0500309E-1,8.4587735E-1,5.9123E-5,1.7513775E0,4.827586E-1,1.9637095E0,1.3041052E0,2.2010596E-3,-4.8062015E-1,2.6055527E-1,-3.4963419E-3,6.631561E-3,-1.6602519E-4,4.012508E-1,-3.3333334E-1,1.6556792E-3,1.035093E0,-6.69582E-4,9.599694E-1,5.429803E-1,1.8098039E-3,1.990914E-3,2.831192E-3,5.9090906E-1,-2.8613899E-2,-8.8704686E-4,6.5049795E-3,-6.7842794E-3,5.916983E-3,2.2862097E-3,1.3641035E-3,-1.5218444E-2,-9.6723484E-4,5.867534E-3,-3.6021117E-3,-7.3370646E-4,2.6693368E-2,5.377476E-3,4.7852288E-4,-2.248937E-3,2.4054E-2,-2.6539345E-3,1.0287549E-3,1.362422E-2,-6.062523E-3,2.6983067E-3,-2.5931469E-3,-4.7071055E-3,-1.5820622E-2,6.1499425E-3,5.1212655E-3,-2.1461176E-2,5.9128385E-3,2.041101E-2],"split_indices":[0,5,3,10,10,8,10,8,8,3,8,2,8,7,3,2,7,4,4,4,10,2,0,8,7,10,10,3,3,4,2,0,0,0,0,0,0,0,0,0,0,0,0,0,0,0,0,0,0,0,0,0,0,0,0,0,0,0,0,0,0],"split_type":[0,0,0,0,0,0,0,0,0,0,0,0,0,0,0,0,0,0,0,0,0,0,0,0,0,0,0,0,0,0,0,0,0,0,0,0,0,0,0,0,0,0,0,0,0,0,0,0,0,0,0,0,0,0,0,0,0,0,0,0,0],"sum_hessian":[1.785576E4,9.146728E3,8.709032E3,6.8908804E3,2.2558477E3,5.57227E3,3.1367622E3,1.517168E2,6.7391636E3,2.2328562E3,2.2991346E1,5.035345E3,5.369249E2,3.0772869E3,5.947534E1,1.5482991E1,1.362338E2,3.3172974E3,3.421866E3,2.4170172E2,1.9911545E3,1.34937315E1,9.497615E0,2.978093E3,2.057252E3,1.0123424E2,4.356907E2,3.006803E3,7.048366E1,2.6484547E1,3.2990795E1,9.736557E0,5.7464337E0,5.1240273E1,8.499353E1,6.588127E2,2.6584849E3,3.4121167E3,9.749255E0,1.2147577E2,1.2022596E2,3.678792E2,1.6232753E3,6.995709E0,6.4980226E0,2.0765022E3,9.015909E2,5.4993286E0,2.0517527E3,4.0490852E1,6.074338E1,6.998688E1,3.6570383E2,1.5288802E3,1.4779229E3,8.497581E0,6.198608E1,1.948797E1,6.9965763E0,1.849665E1,1.4494144E1],"tree_param":{"num_deleted":"0","num_feature":"11","num_nodes":"61","size_leaf_vector":"1"}},{"base_weights":[3.1086165E-4,6.383355E-2,-6.633026E-2,1.3611333E-1,3.4879718E-2,-2.8828211E-2,-1.2881893E-1,2.0655888E-1,5.0816353E-2,3.6801204E-2,-7.132022E-1,1.4002636E-1,-4.325633E-2,-1.4602268E-1,1.2547205E-1,-8.5957535E-2,2.2569984E-1,-1.4685297E-1,8.908287E-2,6.470887E-2,-7.279809E-3,-4.350406E-3,-2.122372E-2,2.8013796E-1,-5.9097335E-3,-2.4870945E-2,-1.7651194E-1,6.7203647E-1,-1.4980483E-1,-4.5481834E-1,1.6425106E-1,-1.5988905E-2,-1.9411692E-4,1.2822945E-2,4.542461E-3,-8.577448E-4,-9.688135E-3,-5.2229264E-3,2.5539575E-3,1.1026586E-3,5.135575E-3,-6.6213445E-3,2.3543595E-4,4.2551374E-3,1.2590918E-2,-1.0996639E-3,1.894725E-2,-7.5201024E-3,-3.804766E-4,-1.681108E-2,-3.3125717E-3,3.0397963E-2,6.478185E-4,-5.005894E-3,-2.379559E-3,-6.6144636E-4,-1.9607497E-2,3.890412E-5,6.2483377E-3],"categories":[],"categories_nodes":[],"categories_segments":[],"categories_sizes":[],"default_left":[0,0,0,0,0,0,0,0,0,0,0,0,0,0,0,0,0,0,0,0,0,0,0,0,0,0,0,0,0,0,0,0,0,0,0,0,0,0,0,0,0,0,0,0,0,0,0,0,0,0,0,0,0,0,0,0,0,0,0],"id":16,"left_children":[1,3,5,7,9,11,13,15,17,19,21,23,25,27,29,31,33,35,37,39,41,-1,-1,43,45,47,49,51,53,55,57,-1,-1,-1,-1,-1,-1,-1,-1,-1,-1,-1,-1,-1,-1,-1,-1,-1,-1,-1,-1,-1,-1,-1,-1,-1,-1,-1,-1],"loss_changes":[7.543408E1,1.908812E1,2.0375694E1,1.5666378E1,9.391436E0,1.3249542E1,1.4285767E1,8.01799E0,8.949526E0,7.9961376E0,1.9795837E0,8.756415E0,1.2267053E1,9.553253E0,4.7372656E0,4.3661075E0,9.0879135E0,6.061357E0,8.760391E0,9.784496E0,1.3314143E1,0E0,0E0,5.4247246E0,8.095944E0,1.0566796E1,9.139536E0,6.4542394E0,9.822403E0,2.4283676E0,3.7931972E0,0E0,0E0,0E0,0E0,0E0,0E0,0E0,0E0,0E0,0E0,0E0,0E0,0E0,0E0,0E0,0E0,0E0,0E0,0E0,0E0,0E0,0E0,0E0,0E0,0E0,0E0,0E0,0E0],"parents":[2147483647,0,0,1,1,2,2,3,3,4,4,5,5,6,6,7,7,8,8,9,9,10,10,11,11,12,12,13,13,14,14,15,15,16,16,17,17,18,18,19,19,20,20,23,23,24,24,25,25,26,26,27,27,28,28,29,29,30,30],"right_children":[2,4,6,8,10,12,14,16,18,20,22,24,26,28,30,32,34,36,38,40,42,-1,-1,44,46,48,50,52,54,56,58,-1,-1,-1,-1,-1,-1,-1,-1,-1,-1,-1,-1,-1,-1,-1,-1,-1,-1,-1,-1,-1,-1,-1,-1,-1,-1,-1,-1],"split_conditions":[1.7839462E-5,-1.2006311E-3,8.221724E-4,1.1738199E0,3.3880438E-4,2.289056E-1,1.2066495E0,-1.6088404E-1,1.3209108E0,1.1228162E-3,3.063993E-1,-5.2178657E-4,7.3846155E-1,1.6880777E-2,6.712078E-1,1.5420561E1,1.3083498E1,1.12406544E-1,-2.524815E-1,8.1553066E-4,2.1474682E-1,-4.350406E-3,-2.122372E-2,-1.1249576E-3,7.396694E1,2.9577923E-5,1.2048193E-1,2.891452E-1,6.712078E-1,2.6103053E-3,3.0889423E-3,-1.5988905E-2,-1.9411692E-4,1.2822945E-2,4.542461E-3,-8.577448E-4,-9.688135E-3,-5.2229264E-3,2.5539575E-3,1.1026586E-3,5.135575E-3,-6.6213445E-3,2.3543595E-4,4.2551374E-3,1.2590918E-2,-1.0996639E-3,1.894725E-2,-7.5201024E-3,-3.804766E-4,-1.681108E-2,-3.3125717E-3,3.0397963E-2,6.478185E-4,-5.005894E-3,-2.379559E-3,-6.6144636E-4,-1.9607497E-2,3.890412E-5,6.2483377E-3],"split_indices":[1,3,3,8,0,9,7,7,8,4,8,4,2,8,8,5,5,7,7,4,9,0,0,4,5,1,8,9,8,3,3,0,0,0,0,0,0,0,0,0,0,0,0,0,0,0,0,0,0,0,0,0,0,0,0,0,0,0,0],"split_type":[0,0,0,0,0,0,0,0,0,0,0,0,0,0,0,0,0,0,0,0,0,0,0,0,0,0,0,0,0,0,0,0,0,0,0,0,0,0,0,0,0,0,0,0,0,0,0,0,0,0,0,0,0,0,0,0,0,0,0],"sum_hessian":[1.7817541E4,9.122226E3,8.695314E3,2.6079897E3,6.5142363E3,5.435004E3,3.26031E3,1.4275637E3,1.1804261E3,6.498495E3,1.5740905E1,4.2716138E2,5.007843E3,3.0541135E3,2.0619653E2,8.7461815E1,1.3401019E3,1.9099347E2,9.894327E2,3.9789536E3,2.5195417E3,5.7476783E0,9.993226E0,2.1746045E2,2.0970093E2,4.4017207E3,6.0612225E2,1.3242031E1,3.0408716E3,1.2244278E1,1.9395226E2,8.491805E0,7.897001E1,6.694976E1,1.2731521E3,1.4049554E2,5.0497917E1,7.499498E1,9.144377E2,3.6635051E3,3.154484E2,1.4445325E2,2.3750884E3,1.6896957E2,4.849088E1,2.0045467E2,9.246255E0,1.0173416E2,4.2999863E3,2.4422577E1,5.816997E2,5.7459016E0,7.496129E0,1.0591931E3,1.9816785E3,6.746857E0,5.4974203E0,8.272927E1,1.1122298E2],"tree_param":{"num_deleted":"0","num_feature":"11","num_nodes":"59","size_leaf_vector":"1"}},{"base_weights":[-7.724116E-4,5.5987023E-2,-7.0378676E-2,9.471751E-2,-6.999128E-3,2.2397207E-2,-1.0623663E-1,1.2778613E-1,3.6127996E-2,-2.4891056E-1,3.0269541E-3,5.003993E-4,2.736328E-1,-1.1302704E-1,2.1043593E-1,-2.069975E-1,1.3913622E-1,6.1870728E-2,-1.0877916E-1,-2.8905654E-1,1.3280617E-2,2.2589603E-1,-7.3235002E-3,4.4870928E-2,-6.0064886E-2,3.308934E-1,-3.285213E-1,-2.0295477E-1,-9.615239E-2,8.000366E-1,9.477E-2,-2.3862677E-2,-2.934774E-3,5.3525083E-3,2.525199E-3,1.03881955E-2,1.2099332E-3,4.779629E-3,-3.1780975E-3,-7.939663E-3,5.586151E-3,1.2416416E-2,7.99503E-4,-6.87376E-3,-2.0993093E-5,3.0289444E-3,-4.1982578E-4,-4.598435E-3,7.091912E-5,8.6561125E-3,-3.975683E-3,2.7435105E-3,-2.3221472E-2,-2.6329318E-3,-7.906252E-3,-8.082029E-4,-2.7422004E-3,9.077575E-3,2.8380288E-2,5.0862366E-4,1.891629E-2],"categories":[],"categories_nodes":[],"categories_segments":[],"categories_sizes":[],"default_left":[0,0,0,0,0,0,0,0,0,0,0,0,0,0,0,0,0,0,0,0,0,0,0,0,0,0,0,0,0,0,0,0,0,0,0,0,0,0,0,0,0,0,0,0,0,0,0,0,0,0,0,0,0,0,0,0,0,0,0,0,0],"id":17,"left_children":[1,3,5,7,9,11,13,15,17,19,21,23,25,27,29,31,33,35,37,39,-1,41,43,45,47,49,51,53,55,57,59,-1,-1,-1,-1,-1,-1,-1,-1,-1,-1,-1,-1,-1,-1,-1,-1,-1,-1,-1,-1,-1,-1,-1,-1,-1,-1,-1,-1,-1,-1],"loss_changes":[7.021097E1,2.3880756E1,2.6557465E1,1.1739815E1,9.043389E0,1.2245476E1,1.2403969E1,1.4750729E1,8.169967E0,5.253232E0,8.262035E0,5.5076942E0,6.2616816E0,8.534782E0,8.190441E0,8.087765E0,9.479614E0,5.216886E0,3.8757975E0,5.645464E0,0E0,1.0178258E1,6.651808E0,7.0236993E0,8.170325E0,5.3031597E0,5.402826E0,1.1547012E1,8.0341E0,3.2157984E0,5.597091E0,0E0,0E0,0E0,0E0,0E0,0E0,0E0,0E0,0E0,0E0,0E0,0E0,0E0,0E0,0E0,0E0,0E0,0E0,0E0,0E0,0E0,0E0,0E0,0E0,0E0,0E0,0E0,0E0,0E0,0E0],"parents":[2147483647,0,0,1,1,2,2,3,3,4,4,5,5,6,6,7,7,8,8,9,9,10,10,11,11,12,12,13,13,14,14,15,15,16,16,17,17,18,18,19,19,21,21,22,22,23,23,24,24,25,25,26,26,27,27,28,28,29,29,30,30],"right_children":[2,4,6,8,10,12,14,16,18,20,22,24,26,28,30,32,34,36,38,40,-1,42,44,46,48,50,52,54,56,58,60,-1,-1,-1,-1,-1,-1,-1,-1,-1,-1,-1,-1,-1,-1,-1,-1,-1,-1,-1,-1,-1,-1,-1,-1,-1,-1,-1,-1,-1,-1],"split_conditions":[1.5658214E-4,8.148432E-6,-1.1796104E-4,1.1205791E0,1.5805994E-1,2.1337743E0,2.8075838E0,1.1325826E-1,3.2613435E-4,5.73955E1,1.8868183E-1,6.5855515E1,-1.9320472E-4,3.523044E-1,1.7364603E0,1.6880777E-2,-3.922635E-3,1.9898264E-1,9.0638447E-1,5.53878E-4,1.3280617E-2,8.6022985E-5,9.653268E-2,6.703483E-1,5.28091E-1,2.0136335E0,2.1007075E0,3.8011837E-1,7.6645473E-4,2.3267863E-3,4.324684E-3,-2.3862677E-2,-2.934774E-3,5.3525083E-3,2.525199E-3,1.03881955E-2,1.2099332E-3,4.779629E-3,-3.1780975E-3,-7.939663E-3,5.586151E-3,1.2416416E-2,7.99503E-4,-6.87376E-3,-2.0993093E-5,3.0289444E-3,-4.1982578E-4,-4.598435E-3,7.091912E-5,8.6561125E-3,-3.975683E-3,2.7435105E-3,-2.3221472E-2,-2.6329318E-3,-7.906252E-3,-8.082029E-4,-2.7422004E-3,9.077575E-3,2.8380288E-2,5.0862366E-4,1.891629E-2],"split_indices":[3,1,0,8,8,10,8,10,4,5,6,5,0,6,6,8,4,10,6,1,0,0,10,10,10,6,9,8,3,3,0,0,0,0,0,0,0,0,0,0,0,0,0,0,0,0,0,0,0,0,0,0,0,0,0,0,0,0,0,0,0],"split_type":[0,0,0,0,0,0,0,0,0,0,0,0,0,0,0,0,0,0,0,0,0,0,0,0,0,0,0,0,0,0,0,0,0,0,0,0,0,0,0,0,0,0,0,0,0,0,0,0,0,0,0,0,0,0,0,0,0,0,0,0,0],"sum_hessian":[1.7769275E4,9.787993E3,7.981283E3,6.060722E3,3.727271E3,2.224966E3,5.756317E3,3.8733665E3,2.1873557E3,1.4738194E2,3.579889E3,2.0475139E3,1.774521E2,5.636105E3,1.2021202E2,1.2644664E2,3.74692E3,1.8578771E3,3.294785E2,1.4138536E2,5.9965844E0,1.5795389E2,3.421935E3,1.1819031E3,8.6561084E2,1.6245433E2,1.4997776E1,8.8875574E2,4.7473496E3,1.8744774E1,1.0146725E2,8.720187E0,1.17726456E2,7.0836816E2,3.0385518E3,2.9495384E1,1.8283817E3,3.1998014E1,2.9748047E2,1.251614E2,1.622396E1,5.5992035E1,1.0196185E2,6.898837E1,3.3529468E3,4.817077E2,7.001953E2,2.5742838E2,6.081825E2,1.4495782E2,1.749651E1,9.748706E0,5.2490706E0,5.811333E2,3.0762238E2,1.5394541E3,3.2078953E3,1.1496623E1,7.248151E0,9.372023E1,7.747017E0],"tree_param":{"num_deleted":"0","num_feature":"11","num_nodes":"61","size_leaf_vector":"1"}},{"base_weights":[3.4781143E-3,7.237007E-2,-5.6194525E-2,1.1711592E-1,1.8380089E-2,-1.0749144E-2,-1.1605687E-1,2.0977803E-1,1.00926615E-1,9.206222E-2,-1.2900589E-2,2.6274392E-1,-1.7673828E-2,-1.2433025E-1,3.49841E-1,5.561903E-1,1.7403185E-1,1.3475887E-1,3.94605E-2,-5.8031774E-1,1.0138192E-1,1.5446262E-1,-2.985708E-2,6.6108495E-1,1.9666383E-1,-4.0943548E-1,-1.2813837E-2,3.393901E-1,-1.2823245E-1,-8.574148E-3,4.709449E-1,-5.6429114E-3,1.5730256E-2,9.165229E-3,2.6248149E-3,-6.726685E-3,3.2758429E-3,-6.833643E-5,4.410668E-3,-3.5419879E-3,-2.4196893E-2,2.4256636E-3,-1.1250257E-2,-1.0177293E-3,7.877207E-3,1.5177802E-4,-2.3061198E-3,2.6108252E-2,6.277106E-3,-2.8045237E-4,7.921076E-3,-6.758978E-3,-2.5412496E-2,-8.9689635E-4,6.584682E-4,4.3582264E-4,2.0058133E-2,-3.2560194E-3,-8.9931494E-4,-2.3920431E-3,1.28957825E-2],"categories":[],"categories_nodes":[],"categories_segments":[],"categories_sizes":[],"default_left":[0,0,0,0,0,0,0,0,0,0,0,0,0,0,0,0,0,0,0,0,0,0,0,0,0,0,0,0,0,0,0,0,0,0,0,0,0,0,0,0,0,0,0,0,0,0,0,0,0,0,0,0,0,0,0,0,0,0,0,0,0],"id":18,"left_children":[1,3,5,7,9,11,13,15,17,19,21,23,25,27,29,31,33,35,37,39,41,43,45,47,49,51,53,55,57,-1,59,-1,-1,-1,-1,-1,-1,-1,-1,-1,-1,-1,-1,-1,-1,-1,-1,-1,-1,-1,-1,-1,-1,-1,-1,-1,-1,-1,-1,-1,-1],"loss_changes":[7.35811E1,2.0067566E1,2.6091188E1,6.7932053E0,8.681363E0,1.0332227E1,1.5997284E1,8.257626E0,8.04007E0,7.092718E0,7.5097194E0,3.4162922E0,1.0122833E1,7.403736E0,6.675149E0,8.269999E0,8.087484E0,1.5589638E1,9.4246025E0,3.1984353E0,6.082202E0,9.96541E0,6.6197996E0,3.36411E0,4.007019E0,4.610526E0,6.280714E0,6.240427E0,6.960541E0,0E0,4.2539606E0,0E0,0E0,0E0,0E0,0E0,0E0,0E0,0E0,0E0,0E0,0E0,0E0,0E0,0E0,0E0,0E0,0E0,0E0,0E0,0E0,0E0,0E0,0E0,0E0,0E0,0E0,0E0,0E0,0E0,0E0],"parents":[2147483647,0,0,1,1,2,2,3,3,4,4,5,5,6,6,7,7,8,8,9,9,10,10,11,11,12,12,13,13,14,14,15,15,16,16,17,17,18,18,19,19,20,20,21,21,22,22,23,23,24,24,25,25,26,26,27,27,28,28,30,30],"right_children":[2,4,6,8,10,12,14,16,18,20,22,24,26,28,30,32,34,36,38,40,42,44,46,48,50,52,54,56,58,-1,60,-1,-1,-1,-1,-1,-1,-1,-1,-1,-1,-1,-1,-1,-1,-1,-1,-1,-1,-1,-1,-1,-1,-1,-1,-1,-1,-1,-1,-1,-1],"split_conditions":[-4.9199683E-5,-2.956573E-4,5.767607E-4,-3.0844016E-3,-5.631579E-1,1.1539692E-1,1.3041052E0,5.7458586E-1,1.129261E0,5.6995004E-2,2.6377183E-1,2.218656E-5,6.472588E-2,4.1454773E-2,2.0397003E-3,-7.777778E-1,-8.148148E-1,-1.21605165E-1,2.0136335E0,6.737581E-1,-1.5884287E-4,2.801168E-1,-1.8594273E-4,3.751224E1,-1.9324372E-4,8.98989E-1,8.913966E-1,5.943185E-1,1.4560982E-3,-8.574148E-3,8.6018455E-1,-5.6429114E-3,1.5730256E-2,9.165229E-3,2.6248149E-3,-6.726685E-3,3.2758429E-3,-6.833643E-5,4.410668E-3,-3.5419879E-3,-2.4196893E-2,2.4256636E-3,-1.1250257E-2,-1.0177293E-3,7.877207E-3,1.5177802E-4,-2.3061198E-3,2.6108252E-2,6.277106E-3,-2.8045237E-4,7.921076E-3,-6.758978E-3,-2.5412496E-2,-8.9689635E-4,6.584682E-4,4.3582264E-4,2.0058133E-2,-3.2560194E-3,-8.9931494E-4,-2.3920431E-3,1.28957825E-2],"split_indices":[0,3,3,3,2,9,7,6,8,9,6,0,8,8,3,2,2,7,8,7,1,8,0,5,3,9,6,9,0,0,8,0,0,0,0,0,0,0,0,0,0,0,0,0,0,0,0,0,0,0,0,0,0,0,0,0,0,0,0,0,0],"split_type":[0,0,0,0,0,0,0,0,0,0,0,0,0,0,0,0,0,0,0,0,0,0,0,0,0,0,0,0,0,0,0,0,0,0,0,0,0,0,0,0,0,0,0,0,0,0,0,0,0,0,0,0,0,0,0,0,0,0,0,0,0],"sum_hessian":[1.7896756E4,8.306595E3,9.59016E3,4.5415093E3,3.7650852E3,5.452213E3,4.1379478E3,6.736734E2,3.867836E3,1.1214795E3,2.6436057E3,1.337256E2,5.3184873E3,4.066469E3,7.1478935E1,6.1651913E1,6.120215E2,2.493931E3,1.3739049E3,1.4494446E1,1.1069851E3,2.424525E2,2.401153E3,1.7745953E1,1.15979645E2,6.414986E1,5.2543374E3,3.3216328E1,4.0332527E3,9.745503E0,6.1733437E1,9.978269E0,5.1673645E1,1.1143677E2,5.0058472E2,7.693716E1,2.4169937E3,1.0874254E3,2.8647952E2,8.745719E0,5.748727E0,1.0919882E3,1.49969015E1,1.2247566E2,1.1997683E2,1.6117974E3,7.893559E2,6.497865E0,1.1248088E1,5.1234306E1,6.474534E1,5.765866E1,6.491197E0,3.1767976E3,2.0775396E3,2.1978678E1,1.1237649E1,3.2883916E3,7.4486096E2,1.0245857E1,5.148758E1],"tree_param":{"num_deleted":"0","num_feature":"11","num_nodes":"61","size_leaf_vector":"1"}},{"base_weights":[-7.800105E-4,6.41581E-2,-6.38075E-2,1.0393025E-1,1.9167809E-2,-2.0993542E-2,-1.4210127E-1,1.559033E-1,2.3216765E-2,1.3608151E-3,1.806692E-1,8.233615E-2,-4.6780158E-2,3.2606274E-1,-1.4843664E-1,2.6586166E-2,1.9282365E-1,6.3388073E-1,1.37774795E-2,1.7024297E-1,-1.54613005E-2,5.623629E-1,8.967214E-2,-1.4603879E-1,1.2800363E-1,-5.98626E-2,6.25381E-2,2.0912495E-2,1.7273489E-1,-2.6897E-1,-1.17166854E-1,6.32447E-3,-1.0061905E-3,4.814535E-3,-8.6894113E-4,2.3574557E-2,5.950675E-3,-2.207057E-4,3.0631192E-3,3.6891573E-4,8.190289E-3,-2.087503E-2,-2.759368E-4,2.0293418E-2,7.94467E-3,1.2560783E-2,8.9617324E-4,4.4183363E-3,-6.8253973E-3,3.5940062E-3,-2.3141715E-3,-1.0157542E-3,-4.0636733E-3,2.5815913E-3,-2.6413172E-3,-1.789772E-2,8.778616E-3,-6.8983943E-3,3.2847386E-3,-5.204787E-3,-1.8723838E-3],"categories":[],"categories_nodes":[],"categories_segments":[],"categories_sizes":[],"default_left":[0,0,0,0,0,0,0,0,0,0,0,0,0,0,0,0,0,0,0,0,0,0,0,0,0,0,0,0,0,0,0,0,0,0,0,0,0,0,0,0,0,0,0,0,0,0,0,0,0,0,0,0,0,0,0,0,0,0,0,0,0],"id":19,"left_children":[1,3,5,7,9,11,13,15,17,19,21,23,25,27,29,31,33,35,37,39,41,43,45,47,49,51,53,-1,55,57,59,-1,-1,-1,-1,-1,-1,-1,-1,-1,-1,-1,-1,-1,-1,-1,-1,-1,-1,-1,-1,-1,-1,-1,-1,-1,-1,-1,-1,-1,-1],"loss_changes":[7.285377E1,1.5685638E1,3.027599E1,1.9516289E1,1.1833751E1,1.55667515E1,9.519218E0,1.3508377E1,1.0504255E1,1.0534919E1,1.4143051E1,1.218825E1,6.689582E0,3.9481206E0,1.1845512E1,1.1895756E1,1.3316803E1,4.122389E0,5.369368E0,1.0409813E1,9.1756525E0,5.3534145E0,7.776403E0,1.1164544E1,8.039866E0,7.1296864E0,5.019453E0,0E0,8.293018E0,1.2139881E1,9.565243E0,0E0,0E0,0E0,0E0,0E0,0E0,0E0,0E0,0E0,0E0,0E0,0E0,0E0,0E0,0E0,0E0,0E0,0E0,0E0,0E0,0E0,0E0,0E0,0E0,0E0,0E0,0E0,0E0,0E0,0E0],"parents":[2147483647,0,0,1,1,2,2,3,3,4,4,5,5,6,6,7,7,8,8,9,9,10,10,11,11,12,12,13,13,14,14,15,15,16,16,17,17,18,18,19,19,20,20,21,21,22,22,23,23,24,24,25,25,26,26,28,28,29,29,30,30],"right_children":[2,4,6,8,10,12,14,16,18,20,22,24,26,28,30,32,34,36,38,40,42,44,46,48,50,52,54,-1,56,58,60,-1,-1,-1,-1,-1,-1,-1,-1,-1,-1,-1,-1,-1,-1,-1,-1,-1,-1,-1,-1,-1,-1,-1,-1,-1,-1,-1,-1,-1,-1],"split_conditions":[-8.925065E-6,-3.2350258E-4,8.7747275E-4,1.1377317E0,1.8782389E0,3.7807867E-1,8.584994E-2,3.5605064E-1,1.9898264E-1,2.3284313E-1,1.2969607E-4,2.0992063E-1,1.7364603E0,1.2649092E-4,5.298292E-1,-3.922635E-3,1.7196574E0,1.5388273E0,-2.6826517E-4,2.7439114E-1,-3.4442283E-3,2.0687053E0,1.1471673E0,1.6468799E-1,1.3598014E0,1.9414053E0,5.588235E-1,2.0912495E-2,2.9046484E-4,1.6906762E0,1.2551956E-3,6.32447E-3,-1.0061905E-3,4.814535E-3,-8.6894113E-4,2.3574557E-2,5.950675E-3,-2.207057E-4,3.0631192E-3,3.6891573E-4,8.190289E-3,-2.087503E-2,-2.759368E-4,2.0293418E-2,7.94467E-3,1.2560783E-2,8.9617324E-4,4.4183363E-3,-6.8253973E-3,3.5940062E-3,-2.3141715E-3,-1.0157542E-3,-4.0636733E-3,2.5815913E-3,-2.6413172E-3,-1.789772E-2,8.778616E-3,-6.8983943E-3,3.2847386E-3,-5.204787E-3,-1.8723838E-3],"split_indices":[0,3,3,8,10,9,8,8,10,6,3,8,6,0,6,4,9,6,0,8,1,10,9,9,6,9,2,0,0,10,4,0,0,0,0,0,0,0,0,0,0,0,0,0,0,0,0,0,0,0,0,0,0,0,0,0,0,0,0,0,0],"split_type":[0,0,0,0,0,0,0,0,0,0,0,0,0,0,0,0,0,0,0,0,0,0,0,0,0,0,0,0,0,0,0,0,0,0,0,0,0,0,0,0,0,0,0,0,0,0,0,0,0,0,0,0,0,0,0,0,0,0,0,0,0],"sum_hessian":[1.7798096E4,8.76617E3,9.031926E3,4.65222E3,4.11395E3,5.8397827E3,3.192143E3,2.8293887E3,1.8228318E3,3.7063047E3,4.0764526E2,1.1658612E3,4.673922E3,4.194666E1,3.1501965E3,6.2877246E2,2.2006162E3,2.6740368E1,1.7960914E3,3.3491135E2,3.3713933E3,7.747805E1,3.301672E2,1.9391733E2,9.7194385E2,4.174767E3,4.991544E2,7.2436495E0,3.470301E1,6.4734E2,2.5028564E3,1.3582648E2,4.9294598E2,1.979032E3,2.2158414E2,1.1246182E1,1.5494185E1,1.5103661E3,2.8572528E2,1.9094806E2,1.4396329E2,9.49908E0,3.3618943E3,2.649285E1,5.0985203E1,2.9489065E1,3.0067816E2,6.2232803E1,1.3168452E2,8.442286E2,1.27715256E2,3.7634133E3,4.1135394E2,3.841952E2,1.149592E2,5.9921227E0,2.8710888E1,5.852008E2,6.2139206E1,5.283672E2,1.9744893E3],"tree_param":{"num_deleted":"0","num_feature":"11","num_nodes":"61","size_leaf_vector":"1"}},{"base_weights":[3.4743932E-3,7.01255E-2,-6.663075E-2,1.00826286E-1,-7.616217E-3,-2.3865415E-2,-1.0161288E-1,8.258292E-2,2.1405005E-1,-2.404803E-1,6.7243055E-3,-5.4340735E-3,-1.8315434E-1,-1.23262964E-1,9.617447E-3,9.991616E-2,-9.8812155E-2,1.9455813E-1,6.0203815E-1,-3.79268E-1,8.7484166E-2,4.535671E-2,-8.4794E-2,1.4638335E-1,-1.8370075E-2,-2.519798E-1,1.4065409E-1,-7.839461E-2,-1.7004931E-1,2.915136E-1,-2.7587486E-2,-1.2674569E-2,2.2693786E-3,-2.9354175E-3,9.17075E-3,1.1821199E-2,3.7602505E-3,1.8208243E-2,7.308439E-3,-1.631654E-3,-1.5184886E-2,6.2563433E-3,-1.0351788E-2,5.0825546E-3,-6.348104E-5,5.5211317E-3,-2.6889734E-3,5.5254134E-4,7.971091E-3,2.48914E-3,-7.9217216E-4,-5.0724077E-4,-7.745651E-3,-2.4619177E-3,1.358374E-2,-2.16907E-3,2.3481648E-3,1.0648717E-3,-4.1710134E-3,2.0583272E-3,1.467368E-2,-3.2023783E-3,2.8762585E-3],"categories":[],"categories_nodes":[],"categories_segments":[],"categories_sizes":[],"default_left":[0,0,0,0,0,0,0,0,0,0,0,0,0,0,0,0,0,0,0,0,0,0,0,0,0,0,0,0,0,0,0,0,0,0,0,0,0,0,0,0,0,0,0,0,0,0,0,0,0,0,0,0,0,0,0,0,0,0,0,0,0,0,0],"id":20,"left_children":[1,3,5,7,9,11,13,15,17,19,21,23,25,27,29,31,33,35,37,39,41,43,45,47,49,51,53,55,57,59,61,-1,-1,-1,-1,-1,-1,-1,-1,-1,-1,-1,-1,-1,-1,-1,-1,-1,-1,-1,-1,-1,-1,-1,-1,-1,-1,-1,-1,-1,-1,-1,-1],"loss_changes":[8.330649E1,2.1814339E1,1.2996914E1,1.3516289E1,8.645256E0,1.1481352E1,1.1510345E1,1.7757214E1,6.7542305E0,6.869052E0,8.627831E0,6.888992E0,9.074279E0,8.384941E0,8.184518E0,1.1336632E1,8.852616E0,6.9296494E0,2.3419027E0,9.978059E0,5.1295166E0,1.5369471E1,9.134589E0,7.2033463E0,7.500984E0,7.6645145E0,8.707408E0,7.654254E0,8.366322E0,6.70001E0,1.2900259E1,0E0,0E0,0E0,0E0,0E0,0E0,0E0,0E0,0E0,0E0,0E0,0E0,0E0,0E0,0E0,0E0,0E0,0E0,0E0,0E0,0E0,0E0,0E0,0E0,0E0,0E0,0E0,0E0,0E0,0E0,0E0,0E0],"parents":[2147483647,0,0,1,1,2,2,3,3,4,4,5,5,6,6,7,7,8,8,9,9,10,10,11,11,12,12,13,13,14,14,15,15,16,16,17,17,18,18,19,19,20,20,21,21,22,22,23,23,24,24,25,25,26,26,27,27,28,28,29,29,30,30],"right_children":[2,4,6,8,10,12,14,16,18,20,22,24,26,28,30,32,34,36,38,40,42,44,46,48,50,52,54,56,58,60,62,-1,-1,-1,-1,-1,-1,-1,-1,-1,-1,-1,-1,-1,-1,-1,-1,-1,-1,-1,-1,-1,-1,-1,-1,-1,-1,-1,-1,-1,-1,-1,-1],"split_conditions":[1.7828808E-5,1.1228162E-3,4.8218506E-5,1.7196574E0,2.1474682E-1,1.898552E0,1.7196574E0,1.4677165E0,7.601662E-4,7.133547E-1,1.2628508E0,2.289056E-1,1.7045506E0,4.6731398E-4,5.876494E-1,1.6880777E-2,7.601662E-4,4.7303134E-1,1.6754527E0,5.202499E-1,-9.794668E-5,-7.152181E-4,8.685137E-1,5.5406326E-1,2.5E1,7.822384E-1,-1.7853904E-3,1.8207092E0,2.4753882E-1,1.4221499E0,7.086224E1,-1.2674569E-2,2.2693786E-3,-2.9354175E-3,9.17075E-3,1.1821199E-2,3.7602505E-3,1.8208243E-2,7.308439E-3,-1.631654E-3,-1.5184886E-2,6.2563433E-3,-1.0351788E-2,5.0825546E-3,-6.348104E-5,5.5211317E-3,-2.6889734E-3,5.5254134E-4,7.971091E-3,2.48914E-3,-7.9217216E-4,-5.0724077E-4,-7.745651E-3,-2.4619177E-3,1.358374E-2,-2.16907E-3,2.3481648E-3,1.0648717E-3,-4.1710134E-3,2.0583272E-3,1.467368E-2,-3.2023783E-3,2.8762585E-3],"split_indices":[0,4,4,10,9,10,6,10,4,7,8,9,6,0,7,8,4,6,9,6,1,0,6,8,5,8,4,10,10,9,5,0,0,0,0,0,0,0,0,0,0,0,0,0,0,0,0,0,0,0,0,0,0,0,0,0,0,0,0,0,0,0,0],"split_type":[0,0,0,0,0,0,0,0,0,0,0,0,0,0,0,0,0,0,0,0,0,0,0,0,0,0,0,0,0,0,0,0,0,0,0,0,0,0,0,0,0,0,0,0,0,0,0,0,0,0,0,0,0,0,0,0,0,0,0,0,0,0,0],"sum_hessian":[1.782678E4,9.138515E3,8.688266E3,6.551128E3,2.5873862E3,3.9100032E3,4.778262E3,5.6435337E3,9.075943E2,1.491814E2,2.4382048E3,3.5054243E3,4.0457895E2,3.9996536E3,7.786084E2,5.1517104E3,4.9182364E2,8.656089E2,4.1985397E1,1.0471274E2,4.4468666E1,1.7148315E3,7.2337335E2,2.7442664E2,3.2309976E3,3.3384256E2,7.0736374E1,2.0430414E3,1.9566123E3,8.998329E1,6.886251E2,2.370972E1,5.1280005E3,4.6157962E2,3.0244019E1,5.444025E1,8.1116864E2,2.174078E1,2.0244617E1,5.347886E1,5.123388E1,3.3232937E1,1.1235728E1,3.5288885E2,1.3619427E3,7.198499E1,6.5138837E2,1.7645094E2,9.7975685E1,3.8144025E2,2.8495574E3,1.019371E2,2.3190546E2,4.6741993E1,2.399438E1,1.842476E3,2.0056535E2,1.6054001E2,1.7960723E3,5.9737926E1,3.0245367E1,3.946425E2,2.9398264E2],"tree_param":{"num_deleted":"0","num_feature":"11","num_nodes":"63","size_leaf_vector":"1"}},{"base_weights":[2.2181843E-3,5.5548497E-2,-7.6723516E-2,2.3919106E-1,4.1103244E-2,-3.906907E-3,-1.301624E-1,2.8871578E-1,-7.626611E-2,8.057039E-2,6.0582097E-4,3.6752307E-1,-1.1995604E-2,-1.1383166E-1,-2.7632567E-1,3.0562446E-1,-7.0913804E-1,6.313818E-2,-5.7673174E-1,1.5658888E-1,4.0755793E-2,5.5797588E-2,-3.7790347E-2,5.1737565E-1,-1.900855E-1,-4.5386627E-1,-2.6969262E-3,4.85178E-2,-1.279563E-1,-3.242149E-1,1.9585315E-2,-1.8476548E-2,6.991675E-3,-2.6371857E-2,-2.332365E-3,5.8441632E-3,-6.7196093E-3,-2.0403244E-2,1.15626715E-2,1.0114604E-3,4.9633505E-3,4.20862E-4,4.2093014E-3,-1.0030709E-2,1.3692363E-3,2.4318695E-3,-1.2801774E-3,1.6988214E-2,3.2480538E-3,6.4361487E-3,-1.2434802E-2,-3.4183296E-3,-1.8250344E-2,-1.5177274E-3,9.80896E-4,2.0015284E-3,-8.453387E-3,-6.0322233E-3,-2.2966953E-3,3.6614218E-3,-7.6220245E-3,1.6951356E-2,-2.9817382E-3],"categories":[],"categories_nodes":[],"categories_segments":[],"categories_sizes":[],"default_left":[0,0,0,0,0,0,0,0,0,0,0,0,0,0,0,0,0,0,0,0,0,0,0,0,0,0,0,0,0,0,0,0,0,0,0,0,0,0,0,0,0,0,0,0,0,0,0,0,0,0,0,0,0,0,0,0,0,0,0,0,0,0,0],"id":21,"left_children":[1,3,5,7,9,11,13,15,17,19,21,23,25,27,29,31,33,35,37,39,41,43,45,47,49,51,53,55,57,59,61,-1,-1,-1,-1,-1,-1,-1,-1,-1,-1,-1,-1,-1,-1,-1,-1,-1,-1,-1,-1,-1,-1,-1,-1,-1,-1,-1,-1,-1,-1,-1,-1],"loss_changes":[7.515753E1,2.8253792E1,2.8007786E1,1.215712E1,1.5789188E1,9.160464E0,9.877319E0,1.1547543E1,7.444896E0,1.51358185E1,1.0336577E1,5.528388E0,1.2257749E1,8.572693E0,5.9085484E0,9.489231E0,3.266005E0,6.3474503E0,9.468664E0,1.3115189E1,1.069228E1,6.623829E0,8.710442E0,4.7369585E0,2.7899313E0,6.766176E0,9.165306E0,5.542531E0,1.1813435E1,3.97015E0,6.972164E0,0E0,0E0,0E0,0E0,0E0,0E0,0E0,0E0,0E0,0E0,0E0,0E0,0E0,0E0,0E0,0E0,0E0,0E0,0E0,0E0,0E0,0E0,0E0,0E0,0E0,0E0,0E0,0E0,0E0,0E0,0E0,0E0],"parents":[2147483647,0,0,1,1,2,2,3,3,4,4,5,5,6,6,7,7,8,8,9,9,10,10,11,11,12,12,13,13,14,14,15,15,16,16,17,17,18,18,19,19,20,20,21,21,22,22,23,23,24,24,25,25,26,26,27,27,28,28,29,29,30,30],"right_children":[2,4,6,8,10,12,14,16,18,20,22,24,26,28,30,32,34,36,38,40,42,44,46,48,50,52,54,56,58,60,62,-1,-1,-1,-1,-1,-1,-1,-1,-1,-1,-1,-1,-1,-1,-1,-1,-1,-1,-1,-1,-1,-1,-1,-1,-1,-1,-1,-1,-1,-1,-1,-1],"split_conditions":[1.8421052E-1,-8.148148E-1,5.531725E-1,1.7196574E0,-2.585477E-4,6.278308E-5,8.008048E1,-1.8594273E-4,-1.0244092E-3,6.6039336E-1,-2.7557224E-4,4.444538E-1,9.7248616E-5,2.421875E-1,2.2067056E0,7.0536234E-3,2.3115377E-1,3.036441E-1,2.5192375E0,3.8011837E-1,4.8834953E1,3.3374828E-1,2.3984829E-1,4.107143E-1,-3.048014E-5,2.6506025E-1,3.6851852E1,1.009872E0,3.6150822E-1,1.3957759E-4,8.8919816E-4,-1.8476548E-2,6.991675E-3,-2.6371857E-2,-2.332365E-3,5.8441632E-3,-6.7196093E-3,-2.0403244E-2,1.15626715E-2,1.0114604E-3,4.9633505E-3,4.20862E-4,4.2093014E-3,-1.0030709E-2,1.3692363E-3,2.4318695E-3,-1.2801774E-3,1.6988214E-2,3.2480538E-3,6.4361487E-3,-1.2434802E-2,-3.4183296E-3,-1.8250344E-2,-1.5177274E-3,9.80896E-4,2.0015284E-3,-8.453387E-3,-6.0322233E-3,-2.2966953E-3,3.6614218E-3,-7.6220245E-3,1.6951356E-2,-2.9817382E-3],"split_indices":[2,2,7,9,3,0,5,0,1,6,0,7,1,9,6,9,8,7,9,8,5,7,6,2,3,2,5,7,6,1,0,0,0,0,0,0,0,0,0,0,0,0,0,0,0,0,0,0,0,0,0,0,0,0,0,0,0,0,0,0,0,0,0],"split_type":[0,0,0,0,0,0,0,0,0,0,0,0,0,0,0,0,0,0,0,0,0,0,0,0,0,0,0,0,0,0,0,0,0,0,0,0,0,0,0,0,0,0,0,0,0,0,0,0,0,0,0,0,0,0,0,0,0,0,0,0,0,0,0],"sum_hessian":[1.7850195E4,1.0653411E4,7.1967837E3,7.7574915E2,9.877662E3,3.0465645E3,4.150219E3,6.705603E2,1.0518884E2,5.001963E3,4.875699E3,6.3984474E1,2.98258E3,3.73472E3,4.1549954E2,6.6006915E2,1.0491172E1,8.29555E1,2.2233345E1,1.7182858E3,3.283677E3,2.0001592E3,2.87554E3,5.048832E1,1.3496154E1,6.0486122E1,2.922094E3,2.9872482E2,3.435995E3,3.575407E2,5.795883E1,6.22928E0,6.5383984E2,5.2455654E0,5.245607E0,5.3719658E1,2.9235844E1,1.698757E1,5.2457743E0,6.6083984E2,1.0574459E3,2.8722869E3,4.1139008E2,2.3992413E1,1.9761667E3,3.471211E2,2.528419E3,2.9244825E1,2.1243492E1,5.9986095E0,7.4975443E0,3.4494217E1,2.5991903E1,1.2163368E3,1.7057571E3,2.7275323E2,2.5971571E1,4.753041E2,2.960691E3,1.5223293E1,3.423174E2,9.243546E0,4.8715286E1],"tree_param":{"num_deleted":"0","num_feature":"11","num_nodes":"63","size_leaf_vector":"1"}},{"base_weights":[-1.93187E-3,3.835829E-2,-8.0016986E-2,8.801341E-2,-1.2426752E-2,-1.0295375E-1,7.944192E-3,1.2834525E-1,4.8746623E-2,-3.00983E-2,1.20414965E-1,2.9229159E-2,-1.2752527E-1,-9.298261E-3,3.9683294E-1,2.6168072E-1,1.06361605E-1,2.2130324E-1,2.7208768E-2,-2.0572739E-2,-3.9398053E-1,4.5997894E-1,7.9104066E-2,3.8941E-1,-1.6522016E-2,-1.1690702E-1,-4.9251384E-1,-3.648135E-1,5.2553834E-3,7.1138144E-1,5.8649935E-2,8.428466E-3,2.7935845E-3,1.9774367E-3,6.437597E-3,4.0355776E-3,1.7407738E-2,7.2630116E-4,-9.97627E-3,-3.293349E-4,-7.263976E-3,-1.0056979E-3,-1.3066185E-2,1.6636526E-2,4.434157E-3,7.126175E-4,6.542067E-3,4.7473605E-3,1.4903435E-2,-7.2881808E-3,2.8013342E-4,3.3405072E-3,-2.8672032E-3,-1.4408094E-2,-5.679341E-3,-3.8827383E-3,-1.9872935E-2,9.027476E-3,-2.5592928E-4,2.2019144E-2,5.2368497E-3,-1.2674551E-2,9.718465E-3],"categories":[],"categories_nodes":[],"categories_segments":[],"categories_sizes":[],"default_left":[0,0,0,0,0,0,0,0,0,0,0,0,0,0,0,0,0,0,0,0,0,0,0,0,0,0,0,0,0,0,0,0,0,0,0,0,0,0,0,0,0,0,0,0,0,0,0,0,0,0,0,0,0,0,0,0,0,0,0,0,0,0,0],"id":22,"left_children":[1,3,5,7,9,11,13,15,17,19,21,23,25,27,29,31,33,35,37,39,41,43,45,47,49,51,53,55,57,59,61,-1,-1,-1,-1,-1,-1,-1,-1,-1,-1,-1,-1,-1,-1,-1,-1,-1,-1,-1,-1,-1,-1,-1,-1,-1,-1,-1,-1,-1,-1,-1,-1],"loss_changes":[5.596726E1,2.9593147E1,1.221677E1,9.390678E0,1.3624548E1,1.5602329E1,8.407168E0,8.550186E0,1.1173471E1,1.7745085E1,9.522582E0,1.2425313E1,1.5638298E1,6.2160015E0,5.6205845E0,6.7152176E0,7.689348E0,7.056114E0,7.480146E0,8.655195E0,9.066839E0,5.4897537E0,6.1967373E0,4.1033335E0,6.1706347E0,1.4218712E1,4.1766605E0,4.6319795E0,7.904847E0,3.5284615E0,6.757322E0,0E0,0E0,0E0,0E0,0E0,0E0,0E0,0E0,0E0,0E0,0E0,0E0,0E0,0E0,0E0,0E0,0E0,0E0,0E0,0E0,0E0,0E0,0E0,0E0,0E0,0E0,0E0,0E0,0E0,0E0,0E0,0E0],"parents":[2147483647,0,0,1,1,2,2,3,3,4,4,5,5,6,6,7,7,8,8,9,9,10,10,11,11,12,12,13,13,14,14,15,15,16,16,17,17,18,18,19,19,20,20,21,21,22,22,23,23,24,24,25,25,26,26,27,27,28,28,29,29,30,30],"right_children":[2,4,6,8,10,12,14,16,18,20,22,24,26,28,30,32,34,36,38,40,42,44,46,48,50,52,54,56,58,60,62,-1,-1,-1,-1,-1,-1,-1,-1,-1,-1,-1,-1,-1,-1,-1,-1,-1,-1,-1,-1,-1,-1,-1,-1,-1,-1,-1,-1,-1,-1,-1,-1],"split_conditions":[2.9411766E-1,-2.585477E-4,1.5011892E0,8.755826E-1,1.7679257E0,3.2546675E-1,2.9403322E0,-4.9839523E-3,5.491977E-1,4.5762485E-4,1.1290345E0,-2.962746E-3,8.3023254E1,2.8781794E1,3.8382509E0,1.9186015E-1,5.390244E1,4.222763E-1,5.308211E-1,8.502282E-3,9.36388E-4,-2.4004283E-4,7.4353874E1,-6.497537E-4,3.4050446E1,2.4121557E1,1.1640589E0,2.7152317E1,-1.4540768E-3,1.6848992E-3,4.368932E-1,8.428466E-3,2.7935845E-3,1.9774367E-3,6.437597E-3,4.0355776E-3,1.7407738E-2,7.2630116E-4,-9.97627E-3,-3.293349E-4,-7.263976E-3,-1.0056979E-3,-1.3066185E-2,1.6636526E-2,4.434157E-3,7.126175E-4,6.542067E-3,4.7473605E-3,1.4903435E-2,-7.2881808E-3,2.8013342E-4,3.3405072E-3,-2.8672032E-3,-1.4408094E-2,-5.679341E-3,-3.8827383E-3,-1.9872935E-2,9.027476E-3,-2.5592928E-4,2.2019144E-2,5.2368497E-3,-1.2674551E-2,9.718465E-3],"split_indices":[2,3,6,9,10,9,9,4,6,0,9,4,5,5,9,7,5,7,7,4,4,0,5,3,5,5,10,5,3,4,2,0,0,0,0,0,0,0,0,0,0,0,0,0,0,0,0,0,0,0,0,0,0,0,0,0,0,0,0,0,0,0,0],"split_type":[0,0,0,0,0,0,0,0,0,0,0,0,0,0,0,0,0,0,0,0,0,0,0,0,0,0,0,0,0,0,0,0,0,0,0,0,0,0,0,0,0,0,0,0,0,0,0,0,0,0,0,0,0,0,0,0,0,0,0,0,0,0,0],"sum_hessian":[1.7787648E4,1.1733788E4,6.0538613E3,5.932524E3,5.8012637E3,4.8016206E3,1.2522411E3,2.9254536E3,3.0070703E3,5.120828E3,6.804355E2,7.526324E2,4.048988E3,1.2000114E3,5.2229713E1,4.1252118E2,2.5129326E3,3.326529E2,2.6744175E3,4.9912266E3,1.2960176E2,7.270297E1,6.077325E2,8.397997E1,6.6865247E2,3.9358079E3,1.13180176E2,4.6246197E1,1.1537651E3,2.6488693E1,2.5741022E1,2.1597556E2,1.9654561E2,2.3100454E3,2.0288725E2,3.131679E2,1.9484983E1,2.643425E3,3.0992247E1,4.9035356E3,8.769086E1,4.771552E1,8.1886246E1,3.297662E1,3.9726353E1,5.0154147E2,1.06191025E2,5.348678E1,3.0493193E1,5.5984997E1,6.126674E2,1.8670287E2,3.749105E3,6.5794136E1,4.738604E1,3.524724E1,1.0998961E1,4.5244484E1,1.1085206E3,1.5744897E1,1.0743795E1,9.498641E0,1.624238E1],"tree_param":{"num_deleted":"0","num_feature":"11","num_nodes":"63","size_leaf_vector":"1"}},{"base_weights":[-4.7554154E-4,5.6799598E-2,-5.839247E-2,8.513954E-2,-9.674308E-3,-1.3199765E-2,-1.16233535E-1,-5.35198E-1,8.766946E-2,2.3056036E-1,-2.670335E-2,2.3540564E-1,-2.3130713E-2,-2.0523094E-1,-6.3085906E-2,-2.4496036E-2,-6.590247E-2,1.2047413E-1,4.0736303E-2,2.6884615E-1,-1.3538002E-2,-5.306759E-1,-2.0129463E-2,3.1222966E-1,-2.8882512E-1,4.5369846E-1,-2.8151233E-2,-2.5903517E-1,-5.342976E-2,-8.0250636E-2,1.3536988E-1,8.548201E-3,-1.5303876E-2,5.7124193E-3,2.1271475E-3,6.441835E-4,6.079019E-3,8.344621E-3,-8.5544557E-4,-1.4085736E-3,-2.0807564E-2,-7.0681475E-4,5.363446E-3,7.7348836E-3,-1.4895864E-2,5.148876E-3,-1.2072759E-2,2.9315492E-2,6.2853172E-3,-3.8575442E-4,-4.1528293E-3,-4.9220556E-3,-1.2513072E-2,3.1708104E-3,-4.4173333E-3,2.4209284E-4,-3.0679717E-3,-1.5294706E-3,6.241731E-3],"categories":[],"categories_nodes":[],"categories_segments":[],"categories_sizes":[],"default_left":[0,0,0,0,0,0,0,0,0,0,0,0,0,0,0,0,0,0,0,0,0,0,0,0,0,0,0,0,0,0,0,0,0,0,0,0,0,0,0,0,0,0,0,0,0,0,0,0,0,0,0,0,0,0,0,0,0,0,0],"id":23,"left_children":[1,3,5,7,9,11,13,15,17,19,21,23,25,27,29,-1,31,33,35,37,-1,39,41,43,45,47,49,51,53,55,57,-1,-1,-1,-1,-1,-1,-1,-1,-1,-1,-1,-1,-1,-1,-1,-1,-1,-1,-1,-1,-1,-1,-1,-1,-1,-1,-1,-1],"loss_changes":[5.9188286E1,1.6901241E1,2.318907E1,9.918076E0,1.0979671E1,1.23042755E1,1.8392368E1,6.897674E0,9.640949E0,5.9192305E0,8.290912E0,7.8001757E0,1.1482303E1,1.18655205E1,8.314832E0,0E0,4.6325693E0,1.2180969E1,6.9517436E0,5.815586E0,0E0,6.181904E0,7.8437366E0,6.757881E0,3.52467E0,6.9982796E0,8.083062E0,1.1612968E1,1.1145908E1,1.21264E1,5.9293604E0,0E0,0E0,0E0,0E0,0E0,0E0,0E0,0E0,0E0,0E0,0E0,0E0,0E0,0E0,0E0,0E0,0E0,0E0,0E0,0E0,0E0,0E0,0E0,0E0,0E0,0E0,0E0,0E0],"parents":[2147483647,0,0,1,1,2,2,3,3,4,4,5,5,6,6,7,7,8,8,9,9,10,10,11,11,12,12,13,13,14,14,16,16,17,17,18,18,19,19,21,21,22,22,23,23,24,24,25,25,26,26,27,27,28,28,29,29,30,30],"right_children":[2,4,6,8,10,12,14,16,18,20,22,24,26,28,30,-1,32,34,36,38,-1,40,42,44,46,48,50,52,54,56,58,-1,-1,-1,-1,-1,-1,-1,-1,-1,-1,-1,-1,-1,-1,-1,-1,-1,-1,-1,-1,-1,-1,-1,-1,-1,-1,-1,-1],"split_conditions":[9.090909E-3,6.126255E-1,6.7739505E-1,1.6880777E-2,-7.9545456E-1,1.5426463E-1,6.955945E-1,3.4380242E-1,1.0007643E0,-2.3405696E-4,7.661073E-2,1.7220525E-3,-4.3859265E-5,7.603519E-1,1.2066495E0,-2.4496036E-2,5.990347E-1,-2.043266E-3,2.6004875E0,1.4012401E0,-1.3538002E-2,-3.2920908E-4,2.454208E0,5.3805244E-1,5.7897466E-1,6.25E-2,8.235294E-1,5.560014E-3,4.2372882E-1,8.695269E-1,9.840713E-1,8.548201E-3,-1.5303876E-2,5.7124193E-3,2.1271475E-3,6.441835E-4,6.079019E-3,8.344621E-3,-8.5544557E-4,-1.4085736E-3,-2.0807564E-2,-7.0681475E-4,5.363446E-3,7.7348836E-3,-1.4895864E-2,5.148876E-3,-1.2072759E-2,2.9315492E-2,6.2853172E-3,-3.8575442E-4,-4.1528293E-3,-4.9220556E-3,-1.2513072E-2,3.1708104E-3,-4.4173333E-3,2.4209284E-4,-3.0679717E-3,-1.5294706E-3,6.241731E-3],"split_indices":[2,7,7,8,2,9,8,10,8,0,10,4,0,9,7,0,10,3,10,9,0,1,9,10,7,2,2,4,2,7,10,0,0,0,0,0,0,0,0,0,0,0,0,0,0,0,0,0,0,0,0,0,0,0,0,0,0,0,0],"split_type":[0,0,0,0,0,0,0,0,0,0,0,0,0,0,0,0,0,0,0,0,0,0,0,0,0,0,0,0,0,0,0,0,0,0,0,0,0,0,0,0,0,0,0,0,0,0,0,0,0,0,0,0,0,0,0,0,0,0,0],"sum_hessian":[1.7840846E4,8.970132E3,8.870713E3,6.2887544E3,2.6813772E3,4.980528E3,3.8901853E3,2.4687992E1,6.2640664E3,1.7665823E2,2.504719E3,1.9044087E2,4.790087E3,1.4534596E3,2.4367256E3,1.04451E1,1.4242893E1,3.686066E3,2.5780005E3,1.6966168E2,6.9965525E0,3.1224657E1,2.4734944E3,1.6645232E2,2.398855E1,4.897804E1,4.741109E3,1.0725868E3,3.8087283E2,2.2432954E3,1.934303E2,8.495158E0,5.747735E0,5.365472E2,3.1495188E3,2.45953E3,1.1847061E2,1.2467793E2,4.4983746E1,1.5243399E1,1.5981259E1,2.366774E3,1.0672035E2,1.6070396E2,5.7483554E0,7.9987063E0,1.5989843E1,6.747919E0,4.2230118E1,4.448183E3,2.9292606E2,9.64385E2,1.08201744E2,1.6272946E2,2.1814336E2,8.830214E2,1.3602739E3,8.1456116E1,1.11974174E2],"tree_param":{"num_deleted":"0","num_feature":"11","num_nodes":"59","size_leaf_vector":"1"}},{"base_weights":[-5.8086137E-3,2.8854784E-2,-1.05813876E-1,6.0195535E-2,-4.3376837E-2,-1.3558815E-1,-5.851111E-3,2.1315055E-1,5.1125433E-2,1.05968425E-2,-9.364528E-2,-9.409034E-2,-2.2065668E-1,-1.7796503E-2,3.9023602E-1,-4.87318E-1,2.3672058E-1,