{"learner":{"attributes":{"best_iteration":"73","best_score":"1.0742255643115686","scikit_learn":"{\"_estimator_type\": \"classifier\"}"},"feature_names":["atr_14","volatility_momentum","volatility_regime","hl_spread","trend_strength","bb_width","normalised_ema50","vol_trend","rsi_14","macd_hist","dist_ema15"],"feature_types":["float","float","float","float","float","float","float","float","float","float","float"],"gradient_booster":{"model":{"cats":{"enc":[],"feature_segments":[],"sorted_idx":[]},"gbtree_model_param":{"num_parallel_tree":"1","num_trees":"372"},"iteration_indptr":[0,3,6,9,12,15,18,21,24,27,30,33,36,39,42,45,48,51,54,57,60,63,66,69,72,75,78,81,84,87,90,93,96,99,102,105,108,111,114,117,120,123,126,129,132,135,138,141,144,147,150,153,156,159,162,165,168,171,174,177,180,183,186,189,192,195,198,201,204,207,210,213,216,219,222,225,228,231,234,237,240,243,246,249,252,255,258,261,264,267,270,273,276,279,282,285,288,291,294,297,300,303,306,309,312,315,318,321,324,327,330,333,336,339,342,345,348,351,354,357,360,363,366,369,372],"tree_info":[0,1,2,0,1,2,0,1,2,0,1,2,0,1,2,0,1,2,0,1,2,0,1,2,0,1,2,0,1,2,0,1,2,0,1,2,0,1,2,0,1,2,0,1,2,0,1,2,0,1,2,0,1,2,0,1,2,0,1,2,0,1,2,0,1,2,0,1,2,0,1,2,0,1,2,0,1,2,0,1,2,0,1,2,0,1,2,0,1,2,0,1,2,0,1,2,0,1,2,0,1,2,0,1,2,0,1,2,0,1,2,0,1,2,0,1,2,0,1,2,0,1,2,0,1,2,0,1,2,0,1,2,0,1,2,0,1,2,0,1,2,0,1,2,0,1,2,0,1,2,0,1,2,0,1,2,0,1,2,0,1,2,0,1,2,0,1,2,0,1,2,0,1,2,0,1,2,0,1,2,0,1,2,0,1,2,0,1,2,0,1,2,0,1,2,0,1,2,0,1,2,0,1,2,0,1,2,0,1,2,0,1,2,0,1,2,0,1,2,0,1,2,0,1,2,0,1,2,0,1,2,0,1,2,0,1,2,0,1,2,0,1,2,0,1,2,0,1,2,0,1,2,0,1,2,0,1,2,0,1,2,0,1,2,0,1,2,0,1,2,0,1,2,0,1,2,0,1,2,0,1,2,0,1,2,0,1,2,0,1,2,0,1,2,0,1,2,0,1,2,0,1,2,0,1,2,0,1,2,0,1,2,0,1,2,0,1,2,0,1,2,0,1,2,0,1,2,0,1,2,0,1,2,0,1,2,0,1,2,0,1,2,0,1,2,0,1,2,0,1,2,0,1,2,0,1,2,0,1,2,0,1,2,0,1,2,0,1,2,0,1,2],"trees":[{"base_weights":[3.4077256E-3,-1.3162935E-2,1.4598663E-1,-3.680929E-2,6.582948E-2,-0E0,1.7716323E-1,-6.7359455E-2,3.327829E-3,1.1806947E-1,-6.964707E-2,1.7278422E-2,5.362764E-2,-4.9358252E-3,1.5727609E-3,3.0386243E-3,-1.3522988E-3,-5.494264E-3,1.0281434E-2,-1.0001328E-2,-0E0,-4.0380168E-4,1.02897845E-2],"categories":[],"categories_nodes":[],"categories_segments":[],"categories_sizes":[],"default_left":[0,0,0,0,0,0,0,0,0,0,0,0,0,0,0,0,0,0,0,0,0,0,0],"id":0,"left_children":[1,3,5,7,9,-1,11,13,15,17,19,-1,21,-1,-1,-1,-1,-1,-1,-1,-1,-1,-1],"loss_changes":[1.2439418E1,8.107477E0,2.5562763E0,4.5962515E0,7.2477446E0,0E0,3.3967075E0,2.4028902E0,1.7592351E0,7.4595575E0,1.7796327E0,0E0,2.512364E0,0E0,0E0,0E0,0E0,0E0,0E0,0E0,0E0,0E0,0E0],"parents":[2147483647,0,0,1,1,2,2,3,3,4,4,6,6,7,7,8,8,9,9,10,10,12,12],"right_children":[2,4,6,8,10,-1,12,14,16,18,20,-1,22,-1,-1,-1,-1,-1,-1,-1,-1,-1,-1],"split_conditions":[2.4616292E-1,4.8599653E-3,-4.0568924E-4,2.5342912E-3,8.022397E-3,-0E0,1.11519E0,1.1926254E0,-2.5633269E-3,7.117381E-2,9.291481E-3,1.7278422E-2,3.1787106E-1,-4.9358252E-3,1.5727609E-3,3.0386243E-3,-1.3522988E-3,-5.494264E-3,1.0281434E-2,-1.0001328E-2,-0E0,-4.0380168E-4,1.02897845E-2],"split_indices":[1,4,7,3,4,0,2,2,7,1,4,0,1,0,0,0,0,0,0,0,0,0,0],"split_type":[0,0,0,0,0,0,0,0,0,0,0,0,0,0,0,0,0,0,0,0,0,0,0],"sum_hessian":[4.9224644E3,4.388557E3,5.339074E2,3.4384895E3,9.500675E2,9.5276405E1,4.3863098E2,2.0246235E3,1.4138658E3,7.168201E2,2.3324742E2,2.089789E2,2.2965208E2,1.8650806E3,1.5954303E2,5.770514E2,8.3681445E2,1.0426474E2,6.1255536E2,1.02017654E2,1.3122977E2,1.2583676E2,1.0381532E2],"tree_param":{"num_deleted":"0","num_feature":"11","num_nodes":"23","size_leaf_vector":"1"}},{"base_weights":[1.0374025E-3,9.827629E-2,-1.104799E-1,1.4301239E-1,-1.1513118E-1,-4.813293E-2,-1.7851429E-1,-1.992133E-3,1.6878694E-1,-0E0,-1.4819668E-1,-1.1441155E-1,7.452863E-2,-1.3568285E-2,-4.6622805E-2,-5.825453E-3,1.3336485E-3,8.692442E-3,2.6298283E-2,-1.2415459E-2,-0E0,-1.5412563E-2,-4.6832236E-3,-0E0,7.1129636E-3,-7.906785E-3,1.7144848E-3],"categories":[],"categories_nodes":[],"categories_segments":[],"categories_sizes":[],"default_left":[0,0,0,0,0,0,0,0,0,0,0,0,0,0,0,0,0,0,0,0,0,0,0,0,0,0,0],"id":1,"left_children":[1,3,5,7,9,11,13,15,17,-1,19,21,23,-1,25,-1,-1,-1,-1,-1,-1,-1,-1,-1,-1,-1,-1],"loss_changes":[5.230621E1,2.5314602E1,8.0276375E0,9.094521E0,1.4640098E0,1.0326805E1,3.312851E0,1.0861195E0,1.0402229E1,0E0,1.8173413E0,2.264186E0,1.505609E0,0E0,2.2108433E0,0E0,0E0,0E0,0E0,0E0,0E0,0E0,0E0,0E0,0E0,0E0,0E0],"parents":[2147483647,0,0,1,1,2,2,3,3,4,4,5,5,6,6,7,7,8,8,10,10,11,11,12,12,14,14],"right_children":[2,4,6,8,10,12,14,16,18,-1,20,22,24,-1,26,-1,-1,-1,-1,-1,-1,-1,-1,-1,-1,-1,-1],"split_conditions":[1.3886473E-1,5.199125E-3,2.0118392E-1,7.690019E-1,6.551717E-2,6.3716816E1,1.8276051E0,1.501434E-3,9.7051287E-1,-0E0,4.022927E1,4.12562E1,8.7476E-1,-1.3568285E-2,5.3469283E-3,-5.825453E-3,1.3336485E-3,8.692442E-3,2.6298283E-2,-1.2415459E-2,-0E0,-1.5412563E-2,-4.6832236E-3,-0E0,7.1129636E-3,-7.906785E-3,1.7144848E-3],"split_indices":[1,4,1,2,1,8,10,4,10,0,8,8,2,0,4,0,0,0,0,0,0,0,0,0,0,0,0],"split_type":[0,0,0,0,0,0,0,0,0,0,0,0,0,0,0,0,0,0,0,0,0,0,0,0,0,0,0],"sum_hessian":[4.796532E3,2.5899788E3,2.2065535E3,2.1672053E3,4.2277335E2,1.2088607E3,9.976927E2,2.9685947E2,1.8703458E3,1.07551445E2,3.1522192E2,8.149426E2,3.939181E2,7.384325E2,2.592602E2,9.924463E1,1.9761485E2,1.7072699E3,1.6307597E2,2.1772609E2,9.749582E1,1.3902992E2,6.759127E2,1.1367226E2,2.8024585E2,1.5608075E2,1.03179436E2],"tree_param":{"num_deleted":"0","num_feature":"11","num_nodes":"27","size_leaf_vector":"1"}},{"base_weights":[6.298688E-4,-6.2561795E-2,1.120285E-1,-1.917668E-1,-2.1582963E-2,1.420486E-1,-7.169258E-3,5.690951E-3,-2.858007E-1,5.4144666E-2,-4.530161E-2,-7.617285E-3,1.7715798E-1,-2.2037504E-2,-1.072364E-2,6.5380405E-3,-5.136577E-4,-3.38281E-3,-0E0,3.396086E-3,-4.3877186E-3,-0E0,1.2600643E-2],"categories":[],"categories_nodes":[],"categories_segments":[],"categories_sizes":[],"default_left":[0,0,0,0,0,0,0,0,0,0,0,0,0,0,0,0,0,0,0,0,0,0,0],"id":2,"left_children":[1,3,5,7,9,11,-1,-1,13,15,17,19,21,-1,-1,-1,-1,-1,-1,-1,-1,-1,-1],"loss_changes":[3.5191692E1,1.5334359E1,1.281369E1,2.0607811E1,4.3565674E0,9.592026E0,0E0,0E0,2.527771E-1,2.1891618E0,7.3253846E-1,1.287157E0,5.9076195E0,0E0,0E0,0E0,0E0,0E0,0E0,0E0,0E0,0E0,0E0],"parents":[2147483647,0,0,1,1,2,2,3,3,4,4,5,5,8,8,9,9,10,10,11,11,12,12],"right_children":[2,4,6,8,10,12,-1,-1,14,16,18,20,22,-1,-1,-1,-1,-1,-1,-1,-1,-1,-1],"split_conditions":[3.0892084E-3,1.8715555E-3,7.327804E1,7.4043304E-1,8.439458E-1,-1.1400166E-3,-7.169258E-3,5.690951E-3,5.034113E1,2.38697E-3,3.8458705E-3,2.9355998E-3,1.7162891E-3,-2.2037504E-2,-1.072364E-2,6.5380405E-3,-5.136577E-4,-3.38281E-3,-0E0,3.396086E-3,-4.3877186E-3,-0E0,1.2600643E-2],"split_indices":[0,0,8,2,2,9,0,0,8,3,3,3,3,0,0,0,0,0,0,0,0,0,0],"split_type":[0,0,0,0,0,0,0,0,0,0,0,0,0,0,0,0,0,0,0,0,0,0,0],"sum_hessian":[4.9269224E3,3.116486E3,1.8104365E3,7.0301715E2,2.413469E3,1.625197E3,1.8523944E2,1.6113599E2,5.4188116E2,5.146532E2,1.8988158E3,2.8120685E2,1.3439902E3,2.9593674E2,2.4594441E2,3.298601E2,1.8479308E2,1.6002009E3,2.986149E2,9.7306496E1,1.8390036E2,1.4595975E2,1.1980305E3],"tree_param":{"num_deleted":"0","num_feature":"11","num_nodes":"23","size_leaf_vector":"1"}},{"base_weights":[-2.2177866E-3,-8.176368E-2,5.816448E-2,3.5699876E-4,-8.859561E-2,1.8962942E-1,3.7393387E-2,-1.660581E-1,-7.0556924E-2,-0E0,1.5684854E-2,2.0628855E-2,1.07907504E-1,-4.0593296E-3,-1.55176E-2,-5.4983348E-3,-5.763892E-4,1.931965E-3,-5.1041627E-3,-0E0,9.427926E-3],"categories":[],"categories_nodes":[],"categories_segments":[],"categories_sizes":[],"default_left":[0,0,0,0,0,0,0,0,0,0,0,0,0,0,0,0,0,0,0,0,0],"id":3,"left_children":[1,3,5,-1,7,9,11,13,15,-1,-1,17,19,-1,-1,-1,-1,-1,-1,-1,-1],"loss_changes":[2.4061281E1,1.7770262E0,6.2467556E0,0E0,1.4113865E0,2.8824873E0,2.1673958E0,6.5547276E-1,1.2829914E0,0E0,0E0,1.8842933E0,1.8367472E0,0E0,0E0,0E0,0E0,0E0,0E0,0E0,0E0],"parents":[2147483647,0,0,1,1,2,2,4,4,5,5,6,6,7,7,8,8,11,11,12,12],"right_children":[2,4,6,-1,8,10,12,14,16,-1,-1,18,20,-1,-1,-1,-1,-1,-1,-1,-1],"split_conditions":[2.5867082E-3,-9.871701E-4,-1.193547E-3,3.5699876E-4,-1.4046012E0,3.4059042E-3,4.4729197E-3,-3.670994E-4,2.3234158E-3,-0E0,1.5684854E-2,4.226575E-3,-5.9587043E-3,-4.0593296E-3,-1.55176E-2,-5.4983348E-3,-5.763892E-4,1.931965E-3,-5.1041627E-3,-0E0,9.427926E-3],"split_indices":[0,9,9,0,10,0,0,9,0,0,0,0,7,0,0,0,0,0,0,0,0],"split_type":[0,0,0,0,0,0,0,0,0,0,0,0,0,0,0,0,0,0,0,0,0],"sum_hessian":[4.9490293E3,2.1727932E3,2.776236E3,9.872807E1,2.0740652E3,3.2381824E2,2.452418E3,3.077627E2,1.7663024E3,9.654125E1,2.27277E2,2.0624155E3,3.9000232E2,1.796518E2,1.2811089E2,1.3113838E3,4.549186E2,1.9373185E3,1.2509706E2,1.1331684E2,2.766855E2],"tree_param":{"num_deleted":"0","num_feature":"11","num_nodes":"21","size_leaf_vector":"1"}},{"base_weights":[2.1353445E-3,1.7252631E-1,-1.2541741E-1,2.8852698E-1,1.05745606E-1,-9.0660885E-2,-1.8314313E-2,2.6955225E-3,3.316756E-1,2.6077433E-2,1.4235623E-1,-1.0064668E-1,2.500371E-3,2.351763E-2,4.862218E-3,6.4330734E-3,-5.9603173E-3,1.07561825E-2,-0E0,-6.657555E-4,-7.1923044E-3],"categories":[],"categories_nodes":[],"categories_segments":[],"categories_sizes":[],"default_left":[0,0,0,0,0,0,0,0,0,0,0,0,0,0,0,0,0,0,0,0,0],"id":4,"left_children":[1,3,5,7,9,11,-1,-1,13,15,17,19,-1,-1,-1,-1,-1,-1,-1,-1,-1],"loss_changes":[1.05295135E2,1.3471951E1,1.3217922E1,5.3448906E0,3.0315714E0,3.4257545E0,0E0,0E0,3.3081589E0,4.821545E0,3.1045551E0,1.9691982E0,0E0,0E0,0E0,0E0,0E0,0E0,0E0,0E0,0E0],"parents":[2147483647,0,0,1,1,2,2,3,3,4,4,5,5,8,8,9,9,10,10,11,11],"right_children":[2,4,6,8,10,12,-1,-1,14,16,18,20,-1,-1,-1,-1,-1,-1,-1,-1,-1],"split_conditions":[2.5680726E-3,1.8715555E-3,4.55365E-3,4.5602033E-3,8.293282E-3,2.8296642E-2,-1.8314313E-2,2.6955225E-3,3.7800993E-3,2.276139E-3,4.669813E-3,2.7333987E-3,2.500371E-3,2.351763E-2,4.862218E-3,6.4330734E-3,-5.9603173E-3,1.07561825E-2,-0E0,-6.657555E-4,-7.1923044E-3],"split_indices":[0,0,0,5,5,5,0,0,4,0,4,0,0,0,0,0,0,0,0,0,0],"split_type":[0,0,0,0,0,0,0,0,0,0,0,0,0,0,0,0,0,0,0,0,0],"sum_hessian":[4.799485E3,2.0708477E3,2.7286375E3,7.0599915E2,1.3648486E3,2.3037568E3,4.2488055E2,1.296418E2,5.7635736E2,4.8649435E2,8.7835425E2,2.1829607E3,1.2079619E2,4.6977557E2,1.0658177E2,3.282615E2,1.5823285E2,7.1178625E2,1.66568E2,3.4274908E2,1.8402115E3],"tree_param":{"num_deleted":"0","num_feature":"11","num_nodes":"21","size_leaf_vector":"1"}},{"base_weights":[-5.362877E-3,-2.3784561E-2,1.640303E-1,-8.964648E-2,4.5972713E-3,2.528842E-1,-5.613007E-3,-0E0,-1.3786009E-1,-7.2558016E-2,2.4278238E-2,4.3130447E-3,2.0523783E-2,4.298589E-3,-1.8247796E-3,-1.5312973E-2,-7.1231597E-3,-1.0463396E-2,2.780298E-3,9.624277E-3,4.3037164E-4],"categories":[],"categories_nodes":[],"categories_segments":[],"categories_sizes":[],"default_left":[0,0,0,0,0,0,0,0,0,0,0,0,0,0,0,0,0,0,0,0,0],"id":5,"left_children":[1,3,5,7,9,11,-1,13,15,17,19,-1,-1,-1,-1,-1,-1,-1,-1,-1,-1],"loss_changes":[1.4690124E1,8.884708E0,1.1558157E1,6.768401E0,4.4671655E0,2.2622356E0,0E0,1.162338E0,5.0100327E-2,7.0962276E0,4.788592E0,0E0,0E0,0E0,0E0,0E0,0E0,0E0,0E0,0E0,0E0],"parents":[2147483647,0,0,1,1,2,2,3,3,4,4,5,5,7,7,8,8,9,9,10,10],"right_children":[2,4,6,8,10,12,-1,14,16,18,20,-1,-1,-1,-1,-1,-1,-1,-1,-1,-1],"split_conditions":[7.6903556E-3,8.95831E-3,6.908939E1,8.5456836E-1,-1.5209438E0,3.181009E1,-5.613007E-3,1.6297691E-3,3.5030476E1,3.7800993E-3,5.4780825E-4,4.3130447E-3,2.0523783E-2,4.298589E-3,-1.8247796E-3,-1.5312973E-2,-7.1231597E-3,-1.0463396E-2,2.780298E-3,9.624277E-3,4.3037164E-4],"split_indices":[4,5,8,2,10,8,0,4,8,4,4,0,0,0,0,0,0,0,0,0,0],"split_type":[0,0,0,0,0,0,0,0,0,0,0,0,0,0,0,0,0,0,0,0,0],"sum_hessian":[4.9199062E3,4.479838E3,4.4006842E2,1.397263E3,3.0825747E3,3.419969E2,9.807154E1,4.5990488E2,9.373581E2,5.600215E2,2.5225532E3,1.2768709E2,2.1430978E2,1.7936496E2,2.8053992E2,1.0788635E2,8.2947174E2,3.3334244E2,2.2667908E2,2.4798418E2,2.274569E3],"tree_param":{"num_deleted":"0","num_feature":"11","num_nodes":"21","size_leaf_vector":"1"}},{"base_weights":[-3.779088E-3,-2.7874434E-2,1.232199E-1,-4.596069E-2,4.0208686E-2,2.0619523E-2,1.6865838E-1,-7.104931E-2,1.2891179E-2,6.606448E-2,-0E0,-0E0,3.2350838E-3,5.3480864E-2,1.4046926E-2,7.692014E-4,-5.4188473E-3,-2.2468258E-4,4.7681974E-3,-0E0,8.424196E-3,-4.263694E-3,1.4170737E-3,8.179998E-3,-0E0],"categories":[],"categories_nodes":[],"categories_segments":[],"categories_sizes":[],"default_left":[0,0,0,0,0,0,0,0,0,0,0,0,0,0,0,0,0,0,0,0,0,0,0,0,0],"id":6,"left_children":[1,3,5,7,9,11,13,15,17,19,21,-1,-1,23,-1,-1,-1,-1,-1,-1,-1,-1,-1,-1,-1],"loss_changes":[1.456217E1,5.209917E0,2.3858519E0,5.321612E0,1.1298634E0,3.8134575E-1,1.268569E0,3.4649792E0,1.3942457E0,1.9498901E0,6.328359E-1,0E0,0E0,1.2973318E0,0E0,0E0,0E0,0E0,0E0,0E0,0E0,0E0,0E0,0E0,0E0],"parents":[2147483647,0,0,1,1,2,2,3,3,4,4,5,5,6,6,7,7,8,8,9,9,10,10,13,13],"right_children":[2,4,6,8,10,12,14,16,18,20,22,-1,-1,24,-1,-1,-1,-1,-1,-1,-1,-1,-1,-1,-1],"split_conditions":[2.131629E-2,4.648619E-3,-8.622395E-3,3.2973415E-3,7.189461E1,2.8912027E-3,2.4311734E-2,5.0559605E-4,8.276527E-4,6.320533E1,3.1744714E-3,-0E0,3.2350838E-3,6.3472347E1,1.4046926E-2,7.692014E-4,-5.4188473E-3,-2.2468258E-4,4.7681974E-3,-0E0,8.424196E-3,-4.263694E-3,1.4170737E-3,8.179998E-3,-0E0],"split_indices":[5,6,6,3,8,3,5,4,6,8,4,0,0,8,0,0,0,0,0,0,0,0,0,0,0],"split_type":[0,0,0,0,0,0,0,0,0,0,0,0,0,0,0,0,0,0,0,0,0,0,0,0,0],"sum_hessian":[4.8965645E3,4.1634014E3,7.3316296E2,3.3583044E3,8.0509705E2,2.7000296E2,4.6315997E2,2.4183408E3,9.3996344E2,5.466236E2,2.5847345E2,9.588758E1,1.7411539E2,1.9186299E2,2.71297E2,3.1267596E2,2.1056648E3,6.8713446E2,2.5282896E2,3.1682483E2,2.2979874E2,1.0238094E2,1.5609251E2,9.563535E1,9.622764E1],"tree_param":{"num_deleted":"0","num_feature":"11","num_nodes":"25","size_leaf_vector":"1"}},{"base_weights":[9.145851E-3,1.77792E-1,-1.1632559E-1,-9.327308E-3,2.1851394E-1,-1.3813412E-2,-1.8002719E-1,2.5604026E-2,-5.2720658E-3,4.0928963E-1,1.3035527E-1,-5.5981968E-2,1.18429646E-1,-1.9837536E-1,-0E0,4.471766E-3,-0E0,1.3286082E-2,3.0368352E-2,3.4470973E-3,1.3338233E-2,-5.7745017E-3,-5.9620008E-5,1.3640011E-2,-0E0,-1.3887342E-3,-1.3542846E-2],"categories":[],"categories_nodes":[],"categories_segments":[],"categories_sizes":[],"default_left":[0,0,0,0,0,0,0,0,0,0,0,0,0,0,0,0,0,0,0,0,0,0,0,0,0,0,0],"id":7,"left_children":[1,3,5,7,9,11,13,15,-1,17,19,21,23,25,-1,-1,-1,-1,-1,-1,-1,-1,-1,-1,-1,-1,-1],"loss_changes":[1.03294235E2,1.715335E1,1.6980629E1,1.3090119E0,2.5459602E1,5.973874E0,5.437477E0,4.3085247E-1,0E0,2.0233688E0,5.9464817E0,1.22749E0,3.1149654E0,3.0536385E0,0E0,0E0,0E0,0E0,0E0,0E0,0E0,0E0,0E0,0E0,0E0,0E0,0E0],"parents":[2147483647,0,0,1,1,2,2,3,3,4,4,5,5,6,6,7,7,9,9,10,10,11,11,12,12,13,13],"right_children":[2,4,6,8,10,12,14,16,-1,18,20,22,24,26,-1,-1,-1,-1,-1,-1,-1,-1,-1,-1,-1,-1,-1],"split_conditions":[2.5506376E-3,7.719858E-1,3.1574196E-3,8.860203E-3,1.8715555E-3,1.144624E0,1.8528938E0,2.064652E-2,-5.2720658E-3,5.629434E-3,9.7244793E-1,9.7244793E-1,2.8967755E-3,1.0180112E-2,-0E0,4.471766E-3,-0E0,1.3286082E-2,3.0368352E-2,3.4470973E-3,1.3338233E-2,-5.7745017E-3,-5.9620008E-5,1.3640011E-2,-0E0,-1.3887342E-3,-1.3542846E-2],"split_indices":[0,2,0,5,0,2,10,10,0,5,2,2,0,5,0,0,0,0,0,0,0,0,0,0,0,0,0],"split_type":[0,0,0,0,0,0,0,0,0,0,0,0,0,0,0,0,0,0,0,0,0,0,0,0,0,0,0],"sum_hessian":[4.8324517E3,2.0774714E3,2.7549805E3,3.4920825E2,1.7282632E3,1.0970483E3,1.6579321E3,1.9419417E2,1.550141E2,5.0713553E2,1.2211277E3,8.7095123E2,2.2609705E2,1.5006592E3,1.5727286E2,9.6257996E1,9.793617E1,1.741252E2,3.330103E2,6.828424E2,5.382852E2,4.6032986E2,4.106214E2,1.2237929E2,1.0371775E2,1.6149033E2,1.3391688E3],"tree_param":{"num_deleted":"0","num_feature":"11","num_nodes":"27","size_leaf_vector":"1"}},{"base_weights":[8.346226E-3,-5.0804246E-2,9.768043E-2,1.2831149E-1,-7.769053E-2,1.12473E-1,-4.101748E-3,1.2478294E-2,1.3918575E-3,-2.4485867E-1,-3.0032493E-2,4.8834484E-2,1.6012399E-1,-1.9695219E-2,-9.421946E-3,-0E0,-6.8652458E-3,4.886605E-3,-4.1451217E-3,6.261922E-3,1.5032916E-2],"categories":[],"categories_nodes":[],"categories_segments":[],"categories_sizes":[],"default_left":[0,0,0,0,0,0,0,0,0,0,0,0,0,0,0,0,0,0,0,0,0],"id":8,"left_children":[1,3,5,7,9,11,-1,-1,-1,13,15,17,19,-1,-1,-1,-1,-1,-1,-1,-1],"loss_changes":[2.6215776E1,1.394334E1,5.186167E0,1.374485E0,1.8869833E1,4.3638916E0,0E0,0E0,0E0,1.6246033E-1,5.3384924E0,3.0254486E0,2.5380688E0,0E0,0E0,0E0,0E0,0E0,0E0,0E0,0E0],"parents":[2147483647,0,0,1,1,2,2,3,3,4,4,5,5,9,9,10,10,11,11,12,12],"right_children":[2,4,6,8,10,12,-1,-1,-1,14,16,18,20,-1,-1,-1,-1,-1,-1,-1,-1],"split_conditions":[2.9767347E-3,7.523484E-1,1.3348206E-2,-2.328567E-5,1.8715555E-3,3.6642705E-3,-4.101748E-3,1.2478294E-2,1.3918575E-3,1.6073128E-3,3.028597E-3,8.6234626E-4,3.374819E-4,-1.9695219E-2,-9.421946E-3,-0E0,-6.8652458E-3,4.886605E-3,-4.1451217E-3,6.261922E-3,1.5032916E-2],"split_indices":[0,2,6,9,0,0,0,0,0,0,6,9,9,0,0,0,0,0,0,0,0],"split_type":[0,0,0,0,0,0,0,0,0,0,0,0,0,0,0,0,0,0,0,0,0],"sum_hessian":[4.879616E3,2.9026616E3,1.9769543E3,3.4366568E2,2.5589958E3,1.8482947E3,1.2865964E2,1.6712102E2,1.7654468E2,5.2654755E2,2.0324484E3,8.557571E2,9.9253766E2,2.5131622E2,2.752313E2,1.4441376E3,5.8831085E2,7.272594E2,1.2849763E2,6.2100476E2,3.715329E2],"tree_param":{"num_deleted":"0","num_feature":"11","num_nodes":"21","size_leaf_vector":"1"}},{"base_weights":[-4.0472457E-3,-1.0126483E-2,1.28205195E-2,8.061821E-3,-1.7504858E-2,-3.449406E-2,2.1950718E-2,-2.9636433E-3,7.2272676E-3,2.9149777E-3,-5.682201E-3],"categories":[],"categories_nodes":[],"categories_segments":[],"categories_sizes":[],"default_left":[0,0,0,0,0,0,0,0,0,0,0],"id":9,"left_children":[1,3,-1,-1,5,7,9,-1,-1,-1,-1],"loss_changes":[5.2484984E0,4.4000487E0,0E0,0E0,3.2252789E0,6.0522666E0,3.4353251E0,0E0,0E0,0E0,0E0],"parents":[2147483647,0,0,1,1,4,4,5,5,6,6],"right_children":[2,4,-1,-1,6,8,10,-1,-1,-1,-1],"split_conditions":[1.5107814E-2,-1.7585356E-2,1.28205195E-2,8.061821E-3,3.4623644E-3,1.298927E0,1.1250336E-2,-2.9636433E-3,7.2272676E-3,2.9149777E-3,-5.682201E-3],"split_indices":[6,7,0,0,6,2,6,0,0,0,0],"split_type":[0,0,0,0,0,0,0,0,0,0,0],"sum_hessian":[4.9668486E3,4.8669277E3,9.992097E1,1.9481456E2,4.6721133E3,3.3657822E3,1.306331E3,3.1494185E3,2.1636378E2,1.1222441E3,1.8408688E2],"tree_param":{"num_deleted":"0","num_feature":"11","num_nodes":"11","size_leaf_vector":"1"}},{"base_weights":[-6.245476E-3,6.7691684E-2,-1.00570135E-1,-6.770095E-2,8.808338E-2,-3.8599648E-2,-1.785961E-1,1.8312907E-3,-1.2820943E-2,-1.7300313E-3,9.7492926E-2,6.849463E-2,-7.59215E-2,-1.2628701E-2,-2.7175895E-3,7.173576E-3,-0E0,8.73124E-3,-0E0,-9.125673E-4,-6.5947613E-3],"categories":[],"categories_nodes":[],"categories_segments":[],"categories_sizes":[],"default_left":[0,0,0,0,0,0,0,0,0,0,0,0,0,0,0,0,0,0,0,0,0],"id":10,"left_children":[1,3,5,7,9,11,13,-1,-1,-1,15,17,19,-1,-1,-1,-1,-1,-1,-1,-1],"loss_changes":[3.375603E1,7.5743427E0,9.064148E0,5.311439E0,3.000061E0,5.156319E0,1.1909256E0,0E0,0E0,0E0,3.6382885E0,1.4785026E0,1.0437503E0,0E0,0E0,0E0,0E0,0E0,0E0,0E0,0E0],"parents":[2147483647,0,0,1,1,2,2,3,3,4,4,5,5,6,6,10,10,11,11,12,12],"right_children":[2,4,6,8,10,12,14,-1,-1,-1,16,18,20,-1,-1,-1,-1,-1,-1,-1,-1],"split_conditions":[1.2633913E-2,7.6539284E-1,1.9540383E-2,1.0035728E-5,-7.391834E-3,-5.877979E-3,1.1522475E-2,1.8312907E-3,-1.2820943E-2,-1.7300313E-3,4.602417E-3,-5.367248E-4,-9.07391E-5,-1.2628701E-2,-2.7175895E-3,7.173576E-3,-0E0,8.73124E-3,-0E0,-9.125673E-4,-6.5947613E-3],"split_indices":[5,2,5,7,6,6,6,0,0,0,7,9,9,0,0,0,0,0,0,0,0],"split_type":[0,0,0,0,0,0,0,0,0,0,0,0,0,0,0,0,0,0,0,0,0],"sum_hessian":[4.7811E3,2.6498093E3,2.1312908E3,3.0612274E2,2.3436868E3,1.2414246E3,8.898663E2,1.6252165E2,1.4360109E2,1.2960309E2,2.2140835E3,2.7874973E2,9.626748E2,7.238209E2,1.6604535E2,1.8985339E3,3.155496E2,1.3242009E2,1.4632962E2,3.7668585E2,5.8598895E2],"tree_param":{"num_deleted":"0","num_feature":"11","num_nodes":"21","size_leaf_vector":"1"}},{"base_weights":[6.914776E-3,-5.5465368E-3,1.8268237E-1,-5.664441E-2,2.5064973E-2,2.587918E-1,-0E0,-8.638619E-2,2.9532865E-2,4.9838305E-2,-8.862154E-2,5.4309163E-3,2.0540826E-2,-7.193296E-3,-0E0,-1.6991597E-3,4.0663304E-3,-3.939212E-3,4.0136673E-3,3.0188279E-3,-1.127688E-2],"categories":[],"categories_nodes":[],"categories_segments":[],"categories_sizes":[],"default_left":[0,0,0,0,0,0,0,0,0,0,0,0,0,0,0,0,0,0,0,0,0],"id":11,"left_children":[1,3,5,7,9,11,-1,13,15,17,19,-1,-1,-1,-1,-1,-1,-1,-1,-1,-1],"loss_changes":[1.1715638E1,7.3232594E0,5.090583E0,4.9192123E0,7.720693E0,1.7181969E-1,0E0,3.2018528E0,1.0711339E0,3.728454E0,6.616601E0,0E0,0E0,0E0,0E0,0E0,0E0,0E0,0E0,0E0,0E0],"parents":[2147483647,0,0,1,1,2,2,3,3,4,4,5,5,7,7,8,8,9,9,10,10],"right_children":[2,4,6,8,10,12,-1,14,16,18,20,-1,-1,-1,-1,-1,-1,-1,-1,-1,-1],"split_conditions":[8.304794E-3,-4.5360243E-1,7.756413E-1,1.1330402E0,1.8276051E0,1.0777686E0,-0E0,4.406453E-3,1.0923962E-2,5.336858E-3,2.3246082E-3,5.4309163E-3,2.0540826E-2,-7.193296E-3,-0E0,-1.6991597E-3,4.0663304E-3,-3.939212E-3,4.0136673E-3,3.0188279E-3,-1.127688E-2],"split_indices":[4,10,10,2,10,2,0,4,5,5,4,0,0,0,0,0,0,0,0,0,0],"split_type":[0,0,0,0,0,0,0,0,0,0,0,0,0,0,0,0,0,0,0,0,0],"sum_hessian":[4.8750986E3,4.537885E3,3.3721393E2,1.7627766E3,2.7751082E3,2.3569061E2,1.015233E2,1.3584058E3,4.0437082E2,2.326398E3,4.4871024E2,9.996209E1,1.3572853E2,1.0156519E3,3.427539E2,9.548038E1,3.0889044E2,2.05372E2,2.121026E3,1.573783E2,2.9133194E2],"tree_param":{"num_deleted":"0","num_feature":"11","num_nodes":"21","size_leaf_vector":"1"}},{"base_weights":[-4.0553547E-3,-7.699823E-2,4.8695333E-2,2.8880749E-2,-9.792977E-2,2.5635969E-2,1.4428174E-1,-1.7544659E-3,7.1630473E-3,-1.6329007E-2,-1.4424394E-1,1.261317E-2,1.1036728E-1,-0E0,1.9044408E-1,-4.0477556E-3,9.194065E-3,-1.0443172E-2,-4.084192E-3,3.3949057E-3,-1.3900142E-3,1.2848561E-2,-0E0,5.3587863E-3,1.6311146E-2],"categories":[],"categories_nodes":[],"categories_segments":[],"categories_sizes":[],"default_left":[0,0,0,0,0,0,0,0,0,0,0,0,0,0,0,0,0,0,0,0,0,0,0,0,0],"id":12,"left_children":[1,3,5,7,9,11,13,-1,-1,15,17,19,21,-1,23,-1,-1,-1,-1,-1,-1,-1,-1,-1,-1],"loss_changes":[1.9206316E1,5.1325655E0,5.2309084E0,2.0664535E0,5.942774E0,1.8828176E0,2.8494473E0,0E0,0E0,5.3096004E0,4.4713402E-1,3.2173977E0,3.4761121E0,0E0,3.5814762E-1,0E0,0E0,0E0,0E0,0E0,0E0,0E0,0E0,0E0,0E0],"parents":[2147483647,0,0,1,1,2,2,3,3,4,4,5,5,6,6,9,9,10,10,11,11,12,12,14,14],"right_children":[2,4,6,8,10,12,14,-1,-1,16,18,20,22,-1,24,-1,-1,-1,-1,-1,-1,-1,-1,-1,-1],"split_conditions":[2.5575643E-3,5.453661E-3,4.4729197E-3,8.9230496E-1,8.769258E-1,2.5155595E-1,1.8761115E-2,-1.7544659E-3,7.1630473E-3,1.3812204E-1,2.551387E-3,1.4969045E-1,1.1240079E0,-0E0,5.0269444E-3,-4.0477556E-3,9.194065E-3,-1.0443172E-2,-4.084192E-3,3.3949057E-3,-1.3900142E-3,1.2848561E-2,-0E0,5.3587863E-3,1.6311146E-2],"split_indices":[0,5,0,2,2,1,5,0,0,1,3,1,2,0,3,0,0,0,0,0,0,0,0,0,0],"split_type":[0,0,0,0,0,0,0,0,0,0,0,0,0,0,0,0,0,0,0,0,0,0,0,0,0],"sum_hessian":[4.917773E3,2.1048774E3,2.8128958E3,3.0256696E2,1.8023104E3,2.3300464E3,4.828493E2,1.487648E2,1.5380214E2,7.041617E2,1.0981488E3,2.093067E3,2.3697946E2,1.3423785E2,3.4861145E2,5.778061E2,1.2635561E2,7.9440906E2,3.0373972E2,1.0245039E3,1.0685631E3,1.4113835E2,9.584111E1,1.8402898E2,1.6458247E2],"tree_param":{"num_deleted":"0","num_feature":"11","num_nodes":"25","size_leaf_vector":"1"}},{"base_weights":[-0E0,7.957275E-2,-1.13391876E-1,1.7389633E-1,1.1070295E-2,-2.708889E-2,-1.6377115E-1,3.26593E-1,1.0173977E-1,-1.0801852E-1,5.1148023E-2,-1.3178767E-2,-0E0,-2.0107666E-1,-1.5624237E-2,2.4995416E-2,5.212496E-3,1.2188498E-3,1.4746979E-2,-0E0,-8.725267E-3,1.4853587E-3,1.515977E-2,1.1302371E-2,-1.7114585E-3,-9.9872E-3,-1.7807914E-2,-5.47565E-3,4.381557E-6],"categories":[],"categories_nodes":[],"categories_segments":[],"categories_sizes":[],"default_left":[0,0,0,0,0,0,0,0,0,0,0,0,0,0,0,0,0,0,0,0,0,0,0,0,0,0,0,0,0],"id":13,"left_children":[1,3,5,7,9,11,13,15,17,19,21,-1,23,25,27,-1,-1,-1,-1,-1,-1,-1,-1,-1,-1,-1,-1,-1,-1],"loss_changes":[4.3677822E1,1.7258516E1,7.565035E0,9.819572E0,7.862215E0,4.75997E0,5.4827843E0,2.5972595E0,7.6226454E0,8.9515305E-1,5.301321E0,0E0,4.0565305E0,7.400513E-2,8.110707E-1,0E0,0E0,0E0,0E0,0E0,0E0,0E0,0E0,0E0,0E0,0E0,0E0,0E0,0E0],"parents":[2147483647,0,0,1,1,2,2,3,3,4,4,5,5,6,6,7,7,8,8,9,9,10,10,12,12,13,13,14,14],"right_children":[2,4,6,8,10,12,14,16,18,20,22,-1,24,26,28,-1,-1,-1,-1,-1,-1,-1,-1,-1,-1,-1,-1,-1,-1],"split_conditions":[1.457211E-1,1.7162891E-3,2.617014E-3,6.6439375E-2,-7.90886E-3,-1.7827876E-3,1.6357384E0,1.2214067E-2,1.4723263E-3,2.6885415E-3,1.1199206E0,-1.3178767E-2,1.0239528E-3,2.0332364E-2,8.237398E-3,2.4995416E-2,5.212496E-3,1.2188498E-3,1.4746979E-2,-0E0,-8.725267E-3,1.4853587E-3,1.515977E-2,1.1302371E-2,-1.7114585E-3,-9.9872E-3,-1.7807914E-2,-5.47565E-3,4.381557E-6],"split_indices":[1,3,3,1,6,6,10,5,6,3,10,0,6,5,6,0,0,0,0,0,0,0,0,0,0,0,0,0,0],"split_type":[0,0,0,0,0,0,0,0,0,0,0,0,0,0,0,0,0,0,0,0,0,0,0,0,0,0,0,0,0],"sum_hessian":[4.802643E3,2.8184172E3,1.9842258E3,1.1408279E3,1.6775892E3,7.814543E2,1.2027715E3,3.225426E2,8.182853E2,3.803909E2,1.2971984E3,1.0546322E2,6.75991E2,9.2610455E2,2.7666696E2,2.2460753E2,9.793507E1,5.4202203E2,2.762632E2,1.08964226E2,2.7142667E2,1.174426E3,1.2277238E2,9.564936E1,5.803417E2,6.859343E2,2.4017023E2,1.00149864E2,1.7651709E2],"tree_param":{"num_deleted":"0","num_feature":"11","num_nodes":"29","size_leaf_vector":"1"}},{"base_weights":[-4.8454863E-4,-2.1029079E-1,3.4326967E-2,-2.3507337E-1,-2.0570413E-3,-1.0632917E-2,1.040086E-1,-2.0600628E-2,-1.5802407E-1,8.055483E-3,-7.434992E-2,1.1768722E-1,-2.8535986E-4,-3.094618E-4,-1.5056583E-2,-7.189835E-4,8.203007E-3,-6.2087183E-3,-0E0,-0E0,8.465125E-3],"categories":[],"categories_nodes":[],"categories_segments":[],"categories_sizes":[],"default_left":[0,0,0,0,0,0,0,0,0,0,0,0,0,0,0,0,0,0,0,0,0],"id":14,"left_children":[1,3,5,7,-1,9,11,-1,13,15,17,19,-1,-1,-1,-1,-1,-1,-1,-1,-1],"loss_changes":[3.6995663E1,1.5737495E0,1.371781E1,7.363243E-1,0E0,3.3836832E0,3.1616077E0,0E0,3.5205193E0,5.202484E0,9.7566843E-1,2.3873138E0,0E0,0E0,0E0,0E0,0E0,0E0,0E0,0E0,0E0],"parents":[2147483647,0,0,1,1,2,2,3,3,5,5,6,6,8,8,9,9,10,10,11,11],"right_children":[2,4,6,8,-1,10,12,-1,14,16,18,20,-1,-1,-1,-1,-1,-1,-1,-1,-1],"split_conditions":[1.8715555E-3,3.7530453E-3,3.2105972E-3,-2.1007145E-3,-2.0570413E-3,3.7837534E-3,7.480965E1,-2.0600628E-2,8.259988E-2,1.5203738E-1,2.8097446E-3,2.809886E1,-2.8535986E-4,-3.094618E-4,-1.5056583E-2,-7.189835E-4,8.203007E-3,-6.2087183E-3,-0E0,-0E0,8.465125E-3],"split_indices":[0,4,0,6,0,6,8,0,1,1,0,8,0,0,0,0,0,0,0,0,0],"split_type":[0,0,0,0,0,0,0,0,0,0,0,0,0,0,0,0,0,0,0,0,0],"sum_hessian":[4.898357E3,7.0785925E2,4.1904976E3,5.8901355E2,1.1884571E2,2.5071765E3,1.683321E3,2.1098297E2,3.7803058E2,1.8823909E3,6.2478564E2,1.5391478E3,1.4417316E2,1.6065866E2,2.1737192E2,1.5974307E3,2.8496017E2,4.4870724E2,1.7607841E2,2.3057964E2,1.3085682E3],"tree_param":{"num_deleted":"0","num_feature":"11","num_nodes":"21","size_leaf_vector":"1"}},{"base_weights":[2.268045E-2,-4.4473704E-2,7.281364E-2,8.029364E-3,-8.775998E-2,9.7022824E-2,6.9003697E-3,-1.7690975E-2,1.08112255E-2,-1.0500381E-1,2.9935924E-4,7.7490255E-2,1.3320071E-2,-5.4975813E-3,2.7728487E-2,-3.3859543E-3,3.2867943E-3,-0E0,-7.926598E-3,3.7657968E-3,1.1886499E-2,-9.018104E-4,3.992114E-3],"categories":[],"categories_nodes":[],"categories_segments":[],"categories_sizes":[],"default_left":[0,0,0,0,0,0,0,0,0,0,0,0,0,0,0,0,0,0,0,0,0,0,0],"id":15,"left_children":[1,3,5,7,9,11,13,15,-1,17,-1,19,-1,-1,21,-1,-1,-1,-1,-1,-1,-1,-1],"loss_changes":[1.7009176E1,5.217509E0,4.055567E0,4.7112546E0,2.492609E0,2.7391357E0,1.3990978E0,1.9886023E0,0E0,2.6715136E0,0E0,2.0391006E0,0E0,0E0,1.4365182E0,0E0,0E0,0E0,0E0,0E0,0E0,0E0,0E0],"parents":[2147483647,0,0,1,1,2,2,3,3,4,4,5,5,6,6,7,7,9,9,11,11,14,14],"right_children":[2,4,6,8,10,12,14,16,-1,18,-1,20,-1,-1,22,-1,-1,-1,-1,-1,-1,-1,-1],"split_conditions":[2.5506376E-3,8.8663787E-1,1.1632018E0,1.3642672E-1,5.6667156E-3,4.4357227E-3,1.1883429E0,2.2486844E-3,1.08112255E-2,1.6576594E-3,2.9935924E-4,2.4345092E-1,1.3320071E-2,-5.4975813E-3,3.563535E-3,-3.3859543E-3,3.2867943E-3,-0E0,-7.926598E-3,3.7657968E-3,1.1886499E-2,-9.018104E-4,3.992114E-3],"split_indices":[0,2,2,1,7,0,2,3,0,0,0,1,0,0,0,0,0,0,0,0,0,0,0],"split_type":[0,0,0,0,0,0,0,0,0,0,0,0,0,0,0,0,0,0,0,0,0,0,0],"sum_hessian":[4.9728086E3,2.078994E3,2.8938147E3,8.8758923E2,1.1914048E3,2.0490513E3,8.447635E2,7.504912E2,1.3709804E2,1.0529615E3,1.384432E2,1.8156575E3,2.3339377E2,9.50462E1,7.497173E2,5.499886E2,2.0050264E2,1.5623334E2,8.9672815E2,1.6315205E3,1.8413696E2,2.7705112E2,4.7266614E2],"tree_param":{"num_deleted":"0","num_feature":"11","num_nodes":"23","size_leaf_vector":"1"}},{"base_weights":[-1.7142801E-3,1.0154933E-1,-1.2552057E-1,1.3493529E-1,-5.552319E-2,-5.4548427E-2,-1.688475E-1,2.4818854E-1,8.995981E-2,-0E0,-8.660993E-3,-3.33492E-4,-1.4154312E-1,-1.439436E-2,-1.3366769E-1,1.2873216E-3,2.0135336E-2,2.25914E-3,1.1474039E-2,4.166547E-3,-2.6847126E-3,-2.765838E-3,3.3305478E-3,-1.2196763E-2,-0E0,-3.6184583E-4,-9.179846E-3],"categories":[],"categories_nodes":[],"categories_segments":[],"categories_sizes":[],"default_left":[0,0,0,0,0,0,0,0,0,0,0,0,0,0,0,0,0,0,0,0,0,0,0,0,0,0,0],"id":16,"left_children":[1,3,5,7,9,11,13,15,17,19,-1,21,23,-1,25,-1,-1,-1,-1,-1,-1,-1,-1,-1,-1,-1,-1],"loss_changes":[6.148199E1,1.4158798E1,5.3905296E0,8.810963E0,2.2925677E0,3.501138E0,2.365036E-1,7.324955E0,6.737809E0,8.3510524E-1,0E0,1.4182446E0,1.7774987E0,0E0,5.729561E-1,0E0,0E0,0E0,0E0,0E0,0E0,0E0,0E0,0E0,0E0,0E0,0E0],"parents":[2147483647,0,0,1,1,2,2,3,3,4,4,5,5,6,6,7,7,8,8,9,9,11,11,12,12,14,14],"right_children":[2,4,6,8,10,12,14,16,18,20,-1,22,24,-1,26,-1,-1,-1,-1,-1,-1,-1,-1,-1,-1,-1,-1],"split_conditions":[1.3812204E-1,5.1615993E-3,2.6542917E-3,6.802526E-2,2.9555857E-3,2.0118392E-1,-7.4461896E-5,-8.266633E-4,9.1183865E-5,8.9367636E-2,-8.660993E-3,5.5085064E-4,1.1504361E-3,-1.439436E-2,1.50855E-4,1.2873216E-3,2.0135336E-2,2.25914E-3,1.1474039E-2,4.166547E-3,-2.6847126E-3,-2.765838E-3,3.3305478E-3,-1.2196763E-2,-0E0,-3.6184583E-4,-9.179846E-3],"split_indices":[1,4,3,1,3,1,9,9,9,1,0,9,9,0,9,0,0,0,0,0,0,0,0,0,0,0,0],"split_type":[0,0,0,0,0,0,0,0,0,0,0,0,0,0,0,0,0,0,0,0,0,0,0,0,0,0,0],"sum_hessian":[4.765366E3,2.575399E3,2.1899673E3,2.1550642E3,4.203347E2,8.9302045E2,1.2969469E3,5.560585E2,1.5990057E3,2.4447865E2,1.7585603E2,5.9981244E2,2.9320804E2,3.8847095E2,9.084759E2,1.5652074E2,3.9953775E2,1.0603334E3,5.386723E2,1.12492744E2,1.3198592E2,3.8877084E2,2.110416E2,1.9631854E2,9.688947E1,1.2015907E2,7.8831683E2],"tree_param":{"num_deleted":"0","num_feature":"11","num_nodes":"27","size_leaf_vector":"1"}},{"base_weights":[-0E0,-8.3177164E-2,5.2737147E-2,-1.5997092E-1,-3.4576908E-2,7.118892E-2,-8.9692816E-2,-5.693385E-3,-2.1292715E-1,-0E0,-1.0884727E-1,-4.80557E-2,9.3663804E-2,-0E0,-1.4299189E-1,-4.36065E-3,4.8645897E-4,-1.5318557E-2,-3.6737851E-3,-3.5200254E-3,2.8664195E-3,-0E0,-1.0240948E-2,-8.769918E-3,-0E0,4.6387007E-3,1.3451414E-2,-8.8617235E-4,-1.2652517E-2],"categories":[],"categories_nodes":[],"categories_segments":[],"categories_sizes":[],"default_left":[0,0,0,0,0,0,0,0,0,0,0,0,0,0,0,0,0,0,0,0,0,0,0,0,0,0,0,0,0],"id":17,"left_children":[1,3,5,7,9,11,13,15,17,19,21,23,25,-1,27,-1,-1,-1,-1,-1,-1,-1,-1,-1,-1,-1,-1,-1,-1],"loss_changes":[2.1426838E1,5.8547783E0,7.9399157E0,4.3280926E0,3.5688744E0,7.6108646E0,1.8744857E0,5.3648734E-1,3.330307E-1,2.063579E0,2.9032521E0,1.7554891E0,3.7374592E0,0E0,3.796687E-1,0E0,0E0,0E0,0E0,0E0,0E0,0E0,0E0,0E0,0E0,0E0,0E0,0E0,0E0],"parents":[2147483647,0,0,1,1,2,2,3,3,4,4,5,5,6,6,7,7,8,8,9,9,10,10,11,11,12,12,14,14],"right_children":[2,4,6,8,10,12,14,16,18,20,22,24,26,-1,28,-1,-1,-1,-1,-1,-1,-1,-1,-1,-1,-1,-1,-1,-1],"split_conditions":[2.4532191E-3,1.8476932E-3,1.8276051E0,1.1836374E-3,3.227959E-3,-1.1400166E-3,8.773653E-4,3.3137444E-2,3.7530453E-3,-1.3673253E-4,-8.506564E-1,7.8494504E-2,7.900748E-3,-0E0,3.8748088E-3,-4.36065E-3,4.8645897E-4,-1.5318557E-2,-3.6737851E-3,-3.5200254E-3,2.8664195E-3,-0E0,-1.0240948E-2,-8.769918E-3,-0E0,4.6387007E-3,1.3451414E-2,-8.8617235E-4,-1.2652517E-2],"split_indices":[0,0,10,4,4,9,9,10,4,9,10,1,4,0,4,0,0,0,0,0,0,0,0,0,0,0,0,0,0],"split_type":[0,0,0,0,0,0,0,0,0,0,0,0,0,0,0,0,0,0,0,0,0,0,0,0,0,0,0,0,0],"sum_hessian":[4.8696406E3,1.8664332E3,3.0032075E3,6.642869E2,1.2021464E3,2.7006804E3,3.025272E2,2.0127946E2,4.6300745E2,7.945774E2,4.0756897E2,3.8607437E2,2.314606E3,1.0191877E2,2.0060841E2,9.523328E1,1.06046196E2,3.4915326E2,1.1385418E2,3.1515085E2,4.7942654E2,1.24257866E2,2.833111E2,1.2188211E2,2.6419226E2,2.0461726E3,2.6843338E2,9.832047E1,1.0228793E2],"tree_param":{"num_deleted":"0","num_feature":"11","num_nodes":"29","size_leaf_vector":"1"}},{"base_weights":[3.415546E-3,-3.994179E-2,6.447373E-2,-8.037254E-2,8.883118E-3,1.5755303E-2,5.0827082E-2,-9.519275E-2,-0E0,6.3920473E-3,-1.46334665E-2,-0E0,8.45209E-2,-3.2600388E-4,-7.2486093E-3,-4.250448E-3,3.65034E-3,7.4965705E-4,-4.763249E-3,5.279652E-3,-2.225864E-3,7.868098E-3,-0E0],"categories":[],"categories_nodes":[],"categories_segments":[],"categories_sizes":[],"default_left":[0,0,0,0,0,0,0,0,0,0,0,0,0,0,0,0,0,0,0,0,0,0,0],"id":18,"left_children":[1,3,5,7,9,-1,11,13,15,-1,17,19,21,-1,-1,-1,-1,-1,-1,-1,-1,-1,-1],"loss_changes":[1.3366889E1,6.0747514E0,3.5076447E0,2.0234213E0,3.2354417E0,0E0,3.6370234E0,1.8066463E0,1.083972E0,0E0,1.9320256E0,2.3404055E0,3.9154072E0,0E0,0E0,0E0,0E0,0E0,0E0,0E0,0E0,0E0,0E0],"parents":[2147483647,0,0,1,1,2,2,3,3,4,4,6,6,7,7,8,8,10,10,11,11,12,12],"right_children":[2,4,6,8,10,-1,12,14,16,-1,18,20,22,-1,-1,-1,-1,-1,-1,-1,-1,-1,-1],"split_conditions":[1.4650142E-1,2.2933318E-3,-1.1159824E-3,1.2771451E-1,-9.419713E-4,1.5755303E-2,1.4820233E-3,-6.523979E-4,9.1510516E-1,6.3920473E-3,1.025462E0,9.1510516E-1,1.1298201E0,-3.2600388E-4,-7.2486093E-3,-4.250448E-3,3.65034E-3,7.4965705E-4,-4.763249E-3,5.279652E-3,-2.225864E-3,7.868098E-3,-0E0],"split_indices":[1,3,9,1,9,0,7,9,2,0,2,2,2,0,0,0,0,0,0,0,0,0,0],"split_type":[0,0,0,0,0,0,0,0,0,0,0,0,0,0,0,0,0,0,0,0,0,0,0],"sum_hessian":[4.964872E3,2.8534104E3,2.1114617E3,1.6172595E3,1.2361508E3,9.6935104E1,2.0145265E3,1.3714026E3,2.4585692E2,2.8703848E2,9.491123E2,7.8752795E2,1.2269985E3,3.0251642E2,1.0688862E3,1.05860596E2,1.3999632E2,6.072061E2,3.419062E2,2.110388E2,5.7648914E2,8.03651E2,4.2334747E2],"tree_param":{"num_deleted":"0","num_feature":"11","num_nodes":"23","size_leaf_vector":"1"}},{"base_weights":[-0E0,8.594133E-2,-1.029595E-1,2.232458E-1,3.514554E-2,-4.047652E-2,-1.6917518E-1,2.3108346E-2,1.4673813E-1,-0E0,1.5536542E-1,-9.538852E-3,-0E0,-1.8529505E-1,-3.7886962E-4,-0E0,1.2843617E-2,6.662273E-3,-3.2727448E-3,-0E0,1.3993685E-2,3.6497077E-3,-5.0045173E-3,-1.4554747E-2,-7.840794E-3],"categories":[],"categories_nodes":[],"categories_segments":[],"categories_sizes":[],"default_left":[0,0,0,0,0,0,0,0,0,0,0,0,0,0,0,0,0,0,0,0,0,0,0,0,0],"id":19,"left_children":[1,3,5,7,9,11,13,-1,15,17,19,-1,21,23,-1,-1,-1,-1,-1,-1,-1,-1,-1,-1,-1],"loss_changes":[4.2598312E1,1.6811409E1,7.7507668E0,3.709755E0,9.191914E0,6.019923E0,1.5778389E0,0E0,4.6968164E0,8.080425E0,5.124693E0,0E0,3.9261246E0,1.9294739E-2,0E0,0E0,0E0,0E0,0E0,0E0,0E0,0E0,0E0,0E0,0E0],"parents":[2147483647,0,0,1,1,2,2,3,3,4,4,5,5,6,6,8,8,9,9,10,10,12,12,13,13],"right_children":[2,4,6,8,10,12,14,-1,16,18,20,-1,22,24,-1,-1,-1,-1,-1,-1,-1,-1,-1,-1,-1],"split_conditions":[1.3886473E-1,1.2865497E-3,3.2273277E-3,6.161996E-2,4.9040306E1,9.1510516E-1,7.5677086E1,2.3108346E-2,8.2235414E-1,6.8724215E-2,8.327833E-1,-9.538852E-3,2.0278203E-1,3.5380688E-1,-3.7886962E-4,-0E0,1.2843617E-2,6.662273E-3,-3.2727448E-3,-0E0,1.3993685E-2,3.6497077E-3,-5.0045173E-3,-1.4554747E-2,-7.840794E-3],"split_indices":[1,3,3,1,8,2,8,0,2,1,2,0,1,10,0,0,0,0,0,0,0,0,0,0,0],"split_type":[0,0,0,0,0,0,0,0,0,0,0,0,0,0,0,0,0,0,0,0,0,0,0,0,0],"sum_hessian":[4.784258E3,2.6183828E3,2.165875E3,6.622765E2,1.9561063E3,1.1713296E3,9.9454553E2,1.8296948E2,4.7930704E2,1.4910056E3,4.651008E2,3.3070474E2,8.406248E2,8.7206805E2,1.22477516E2,1.26150795E2,3.5315622E2,4.5052277E2,1.0404828E3,1.4232112E2,3.227797E2,5.216018E2,3.19023E2,4.1880975E2,4.532583E2],"tree_param":{"num_deleted":"0","num_feature":"11","num_nodes":"25","size_leaf_vector":"1"}},{"base_weights":[-2.5799803E-3,7.543432E-2,-1.596914E-2,9.359368E-3,1.20045915E-2,-1.791419E-1,-1.3292658E-3,-2.8847506E-2,6.1091818E-2,-1.53571125E-2,-2.7737143E-3,8.278042E-2,-3.6559075E-2,-4.158362E-3,-0E0,7.739905E-3,-0E0,-0E0,9.018853E-3,-9.633338E-4,-9.7349165E-3],"categories":[],"categories_nodes":[],"categories_segments":[],"categories_sizes":[],"default_left":[0,0,0,0,0,0,0,0,0,0,0,0,0,0,0,0,0,0,0,0,0],"id":20,"left_children":[1,3,5,7,-1,9,11,13,15,-1,-1,17,19,-1,-1,-1,-1,-1,-1,-1,-1],"loss_changes":[4.8050637E0,3.8769736E0,9.1563225E0,1.1319993E0,0E0,1.0079575E0,1.1504617E1,3.3549082E-1,1.335139E0,0E0,0E0,5.5268106E0,6.151796E0,0E0,0E0,0E0,0E0,0E0,0E0,0E0,0E0],"parents":[2147483647,0,0,1,1,2,2,3,3,5,5,6,6,7,7,8,8,11,11,12,12],"right_children":[2,4,6,8,-1,10,12,14,16,-1,-1,18,20,-1,-1,-1,-1,-1,-1,-1,-1],"split_conditions":[-7.90886E-3,8.168283E-3,2.7814753E1,-1.0358646E-2,1.20045915E-2,2.2469764E-3,1.3546599E-3,2.0754764E-2,3.1294813E1,-1.53571125E-2,-2.7737143E-3,9.151786E-3,7.4064445E1,-4.158362E-3,-0E0,7.739905E-3,-0E0,-0E0,9.018853E-3,-9.633338E-4,-9.7349165E-3],"split_indices":[6,4,8,6,0,4,4,5,8,0,0,5,8,0,0,0,0,0,0,0,0],"split_type":[0,0,0,0,0,0,0,0,0,0,0,0,0,0,0,0,0,0,0,0,0],"sum_hessian":[4.880669E3,6.428395E2,4.2378296E3,4.5056546E2,1.9227406E2,3.0225732E2,3.935572E3,2.016088E2,2.4895665E2,1.6753607E2,1.3472125E2,1.108606E3,2.8269663E3,1.0199815E2,9.961065E1,1.3742525E2,1.115314E2,4.795687E2,6.290372E2,2.451125E3,3.7584113E2],"tree_param":{"num_deleted":"0","num_feature":"11","num_nodes":"21","size_leaf_vector":"1"}},{"base_weights":[8.796156E-3,-8.3637135E-3,9.719847E-2,-6.526522E-2,8.667272E-3,-0E0,1.4137359E-1,-0E0,-1.03910714E-1,1.1166081E-2,-0E0,5.2846096E-2,-3.458601E-3,9.357529E-2,1.660611E-2,1.4497605E-3,-4.616663E-3,-8.176811E-3,-0E0,4.9203676E-3,-9.899545E-4,7.729442E-3,-0E0,1.3229865E-2,-0E0],"categories":[],"categories_nodes":[],"categories_segments":[],"categories_sizes":[],"default_left":[0,0,0,0,0,0,0,0,0,0,0,0,0,0,0,0,0,0,0,0,0,0,0,0,0],"id":21,"left_children":[1,3,5,7,9,11,13,15,17,-1,19,21,-1,23,-1,-1,-1,-1,-1,-1,-1,-1,-1,-1,-1],"loss_changes":[8.0231495E0,4.3086967E0,2.9188929E0,2.2758894E0,3.8213193E0,9.764997E-1,8.316021E-1,8.9577204E-1,2.086421E0,0E0,3.9452496E0,1.1328866E0,0E0,5.3737755E0,0E0,0E0,0E0,0E0,0E0,0E0,0E0,0E0,0E0,0E0,0E0],"parents":[2147483647,0,0,1,1,2,2,3,3,4,4,5,5,6,6,7,7,8,8,10,10,11,11,13,13],"right_children":[2,4,6,8,10,12,14,16,18,-1,20,22,-1,24,-1,-1,-1,-1,-1,-1,-1,-1,-1,-1,-1],"split_conditions":[2.0332364E-2,8.61475E-2,-8.135404E-3,-4.965634E-4,5.018019E-3,-6.379547E-4,3.509936E-1,7.19226E-2,5.5351575E-5,1.1166081E-2,-4.10291E-3,-1.3734819E-2,-3.458601E-3,6.26426E-3,1.660611E-2,1.4497605E-3,-4.616663E-3,-8.176811E-3,-0E0,4.9203676E-3,-9.899545E-4,7.729442E-3,-0E0,1.3229865E-2,-0E0],"split_indices":[5,1,6,9,5,9,1,1,6,0,6,6,0,6,0,0,0,0,0,0,0,0,0,0,0],"split_type":[0,0,0,0,0,0,0,0,0,0,0,0,0,0,0,0,0,0,0,0,0,0,0,0,0],"sum_hessian":[4.9379126E3,4.095199E3,8.427134E2,1.0076696E3,3.0875295E3,3.0710165E2,5.3561176E2,4.0944815E2,5.9822144E2,1.1236803E2,2.9751614E3,2.0742073E2,9.968092E1,4.388818E2,9.672994E1,2.8954782E2,1.1990035E2,5.0111316E2,9.710826E1,5.302397E2,2.4449219E3,1.00137596E2,1.0728313E2,1.9557477E2,2.4330704E2],"tree_param":{"num_deleted":"0","num_feature":"11","num_nodes":"25","size_leaf_vector":"1"}},{"base_weights":[1.542792E-3,1.8518521E-1,-1.0646707E-1,-0E0,2.223966E-1,-4.3413218E-2,-1.9933417E-1,-5.785678E-3,3.1632117E-3,3.279869E-1,1.4329997E-1,-1.0111955E-2,-1.8444758E-2,-1.4855343E-1,-2.659949E-1,-0E0,2.4273684E-2,3.6844353E-3,1.3472529E-2,-3.7409635E-3,2.6281984E-3,-1.110924E-2,-0E0,-6.1027952E-3,-1.9210089E-2],"categories":[],"categories_nodes":[],"categories_segments":[],"categories_sizes":[],"default_left":[0,0,0,0,0,0,0,0,0,0,0,0,0,0,0,0,0,0,0,0,0,0,0,0,0],"id":22,"left_children":[1,3,5,7,9,11,13,-1,-1,15,17,-1,19,21,23,-1,-1,-1,-1,-1,-1,-1,-1,-1,-1],"loss_changes":[9.587897E1,1.3296368E1,1.6137371E1,1.626861E0,9.272652E0,4.3668537E0,1.0236053E0,0E0,0E0,1.0268974E1,3.8291435E0,0E0,4.03968E0,3.6637554E0,1.8006325E-1,0E0,0E0,0E0,0E0,0E0,0E0,0E0,0E0,0E0,0E0],"parents":[2147483647,0,0,1,1,2,2,3,3,4,4,5,5,6,6,9,9,10,10,12,12,13,13,14,14],"right_children":[2,4,6,8,10,12,14,-1,-1,16,18,-1,20,22,24,-1,-1,-1,-1,-1,-1,-1,-1,-1,-1],"split_conditions":[2.4269607E-3,7.6057845E-1,3.563535E-3,2.2985782E-3,1.9139391E-3,8.293282E-3,4.55365E-3,-5.785678E-3,3.1632117E-3,4.5602033E-3,9.472852E-1,-1.0111955E-2,1.0709047E0,6.1414693E-3,1.9207656E-2,-0E0,2.4273684E-2,3.6844353E-3,1.3472529E-2,-3.7409635E-3,2.6281984E-3,-1.110924E-2,-0E0,-6.1027952E-3,-1.9210089E-2],"split_indices":[0,2,0,4,0,5,0,0,0,5,2,0,2,3,5,0,0,0,0,0,0,0,0,0,0],"split_type":[0,0,0,0,0,0,0,0,0,0,0,0,0,0,0,0,0,0,0,0,0,0,0,0,0],"sum_hessian":[4.7785273E3,1.7843182E3,2.994209E3,2.8342636E2,1.500892E3,1.8335559E3,1.1606532E3,1.2334311E2,1.6008325E2,5.902658E2,9.1062616E2,2.6719385E2,1.566362E3,7.3662573E2,4.240274E2,9.814641E1,4.921194E2,4.6325903E2,4.473671E2,9.8715576E2,5.792063E2,6.355231E2,1.0110265E2,1.1702011E2,3.070073E2],"tree_param":{"num_deleted":"0","num_feature":"11","num_nodes":"25","size_leaf_vector":"1"}},{"base_weights":[-6.623037E-3,-9.239492E-2,2.1476597E-2,-1.233303E-2,-5.7844445E-2,3.576E-2,-7.815562E-2,5.6277897E-4,-7.435952E-2,-7.276881E-2,5.1710416E-2,-1.2903896E-1,-0E0,-8.658173E-3,-2.4749835E-3,4.9459905E-4,-7.5173248E-3,1.2176418E-3,6.530625E-3,-1.3318078E-2,-1.8445561E-4],"categories":[],"categories_nodes":[],"categories_segments":[],"categories_sizes":[],"default_left":[0,0,0,0,0,0,0,0,0,0,0,0,0,0,0,0,0,0,0,0,0],"id":23,"left_children":[1,3,5,-1,7,9,11,-1,13,15,17,19,-1,-1,-1,-1,-1,-1,-1,-1,-1],"loss_changes":[1.2324646E1,2.9394836E0,5.0521073E0,0E0,1.4950535E0,5.625952E0,2.190917E0,0E0,8.815422E-1,2.0724328E0,4.1887345E0,1.7600212E0,0E0,0E0,0E0,0E0,0E0,0E0,0E0,0E0,0E0],"parents":[2147483647,0,0,1,1,2,2,4,4,5,5,6,6,8,8,9,9,10,10,11,11],"right_children":[2,4,6,-1,8,10,12,-1,14,16,18,20,-1,-1,-1,-1,-1,-1,-1,-1,-1],"split_conditions":[1.5661211E-3,8.513405E-4,1.8276051E0,-1.233303E-2,7.6539284E-1,-1.9762082E0,1.1298201E0,5.6277897E-4,3.8244514E1,9.322804E-1,3.59245E-3,2.3231194E0,-0E0,-8.658173E-3,-2.4749835E-3,4.9459905E-4,-7.5173248E-3,1.2176418E-3,6.530625E-3,-1.3318078E-2,-1.8445561E-4],"split_indices":[3,3,10,0,2,10,2,0,8,2,3,10,0,0,0,0,0,0,0,0,0],"split_type":[0,0,0,0,0,0,0,0,0,0,0,0,0,0,0,0,0,0,0,0,0],"sum_hessian":[4.919745E3,1.2534292E3,3.666316E3,2.541716E2,9.992576E2,3.2647314E3,4.0158444E2,1.3292285E2,8.663348E2,3.6608945E2,2.898642E3,2.6835468E2,1.3322977E2,2.3549261E2,6.308422E2,9.54325E1,2.7065695E2,1.8659088E3,1.0327332E3,1.2883911E2,1.3951558E2],"tree_param":{"num_deleted":"0","num_feature":"11","num_nodes":"21","size_leaf_vector":"1"}},{"base_weights":[-7.050319E-3,-7.184443E-2,4.1960616E-2,-9.902736E-2,5.8377456E-2,-4.3917343E-2,6.1534215E-2,3.619006E-2,-1.286203E-1,-0E0,9.393438E-3,9.295581E-4,-8.707016E-2,5.0198417E-2,1.3615477E-2,6.8305316E-3,-3.4575826E-3,-4.9223565E-3,-1.034962E-2,2.0609372E-3,-2.6444409E-3,-1.0829558E-2,-0E0,4.0722755E-3,-4.2059873E-3],"categories":[],"categories_nodes":[],"categories_segments":[],"categories_sizes":[],"default_left":[0,0,0,0,0,0,0,0,0,0,0,0,0,0,0,0,0,0,0,0,0,0,0,0,0],"id":24,"left_children":[1,3,5,7,9,11,13,15,17,19,-1,-1,21,23,-1,-1,-1,-1,-1,-1,-1,-1,-1,-1,-1],"loss_changes":[1.5872531E1,8.032473E0,4.7967854E0,7.967869E0,1.975615E0,1.61562E0,2.3957405E0,2.438687E0,1.2307606E0,3.3947605E-1,0E0,0E0,3.0703866E0,3.7989235E0,0E0,0E0,0E0,0E0,0E0,0E0,0E0,0E0,0E0,0E0,0E0],"parents":[2147483647,0,0,1,1,2,2,3,3,4,4,5,5,6,6,7,7,8,8,9,9,12,12,13,13],"right_children":[2,4,6,8,10,12,14,16,18,20,-1,-1,22,24,-1,-1,-1,-1,-1,-1,-1,-1,-1,-1,-1],"split_conditions":[2.595747E-3,4.733397E-3,1.0973689E-3,6.1758986E-4,4.706005E-3,-2.0410537E-3,1.5107814E-2,5.0729903E-4,-1.1638508E-3,6.5391315E-3,9.393438E-3,9.295581E-4,1.2050993E-3,1.0464659E-2,1.3615477E-2,6.8305316E-3,-3.4575826E-3,-4.9223565E-3,-1.034962E-2,2.0609372E-3,-2.6444409E-3,-1.0829558E-2,-0E0,4.0722755E-3,-4.2059873E-3],"split_indices":[0,6,4,4,4,6,6,7,7,7,0,0,7,6,0,0,0,0,0,0,0,0,0,0,0],"split_type":[0,0,0,0,0,0,0,0,0,0,0,0,0,0,0,0,0,0,0,0,0,0,0,0,0],"sum_hessian":[4.913496E3,2.1615227E3,2.7519734E3,1.8268452E3,3.3467752E2,4.542693E2,2.297704E3,2.9363785E2,1.5332074E3,2.0866103E2,1.2601648E2,1.4257819E2,3.116911E2,2.1947964E3,1.0290767E2,1.9599994E2,9.7637924E1,7.21593E2,8.116143E2,1.09074E2,9.958703E1,1.7142674E2,1.4026436E2,2.0023379E3,1.9245851E2],"tree_param":{"num_deleted":"0","num_feature":"11","num_nodes":"25","size_leaf_vector":"1"}},{"base_weights":[-8.782344E-3,-8.758033E-2,1.0698041E-4,-1.1898511E-2,-1.6642261E-2,9.660918E-2,-1.4281388E-2,9.012616E-3,-6.8532815E-3,1.9088894E-1,-5.5096667E-2,-9.9619836E-2,-1.892574E-3,-2.9331534E-3,7.839116E-3,1.6572654E-2,6.4266653E-4,-0E0,-6.412858E-3,-0E0,-8.660075E-3,1.0234233E-3,-2.7409368E-3],"categories":[],"categories_nodes":[],"categories_segments":[],"categories_sizes":[],"default_left":[0,0,0,0,0,0,0,0,0,0,0,0,0,0,0,0,0,0,0,0,0,0,0],"id":25,"left_children":[1,3,5,-1,7,9,11,13,-1,15,17,19,21,-1,-1,-1,-1,-1,-1,-1,-1,-1,-1],"loss_changes":[3.8387985E0,2.748466E0,6.3875227E0,0E0,1.453282E0,9.5723095E0,3.3092268E0,2.1984568E0,0E0,3.64285E0,5.981745E-1,1.6109061E0,2.6366203E0,0E0,0E0,0E0,0E0,0E0,0E0,0E0,0E0,0E0,0E0],"parents":[2147483647,0,0,1,1,2,2,4,4,5,5,6,6,7,7,9,9,10,10,11,11,12,12],"right_children":[2,4,6,-1,8,10,12,14,-1,16,18,20,22,-1,-1,-1,-1,-1,-1,-1,-1,-1,-1],"split_conditions":[-8.304534E-3,9.901927E-1,3.280111E1,-1.1898511E-2,-1.4461924E0,1.0201184E0,7.719858E-1,-1.1660914E-2,-6.8532815E-3,-1.0555608E0,2.611336E1,-8.509595E-4,3.935268E-3,-2.9331534E-3,7.839116E-3,1.6572654E-2,6.4266653E-4,-0E0,-6.412858E-3,-0E0,-8.660075E-3,1.0234233E-3,-2.7409368E-3],"split_indices":[6,2,8,0,10,2,2,6,0,10,8,7,6,0,0,0,0,0,0,0,0,0,0],"split_type":[0,0,0,0,0,0,0,0,0,0,0,0,0,0,0,0,0,0,0,0,0,0,0],"sum_hessian":[4.769523E3,5.31947E2,4.2375757E3,1.753975E2,3.565495E2,5.8760815E2,3.6499675E3,2.4349046E2,1.1305905E2,3.8233353E2,2.0527466E2,3.9097726E2,3.2589902E3,1.385698E2,1.0492066E2,2.4575351E2,1.3658002E2,9.922358E1,1.0605107E2,1.08403465E2,2.825738E2,2.1838386E3,1.0751516E3],"tree_param":{"num_deleted":"0","num_feature":"11","num_nodes":"23","size_leaf_vector":"1"}},{"base_weights":[-0E0,-1.5731426E-1,3.0259902E-2,-0E0,-1.4095605E-2,2.4163434E-3,9.9088885E-2,-6.507845E-3,7.558854E-3,9.080246E-2,-1.9591749E-2,1.19130805E-1,-3.0011532E-3,7.5770044E-3,-1.2478888E-3,-3.931659E-3,-0E0,1.2115305E-2,3.3706506E-3],"categories":[],"categories_nodes":[],"categories_segments":[],"categories_sizes":[],"default_left":[0,0,0,0,0,0,0,0,0,0,0,0,0,0,0,0,0,0,0],"id":26,"left_children":[1,3,5,7,-1,9,11,-1,-1,13,15,17,-1,-1,-1,-1,-1,-1,-1],"loss_changes":[2.302158E1,7.574417E0,7.3250685E0,3.3743265E0,0E0,6.2745013E0,3.8100777E0,0E0,0E0,2.7274652E0,1.7143142E0,3.414548E0,0E0,0E0,0E0,0E0,0E0,0E0,0E0],"parents":[2147483647,0,0,1,1,2,2,3,3,5,5,6,6,9,9,10,10,11,11],"right_children":[2,4,6,8,-1,10,12,-1,-1,14,16,18,-1,-1,-1,-1,-1,-1,-1],"split_conditions":[1.9139391E-3,7.9501843E-1,3.6489395E-3,1.6720489E-3,-1.4095605E-2,8.502642E-1,7.3655914E1,-6.507845E-3,7.558854E-3,6.908939E1,3.8244514E1,4.2005535E-3,-3.0011532E-3,7.5770044E-3,-1.2478888E-3,-3.931659E-3,-0E0,1.2115305E-2,3.3706506E-3],"split_indices":[0,2,0,3,0,2,8,0,0,8,8,0,0,0,0,0,0,0,0],"split_type":[0,0,0,0,0,0,0,0,0,0,0,0,0,0,0,0,0,0,0],"sum_hessian":[4.863206E3,7.6121045E2,4.1019956E3,2.4221309E2,5.189974E2,2.9902976E3,1.111698E3,1.4259116E2,9.962193E1,6.3610846E2,2.3541892E3,1.0141809E3,9.751708E1,5.407276E2,9.5380875E1,6.569125E2,1.6972767E3,4.2412082E2,5.900601E2],"tree_param":{"num_deleted":"0","num_feature":"11","num_nodes":"19","size_leaf_vector":"1"}},{"base_weights":[-6.948149E-3,-5.5858932E-2,2.8963674E-2,1.7682686E-2,-7.170661E-2,1.45682385E-2,1.10716075E-2,-1.29299415E-2,7.765015E-3,-1.0749203E-1,-3.5485763E-2,1.1209173E-2,2.8053743E-3,-0E0,-3.1110172E-3,-3.2917354E-3,-9.28586E-3,-4.123552E-3,3.1285593E-3,-9.29078E-4,2.4625675E-3],"categories":[],"categories_nodes":[],"categories_segments":[],"categories_sizes":[],"default_left":[0,0,0,0,0,0,0,0,0,0,0,0,0,0,0,0,0,0,0,0,0],"id":27,"left_children":[1,3,5,7,9,11,-1,13,-1,15,17,-1,19,-1,-1,-1,-1,-1,-1,-1,-1],"loss_changes":[8.758884E0,2.8153124E0,4.738793E0,1.7083503E0,1.5087194E0,3.9242864E0,0E0,2.8127825E-1,0E0,5.9948826E-1,2.7191603E0,0E0,1.7025968E0,0E0,0E0,0E0,0E0,0E0,0E0,0E0,0E0],"parents":[2147483647,0,0,1,1,2,2,3,3,4,4,5,5,7,7,9,9,10,10,12,12],"right_children":[2,4,6,8,10,12,-1,14,-1,16,18,-1,20,-1,-1,-1,-1,-1,-1,-1,-1],"split_conditions":[2.595747E-3,5.532542E-3,5.346566E-3,1.8476932E-3,2.0937137E-3,-2.505825E0,1.10716075E-2,7.423528E-2,7.765015E-3,1.8330548E-3,1.1767105E0,1.1209173E-2,1.6991088E-2,-0E0,-3.1110172E-3,-3.2917354E-3,-9.28586E-3,-4.123552E-3,3.1285593E-3,-9.29078E-4,2.4625675E-3],"split_indices":[0,5,0,0,0,10,0,1,0,0,10,0,5,0,0,0,0,0,0,0,0],"split_type":[0,0,0,0,0,0,0,0,0,0,0,0,0,0,0,0,0,0,0,0,0],"sum_hessian":[4.8695464E3,2.1232488E3,2.7462979E3,3.1391568E2,1.8093331E3,2.5521982E3,1.9409953E2,2.1389032E2,1.0002537E2,8.1647986E2,9.9285333E2,1.2387371E2,2.4283245E3,9.943654E1,1.1445377E2,4.1712927E2,3.9935056E2,7.8543756E2,2.0741576E2,1.5400684E3,8.8825616E2],"tree_param":{"num_deleted":"0","num_feature":"11","num_nodes":"21","size_leaf_vector":"1"}},{"base_weights":[5.568736E-4,7.659846E-2,-8.0119975E-2,2.2268261E-1,3.703608E-2,-1.6735023E-1,-4.8601825E-2,-0E0,3.2976216E-1,-6.534322E-2,9.096934E-2,-9.174832E-2,-1.7160615E-2,-0E0,-9.9219695E-2,2.4181858E-2,7.346135E-3,-3.9860292E-4,-8.955181E-3,2.6544544E-3,1.2900905E-2,-8.9705605E-3,-0E0,-2.6380606E-3,5.410023E-3,-1.1887944E-2,-1.1165857E-3],"categories":[],"categories_nodes":[],"categories_segments":[],"categories_sizes":[],"default_left":[0,0,0,0,0,0,0,0,0,0,0,0,0,0,0,0,0,0,0,0,0,0,0,0,0,0,0],"id":28,"left_children":[1,3,5,7,9,11,13,-1,15,17,19,21,-1,23,25,-1,-1,-1,-1,-1,-1,-1,-1,-1,-1,-1,-1],"loss_changes":[2.9400646E1,1.2891835E1,4.964551E0,1.2564629E1,1.1397283E1,1.9663134E0,4.14906E0,0E0,4.400177E-1,2.203259E0,6.0760727E0,1.8472118E0,0E0,3.3249784E0,4.9406824E0,0E0,0E0,0E0,0E0,0E0,0E0,0E0,0E0,0E0,0E0,0E0,0E0],"parents":[2147483647,0,0,1,1,2,2,3,3,4,4,5,5,6,6,8,8,9,9,10,10,11,11,13,13,14,14],"right_children":[2,4,6,8,10,12,14,-1,16,18,20,22,-1,24,26,-1,-1,-1,-1,-1,-1,-1,-1,-1,-1,-1,-1],"split_conditions":[1.3435158E-1,5.878122E-2,-1.6357047E-3,-8.8673935E-4,-4.319487E-3,1.8918576E-2,1.9737661E-1,-0E0,1.2040377E-2,1.026395E-1,1.8228337E-4,1.3568063E-2,-1.7160615E-2,5.5085064E-4,6.791001E-3,2.4181858E-2,7.346135E-3,-3.9860292E-4,-8.955181E-3,2.6544544E-3,1.2900905E-2,-8.9705605E-3,-0E0,-2.6380606E-3,5.410023E-3,-1.1887944E-2,-1.1165857E-3],"split_indices":[1,1,6,9,6,5,1,0,5,1,9,5,0,9,6,0,0,0,0,0,0,0,0,0,0,0,0],"split_type":[0,0,0,0,0,0,0,0,0,0,0,0,0,0,0,0,0,0,0,0,0,0,0,0,0,0,0],"sum_hessian":[4.7623267E3,2.4874846E3,2.2748418E3,4.8374033E2,2.0037444E3,5.3794415E2,1.7368977E3,1.5666449E2,3.2707584E2,6.545935E2,1.3491509E3,3.617639E2,1.7618027E2,9.113366E2,8.255611E2,2.2938083E2,9.7695015E1,4.2132108E2,2.3327242E2,9.9432825E2,3.5482263E2,2.3147206E2,1.3029182E2,6.3135175E2,2.7998486E2,3.5047794E2,4.750832E2],"tree_param":{"num_deleted":"0","num_feature":"11","num_nodes":"27","size_leaf_vector":"1"}},{"base_weights":[6.7376513E-3,-3.6589336E-2,5.8546394E-2,4.9892157E-2,-6.328386E-2,1.135154E-1,-0E0,-0E0,1.0926952E-1,-1.1125424E-2,-3.2748077E-2,3.689356E-2,1.4795801E-1,-4.7401346E-2,2.042666E-2,2.5657644E-3,-2.0538014E-3,1.0633678E-2,-0E0,3.927422E-3,-3.5325931E-3,4.515785E-3,-5.599057E-4,4.6437634E-3,1.2115425E-2,-0E0,-4.937436E-3,3.5602227E-3,-2.536067E-3],"categories":[],"categories_nodes":[],"categories_segments":[],"categories_sizes":[],"default_left":[0,0,0,0,0,0,0,0,0,0,0,0,0,0,0,0,0,0,0,0,0,0,0,0,0,0,0,0,0],"id":29,"left_children":[1,3,5,7,9,11,13,15,17,-1,19,21,23,25,27,-1,-1,-1,-1,-1,-1,-1,-1,-1,-1,-1,-1,-1,-1],"loss_changes":[1.1187015E1,6.192996E0,7.8486733E0,1.9797786E0,5.884714E0,2.1056595E0,1.1830912E0,4.142516E-1,1.6305702E0,0E0,3.7633314E0,1.0782468E0,8.7908554E-1,7.2151977E-1,1.7092682E0,0E0,0E0,0E0,0E0,0E0,0E0,0E0,0E0,0E0,0E0,0E0,0E0,0E0,0E0],"parents":[2147483647,0,0,1,1,2,2,3,3,4,4,5,5,6,6,7,7,8,8,10,10,11,11,12,12,13,13,14,14],"right_children":[2,4,6,8,10,12,14,16,18,-1,20,22,24,26,28,-1,-1,-1,-1,-1,-1,-1,-1,-1,-1,-1,-1,-1,-1],"split_conditions":[1.3812204E-1,-7.014435E-3,3.7837534E-3,-5.8839394E-4,6.350936E-2,2.5158684E-5,6.529791E-3,5.0568562E-2,9.455171E-2,-1.1125424E-2,7.782262E-2,8.902952E-4,-7.481214E-4,1.4371007E-4,2.3098271E-2,2.5657644E-3,-2.0538014E-3,1.0633678E-2,-0E0,3.927422E-3,-3.5325931E-3,4.515785E-3,-5.599057E-4,4.6437634E-3,1.2115425E-2,-0E0,-4.937436E-3,3.5602227E-3,-2.536067E-3],"split_indices":[1,6,6,9,1,9,6,1,1,0,1,6,6,9,5,0,0,0,0,0,0,0,0,0,0,0,0,0,0],"split_type":[0,0,0,0,0,0,0,0,0,0,0,0,0,0,0,0,0,0,0,0,0,0,0,0,0,0,0,0,0],"sum_hessian":[4.896811E3,2.6109404E3,2.2858708E3,5.6331976E2,2.0476206E3,1.2049314E3,1.0809395E3,2.932434E2,2.7007632E2,3.79037E2,1.6685836E3,4.343963E2,7.7053516E2,3.7587482E2,7.050647E2,9.587889E1,1.9736453E2,1.6068033E2,1.09395996E2,2.7635886E2,1.3922247E3,3.104124E2,1.23983864E2,3.5176172E2,4.1877344E2,1.3156606E2,2.4430875E2,5.0024826E2,2.048164E2],"tree_param":{"num_deleted":"0","num_feature":"11","num_nodes":"29","size_leaf_vector":"1"}},{"base_weights":[-1.192899E-3,-1.61605E-2,1.2235032E-1,1.367331E-1,-2.8625539E-2,4.991618E-2,1.5461225E-2,1.5201695E-2,2.2669297E-3,-1.08122006E-1,-1.4917862E-2,8.036683E-3,-2.5513382E-3,-3.0567003E-3,-1.18924035E-2,-0E0,-4.325422E-3],"categories":[],"categories_nodes":[],"categories_segments":[],"categories_sizes":[],"default_left":[0,0,0,0,0,0,0,0,0,0,0,0,0,0,0,0,0],"id":30,"left_children":[1,3,5,7,9,11,-1,-1,-1,13,15,-1,-1,-1,-1,-1,-1],"loss_changes":[8.571487E0,7.960686E0,2.5712771E0,1.5319991E0,3.8328097E0,3.106499E0,0E0,0E0,0E0,1.1773925E0,2.8022625E0,0E0,0E0,0E0,0E0,0E0,0E0],"parents":[2147483647,0,0,1,1,2,2,3,3,4,4,5,5,9,9,10,10],"right_children":[2,4,6,8,10,12,-1,-1,-1,14,16,-1,-1,-1,-1,-1,-1],"split_conditions":[2.4311734E-2,-1.1651315E-3,7.029741E1,1.4827784E-2,3.181009E1,-3.31639E-4,1.5461225E-2,1.5201695E-2,2.2669297E-3,-3.5740674E-4,1.1298201E0,8.036683E-3,-2.5513382E-3,-3.0567003E-3,-1.18924035E-2,-0E0,-4.325422E-3],"split_indices":[5,9,8,5,8,9,0,0,0,9,2,0,0,0,0,0,0],"split_type":[0,0,0,0,0,0,0,0,0,0,0,0,0,0,0,0,0],"sum_hessian":[4.9200615E3,4.441425E3,4.786368E2,2.8868323E2,4.1527417E3,3.444933E2,1.3414352E2,1.0316148E2,1.8552174E2,5.342596E2,3.6184822E3,2.1468631E2,1.2980698E2,3.6224408E2,1.7201553E2,2.8693418E3,7.4914026E2],"tree_param":{"num_deleted":"0","num_feature":"11","num_nodes":"17","size_leaf_vector":"1"}},{"base_weights":[-0E0,1.895823E-1,-5.9440784E-2,2.1568695E-1,3.6194127E-2,-2.5575634E-3,-1.7487796E-1,1.4730662E-3,2.4567337E-1,3.8256675E-3,-0E0,4.8860613E-2,-1.8029891E-2,-1.8609618E-1,-0E0,1.753518E-2,5.3446474E-3,5.4756897E-3,-6.0401746E-4,2.653931E-3,-2.6151985E-3,-1.2508811E-2,-3.9850647E-4],"categories":[],"categories_nodes":[],"categories_segments":[],"categories_sizes":[],"default_left":[0,0,0,0,0,0,0,0,0,0,0,0,0,0,0,0,0,0,0,0,0,0,0],"id":31,"left_children":[1,3,5,7,9,11,13,-1,15,-1,-1,17,19,21,-1,-1,-1,-1,-1,-1,-1,-1,-1],"loss_changes":[5.4550285E1,3.1246567E0,2.2743061E1,3.9392242E0,1.2589839E-1,1.8089317E0,1.3111267E0,0E0,1.8126526E0,0E0,0E0,1.5405695E0,2.844309E0,1.227848E0,0E0,0E0,0E0,0E0,0E0,0E0,0E0,0E0,0E0],"parents":[2147483647,0,0,1,1,2,2,3,3,4,4,5,5,6,6,8,8,11,11,12,12,13,13],"right_children":[2,4,6,8,10,12,14,-1,16,-1,-1,18,20,22,-1,-1,-1,-1,-1,-1,-1,-1,-1],"split_conditions":[2.1034966E-3,3.7800993E-3,3.563535E-3,5.7059136E-4,-9.734547E-5,-4.5970846E-3,1.3348206E-2,1.4730662E-3,1.958273E-3,3.8256675E-3,-0E0,3.1159448E-3,1.0973689E-3,9.769124E-3,-0E0,1.753518E-2,5.3446474E-3,5.4756897E-3,-6.0401746E-4,2.653931E-3,-2.6151985E-3,-1.2508811E-2,-3.9850647E-4],"split_indices":[0,4,0,4,9,7,6,0,0,0,0,0,4,4,0,0,0,0,0,0,0,0,0],"split_type":[0,0,0,0,0,0,0,0,0,0,0,0,0,0,0,0,0,0,0,0,0,0,0],"sum_hessian":[4.7439336E3,1.1457505E3,3.5981829E3,9.4237787E2,2.0337265E2,2.4540676E3,1.1441154E3,1.5612477E2,7.862531E2,9.561295E1,1.07759705E2,4.76255E2,1.9778125E3,1.0462465E3,9.786893E1,6.145099E2,1.7174324E2,3.4106384E2,1.3519118E2,4.8521387E2,1.4925986E3,9.4771625E2,9.853017E1],"tree_param":{"num_deleted":"0","num_feature":"11","num_nodes":"23","size_leaf_vector":"1"}},{"base_weights":[-1.3465454E-3,-3.642729E-2,1.08876854E-1,-1.558756E-1,-1.5493106E-2,1.3333668E-1,-2.2954227E-4,4.1074427E-3,-2.4422166E-1,-0E0,-8.031176E-2,-0E0,1.5407957E-1,-1.8423287E-2,-4.4918684E-3,1.1833249E-2,-5.65428E-4,-6.547704E-3,-0E0,-0E0,1.0538785E-2],"categories":[],"categories_nodes":[],"categories_segments":[],"categories_sizes":[],"default_left":[0,0,0,0,0,0,0,0,0,0,0,0,0,0,0,0,0,0,0,0,0],"id":32,"left_children":[1,3,5,7,9,11,-1,-1,13,15,17,-1,19,-1,-1,-1,-1,-1,-1,-1,-1],"loss_changes":[1.8737356E1,8.491129E0,3.9128103E0,1.1497562E1,3.4115703E0,2.7611828E0,0E0,0E0,9.356899E-1,4.7487326E0,1.2251353E0,0E0,9.311733E-1,0E0,0E0,0E0,0E0,0E0,0E0,0E0,0E0],"parents":[2147483647,0,0,1,1,2,2,3,3,4,4,5,5,8,8,9,9,10,10,12,12],"right_children":[2,4,6,8,10,12,-1,-1,14,16,18,-1,20,-1,-1,-1,-1,-1,-1,-1,-1],"split_conditions":[3.6489395E-3,1.7545753E-3,6.908939E1,7.3589414E-1,1.2358259E0,-1.8456001E0,-2.2954227E-4,4.1074427E-3,5.0729903E-4,7.210846E-1,1.112588E0,-0E0,8.847776E-1,-1.8423287E-2,-4.4918684E-3,1.1833249E-2,-5.65428E-4,-6.547704E-3,-0E0,-0E0,1.0538785E-2],"split_indices":[0,0,8,2,10,10,0,0,7,2,2,0,2,0,0,0,0,0,0,0,0],"split_type":[0,0,0,0,0,0,0,0,0,0,0,0,0,0,0,0,0,0,0,0,0],"sum_hessian":[4.916202E3,3.7759866E3,1.1402158E3,5.0749362E2,3.268493E3,9.7465454E2,1.6556125E2,1.2817987E2,3.7931378E2,2.633958E3,6.34535E2,1.3263472E2,8.4201984E2,2.624061E2,1.1690767E2,1.121039E2,2.521854E3,4.8540796E2,1.4912701E2,9.721478E1,7.4480505E2],"tree_param":{"num_deleted":"0","num_feature":"11","num_nodes":"21","size_leaf_vector":"1"}},{"base_weights":[1.4543649E-2,-4.9813077E-2,6.1876338E-2,7.401443E-3,-7.411343E-2,-2.2549702E-2,7.533202E-2,-1.9144559E-1,-3.4028947E-2,-7.461864E-2,1.1785039E-3,5.9014373E-2,1.5341522E-1,-0E0,-1.490607E-2,-7.7557806E-3,-0E0,-0E0,-7.908227E-3,4.530424E-3,-9.0005307E-4,-0E0,1.2385889E-2],"categories":[],"categories_nodes":[],"categories_segments":[],"categories_sizes":[],"default_left":[0,0,0,0,0,0,0,0,0,0,0,0,0,0,0,0,0,0,0,0,0,0,0],"id":33,"left_children":[1,3,5,-1,7,9,11,13,15,17,-1,19,21,-1,-1,-1,-1,-1,-1,-1,-1,-1,-1],"loss_changes":[1.5062867E1,8.192504E0,3.5979424E0,0E0,7.1948347E0,1.0912559E0,1.9154902E0,2.814084E0,4.2448735E0,6.5698326E-1,0E0,2.413591E0,1.7375145E0,0E0,0E0,0E0,0E0,0E0,0E0,0E0,0E0,0E0,0E0],"parents":[2147483647,0,0,1,1,2,2,4,4,5,5,6,6,7,7,8,8,9,9,11,11,12,12],"right_children":[2,4,6,-1,8,10,12,14,16,18,-1,20,22,-1,-1,-1,-1,-1,-1,-1,-1,-1,-1],"split_conditions":[2.5411802E-3,5.0559605E-4,7.6245476E-4,7.401443E-3,1.3546599E-3,3.3776523E-3,4.7309673E-3,-9.1668594E-1,-1.0026115E0,2.8679E-3,1.1785039E-3,7.900748E-3,-9.776686E-3,-0E0,-1.490607E-2,-7.7557806E-3,-0E0,-0E0,-7.908227E-3,4.530424E-3,-9.0005307E-4,-0E0,1.2385889E-2],"split_indices":[0,4,4,0,4,0,0,10,10,0,0,4,7,0,0,0,0,0,0,0,0,0,0],"split_type":[0,0,0,0,0,0,0,0,0,0,0,0,0,0,0,0,0,0,0,0,0,0,0],"sum_hessian":[4.88934E3,2.0219194E3,2.8674204E3,2.1931071E2,1.8026088E3,3.3585837E2,2.531562E3,4.077034E2,1.3949054E3,2.0207452E2,1.3378384E2,2.1770178E3,3.5454428E2,9.638763E1,3.1131577E2,3.7113797E2,1.0237674E3,9.9787796E1,1.02286736E2,1.9157207E3,2.612971E2,1.0031822E2,2.5422606E2],"tree_param":{"num_deleted":"0","num_feature":"11","num_nodes":"23","size_leaf_vector":"1"}},{"base_weights":[4.8160157E-3,1.3258901E-1,-9.166315E-2,1.4679018E-1,-0E0,-2.8384803E-2,-1.4779201E-1,1.7290022E-2,1.1364803E-1,6.5476395E-2,-5.0094135E-2,-1.5970056E-1,-0E0,9.829929E-3,1.8040875E-3,-0E0,6.224347E-3,-5.0465567E-3,3.934022E-3,-1.052829E-2,-7.49118E-4],"categories":[],"categories_nodes":[],"categories_segments":[],"categories_sizes":[],"default_left":[0,0,0,0,0,0,0,0,0,0,0,0,0,0,0,0,0,0,0,0,0],"id":34,"left_children":[1,3,5,7,-1,9,11,-1,13,15,17,19,-1,-1,-1,-1,-1,-1,-1,-1,-1],"loss_changes":[5.9406532E1,4.53434E0,8.579741E0,5.430969E0,0E0,2.702593E0,2.1268425E0,0E0,4.6092777E0,2.2818547E-1,4.057675E0,3.7057877E-1,0E0,0E0,0E0,0E0,0E0,0E0,0E0,0E0,0E0],"parents":[2147483647,0,0,1,1,2,2,3,3,5,5,6,6,8,8,9,9,10,10,11,11],"right_children":[2,4,6,8,-1,10,12,-1,14,16,18,20,-1,-1,-1,-1,-1,-1,-1,-1,-1],"split_conditions":[2.5506376E-3,3.8458705E-3,3.3637036E-3,3.1294813E1,-0E0,2.9839758E1,1.3348206E-2,1.7290022E-2,2.186852E-3,3.367204E-3,7.416544E-3,7.1550255E1,-0E0,9.829929E-3,1.8040875E-3,-0E0,6.224347E-3,-5.0465567E-3,3.934022E-3,-1.052829E-2,-7.49118E-4],"split_indices":[0,3,0,8,0,8,6,0,0,4,6,8,0,0,0,0,0,0,0,0,0],"split_type":[0,0,0,0,0,0,0,0,0,0,0,0,0,0,0,0,0,0,0,0,0],"sum_hessian":[4.7675386E3,2.0732207E3,2.6943176E3,1.8988495E3,1.7437126E2,1.3248226E3,1.369495E3,3.317132E2,1.5671364E3,1.9447015E2,1.1303524E3,1.2538702E3,1.1562479E2,9.925955E2,5.7454083E2,9.5064476E1,9.940568E1,9.3507306E2,1.9527936E2,1.1558506E3,9.8019615E1],"tree_param":{"num_deleted":"0","num_feature":"11","num_nodes":"21","size_leaf_vector":"1"}},{"base_weights":[1.1268698E-2,-1.3429102E-1,3.6204226E-2,-1.7857805E-1,-0E0,5.4071967E-2,-9.523238E-2,-1.2837124E-2,-1.4882182E-3,3.0768737E-3,-5.4246676E-3,1.511663E-2,1.0136725E-1,-0E0,-1.286674E-1,-9.551796E-3,1.8707137E-3,-0E0,7.0788465E-3,-8.389363E-4,-9.75686E-3],"categories":[],"categories_nodes":[],"categories_segments":[],"categories_sizes":[],"default_left":[0,0,0,0,0,0,0,0,0,0,0,0,0,0,0,0,0,0,0,0,0],"id":35,"left_children":[1,3,5,7,9,11,13,-1,-1,-1,-1,15,17,-1,19,-1,-1,-1,-1,-1,-1],"loss_changes":[1.7331022E1,3.2985592E0,9.794423E0,5.8097935E-1,1.1280694E0,6.2783403E0,1.9631219E0,0E0,0E0,0E0,0E0,4.632826E0,1.9070911E0,0E0,1.7735815E-1,0E0,0E0,0E0,0E0,0E0,0E0],"parents":[2147483647,0,0,1,1,2,2,3,3,4,4,5,5,6,6,11,11,12,12,14,14],"right_children":[2,4,6,8,10,12,14,-1,-1,-1,-1,16,18,-1,20,-1,-1,-1,-1,-1,-1],"split_conditions":[1.8715555E-3,1.8713037E-3,1.756925E0,2.747657E-4,1.6431994E-3,3.1159448E-3,2.3345102E-3,-1.2837124E-2,-1.4882182E-3,3.0768737E-3,-5.4246676E-3,-1.1400166E-3,-1.5882608E-3,-0E0,8.6234626E-4,-9.551796E-3,1.8707137E-3,-0E0,7.0788465E-3,-8.389363E-4,-9.75686E-3],"split_indices":[0,6,10,9,0,0,0,0,0,0,0,9,9,0,9,0,0,0,0,0,0],"split_type":[0,0,0,0,0,0,0,0,0,0,0,0,0,0,0,0,0,0,0,0,0],"sum_hessian":[4.886131E3,6.7133997E2,4.214791E3,4.7584848E2,1.9549149E2,3.7562417E3,4.5854935E2,3.73869E2,1.0197948E2,9.6430244E1,9.906124E1,2.136204E3,1.6200375E3,9.6298904E1,3.6225046E2,1.2855656E2,2.0076476E3,1.5417685E2,1.4658606E3,1.11024155E2,2.512263E2],"tree_param":{"num_deleted":"0","num_feature":"11","num_nodes":"21","size_leaf_vector":"1"}},{"base_weights":[1.24187805E-2,-7.932337E-3,7.2516195E-2,3.109839E-3,-8.0688685E-2,1.0766504E-1,-3.2218425E-3,1.977748E-2,-1.6026676E-2,-1.1671853E-1,-0E0,1.1892256E-1,-0E0,-6.0743026E-2,5.0868327E-3,6.48075E-3,2.407134E-4,-4.6925684E-3,1.6974752E-3,-1.3195096E-2,-9.02633E-4,2.4956497E-3,9.097282E-3,-0E0,-6.896333E-3],"categories":[],"categories_nodes":[],"categories_segments":[],"categories_sizes":[],"default_left":[0,0,0,0,0,0,0,0,0,0,0,0,0,0,0,0,0,0,0,0,0,0,0,0,0],"id":36,"left_children":[1,3,5,7,9,11,13,15,17,19,-1,21,-1,23,-1,-1,-1,-1,-1,-1,-1,-1,-1,-1,-1],"loss_changes":[6.400294E0,3.3516948E0,4.0956907E0,1.0153718E0,1.9374561E0,1.0224199E0,1.8250693E0,1.8144181E0,3.5589566E0,2.5322495E0,0E0,6.04866E-1,0E0,1.1172024E0,0E0,0E0,0E0,0E0,0E0,0E0,0E0,0E0,0E0,0E0,0E0],"parents":[2147483647,0,0,1,1,2,2,3,3,4,4,5,5,6,6,7,7,8,8,9,9,11,11,13,13],"right_children":[2,4,6,8,10,12,14,16,18,20,-1,22,-1,24,-1,-1,-1,-1,-1,-1,-1,-1,-1,-1,-1],"split_conditions":[3.935268E-3,1.9340451E-3,1.136015E0,1.0237001E0,3.2519454E-3,8.304794E-3,4.8670336E-3,5.4780825E-4,1.3137987E-2,8.65211E-3,-0E0,1.0595593E-2,-0E0,7.152132E-3,5.0868327E-3,6.48075E-3,2.407134E-4,-4.6925684E-3,1.6974752E-3,-1.3195096E-2,-9.02633E-4,2.4956497E-3,9.097282E-3,-0E0,-6.896333E-3],"split_indices":[6,6,2,2,3,4,3,4,5,5,0,5,0,6,0,0,0,0,0,0,0,0,0,0,0],"split_type":[0,0,0,0,0,0,0,0,0,0,0,0,0,0,0,0,0,0,0,0,0,0,0,0,0],"sum_hessian":[4.915125E3,3.6134595E3,1.3016656E3,3.084832E3,5.2862756E2,9.343879E2,3.672778E2,1.8036892E3,1.2811427E3,3.86161E2,1.4246654E2,8.3514856E2,9.92393E1,2.5998587E2,1.0729195E2,2.1979709E2,1.5838922E3,5.923249E2,6.8881775E2,1.6498492E2,2.2117609E2,2.6661838E2,5.6853015E2,9.828915E1,1.6169672E2],"tree_param":{"num_deleted":"0","num_feature":"11","num_nodes":"25","size_leaf_vector":"1"}},{"base_weights":[1.2051214E-3,1.4093296E-1,-6.269621E-2,1.6348481E-2,1.1127373E-1,-1.3726243E-2,-1.4998712E-1,1.2421607E-1,-0E0,8.027635E-3,-6.877912E-2,-0E0,-1.6184098E-1,1.14797475E-2,5.3377E-3,6.0653384E-3,-1.8864592E-4,-5.4009994E-3,-0E0,-7.488134E-3,-1.339994E-2],"categories":[],"categories_nodes":[],"categories_segments":[],"categories_sizes":[],"default_left":[0,0,0,0,0,0,0,0,0,0,0,0,0,0,0,0,0,0,0,0,0],"id":37,"left_children":[1,3,5,-1,7,9,11,13,-1,15,17,-1,19,-1,-1,-1,-1,-1,-1,-1,-1],"loss_changes":[4.3691097E1,2.902771E0,1.3150326E1,0E0,2.4738045E0,2.9472618E0,1.6808319E0,1.0248642E0,0E0,1.9816376E0,8.647485E-1,0E0,2.1871567E-2,0E0,0E0,0E0,0E0,0E0,0E0,0E0,0E0],"parents":[2147483647,0,0,1,1,2,2,4,4,5,5,6,6,7,7,9,9,10,10,12,12],"right_children":[2,4,6,-1,8,10,12,14,-1,16,18,-1,20,-1,-1,-1,-1,-1,-1,-1,-1],"split_conditions":[2.276139E-3,8.859219E-4,3.563535E-3,1.6348481E-2,5.199125E-3,3.2766366E-3,1.7961218E-3,-2.3621363E-3,-0E0,2.9839758E1,6.6873215E1,-0E0,4.55365E-3,1.14797475E-2,5.3377E-3,6.0653384E-3,-1.8864592E-4,-5.4009994E-3,-0E0,-7.488134E-3,-1.339994E-2],"split_indices":[0,3,0,0,4,3,3,6,0,8,8,0,0,0,0,0,0,0,0,0,0],"split_type":[0,0,0,0,0,0,0,0,0,0,0,0,0,0,0,0,0,0,0,0,0],"sum_hessian":[4.81146E3,1.5308882E3,3.2805718E3,2.4292499E2,1.2879633E3,2.1547144E3,1.1258575E3,1.1905934E3,9.736981E1,1.4822764E3,6.724379E2,9.706185E1,1.0287957E3,4.0059787E2,7.8999554E2,2.0622769E2,1.2760487E3,5.4431604E2,1.2812183E2,6.4724146E2,3.8155426E2],"tree_param":{"num_deleted":"0","num_feature":"11","num_nodes":"21","size_leaf_vector":"1"}},{"base_weights":[7.548157E-3,-1.3670641E-1,3.548715E-2,2.468969E-3,-1.9302326E-1,9.585175E-3,8.8757135E-2,-2.1565173E-2,-1.125895E-1,8.911122E-2,-1.20312385E-2,9.8653086E-2,-0E0,-0E0,-1.0580176E-2,6.711212E-3,-0E0,-1.4192823E-4,-6.915281E-3,-0E0,6.895013E-3],"categories":[],"categories_nodes":[],"categories_segments":[],"categories_sizes":[],"default_left":[0,0,0,0,0,0,0,0,0,0,0,0,0,0,0,0,0,0,0,0,0],"id":38,"left_children":[1,3,5,-1,7,9,11,-1,13,15,17,19,-1,-1,-1,-1,-1,-1,-1,-1,-1],"loss_changes":[1.934557E1,8.60246E0,5.188669E0,0E0,4.151882E0,5.4185243E0,8.725605E-1,0E0,2.676569E0,1.0880013E0,1.50862E0,1.0241728E0,0E0,0E0,0E0,0E0,0E0,0E0,0E0,0E0,0E0],"parents":[2147483647,0,0,1,1,2,2,4,4,5,5,6,6,8,8,9,9,10,10,11,11],"right_children":[2,4,6,-1,8,10,12,-1,14,16,18,20,-1,-1,-1,-1,-1,-1,-1,-1,-1],"split_conditions":[1.9139391E-3,7.316353E-1,3.5468915E-3,2.468969E-3,5.651457E-2,8.58766E-1,3.307629E-1,-2.1565173E-2,7.8494504E-2,3.733423E-3,2.2184287E-1,1.0558166E-1,-0E0,-0E0,-1.0580176E-2,6.711212E-3,-0E0,-1.4192823E-4,-6.915281E-3,-0E0,6.895013E-3],"split_indices":[0,2,0,0,1,2,1,0,1,3,1,1,0,0,0,0,0,0,0,0,0],"split_type":[0,0,0,0,0,0,0,0,0,0,0,0,0,0,0,0,0,0,0,0,0],"sum_hessian":[4.9028784E3,7.5271844E2,4.1501597E3,1.5984105E2,5.9287744E2,2.8758005E3,1.2743595E3,1.643689E2,4.285085E2,6.584581E2,2.2173423E3,1.118001E3,1.5635844E2,1.5029114E2,2.7821738E2,5.514111E2,1.0704704E2,2.082886E3,1.3445631E2,1.2761973E2,9.903813E2],"tree_param":{"num_deleted":"0","num_feature":"11","num_nodes":"21","size_leaf_vector":"1"}},{"base_weights":[3.1328886E-3,-1.6504036E-2,5.843079E-2,-4.719413E-2,4.4437803E-2,1.3396536E-1,2.0744968E-2,-2.688789E-2,-9.562294E-2,6.852152E-2,-7.7620526E-3,-5.165071E-4,1.9724743E-1,-2.6730957E-2,8.485795E-2,-3.002377E-3,1.8967667E-3,-0E0,-7.326418E-3,-5.813477E-4,7.617555E-3,1.5839718E-2,1.2298266E-3,-4.4168974E-3,1.4676261E-3,8.584106E-3,-0E0],"categories":[],"categories_nodes":[],"categories_segments":[],"categories_sizes":[],"default_left":[0,0,0,0,0,0,0,0,0,0,0,0,0,0,0,0,0,0,0,0,0,0,0,0,0,0,0],"id":39,"left_children":[1,3,5,7,9,11,13,15,17,19,-1,-1,21,23,25,-1,-1,-1,-1,-1,-1,-1,-1,-1,-1,-1,-1],"loss_changes":[5.6032934E0,6.7412205E0,2.9936504E0,1.6837416E0,4.464699E0,4.7108636E0,3.352097E0,2.287454E0,9.6577597E-1,4.8853292E0,0E0,0E0,1.3725567E0,1.4325799E0,1.3107424E0,0E0,0E0,0E0,0E0,0E0,0E0,0E0,0E0,0E0,0E0,0E0,0E0],"parents":[2147483647,0,0,1,1,2,2,3,3,4,4,5,5,6,6,7,7,8,8,9,9,12,12,13,13,14,14],"right_children":[2,4,6,8,10,12,14,16,18,20,-1,-1,22,24,26,-1,-1,-1,-1,-1,-1,-1,-1,-1,-1,-1,-1],"split_conditions":[4.669813E-3,1.3137987E-2,1.269845E-2,3.1392039E-3,7.8635345E1,3.8244514E1,3.3498863E-3,2.3260352E-3,3.956386E1,-2.707278E-3,-7.7620526E-3,-5.165071E-4,6.411544E-3,2.2675138E-2,7.900748E-3,-3.002377E-3,1.8967667E-3,-0E0,-7.326418E-3,-5.813477E-4,7.617555E-3,1.5839718E-2,1.2298266E-3,-4.4168974E-3,1.4676261E-3,8.584106E-3,-0E0],"split_indices":[4,5,5,3,8,8,3,3,8,7,0,0,4,5,4,0,0,0,0,0,0,0,0,0,0,0,0],"split_type":[0,0,0,0,0,0,0,0,0,0,0,0,0,0,0,0,0,0,0,0,0,0,0,0,0,0,0],"sum_hessian":[4.91413E3,3.560823E3,1.353307E3,2.43135E3,1.129473E3,3.872112E2,9.6609576E2,1.8121562E3,6.191937E2,1.0252041E3,1.0426898E2,9.668297E1,2.9052826E2,5.1084244E2,4.5525333E2,1.4014991E3,4.1065717E2,1.3472289E2,4.8447086E2,3.7566068E2,6.495434E2,1.9335417E2,9.717408E1,3.294766E2,1.8136584E2,2.3688443E2,2.1836891E2],"tree_param":{"num_deleted":"0","num_feature":"11","num_nodes":"27","size_leaf_vector":"1"}},{"base_weights":[-1.3500765E-3,4.6619426E-2,-1.036709E-1,1.8565597E-1,1.3318933E-2,-1.4377814E-2,-1.3133566E-1,2.3876299E-1,5.08505E-4,-4.376495E-2,6.305524E-2,-6.1316345E-2,4.9667237E-3,-9.255545E-2,-1.8451485E-1,2.2292327E-2,3.951042E-3,2.5364547E-3,-6.540797E-3,1.0805209E-2,-0E0,-0E0,-6.4965724E-3,-7.2558913E-3,-0E0,-1.382378E-2,-1.7701671E-3],"categories":[],"categories_nodes":[],"categories_segments":[],"categories_sizes":[],"default_left":[0,0,0,0,0,0,0,0,0,0,0,0,0,0,0,0,0,0,0,0,0,0,0,0,0,0,0],"id":40,"left_children":[1,3,5,7,9,11,13,15,-1,17,19,21,-1,23,25,-1,-1,-1,-1,-1,-1,-1,-1,-1,-1,-1,-1],"loss_changes":[2.3894339E1,1.3825149E1,3.0373821E0,4.1727905E0,7.70258E0,1.8980147E0,5.458126E-1,6.041971E0,0E0,6.460392E0,9.660807E0,9.3612874E-1,0E0,1.8571653E0,7.488966E-1,0E0,0E0,0E0,0E0,0E0,0E0,0E0,0E0,0E0,0E0,0E0,0E0],"parents":[2147483647,0,0,1,1,2,2,3,3,4,4,5,5,6,6,7,7,9,9,10,10,11,11,13,13,14,14],"right_children":[2,4,6,8,10,12,14,16,-1,18,20,22,-1,24,26,-1,-1,-1,-1,-1,-1,-1,-1,-1,-1,-1,-1],"split_conditions":[3.2766366E-3,6.802526E-2,1.2054502E-1,3.280111E1,5.072981E1,3.9749966E1,1.8342204E-2,1.2943493E-2,5.08505E-4,9.2623495E-2,1.3642672E-1,7.271309E-2,4.9667237E-3,5.5580204E-3,7.189461E1,2.2292327E-2,3.951042E-3,2.5364547E-3,-6.540797E-3,1.0805209E-2,-0E0,-0E0,-6.4965724E-3,-7.2558913E-3,-0E0,-1.382378E-2,-1.7701671E-3],"split_indices":[3,1,1,8,8,8,5,5,0,1,1,1,0,4,8,0,0,0,0,0,0,0,0,0,0,0,0],"split_type":[0,0,0,0,0,0,0,0,0,0,0,0,0,0,0,0,0,0,0,0,0,0,0,0,0,0,0],"sum_hessian":[4.7705312E3,3.2170718E3,1.5534596E3,5.746657E2,2.642406E3,4.2094965E2,1.1325099E3,4.1386676E2,1.6079895E2,1.1792305E3,1.4631755E3,3.2342352E2,9.752612E1,7.417364E2,3.9077356E2,2.2094432E2,1.9292242E2,4.5532632E2,7.239041E2,5.1157962E2,9.5159595E2,1.3188422E2,1.915393E2,6.128825E2,1.2885385E2,2.8487125E2,1.0590232E2],"tree_param":{"num_deleted":"0","num_feature":"11","num_nodes":"27","size_leaf_vector":"1"}},{"base_weights":[2.1906873E-2,-1.2926784E-1,3.90262E-2,-1.1581843E-2,-3.0713132E-2,5.314192E-2,-6.983425E-2,4.913364E-4,-6.530674E-3,-0E0,6.924266E-2,-1.1260719E-1,3.7460338E-4,-2.8511388E-3,1.5609793E-3,-8.900422E-4,4.780343E-3,-0E0,-9.658669E-3],"categories":[],"categories_nodes":[],"categories_segments":[],"categories_sizes":[],"default_left":[0,0,0,0,0,0,0,0,0,0,0,0,0,0,0,0,0,0,0],"id":41,"left_children":[1,3,5,-1,7,9,11,-1,-1,13,15,17,-1,-1,-1,-1,-1,-1,-1],"loss_changes":[1.2326135E1,1.2522078E0,6.836326E0,0E0,1.1771044E0,3.4196768E0,2.1434853E0,0E0,0E0,1.0827694E0,2.0664768E0,1.2596531E0,0E0,0E0,0E0,0E0,0E0,0E0,0E0],"parents":[2147483647,0,0,1,1,2,2,4,4,5,5,6,6,9,9,10,10,11,11],"right_children":[2,4,6,-1,8,10,12,-1,-1,14,16,18,-1,-1,-1,-1,-1,-1,-1],"split_conditions":[1.0336308E-3,8.513405E-4,1.8276051E0,-1.1581843E-2,9.403114E-4,1.7294533E-3,1.156329E0,4.913364E-4,-6.530674E-3,-2.6452048E-3,5.8196923E-3,6.9168345E-3,3.7460338E-4,-2.8511388E-3,1.5609793E-3,-8.900422E-4,4.780343E-3,-0E0,-9.658669E-3],"split_indices":[3,3,10,0,3,3,2,0,0,6,5,6,0,0,0,0,0,0,0],"split_type":[0,0,0,0,0,0,0,0,0,0,0,0,0,0,0,0,0,0,0],"sum_hessian":[4.907462E3,4.5508417E2,4.4523774E3,2.4727373E2,2.0781044E2,3.9940483E3,4.5832907E2,9.590166E1,1.1190878E2,9.3509E2,3.0589585E3,3.3467374E2,1.2365535E2,3.2349176E2,6.1159827E2,1.6287166E2,2.8960867E3,1.0829343E2,2.263803E2],"tree_param":{"num_deleted":"0","num_feature":"11","num_nodes":"19","size_leaf_vector":"1"}},{"base_weights":[-0E0,-7.435221E-2,3.1152874E-2,-0E0,-1.21467955E-1,2.0208437E-2,1.0623016E-2,2.8222281E-2,-4.1366E-3,-6.42608E-2,-1.9699219E-1,4.0559236E-2,-1.7418966E-2,-0E0,8.573511E-3,-8.79596E-3,1.8945172E-3,-1.9083088E-2,-6.060177E-3,7.019158E-4,9.948706E-3,2.336553E-3,-6.4123697E-3],"categories":[],"categories_nodes":[],"categories_segments":[],"categories_sizes":[],"default_left":[0,0,0,0,0,0,0,0,0,0,0,0,0,0,0,0,0,0,0,0,0,0,0],"id":42,"left_children":[1,3,5,7,9,11,-1,13,-1,15,17,19,21,-1,-1,-1,-1,-1,-1,-1,-1,-1,-1],"loss_changes":[1.1321449E1,5.0646276E0,4.141014E0,1.078822E0,2.1447363E0,2.6567562E0,0E0,1.9079698E0,0E0,4.718255E0,8.1944275E-1,6.7435665E0,5.3413334E0,0E0,0E0,0E0,0E0,0E0,0E0,0E0,0E0,0E0,0E0],"parents":[2147483647,0,0,1,1,2,2,3,3,4,4,5,5,7,7,9,9,10,10,11,11,12,12],"right_children":[2,4,6,8,10,12,-1,14,-1,16,18,20,22,-1,-1,-1,-1,-1,-1,-1,-1,-1,-1],"split_conditions":[2.276139E-3,8.58766E-1,5.346566E-3,2.747657E-4,1.0558166E-1,1.1069084E0,1.0623016E-2,8.145839E-1,-4.1366E-3,7.911471E-2,1.99139E-3,1.2154667E0,1.8156447E-1,-0E0,8.573511E-3,-8.79596E-3,1.8945172E-3,-1.9083088E-2,-6.060177E-3,7.019158E-4,9.948706E-3,2.336553E-3,-6.4123697E-3],"split_indices":[0,2,0,9,1,2,0,2,0,1,0,10,1,0,0,0,0,0,0,0,0,0,0],"split_type":[0,0,0,0,0,0,0,0,0,0,0,0,0,0,0,0,0,0,0,0,0,0,0],"sum_hessian":[4.889412E3,1.4191365E3,3.4702754E3,5.5456E2,8.645765E2,3.2695452E3,2.0073032E2,3.9757074E2,1.5698926E2,5.513473E2,3.1322922E2,2.2169192E3,1.052626E3,2.9342935E2,1.0414138E2,3.3475763E2,2.1658965E2,1.0952041E2,2.0370882E2,1.8251389E3,3.9178015E2,6.0515533E2,4.4747067E2],"tree_param":{"num_deleted":"0","num_feature":"11","num_nodes":"23","size_leaf_vector":"1"}},{"base_weights":[-0E0,6.596258E-2,-7.347091E-2,9.929638E-2,-1.0392716E-1,-1.0808777E-1,-0E0,1.2737079E-2,7.02537E-2,-8.366329E-3,-5.8260146E-5,-5.8692582E-2,-1.9167899E-1,6.7825295E-2,-4.81217E-2,1.8080851E-3,9.473507E-3,-1.2348596E-2,-2.0722968E-3,-1.3625559E-2,-2.8998898E-3,-0E0,7.4631083E-3,-9.260579E-3,-0E0],"categories":[],"categories_nodes":[],"categories_segments":[],"categories_sizes":[],"default_left":[0,0,0,0,0,0,0,0,0,0,0,0,0,0,0,0,0,0,0,0,0,0,0,0,0],"id":43,"left_children":[1,3,5,7,9,11,13,-1,15,-1,-1,17,19,21,23,-1,-1,-1,-1,-1,-1,-1,-1,-1,-1],"loss_changes":[2.3276405E1,1.4394397E1,5.4729443E0,4.643385E0,4.258647E-1,4.712919E0,2.528813E0,0E0,4.713745E0,0E0,0E0,2.2465425E0,2.3103142E-1,1.4950715E0,1.8047199E0,0E0,0E0,0E0,0E0,0E0,0E0,0E0,0E0,0E0,0E0],"parents":[2147483647,0,0,1,1,2,2,3,3,4,4,5,5,6,6,8,8,11,11,12,12,13,13,14,14],"right_children":[2,4,6,8,10,12,14,-1,16,-1,-1,18,20,22,24,-1,-1,-1,-1,-1,-1,-1,-1,-1,-1],"split_conditions":[1.3357092E-1,5.243018E-3,6.715141E1,5.878122E-2,2.2054233E-2,1.9864799E-1,1.9327545E-1,1.2737079E-2,5.072981E1,-8.366329E-3,-5.8260146E-5,3.871137E1,7.230055E-3,7.096774E1,3.9804205E-3,1.8080851E-3,9.473507E-3,-1.2348596E-2,-2.0722968E-3,-1.3625559E-2,-2.8998898E-3,-0E0,7.4631083E-3,-9.260579E-3,-0E0],"split_indices":[1,4,8,1,5,1,1,0,8,0,0,8,7,8,7,0,0,0,0,0,0,0,0,0,0],"split_type":[0,0,0,0,0,0,0,0,0,0,0,0,0,0,0,0,0,0,0,0,0,0,0,0,0],"sum_hessian":[4.7667314E3,2.4993567E3,2.267375E3,2.122528E3,3.7682852E2,1.5071122E3,7.6026276E2,4.031729E2,1.7193552E3,2.4837259E2,1.2845593E2,1.00692664E3,5.0018552E2,2.8588672E2,4.7437604E2,1.1929124E3,5.2644293E2,1.0775052E2,8.9917615E2,3.882551E2,1.11930405E2,9.6903885E1,1.8898282E2,1.1944691E2,3.5492914E2],"tree_param":{"num_deleted":"0","num_feature":"11","num_nodes":"25","size_leaf_vector":"1"}},{"base_weights":[-9.235301E-3,-2.6228642E-2,1.818076E-1,-9.152377E-2,2.4274194E-3,2.3088308E-1,-0E0,-0E0,-1.0813561E-1,3.879541E-2,-6.954789E-2,2.89844E-3,1.8530106E-2,-1.5447536E-4,9.447347E-4,-1.0949981E-2,-4.5317276E-3,-1.4047856E-3,5.0203307E-3,-5.9046843E-3,-0E0],"categories":[],"categories_nodes":[],"categories_segments":[],"categories_sizes":[],"default_left":[0,0,0,0,0,0,0,0,0,0,0,0,0,0,0,0,0,0,0,0,0],"id":44,"left_children":[1,3,5,7,9,11,-1,13,15,17,19,-1,-1,-1,-1,-1,-1,-1,-1,-1,-1],"loss_changes":[1.5180083E1,9.026034E0,2.4310436E0,2.3833551E0,8.05233E0,1.1540499E0,0E0,2.9666647E-2,1.3798294E0,5.6912346E0,1.8728337E0,0E0,0E0,0E0,0E0,0E0,0E0,0E0,0E0,0E0,0E0],"parents":[2147483647,0,0,1,1,2,2,3,3,4,4,5,5,7,7,8,8,9,9,10,10],"right_children":[2,4,6,8,10,12,-1,14,16,18,20,-1,-1,-1,-1,-1,-1,-1,-1,-1,-1],"split_conditions":[8.304794E-3,9.850724E-2,2.8293476E-1,-9.776686E-3,4.046477E-3,1.2961252E-1,-0E0,-2.3980682E0,5.878122E-2,1.3886473E-1,6.6503794E-3,2.89844E-3,1.8530106E-2,-1.5447536E-4,9.447347E-4,-1.0949981E-2,-4.5317276E-3,-1.4047856E-3,5.0203307E-3,-5.9046843E-3,-0E0],"split_indices":[4,1,1,7,4,1,0,10,1,1,4,0,0,0,0,0,0,0,0,0,0],"split_type":[0,0,0,0,0,0,0,0,0,0,0,0,0,0,0,0,0,0,0,0,0],"sum_hessian":[4.901109E3,4.5406675E3,3.6044144E2,1.4329597E3,3.1077078E3,2.6277753E2,9.766392E1,2.0734738E2,1.2256123E3,2.1209243E3,9.867833E2,9.675638E1,1.6602115E2,9.511047E1,1.122369E2,3.5825314E2,8.673592E2,7.991224E2,1.321802E3,7.4876495E2,2.3801837E2],"tree_param":{"num_deleted":"0","num_feature":"11","num_nodes":"21","size_leaf_vector":"1"}},{"base_weights":[2.5822953E-3,-4.571798E-2,4.1381884E-2,5.400903E-3,-7.7418715E-2,2.192085E-2,1.3835798E-1,-6.706112E-3,4.089864E-2,-1.3844469E-1,-3.64918E-2,5.639031E-2,-3.7539158E-2,1.3757602E-2,5.390018E-2,7.405651E-3,-0E0,-1.4426663E-3,-1.3147744E-2,5.0396226E-5,-8.200504E-3,1.5011918E-3,9.47495E-3,-0E0,-1.0131645E-2,-1.4625795E-3,1.1070879E-2],"categories":[],"categories_nodes":[],"categories_segments":[],"categories_sizes":[],"default_left":[0,0,0,0,0,0,0,0,0,0,0,0,0,0,0,0,0,0,0,0,0,0,0,0,0,0,0],"id":45,"left_children":[1,3,5,7,9,11,13,-1,15,17,19,21,23,-1,25,-1,-1,-1,-1,-1,-1,-1,-1,-1,-1,-1,-1],"loss_changes":[9.304769E0,3.897935E0,4.3878274E0,2.7776916E0,2.4347916E0,5.09842E0,1.1378651E0,0E0,1.8431137E0,2.6990175E0,3.9138036E0,3.8620162E0,4.531827E0,0E0,3.366662E0,0E0,0E0,0E0,0E0,0E0,0E0,0E0,0E0,0E0,0E0,0E0,0E0],"parents":[2147483647,0,0,1,1,2,2,3,3,4,4,5,5,6,6,8,8,9,9,10,10,11,11,12,12,14,14],"right_children":[2,4,6,8,10,12,14,-1,16,18,20,22,24,-1,26,-1,-1,-1,-1,-1,-1,-1,-1,-1,-1,-1,-1],"split_conditions":[2.5867082E-3,8.635619E-1,4.6790764E-3,-1.2069902E0,1.99139E-3,1.1069084E0,1.1632018E0,-6.706112E-3,-2.03982E-1,1.7062604E-3,1.0452044E0,6.440554E1,6.3472347E1,1.3757602E-2,1.3774025E0,7.405651E-3,-0E0,-1.4426663E-3,-1.3147744E-2,5.0396226E-5,-8.200504E-3,1.5011918E-3,9.47495E-3,-0E0,-1.0131645E-2,-1.4625795E-3,1.1070879E-2],"split_indices":[0,2,0,10,0,2,2,0,10,0,2,8,8,0,2,0,0,0,0,0,0,0,0,0,0,0,0],"split_type":[0,0,0,0,0,0,0,0,0,0,0,0,0,0,0,0,0,0,0,0,0,0,0,0,0,0,0],"sum_hessian":[4.944511E3,2.1374602E3,2.8070508E3,7.56338E2,1.3811222E3,2.4026157E3,4.044351E2,1.364591E2,6.198789E2,4.8399002E2,8.971322E2,1.5806324E3,8.219832E2,1.6028757E2,2.4414754E2,1.9370631E2,4.261726E2,2.2132368E2,2.6266632E2,6.111128E2,2.8601944E2,1.2335244E3,3.47108E2,6.1780035E2,2.0418286E2,1.298476E2,1.14299934E2],"tree_param":{"num_deleted":"0","num_feature":"11","num_nodes":"27","size_leaf_vector":"1"}},{"base_weights":[3.2557148E-4,5.9560996E-2,-6.923501E-2,-5.9386317E-2,9.4212964E-2,-0E0,-7.5831907E-3,-0E0,-1.0368705E-2,2.272868E-1,6.266582E-2,-2.1760805E-2,9.55008E-3,-6.4972537E-3,1.4419192E-3,1.6981238E-2,2.8916127E-3,1.7787926E-4,9.711508E-3,-4.9886378E-3,2.6990518E-3],"categories":[],"categories_nodes":[],"categories_segments":[],"categories_sizes":[],"default_left":[0,0,0,0,0,0,0,0,0,0,0,0,0,0,0,0,0,0,0,0,0],"id":46,"left_children":[1,3,5,7,9,11,-1,13,-1,15,17,19,-1,-1,-1,-1,-1,-1,-1,-1,-1],"loss_changes":[1.9744974E1,1.1160698E1,8.18214E0,2.6598158E0,6.907217E0,3.5796745E0,0E0,1.4534754E0,0E0,8.000717E-1,8.664023E0,3.1507118E0,0E0,0E0,0E0,0E0,0E0,0E0,0E0,0E0,0E0],"parents":[2147483647,0,0,1,1,2,2,3,3,4,4,5,5,7,7,9,9,10,10,11,11],"right_children":[2,4,6,8,10,12,-1,14,-1,16,18,20,-1,-1,-1,-1,-1,-1,-1,-1,-1],"split_conditions":[1.3723406E-1,-8.099606E-4,2.617014E-3,9.916593E-2,5.9758775E-2,6.5391315E-3,-7.5831907E-3,-1.0336212E-2,-1.0368705E-2,2.0964532E-3,9.168937E-5,5.8932416E-4,9.55008E-3,-6.4972537E-3,1.4419192E-3,1.6981238E-2,2.8916127E-3,1.7787926E-4,9.711508E-3,-4.9886378E-3,2.6990518E-3],"split_indices":[1,9,3,1,1,7,0,7,0,3,7,9,0,0,0,0,0,0,0,0,0],"split_type":[0,0,0,0,0,0,0,0,0,0,0,0,0,0,0,0,0,0,0,0,0],"sum_hessian":[4.7716816E3,2.6215466E3,2.1501348E3,5.525588E2,2.0689878E3,8.8567633E2,1.2644585E3,3.96972E2,1.5558676E2,3.429359E2,1.7260519E3,7.6266003E2,1.2301634E2,1.0474044E2,2.9223154E2,2.4666142E2,9.627448E1,1.0907197E3,6.3533215E2,4.472801E2,3.153799E2],"tree_param":{"num_deleted":"0","num_feature":"11","num_nodes":"21","size_leaf_vector":"1"}},{"base_weights":[-2.4812596E-4,-3.82349E-2,6.1547E-2,8.005046E-3,-6.0191035E-2,-3.7851965E-3,7.996493E-2,-6.5067825E-3,4.7391754E-2,3.200785E-2,-7.673903E-2,2.1836534E-2,1.0720095E-1,6.217559E-3,-1.1242157E-4,-0E0,5.5217594E-3,-5.7864464E-3,5.012892E-3,-1.9112434E-3,5.59714E-3,7.835057E-3,-0E0],"categories":[],"categories_nodes":[],"categories_segments":[],"categories_sizes":[],"default_left":[0,0,0,0,0,0,0,0,0,0,0,0,0,0,0,0,0,0,0,0,0,0,0],"id":47,"left_children":[1,3,5,7,9,-1,11,-1,13,15,17,19,21,-1,-1,-1,-1,-1,-1,-1,-1,-1,-1],"loss_changes":[1.1427981E1,3.4501781E0,4.2650514E0,3.8602755E0,3.628686E0,0E0,1.8187809E0,0E0,2.402288E0,9.451684E-1,4.710456E0,2.4856658E0,1.9070349E0,0E0,0E0,0E0,0E0,0E0,0E0,0E0,0E0,0E0,0E0],"parents":[2147483647,0,0,1,1,2,2,3,3,4,4,6,6,8,8,9,9,10,10,11,11,12,12],"right_children":[2,4,6,8,10,-1,12,-1,14,16,18,20,22,-1,-1,-1,-1,-1,-1,-1,-1,-1,-1],"split_conditions":[3.0983665E-3,1.478719E-3,-1.2513743E-3,3.695737E1,-8.266633E-4,-3.7851965E-3,3.9757956E-3,-6.5067825E-3,2.3292596E-4,-1.193547E-3,7.900748E-3,5.2400837E1,7.096774E1,6.217559E-3,-1.1242157E-4,-0E0,5.5217594E-3,-5.7864464E-3,5.012892E-3,-1.9112434E-3,5.59714E-3,7.835057E-3,-0E0],"split_indices":[3,4,9,8,9,0,3,0,9,9,4,8,8,0,0,0,0,0,0,0,0,0,0],"split_type":[0,0,0,0,0,0,0,0,0,0,0,0,0,0,0,0,0,0,0,0,0,0,0],"sum_hessian":[4.890212E3,3.0881433E3,1.8020684E3,9.16162E2,2.1719814E3,1.9234135E2,1.6097269E3,1.9551602E2,7.2064594E2,2.770399E2,1.8949415E3,5.8826483E2,1.02146216E3,3.9973398E2,3.2091196E2,1.315482E2,1.454917E2,1.7664215E3,1.2852E2,2.892644E2,2.9900046E2,8.776237E2,1.4383844E2],"tree_param":{"num_deleted":"0","num_feature":"11","num_nodes":"23","size_leaf_vector":"1"}},{"base_weights":[4.3277084E-3,-5.9540663E-2,4.724371E-2,-8.213981E-2,5.965089E-2,5.734447E-2,-3.212586E-2,5.2360978E-2,-1.08760476E-1,-7.7758887E-4,9.356184E-3,1.3538878E-1,3.912905E-2,-4.881327E-3,-0E0,6.5997397E-3,-0E0,-1.1655677E-2,-5.263838E-3,-0E0,1.074982E-2,7.688832E-3,1.2215142E-3],"categories":[],"categories_nodes":[],"categories_segments":[],"categories_sizes":[],"default_left":[0,0,0,0,0,0,0,0,0,0,0,0,0,0,0,0,0,0,0,0,0,0,0],"id":48,"left_children":[1,3,5,7,9,11,13,15,17,-1,-1,19,21,-1,-1,-1,-1,-1,-1,-1,-1,-1,-1],"loss_changes":[1.3446369E1,5.405373E0,2.5760107E0,6.3827505E0,2.5669534E0,2.822278E0,8.4201324E-1,7.831273E-1,1.0032864E0,0E0,0E0,1.7690363E0,2.9297848E0,0E0,0E0,0E0,0E0,0E0,0E0,0E0,0E0,0E0,0E0],"parents":[2147483647,0,0,1,1,2,2,3,3,4,4,5,5,6,6,7,7,8,8,11,11,12,12],"right_children":[2,4,6,8,10,12,14,16,18,-1,-1,20,22,-1,-1,-1,-1,-1,-1,-1,-1,-1,-1],"split_conditions":[2.497594E-3,4.669813E-3,8.771181E-3,5.7059136E-4,-4.5360243E-1,-9.871701E-4,5.44211E-1,1.5910219E-3,1.1836374E-3,-7.7758887E-4,9.356184E-3,3.0512756E-3,1.6167902E-3,-4.881327E-3,-0E0,6.5997397E-3,-0E0,-1.1655677E-2,-5.263838E-3,-0E0,1.074982E-2,7.688832E-3,1.2215142E-3],"split_indices":[0,4,4,4,10,9,10,3,4,0,0,0,3,0,0,0,0,0,0,0,0,0,0],"split_type":[0,0,0,0,0,0,0,0,0,0,0,0,0,0,0,0,0,0,0,0,0,0,0],"sum_hessian":[4.896885E3,1.9133943E3,2.9834902E3,1.6519745E3,2.6141977E2,2.7128809E3,2.7060947E2,2.3578981E2,1.4161847E3,1.1781358E2,1.436062E2,4.353651E2,2.2775156E3,1.7291751E2,9.769195E1,1.17725525E2,1.18064285E2,2.705667E2,1.145618E3,1.06815445E2,3.2854968E2,3.6706036E2,1.9104553E3],"tree_param":{"num_deleted":"0","num_feature":"11","num_nodes":"23","size_leaf_vector":"1"}},{"base_weights":[1.3907099E-2,1.18415214E-1,-6.795535E-2,-6.6029043E-3,1.3715675E-1,-1.0982224E-2,-1.361445E-1,1.8244414E-1,5.435265E-2,-7.8972496E-2,6.332651E-2,-0E0,-1.4939246E-1,-2.6739066E-4,1.2851651E-2,-6.010998E-4,6.1432123E-3,-9.179814E-3,-8.623116E-4,1.208833E-3,1.5102445E-2,-1.0391631E-2,-0E0],"categories":[],"categories_nodes":[],"categories_segments":[],"categories_sizes":[],"default_left":[0,0,0,0,0,0,0,0,0,0,0,0,0,0,0,0,0,0,0,0,0,0,0],"id":49,"left_children":[1,3,5,-1,7,9,11,13,15,17,19,-1,21,-1,-1,-1,-1,-1,-1,-1,-1,-1,-1],"loss_changes":[4.130274E1,9.35248E0,9.494457E0,0E0,6.0188675E0,7.8098407E0,2.256134E0,6.1325684E0,2.640407E0,2.7250848E0,3.878291E0,0E0,2.5280342E0,0E0,0E0,0E0,0E0,0E0,0E0,0E0,0E0,0E0,0E0],"parents":[2147483647,0,0,1,1,2,2,4,4,5,5,6,6,7,7,8,8,9,9,10,10,12,12],"right_children":[2,4,6,-1,8,10,12,14,16,18,20,-1,22,-1,-1,-1,-1,-1,-1,-1,-1,-1,-1],"split_conditions":[2.5575643E-3,6.8007326E-1,3.5140305E-3,-6.6029043E-3,2.1759933E-3,1.0390116E0,1.0548301E-2,4.12606E-3,8.756101E-3,1.1312602E-2,2.1705212E-2,-0E0,1.3348206E-2,-2.6739066E-4,1.2851651E-2,-6.010998E-4,6.1432123E-3,-9.179814E-3,-8.623116E-4,1.208833E-3,1.5102445E-2,-1.0391631E-2,-0E0],"split_indices":[0,2,0,0,0,2,5,5,5,5,5,0,6,0,0,0,0,0,0,0,0,0,0],"split_type":[0,0,0,0,0,0,0,0,0,0,0,0,0,0,0,0,0,0,0,0,0,0,0],"sum_hessian":[4.7626562E3,2.118529E3,2.6441272E3,1.3518964E2,1.9833394E3,1.4954684E3,1.1486588E3,1.2257833E3,7.57556E2,8.194437E2,6.760247E2,9.642268E1,1.0522362E3,1.0176977E2,1.1240135E3,2.5881525E2,4.987408E2,3.5288464E2,4.6655905E2,5.807207E2,9.5304016E1,9.526909E2,9.954523E1],"tree_param":{"num_deleted":"0","num_feature":"11","num_nodes":"23","size_leaf_vector":"1"}},{"base_weights":[-2.6758169E-3,-7.968057E-2,2.8684363E-2,-1.4960009E-1,-4.521603E-2,4.965853E-2,-6.0155567E-2,-1.2335672E-2,-6.8134745E-4,1.3457856E-2,-9.6397E-2,2.5581045E-2,1.5862236E-2,-0E0,-1.0229255E-1,-1.0782422E-3,7.876731E-3,-7.738954E-3,-0E0,1.684928E-2,6.9685205E-4,-1.9951502E-3,2.276434E-3,-0E0,-7.84117E-3],"categories":[],"categories_nodes":[],"categories_segments":[],"categories_sizes":[],"default_left":[0,0,0,0,0,0,0,0,0,0,0,0,0,0,0,0,0,0,0,0,0,0,0,0,0],"id":50,"left_children":[1,3,5,7,9,11,13,-1,-1,15,17,19,-1,21,23,-1,-1,-1,-1,-1,-1,-1,-1,-1,-1],"loss_changes":[1.2206153E1,2.3709688E0,6.4351425E0,1.5641623E0,3.690903E0,1.226029E1,1.6539216E0,0E0,0E0,2.2111268E0,1.8964076E0,7.5215664E0,0E0,3.2342678E-1,2.2248268E-1,0E0,0E0,0E0,0E0,0E0,0E0,0E0,0E0,0E0,0E0],"parents":[2147483647,0,0,1,1,2,2,3,3,4,4,5,5,6,6,9,9,10,10,11,11,13,13,14,14],"right_children":[2,4,6,8,10,12,14,-1,-1,16,18,20,-1,22,24,-1,-1,-1,-1,-1,-1,-1,-1,-1,-1],"split_conditions":[1.7294533E-3,3.8244514E1,1.3514185E0,1.3834448E-3,9.1183865E-5,8.129796E-4,6.9981804E1,-1.2335672E-2,-6.8134745E-4,1.0126951E0,9.6722477E-4,7.210846E-1,1.5862236E-2,1.0351037E0,7.7088486E-4,-1.0782422E-3,7.876731E-3,-7.738954E-3,-0E0,1.684928E-2,6.9685205E-4,-1.9951502E-3,2.276434E-3,-0E0,-7.84117E-3],"split_indices":[3,8,10,3,9,9,8,0,0,2,9,2,0,2,9,0,0,0,0,0,0,0,0,0,0],"split_type":[0,0,0,0,0,0,0,0,0,0,0,0,0,0,0,0,0,0,0,0,0,0,0,0,0],"sum_hessian":[4.904789E3,1.4632767E3,3.4415125E3,4.1152777E2,1.051749E3,2.8407407E3,6.007718E2,2.7350662E2,1.3802116E2,4.4513535E2,6.0661365E2,2.579752E3,2.6098877E2,2.45836E2,3.5493576E2,3.2137604E2,1.2375931E2,4.9263446E2,1.139792E2,1.07951515E2,2.4718003E3,1.19293495E2,1.265425E2,1.0633177E2,2.4860399E2],"tree_param":{"num_deleted":"0","num_feature":"11","num_nodes":"25","size_leaf_vector":"1"}},{"base_weights":[-0E0,-3.732928E-2,2.3364026E-2,8.97339E-3,-5.499255E-2,3.732678E-2,-4.561103E-2,-7.346356E-2,7.1590613E-3,1.001421E-1,2.3466233E-2,-8.617146E-3,6.664352E-3,-0E0,-5.6409556E-3,-0E0,1.0413557E-2,-1.7174497E-3,3.5201386E-3,5.8476375E-3,-2.4164629E-3],"categories":[],"categories_nodes":[],"categories_segments":[],"categories_sizes":[],"default_left":[0,0,0,0,0,0,0,0,0,0,0,0,0,0,0,0,0,0,0,0,0],"id":51,"left_children":[1,3,5,-1,7,9,11,13,-1,15,17,-1,19,-1,-1,-1,-1,-1,-1,-1,-1],"loss_changes":[4.2536554E0,5.5512486E0,2.9141114E0,0E0,5.31667E0,1.5444884E0,2.8979292E0,2.1702347E0,0E0,2.9760728E0,3.8533032E0,0E0,1.3905843E0,0E0,0E0,0E0,0E0,0E0,0E0,0E0,0E0],"parents":[2147483647,0,0,1,1,2,2,4,4,5,5,6,6,7,7,9,9,10,10,12,12],"right_children":[2,4,6,-1,8,10,12,14,-1,16,18,-1,20,-1,-1,-1,-1,-1,-1,-1,-1],"split_conditions":[1.0180112E-2,4.3177693E-3,7.5871716E-3,8.97339E-3,5.199125E-3,-1.0951206E-3,2.2054233E-2,5.929754E-4,7.1590613E-3,-7.259513E-3,-1.4959004E-4,-8.617146E-3,1.000605E-2,-0E0,-5.6409556E-3,-0E0,1.0413557E-2,-1.7174497E-3,3.5201386E-3,5.8476375E-3,-2.4164629E-3],"split_indices":[5,5,4,0,4,9,5,4,0,7,9,0,4,0,0,0,0,0,0,0,0],"split_type":[0,0,0,0,0,0,0,0,0,0,0,0,0,0,0,0,0,0,0,0,0],"sum_hessian":[4.8709185E3,1.8433765E3,3.027542E3,1.2623086E2,1.7171456E3,2.591208E3,4.3633408E2,1.5858124E3,1.3133328E2,3.7719476E2,2.2140132E3,1.8790843E2,2.4842564E2,2.5357826E2,1.3322341E3,1.4046121E2,2.3673354E2,7.974093E2,1.4166039E3,1.2154959E2,1.2687605E2],"tree_param":{"num_deleted":"0","num_feature":"11","num_nodes":"21","size_leaf_vector":"1"}},{"base_weights":[-3.2158202E-4,1.3393365E-1,-5.6119557E-2,-4.9385715E-2,1.860063E-1,1.08658955E-1,-6.992087E-2,-9.574677E-3,1.1371436E-3,-0E0,2.0661694E-1,1.1802146E-2,-0E0,-4.147504E-2,-1.209891E-1,1.9750986E-2,7.2252327E-3,-6.6319355E-3,-9.2531106E-4,-8.9543555E-3,-2.6201159E-3],"categories":[],"categories_nodes":[],"categories_segments":[],"categories_sizes":[],"default_left":[0,0,0,0,0,0,0,0,0,0,0,0,0,0,0,0,0,0,0,0,0],"id":52,"left_children":[1,3,5,7,9,11,13,-1,-1,-1,15,-1,-1,17,19,-1,-1,-1,-1,-1,-1],"loss_changes":[3.5836514E1,1.4202124E1,7.755457E0,2.8492563E0,4.6313667E0,1.9710534E0,3.6969814E0,0E0,0E0,0E0,6.9409103E0,0E0,0E0,3.009429E0,6.8688774E-1,0E0,0E0,0E0,0E0,0E0,0E0],"parents":[2147483647,0,0,1,1,2,2,3,3,4,4,5,5,6,6,10,10,13,13,14,14],"right_children":[2,4,6,8,10,12,14,-1,-1,-1,16,-1,-1,18,20,-1,-1,-1,-1,-1,-1],"split_conditions":[2.186852E-3,7.719858E-1,6.551717E-2,-5.859141E-5,4.432648E-3,1.9540383E-2,3.563535E-3,-9.574677E-3,1.1371436E-3,-0E0,1.8189728E-3,1.1802146E-2,-0E0,9.000814E-3,2.4604596E-2,1.9750986E-2,7.2252327E-3,-6.6319355E-3,-9.2531106E-4,-8.9543555E-3,-2.6201159E-3],"split_indices":[0,2,1,9,5,5,0,0,0,0,0,0,0,5,5,0,0,0,0,0,0],"split_type":[0,0,0,0,0,0,0,0,0,0,0,0,0,0,0,0,0,0,0,0,0],"sum_hessian":[4.808206E3,1.375562E3,3.4326443E3,2.808786E2,1.0946833E3,2.2532437E2,3.2073198E3,1.357827E2,1.4509589E2,1.0217205E2,9.9251135E2,1.2086712E2,1.04457245E2,2.1491826E3,1.0581373E3,4.1220935E2,5.80302E2,5.596172E2,1.5895653E3,7.6971545E2,2.8842188E2],"tree_param":{"num_deleted":"0","num_feature":"11","num_nodes":"21","size_leaf_vector":"1"}},{"base_weights":[-1.7002489E-3,-5.6790948E-2,3.0985916E-2,-8.035864E-2,6.1584722E-2,7.231374E-2,-2.8538354E-2,-0E0,-9.696303E-2,5.742654E-3,-0E0,-0E0,1.0107851E-1,-1.0059864E-2,-9.007155E-3,-2.7099983E-3,3.765186E-3,-7.0227236E-3,-0E0,-2.5165777E-3,4.389922E-3,7.505702E-3,1.6483862E-3,-3.3575997E-3,1.1054196E-3],"categories":[],"categories_nodes":[],"categories_segments":[],"categories_sizes":[],"default_left":[0,0,0,0,0,0,0,0,0,0,0,0,0,0,0,0,0,0,0,0,0,0,0,0,0],"id":53,"left_children":[1,3,5,7,9,11,13,15,17,-1,-1,19,21,23,-1,-1,-1,-1,-1,-1,-1,-1,-1,-1,-1],"loss_changes":[9.078252E0,5.517609E0,7.7841587E0,2.5654297E0,5.036565E-1,4.333144E0,1.6788905E0,7.6986706E-1,1.7756844E0,0E0,0E0,1.305131E0,1.0050344E0,1.5266923E0,0E0,0E0,0E0,0E0,0E0,0E0,0E0,0E0,0E0,0E0,0E0],"parents":[2147483647,0,0,1,1,2,2,3,3,4,4,5,5,6,6,7,7,8,8,11,11,12,12,13,13],"right_children":[2,4,6,8,10,12,14,16,18,-1,-1,20,22,24,-1,-1,-1,-1,-1,-1,-1,-1,-1,-1,-1],"split_conditions":[1.1299206E-1,3.8458705E-3,8.579294E-1,-8.135404E-3,9.3369424E-2,-6.423536E-1,1.4358263E-2,-1.0867872E-2,2.116256E-3,5.742654E-3,-0E0,2.0332364E-2,3.7837534E-3,1.269845E-2,-9.007155E-3,-2.7099983E-3,3.765186E-3,-7.0227236E-3,-0E0,-2.5165777E-3,4.389922E-3,7.505702E-3,1.6483862E-3,-3.3575997E-3,1.1054196E-3],"split_indices":[1,3,10,6,1,10,6,6,6,0,0,5,6,5,0,0,0,0,0,0,0,0,0,0,0],"split_type":[0,0,0,0,0,0,0,0,0,0,0,0,0,0,0,0,0,0,0,0,0,0,0,0,0],"sum_hessian":[4.928944E3,1.8941694E3,3.0347742E3,1.6232802E3,2.7088937E2,1.8441571E3,1.1906172E3,2.4070242E2,1.3825776E3,1.7514153E2,9.5747856E1,4.8427686E2,1.3598802E3,1.0825199E3,1.08097336E2,1.04828766E2,1.3587366E2,1.1844746E3,1.9810307E2,3.5406342E2,1.3021344E2,1.0277554E3,3.3212485E2,4.9421E2,5.883099E2],"tree_param":{"num_deleted":"0","num_feature":"11","num_nodes":"25","size_leaf_vector":"1"}},{"base_weights":[2.0473673E-4,-1.6088469E-2,6.4044416E-2,7.8937866E-2,-2.7540991E-2,8.717688E-2,-0E0,-0E0,9.862879E-3,-3.791137E-2,1.2082292E-2,1.3703878E-1,-0E0,-4.2506687E-2,8.751166E-3,-1.6250149E-3,-1.1329423E-2,2.8683706E-3,-2.7630052E-3,4.114642E-3,1.4964972E-2,-2.7328292E-3,1.7624153E-3,-6.4056483E-3,-0E0],"categories":[],"categories_nodes":[],"categories_segments":[],"categories_sizes":[],"default_left":[0,0,0,0,0,0,0,0,0,0,0,0,0,0,0,0,0,0,0,0,0,0,0,0,0],"id":54,"left_children":[1,3,5,7,9,11,13,-1,-1,15,17,19,21,23,-1,-1,-1,-1,-1,-1,-1,-1,-1,-1,-1],"loss_changes":[5.4110656E0,3.9634848E0,1.1781511E0,2.1718829E0,1.5972762E0,3.3431082E0,2.6617286E0,0E0,0E0,3.7738094E0,1.2245834E0,1.4872131E0,3.7220836E-1,9.5178676E-1,0E0,0E0,0E0,0E0,0E0,0E0,0E0,0E0,0E0,0E0,0E0],"parents":[2147483647,0,0,1,1,2,2,3,3,4,4,5,5,6,6,9,9,10,10,11,11,12,12,13,13],"right_children":[2,4,6,8,10,12,14,-1,-1,16,18,20,22,24,-1,-1,-1,-1,-1,-1,-1,-1,-1,-1,-1],"split_conditions":[1.999733E-1,-1.193547E-3,9.555759E-3,-6.2744054E-3,3.935268E-3,9.988785E-4,1.5107814E-2,-0E0,9.862879E-3,6.639073E1,7.130055E1,5.602197E-3,2.5155595E-1,2.5787333E-1,8.751166E-3,-1.6250149E-3,-1.1329423E-2,2.8683706E-3,-2.7630052E-3,4.114642E-3,1.4964972E-2,-2.7328292E-3,1.7624153E-3,-6.4056483E-3,-0E0],"split_indices":[1,9,6,6,6,9,6,0,0,8,8,6,1,1,0,0,0,0,0,0,0,0,0,0,0],"split_type":[0,0,0,0,0,0,0,0,0,0,0,0,0,0,0,0,0,0,0,0,0,0,0,0,0],"sum_hessian":[4.9128223E3,3.8544812E3,1.058341E3,3.518318E2,3.5026494E3,7.1855676E2,3.3978418E2,1.8625415E2,1.6557764E2,2.8878115E3,6.148377E2,4.588945E2,2.5966226E2,2.4282826E2,9.695591E1,2.7149788E3,1.7283298E2,4.4885495E2,1.6598273E2,3.1614435E2,1.4275014E2,1.1327203E2,1.4639024E2,1.2071109E2,1.2211718E2],"tree_param":{"num_deleted":"0","num_feature":"11","num_nodes":"25","size_leaf_vector":"1"}},{"base_weights":[-7.7891746E-3,5.2622475E-2,-8.601638E-2,-8.092059E-3,6.930398E-2,-1.314803E-1,-0E0,1.5257642E-1,3.9307132E-2,-6.916055E-2,-1.9973743E-1,5.2497193E-2,-4.5701087E-2,1.12008555E-2,-0E0,2.8445097E-4,1.1832191E-2,-5.5666044E-3,-0E0,-1.5564582E-2,-5.6994553E-3,-0E0,1.0239871E-2,-4.885328E-3,5.2737934E-5],"categories":[],"categories_nodes":[],"categories_segments":[],"categories_sizes":[],"default_left":[0,0,0,0,0,0,0,0,0,0,0,0,0,0,0,0,0,0,0,0,0,0,0,0,0],"id":55,"left_children":[1,3,5,-1,7,9,11,13,15,17,19,21,23,-1,-1,-1,-1,-1,-1,-1,-1,-1,-1,-1,-1],"loss_changes":[2.2894873E1,7.8933268E0,8.095355E0,0E0,5.043998E0,4.151684E0,1.8712993E0,1.6033573E0,8.732057E0,1.0507233E0,8.975582E-1,2.8202276E0,1.0783451E0,0E0,0E0,0E0,0E0,0E0,0E0,0E0,0E0,0E0,0E0,0E0,0E0],"parents":[2147483647,0,0,1,1,2,2,4,4,5,5,6,6,7,7,8,8,9,9,10,10,11,11,12,12],"right_children":[2,4,6,-1,8,10,12,14,16,18,20,22,24,-1,-1,-1,-1,-1,-1,-1,-1,-1,-1,-1,-1],"split_conditions":[1.3723406E-1,-1.4793519E-2,6.715141E1,-8.092059E-3,6.551717E-2,1.8836829E-1,2.0845896E-1,-6.058243E-4,5.862661E1,1.7355771E-1,6.563524E-1,1.397555E-2,2.7202966E-2,1.12008555E-2,-0E0,2.8445097E-4,1.1832191E-2,-5.5666044E-3,-0E0,-1.5564582E-2,-5.6994553E-3,-0E0,1.0239871E-2,-4.885328E-3,5.2737934E-5],"split_indices":[1,7,8,0,1,1,1,7,8,1,10,5,5,0,0,0,0,0,0,0,0,0,0,0,0],"split_type":[0,0,0,0,0,0,0,0,0,0,0,0,0,0,0,0,0,0,0,0,0,0,0,0,0],"sum_hessian":[4.7727554E3,2.6560251E3,2.11673E3,1.8651544E2,2.4695098E3,1.3647206E3,7.520095E2,5.869143E2,1.8825955E3,7.7346844E2,5.9125214E2,3.296582E2,4.223513E2,4.783849E2,1.0852941E2,1.569548E3,3.130475E2,6.017616E2,1.7170682E2,3.6229788E2,2.2895425E2,2.0348483E2,1.2617338E2,3.1501514E2,1.07336136E2],"tree_param":{"num_deleted":"0","num_feature":"11","num_nodes":"25","size_leaf_vector":"1"}},{"base_weights":[-4.161144E-3,2.00359E-1,-1.7282305E-2,1.961616E-2,-0E0,-1.8765941E-1,2.923862E-3,-1.154806E-1,-2.1304356E-2,-8.927704E-3,1.4556672E-1,-1.2714885E-2,-0E0,1.8042983E-3,-3.5975317E-3,1.3675761E-2,-0E0],"categories":[],"categories_nodes":[],"categories_segments":[],"categories_sizes":[],"default_left":[0,0,0,0,0,0,0,0,0,0,0,0,0,0,0,0,0],"id":56,"left_children":[1,3,5,-1,-1,7,9,11,-1,13,15,-1,-1,-1,-1,-1,-1],"loss_changes":[1.2053145E1,4.24969E0,1.6864021E1,0E0,0E0,2.4456844E0,7.707884E0,3.9923372E0,0E0,6.9982095E0,2.6267996E0,0E0,0E0,0E0,0E0,0E0,0E0],"parents":[2147483647,0,0,1,1,2,2,5,5,6,6,7,7,9,9,10,10],"right_children":[2,4,6,-1,-1,8,10,12,-1,14,16,-1,-1,-1,-1,-1,-1],"split_conditions":[7.1520615E-1,5.1760563E1,1.8476932E-3,1.961616E-2,-0E0,1.0085651E0,8.304794E-3,1.6073128E-3,-2.1304356E-2,3.0288987E-3,5.5908585E1,-1.2714885E-2,-0E0,1.8042983E-3,-3.5975317E-3,1.3675761E-2,-0E0],"split_indices":[2,8,0,0,0,2,4,0,0,4,8,0,0,0,0,0,0],"split_type":[0,0,0,0,0,0,0,0,0,0,0,0,0,0,0,0,0],"sum_hessian":[4.832505E3,2.5148454E2,4.5810205E3,1.3814935E2,1.1333518E2,5.0022348E2,4.080797E3,3.8296793E2,1.1725555E2,3.7461902E3,3.3460693E2,2.1210733E2,1.7086061E2,2.043914E3,1.7022762E3,1.9696426E2,1.3764268E2],"tree_param":{"num_deleted":"0","num_feature":"11","num_nodes":"17","size_leaf_vector":"1"}},{"base_weights":[6.208484E-3,-3.8963335E-3,1.007614E-1,-8.132483E-2,1.9140658E-4,1.0073065E-2,2.5789281E-2,-0E0,-9.560303E-3,4.4584975E-2,-1.5050725E-2,-1.9409694E-3,6.02402E-3,-0E0,7.6246783E-3,-2.3154845E-3,1.1136389E-3],"categories":[],"categories_nodes":[],"categories_segments":[],"categories_sizes":[],"default_left":[0,0,0,0,0,0,0,0,0,0,0,0,0,0,0,0,0],"id":57,"left_children":[1,3,5,7,9,-1,11,-1,-1,13,15,-1,-1,-1,-1,-1,-1],"loss_changes":[5.240606E0,1.8447782E0,1.2422328E0,2.2070405E0,2.9704192E0,0E0,1.5727715E0,0E0,0E0,4.093567E0,2.2445831E0,0E0,0E0,0E0,0E0,0E0,0E0],"parents":[2147483647,0,0,1,1,2,2,3,3,4,4,6,6,9,9,10,10],"right_children":[2,4,6,8,10,-1,12,-1,-1,14,16,-1,-1,-1,-1,-1,-1],"split_conditions":[5.618276E-3,4.6734296E-2,4.6691177E1,3.159214E-2,-7.2524905E-1,1.0073065E-2,5.9053196E1,-0E0,-9.560303E-3,1.0405578E-1,8.9284414E-1,-1.9409694E-3,6.02402E-3,-0E0,7.6246783E-3,-2.3154845E-3,1.1136389E-3],"split_indices":[3,1,8,1,10,0,8,0,0,1,10,0,0,0,0,0,0],"split_type":[0,0,0,0,0,0,0,0,0,0,0,0,0,0,0,0,0],"sum_hessian":[4.8981133E3,4.386517E3,5.115962E2,2.7236685E2,4.1141504E3,2.3397702E2,2.7761917E2,1.1024055E2,1.621263E2,1.1365205E3,2.9776296E3,1.14539986E2,1.630792E2,7.173698E2,4.191507E2,1.8910493E3,1.0865803E3],"tree_param":{"num_deleted":"0","num_feature":"11","num_nodes":"17","size_leaf_vector":"1"}},{"base_weights":[-2.8296988E-4,2.9805418E-2,-9.631419E-2,8.583699E-3,1.5564382E-1,-1.4612547E-1,-6.543855E-4,1.2232844E-1,-2.3612112E-2,-0E0,2.336265E-1,-1.5391621E-2,-1.0125336E-1,-9.043463E-2,6.042149E-3,-2.7919854E-3,9.998889E-3,-4.9160277E-3,2.1358997E-4,2.3303414E-2,8.382814E-3,-0E0,-8.317107E-3,-0E0,-1.0702293E-2],"categories":[],"categories_nodes":[],"categories_segments":[],"categories_sizes":[],"default_left":[0,0,0,0,0,0,0,0,0,0,0,0,0,0,0,0,0,0,0,0,0,0,0,0,0],