{"learner":{"attributes":{"scikit_learn":"{\"_estimator_type\": \"classifier\"}"},"feature_names":["atr_14","vol_ratio_lag3","normalised_ema50","bb_width","rsi_14","macd_hist","vol_ratio_lag4","hl_spread","vol_ratio_lag1","vol_ratio","bb_position"],"feature_types":["float","float","float","float","float","float","float","float","float","float","float"],"gradient_booster":{"model":{"cats":{"enc":[],"feature_segments":[],"sorted_idx":[]},"gbtree_model_param":{"num_parallel_tree":"1","num_trees":"600"},"iteration_indptr":[0,3,6,9,12,15,18,21,24,27,30,33,36,39,42,45,48,51,54,57,60,63,66,69,72,75,78,81,84,87,90,93,96,99,102,105,108,111,114,117,120,123,126,129,132,135,138,141,144,147,150,153,156,159,162,165,168,171,174,177,180,183,186,189,192,195,198,201,204,207,210,213,216,219,222,225,228,231,234,237,240,243,246,249,252,255,258,261,264,267,270,273,276,279,282,285,288,291,294,297,300,303,306,309,312,315,318,321,324,327,330,333,336,339,342,345,348,351,354,357,360,363,366,369,372,375,378,381,384,387,390,393,396,399,402,405,408,411,414,417,420,423,426,429,432,435,438,441,444,447,450,453,456,459,462,465,468,471,474,477,480,483,486,489,492,495,498,501,504,507,510,513,516,519,522,525,528,531,534,537,540,543,546,549,552,555,558,561,564,567,570,573,576,579,582,585,588,591,594,597,600],"tree_info":[0,1,2,0,1,2,0,1,2,0,1,2,0,1,2,0,1,2,0,1,2,0,1,2,0,1,2,0,1,2,0,1,2,0,1,2,0,1,2,0,1,2,0,1,2,0,1,2,0,1,2,0,1,2,0,1,2,0,1,2,0,1,2,0,1,2,0,1,2,0,1,2,0,1,2,0,1,2,0,1,2,0,1,2,0,1,2,0,1,2,0,1,2,0,1,2,0,1,2,0,1,2,0,1,2,0,1,2,0,1,2,0,1,2,0,1,2,0,1,2,0,1,2,0,1,2,0,1,2,0,1,2,0,1,2,0,1,2,0,1,2,0,1,2,0,1,2,0,1,2,0,1,2,0,1,2,0,1,2,0,1,2,0,1,2,0,1,2,0,1,2,0,1,2,0,1,2,0,1,2,0,1,2,0,1,2,0,1,2,0,1,2,0,1,2,0,1,2,0,1,2,0,1,2,0,1,2,0,1,2,0,1,2,0,1,2,0,1,2,0,1,2,0,1,2,0,1,2,0,1,2,0,1,2,0,1,2,0,1,2,0,1,2,0,1,2,0,1,2,0,1,2,0,1,2,0,1,2,0,1,2,0,1,2,0,1,2,0,1,2,0,1,2,0,1,2,0,1,2,0,1,2,0,1,2,0,1,2,0,1,2,0,1,2,0,1,2,0,1,2,0,1,2,0,1,2,0,1,2,0,1,2,0,1,2,0,1,2,0,1,2,0,1,2,0,1,2,0,1,2,0,1,2,0,1,2,0,1,2,0,1,2,0,1,2,0,1,2,0,1,2,0,1,2,0,1,2,0,1,2,0,1,2,0,1,2,0,1,2,0,1,2,0,1,2,0,1,2,0,1,2,0,1,2,0,1,2,0,1,2,0,1,2,0,1,2,0,1,2,0,1,2,0,1,2,0,1,2,0,1,2,0,1,2,0,1,2,0,1,2,0,1,2,0,1,2,0,1,2,0,1,2,0,1,2,0,1,2,0,1,2,0,1,2,0,1,2,0,1,2,0,1,2,0,1,2,0,1,2,0,1,2,0,1,2,0,1,2,0,1,2,0,1,2,0,1,2,0,1,2,0,1,2,0,1,2,0,1,2,0,1,2,0,1,2,0,1,2,0,1,2,0,1,2,0,1,2,0,1,2,0,1,2,0,1,2,0,1,2,0,1,2,0,1,2,0,1,2,0,1,2,0,1,2,0,1,2,0,1,2,0,1,2,0,1,2,0,1,2,0,1,2,0,1,2,0,1,2,0,1,2,0,1,2,0,1,2,0,1,2,0,1,2,0,1,2,0,1,2,0,1,2,0,1,2,0,1,2,0,1,2,0,1,2,0,1,2,0,1,2],"trees":[{"base_weights":[-1.8731102E-3,-4.253196E-2,6.302087E-2,-9.432365E-2,6.048704E-4,5.0892923E-2,2.9507065E-1,-1.30162025E-2,-1.3275088E-1,-1.591813E-2,1.5340975E-1,1.0273359E-1,6.8365424E-3,4.3126747E-2,4.329668E-1,-1.4711019E-2,1.020899E-3,2.9694289E-2,-1.1818533E-2,-2.266509E-3,1.8927723E-2,1.863038E-2,-3.0876491E-3,2.9646408E-2,7.82983E-3,-2.2111882E-3,9.604954E-3,1.6752861E-2,-2.5255328E-2,5.193433E-2,2.0698145E-2],"categories":[],"categories_nodes":[],"categories_segments":[],"categories_sizes":[],"default_left":[0,0,0,0,0,0,0,0,0,0,0,0,0,0,0,0,0,0,0,0,0,0,0,0,0,0,0,0,0,0,0],"id":0,"left_children":[1,3,5,7,9,11,13,15,17,19,21,23,25,27,29,-1,-1,-1,-1,-1,-1,-1,-1,-1,-1,-1,-1,-1,-1,-1,-1],"loss_changes":[2.568873E1,1.3372906E1,1.0539493E1,8.496681E0,8.250226E0,8.142051E0,6.445614E0,3.5032368E0,5.6497955E0,7.567178E0,3.9870434E0,4.2468147E0,6.7282724E0,3.5646079E0,3.9033146E0,0E0,0E0,0E0,0E0,0E0,0E0,0E0,0E0,0E0,0E0,0E0,0E0,0E0,0E0,0E0,0E0],"parents":[2147483647,0,0,1,1,2,2,3,3,4,4,5,5,6,6,7,7,8,8,9,9,10,10,11,11,12,12,13,13,14,14],"right_children":[2,4,6,8,10,12,14,16,18,20,22,24,26,28,30,-1,-1,-1,-1,-1,-1,-1,-1,-1,-1,-1,-1,-1,-1,-1,-1],"split_conditions":[1.3442163E-2,7.495892E-1,1.48349125E-2,7.733489E-1,5.532227E-3,8.540459E-1,2.3423998E-2,3.255814E1,5.176397E-1,9.5603716E-1,9.290166E-1,-1.8794945E-3,2.3636723E-2,5.758537E-3,1.0782049E0,-1.4711019E-2,1.020899E-3,2.9694289E-2,-1.1818533E-2,-2.266509E-3,1.8927723E-2,1.863038E-2,-3.0876491E-3,2.9646408E-2,7.82983E-3,-2.2111882E-3,9.604954E-3,1.6752861E-2,-2.5255328E-2,5.193433E-2,2.0698145E-2],"split_indices":[3,1,2,8,2,9,3,4,9,10,9,5,3,7,9,0,0,0,0,0,0,0,0,0,0,0,0,0,0,0,0],"split_type":[0,0,0,0,0,0,0,0,0,0,0,0,0,0,0,0,0,0,0,0,0,0,0,0,0,0,0,0,0,0,0],"sum_hessian":[9.734041E3,5.9847095E3,3.7493315E3,2.7189954E3,3.265714E3,3.5642666E3,1.8506497E2,8.730546E2,1.8459407E3,2.9478542E3,3.1785968E2,1.6368597E3,1.927407E3,6.592645E1,1.1913852E2,1.17254906E2,7.557997E2,2.3074259E1,1.8228665E3,2.8216523E3,1.2620207E2,2.3592253E2,8.1937164E1,6.6397354E1,1.5704623E3,1.4725144E3,4.5489255E2,4.5677616E1,2.024884E1,6.0275616E1,5.8862907E1],"tree_param":{"num_deleted":"0","num_feature":"11","num_nodes":"31","size_leaf_vector":"1"}},{"base_weights":[7.33222E-3,1.3538682E-1,-1.5998644E-1,2.899697E-1,6.3513726E-2,-7.822347E-2,-2.2920945E-1,3.784496E-1,1.5140946E-1,1.667233E-1,-3.1424597E-2,-2.1880443E-1,-2.6175234E-2,-1.8717748E-1,-3.4775156E-1,-1.6470833E-2,3.5392784E-2,5.7833444E-2,9.525745E-3,5.5980436E-3,1.9646985E-2,8.328471E-3,-6.692322E-3,-1.9777877E-2,1.23695E-2,7.523761E-3,-5.6434344E-3,-2.6872254E-3,-1.7605202E-2,-2.4930393E-2,-4.2473294E-2],"categories":[],"categories_nodes":[],"categories_segments":[],"categories_sizes":[],"default_left":[0,0,0,0,0,0,0,0,0,0,0,0,0,0,0,0,0,0,0,0,0,0,0,0,0,0,0,0,0,0,0],"id":1,"left_children":[1,3,5,7,9,11,13,15,17,19,21,23,25,27,29,-1,-1,-1,-1,-1,-1,-1,-1,-1,-1,-1,-1,-1,-1,-1,-1],"loss_changes":[1.6401834E2,4.8159805E1,1.8766006E1,1.681211E1,2.9022062E1,1.113873E1,8.887047E0,1.829557E1,1.1118242E1,9.204769E0,9.455984E0,2.1137428E0,5.1382933E0,4.1150665E0,3.7347412E0,0E0,0E0,0E0,0E0,0E0,0E0,0E0,0E0,0E0,0E0,0E0,0E0,0E0,0E0,0E0,0E0],"parents":[2147483647,0,0,1,1,2,2,3,3,4,4,5,5,6,6,7,7,8,8,9,9,10,10,11,11,12,12,13,13,14,14],"right_children":[2,4,6,8,10,12,14,16,18,20,22,24,26,28,30,-1,-1,-1,-1,-1,-1,-1,-1,-1,-1,-1,-1,-1,-1,-1,-1],"split_conditions":[2.8442994E-3,1.9139391E-3,8.126893E-1,1.1323774E0,8.4320253E-1,7.5785255E-1,4.3162582E-3,3.6821846E-2,2.2018349E1,9.280453E-1,6.6872805E-1,7.853856E-1,3.1908997E-3,4.2790028E-1,1.846039E0,-1.6470833E-2,3.5392784E-2,5.7833444E-2,9.525745E-3,5.5980436E-3,1.9646985E-2,8.328471E-3,-6.692322E-3,-1.9777877E-2,1.23695E-2,7.523761E-3,-5.6434344E-3,-2.6872254E-3,-1.7605202E-2,-2.4930393E-2,-4.2473294E-2],"split_indices":[0,0,1,6,1,8,0,6,4,8,6,1,0,6,1,0,0,0,0,0,0,0,0,0,0,0,0,0,0,0,0],"split_type":[0,0,0,0,0,0,0,0,0,0,0,0,0,0,0,0,0,0,0,0,0,0,0,0,0,0,0,0,0,0,0],"sum_hessian":[7.6531235E3,4.335336E3,3.3177876E3,1.3749954E3,2.9603403E3,1.522093E3,1.7956947E3,8.380889E2,5.3690643E2,1.4180215E3,1.542319E3,4.1040247E2,1.1116906E3,1.3275564E3,4.681383E2,5.1851925E1,7.86237E2,3.6038925E1,5.0086752E2,5.5345496E2,8.6456647E2,4.1260895E2,1.12971E3,3.956927E2,1.4709766E1,2.883114E2,8.2337915E2,1.5114284E2,1.1764136E3,3.4678275E2,1.2135557E2],"tree_param":{"num_deleted":"0","num_feature":"11","num_nodes":"31","size_leaf_vector":"1"}},{"base_weights":[9.252937E-4,-1.5317182E-1,3.3128023E-2,-1.586125E-1,3.2413107E-1,7.883499E-3,1.0928668E-1,-2.1610384E-1,-1.18194945E-1,1.34596E-2,7.277789E-2,3.8576316E-2,-4.4302367E-2,1.2655057E-1,-1.2517715E-1,-2.3731176E-2,-1.0776711E-2,-1.235794E-2,5.7406416E-3,3.692076E-2,-3.4793504E-2,3.912867E-3,-1.88863E-2,-1.5424972E-2,-2.416026E-3,-4.477834E-6,1.2985324E-2,-1.7863672E-2,1.2541874E-2],"categories":[],"categories_nodes":[],"categories_segments":[],"categories_sizes":[],"default_left":[0,0,0,0,0,0,0,0,0,0,0,0,0,0,0,0,0,0,0,0,0,0,0,0,0,0,0,0,0],"id":2,"left_children":[1,3,5,7,9,11,13,15,17,19,-1,21,23,25,27,-1,-1,-1,-1,-1,-1,-1,-1,-1,-1,-1,-1,-1,-1],"loss_changes":[4.8412994E1,4.4306984E0,1.5513788E1,3.8504295E0,3.184533E0,9.711056E0,8.147305E0,3.8378334E0,4.9677734E0,2.5309236E0,0E0,7.4338174E0,4.885274E0,6.212387E0,3.2358754E0,0E0,0E0,0E0,0E0,0E0,0E0,0E0,0E0,0E0,0E0,0E0,0E0,0E0,0E0],"parents":[2147483647,0,0,1,1,2,2,3,3,4,4,5,5,6,6,7,7,8,8,9,9,11,11,12,12,13,13,14,14],"right_children":[2,4,6,8,10,12,14,16,18,20,-1,22,24,26,28,-1,-1,-1,-1,-1,-1,-1,-1,-1,-1,-1,-1,-1,-1],"split_conditions":[1.8946911E-3,1.0303357E-3,3.6762198E-3,1.1893347E-3,1.1391356E0,1.2112489E0,1.48349125E-2,1.4448754E0,1.3915218E0,1.2290037E-3,7.277789E-2,2.5712036E-2,3.0301544E-1,-1.2565295E-3,1.7467431E0,-2.3731176E-2,-1.0776711E-2,-1.235794E-2,5.7406416E-3,3.692076E-2,-3.4793504E-2,3.912867E-3,-1.88863E-2,-1.5424972E-2,-2.416026E-3,-4.477834E-6,1.2985324E-2,-1.7863672E-2,1.2541874E-2],"split_indices":[0,5,0,7,8,8,2,1,1,5,0,3,1,5,9,0,0,0,0,0,0,0,0,0,0,0,0,0,0],"split_type":[0,0,0,0,0,0,0,0,0,0,0,0,0,0,0,0,0,0,0,0,0,0,0,0,0,0,0,0,0],"sum_hessian":[9.754044E3,1.6853792E3,8.0686646E3,1.6670446E3,1.833467E1,6.060783E3,2.0078813E3,6.8637476E2,9.8066974E2,1.2223112E1,6.111556E0,3.816432E3,2.2443516E3,1.8706063E3,1.3727496E2,4.0101212E2,2.8536267E2,8.5561786E2,1.2505184E2,6.111556E0,6.111556E0,3.711125E3,1.05306816E2,2.3176901E2,2.0125825E3,3.2109177E2,1.5495145E3,1.0483669E2,3.243826E1],"tree_param":{"num_deleted":"0","num_feature":"11","num_nodes":"29","size_leaf_vector":"1"}},{"base_weights":[1.2829085E-3,-6.48042E-2,5.335268E-2,-9.159695E-2,3.774705E-2,-2.614934E-3,9.6723855E-2,-2.2092279E-2,-1.3750683E-1,6.1971124E-2,-1.7783089E-1,-2.4925748E-2,1.2574835E-1,3.8102627E-1,8.90985E-2,9.990415E-3,-4.547904E-3,-5.437464E-3,-1.4857793E-2,7.0639364E-3,-1.0568231E-2,-3.0995194E-2,6.0154186E-3,5.6614652E-2,-2.3504945E-3,3.530007E-3,2.2917617E-2,3.974931E-2,-2.6317429E-2,6.816218E-3,2.6800515E-2],"categories":[],"categories_nodes":[],"categories_segments":[],"categories_sizes":[],"default_left":[0,0,0,0,0,0,0,0,0,0,0,0,0,0,0,0,0,0,0,0,0,0,0,0,0,0,0,0,0,0,0],"id":3,"left_children":[1,3,5,7,9,11,13,15,17,19,21,23,25,27,29,-1,-1,-1,-1,-1,-1,-1,-1,-1,-1,-1,-1,-1,-1,-1,-1],"loss_changes":[3.3637066E1,1.1839363E1,1.327146E1,1.08961735E1,4.6745014E0,6.842063E0,6.6438694E0,5.9707527E0,5.6290054E0,3.1741652E0,4.227431E0,3.8535795E0,4.2752085E0,4.9395056E0,6.0218487E0,0E0,0E0,0E0,0E0,0E0,0E0,0E0,0E0,0E0,0E0,0E0,0E0,0E0,0E0,0E0,0E0],"parents":[2147483647,0,0,1,1,2,2,3,3,4,4,5,5,6,6,7,7,8,8,9,9,10,10,11,11,12,12,13,13,14,14],"right_children":[2,4,6,8,10,12,14,16,18,20,22,24,26,28,30,-1,-1,-1,-1,-1,-1,-1,-1,-1,-1,-1,-1,-1,-1,-1,-1],"split_conditions":[2.5396496E-3,3.6535175E-3,7.598038E-1,5.742039E-1,9.923023E-4,2.3636723E-2,-2.1061513E-3,5.5007013E-3,1.4174721E-3,3.7485173E-3,2.328314E-3,4.9483906E-3,4.3130267E-4,4.7849927E-2,1.48349125E-2,9.990415E-3,-4.547904E-3,-5.437464E-3,-1.4857793E-2,7.0639364E-3,-1.0568231E-2,-3.0995194E-2,6.0154186E-3,5.6614652E-2,-2.3504945E-3,3.530007E-3,2.2917617E-2,3.974931E-2,-2.6317429E-2,6.816218E-3,2.6800515E-2],"split_indices":[0,2,1,8,5,3,5,3,7,7,0,3,5,3,2,0,0,0,0,0,0,0,0,0,0,0,0,0,0,0,0],"split_type":[0,0,0,0,0,0,0,0,0,0,0,0,0,0,0,0,0,0,0,0,0,0,0,0,0,0,0,0,0,0,0],"sum_hessian":[9.772972E3,4.306678E3,5.466293E3,3.414663E3,8.920151E2,2.3869863E3,3.079307E3,1.3588821E3,2.055781E3,8.0254694E2,8.9468094E1,2.0342238E3,3.5276245E2,7.915453E1,3.0001523E3,2.4906433E2,1.1098177E3,6.926343E2,1.3631466E3,7.212798E2,8.126714E1,5.0814888E1,3.8653206E1,7.0408096E0,2.027183E3,2.2332271E2,1.2943976E2,7.062095E1,8.5335865E0,2.8877874E3,1.1236505E2],"tree_param":{"num_deleted":"0","num_feature":"11","num_nodes":"31","size_leaf_vector":"1"}},{"base_weights":[-7.560768E-4,1.2357059E-1,-1.6600402E-1,2.6026672E-1,5.6649238E-2,-9.844531E-2,-2.4103835E-1,1.8364002E-1,3.9330047E-1,1.64094E-1,-2.6641775E-2,-4.5646567E-2,-1.8458374E-1,-1.9923131E-1,-3.071638E-1,-1.6980814E-2,1.7457882E-2,4.1057456E-2,1.709362E-2,2.9117543E-2,1.0098265E-2,7.360796E-3,-6.097379E-3,1.0225667E-2,-5.9095435E-3,1.0051335E-3,-1.8441744E-2,1.8638235E-2,-1.7769357E-2,-3.1556465E-2,-1.6184881E-2],"categories":[],"categories_nodes":[],"categories_segments":[],"categories_sizes":[],"default_left":[0,0,0,0,0,0,0,0,0,0,0,0,0,0,0,0,0,0,0,0,0,0,0,0,0,0,0,0,0,0,0],"id":4,"left_children":[1,3,5,7,9,11,13,15,17,19,21,23,25,27,29,-1,-1,-1,-1,-1,-1,-1,-1,-1,-1,-1,-1,-1,-1,-1,-1],"loss_changes":[1.5675748E2,3.981658E1,1.6582565E1,1.4512939E1,2.617525E1,7.83922E0,4.227646E0,7.6263695E0,8.90583E0,1.0282471E1,8.422344E0,4.2525854E0,4.1704617E0,3.9636726E0,4.411949E0,0E0,0E0,0E0,0E0,0E0,0E0,0E0,0E0,0E0,0E0,0E0,0E0,0E0,0E0,0E0,0E0],"parents":[2147483647,0,0,1,1,2,2,3,3,4,4,5,5,6,6,7,7,8,8,9,9,10,10,11,11,12,12,13,13,14,14],"right_children":[2,4,6,8,10,12,14,16,18,20,22,24,26,28,30,-1,-1,-1,-1,-1,-1,-1,-1,-1,-1,-1,-1,-1,-1,-1,-1],"split_conditions":[2.8442994E-3,1.9256356E-3,9.6227974E-1,1.0326016E0,7.324368E-1,8.126893E-1,3.9585046E-3,3.6821846E-2,1.0364803E0,3.0531174E-1,6.844442E-1,2.9875017E-3,2.9561136E1,3.4327492E-1,5.784903E1,-1.6980814E-2,1.7457882E-2,4.1057456E-2,1.709362E-2,2.9117543E-2,1.0098265E-2,7.360796E-3,-6.097379E-3,1.0225667E-2,-5.9095435E-3,1.0051335E-3,-1.8441744E-2,1.8638235E-2,-1.7769357E-2,-3.1556465E-2,-1.6184881E-2],"split_indices":[0,0,6,8,1,1,0,6,1,6,6,0,4,1,4,0,0,0,0,0,0,0,0,0,0,0,0,0,0,0,0],"split_type":[0,0,0,0,0,0,0,0,0,0,0,0,0,0,0,0,0,0,0,0,0,0,0,0,0,0,0,0,0,0,0],"sum_hessian":[7.628061E3,4.3531543E3,3.2749065E3,1.4297676E3,2.923387E3,1.7245155E3,1.550391E3,9.087265E2,5.21041E2,1.2761688E3,1.6472181E3,1.0701156E3,6.543999E2,9.5231433E2,5.980766E2,4.833604E1,8.6039044E2,3.541789E2,1.6686212E2,2.5698306E2,1.0191858E3,4.688582E2,1.17836E3,1.3409772E2,9.3601794E2,9.2700645E1,5.616992E2,2.1344172E1,9.3097015E2,3.8471664E2,2.1335997E2],"tree_param":{"num_deleted":"0","num_feature":"11","num_nodes":"31","size_leaf_vector":"1"}},{"base_weights":[3.8742693E-3,-1.4501612E-1,3.5470456E-2,-1.7950569E-1,-5.00233E-2,1.3132775E-2,1.0174158E-1,2.7794373E-1,-1.8966524E-1,-4.0575898E-1,-1.7832415E-2,4.5124874E-2,-4.1687354E-2,1.3052763E-1,-2.0129725E-2,-7.0212935E-3,4.0957887E-2,-1.680633E-2,2.3810472E-2,-4.4491436E-2,1.9563403E-2,3.0232002E-3,-1.5080666E-2,6.454615E-3,-1.1776484E-3,-2.3204202E-2,-2.6925504E-3,-1.1321977E-3,1.4062677E-2,6.211898E-2,-3.2117474E-3],"categories":[],"categories_nodes":[],"categories_segments":[],"categories_sizes":[],"default_left":[0,0,0,0,0,0,0,0,0,0,0,0,0,0,0,0,0,0,0,0,0,0,0,0,0,0,0,0,0,0,0],"id":5,"left_children":[1,3,5,7,9,11,13,15,17,19,21,23,25,27,29,-1,-1,-1,-1,-1,-1,-1,-1,-1,-1,-1,-1,-1,-1,-1,-1],"loss_changes":[4.6001713E1,5.599468E0,1.1939961E1,5.887535E0,5.2302117E0,1.0584715E1,7.136118E0,2.0750654E0,4.7060814E0,2.956962E0,3.58937E0,6.9265537E0,5.141396E0,8.264254E0,5.190169E0,0E0,0E0,0E0,0E0,0E0,0E0,0E0,0E0,0E0,0E0,0E0,0E0,0E0,0E0,0E0,0E0],"parents":[2147483647,0,0,1,1,2,2,3,3,4,4,5,5,6,6,7,7,8,8,9,9,10,10,11,11,12,12,13,13,14,14],"right_children":[2,4,6,8,10,12,14,16,18,20,22,24,26,28,30,-1,-1,-1,-1,-1,-1,-1,-1,-1,-1,-1,-1,-1,-1,-1,-1],"split_conditions":[1.9035863E-3,1.3854648E0,3.6762198E-3,-8.295947E-3,2.3337008E1,1.2112489E0,6.695508E1,1.3449994E-3,8.887218E1,1.8020058E-3,1.9661999E0,6.6325134E-1,-1.4023648E-3,-1.2565295E-3,-2.6019145E-4,-7.0212935E-3,4.0957887E-2,-1.680633E-2,2.3810472E-2,-4.4491436E-2,1.9563403E-2,3.0232002E-3,-1.5080666E-2,6.454615E-3,-1.1776484E-3,-2.3204202E-2,-2.6925504E-3,-1.1321977E-3,1.4062677E-2,6.211898E-2,-3.2117474E-3],"split_indices":[0,1,0,2,4,8,4,0,4,0,1,10,5,5,5,0,0,0,0,0,0,0,0,0,0,0,0,0,0,0,0],"split_type":[0,0,0,0,0,0,0,0,0,0,0,0,0,0,0,0,0,0,0,0,0,0,0,0,0,0,0,0,0,0,0],"sum_hessian":[9.776416E3,1.7108423E3,8.0655737E3,1.2544811E3,4.5636127E2,6.0331934E3,2.0323807E3,2.6682915E1,1.2277981E3,3.6906742E1,4.1945453E2,3.8099487E3,2.2232446E3,1.643997E3,3.8838376E2,9.854222E0,1.6828693E1,1.2076672E3,2.0130865E1,3.129316E1,5.613581E0,3.1487225E2,1.0458228E2,2.5023813E3,1.3075674E3,9.113597E1,2.1321086E3,3.212226E2,1.3227743E3,7.9937463E0,3.8039E2],"tree_param":{"num_deleted":"0","num_feature":"11","num_nodes":"31","size_leaf_vector":"1"}},{"base_weights":[4.056385E-3,-5.870103E-2,5.345318E-2,-8.095126E-2,7.003959E-2,3.2128688E-2,1.5713048E-1,-1.3458595E-1,-4.235184E-2,1.2598017E-1,-8.403204E-2,8.684265E-2,-1.0471705E-2,1.21701E-1,4.0303537E-1,1.2936989E-2,-1.317622E-2,8.854148E-3,-5.970562E-3,1.4288917E-2,-1.6004855E-2,5.1709738E-2,-9.860114E-3,6.326421E-3,2.7389783E-2,1.0668956E-2,-2.4936318E-3,1.4879903E-2,8.7444484E-4,4.9302932E-2,1.73017E-2],"categories":[],"categories_nodes":[],"categories_segments":[],"categories_sizes":[],"default_left":[0,0,0,0,0,0,0,0,0,0,0,0,0,0,0,0,0,0,0,0,0,0,0,0,0,0,0,0,0,0,0],"id":6,"left_children":[1,3,5,7,9,11,13,15,17,19,21,23,25,27,29,-1,-1,-1,-1,-1,-1,-1,-1,-1,-1,-1,-1,-1,-1,-1,-1],"loss_changes":[3.0166338E1,1.2282749E1,1.2033307E1,7.5607433E0,5.458711E0,1.053034E1,8.041519E0,8.981699E0,8.698098E0,6.176253E0,3.8108413E0,5.755102E0,6.5219183E0,4.8319407E0,3.995922E0,0E0,0E0,0E0,0E0,0E0,0E0,0E0,0E0,0E0,0E0,0E0,0E0,0E0,0E0,0E0,0E0],"parents":[2147483647,0,0,1,1,2,2,3,3,4,4,5,5,6,6,7,7,8,8,9,9,10,10,11,11,12,12,13,13,14,14],"right_children":[2,4,6,8,10,12,14,16,18,20,22,24,26,28,30,-1,-1,-1,-1,-1,-1,-1,-1,-1,-1,-1,-1,-1,-1,-1,-1],"split_conditions":[2.5396496E-3,4.7669876E-3,2.3636723E-2,6.993389E-1,7.9082695E1,8.540459E-1,1.48349125E-2,3.816202E-1,5.4264152E-3,3.7485173E-3,4.627083E-4,8.029631E-1,-1.0452853E-3,1.3875091E0,1.0782049E0,1.2936989E-2,-1.317622E-2,8.854148E-3,-5.970562E-3,1.4288917E-2,-1.6004855E-2,5.1709738E-2,-9.860114E-3,6.326421E-3,2.7389783E-2,1.0668956E-2,-2.4936318E-3,1.4879903E-2,8.7444484E-4,4.9302932E-2,1.73017E-2],"split_indices":[0,2,3,6,4,9,2,9,3,7,6,9,5,8,9,0,0,0,0,0,0,0,0,0,0,0,0,0,0,0,0],"split_type":[0,0,0,0,0,0,0,0,0,0,0,0,0,0,0,0,0,0,0,0,0,0,0,0,0,0,0,0,0,0,0],"sum_hessian":[9.729016E3,4.2849297E3,5.4440864E3,3.653813E3,6.311168E2,4.516447E3,9.2763934E2,1.5280581E3,2.125755E3,4.631411E2,1.6797572E2,1.976668E3,2.539779E3,8.1212494E2,1.1551441E2,1.01180275E2,1.4268778E3,3.394973E2,1.7862576E3,4.0880984E2,5.433129E1,6.617903E0,1.6135782E2,1.8788938E3,9.7774216E1,3.0872073E2,2.2310583E3,5.487523E2,2.6337265E2,6.0196163E1,5.531825E1],"tree_param":{"num_deleted":"0","num_feature":"11","num_nodes":"31","size_leaf_vector":"1"}},{"base_weights":[3.8530575E-3,1.3607909E-1,-1.3483575E-1,2.4542911E-1,7.131996E-2,-6.1057746E-2,-1.9857933E-1,3.1804013E-1,1.3184102E-1,1.8187821E-1,-5.667139E-3,4.4393327E-2,-1.2057811E-1,-1.6244607E-1,-3.1739363E-1,-1.3686111E-2,3.0023701E-2,2.8770551E-2,6.699104E-3,7.217478E-2,1.455362E-2,3.008711E-2,-1.3737225E-3,-4.225355E-3,1.4531865E-2,-6.368654E-3,-2.1392316E-2,-4.6058847E-3,-1.6358558E-2,-2.2575857E-2,-3.9957266E-2],"categories":[],"categories_nodes":[],"categories_segments":[],"categories_sizes":[],"default_left":[0,0,0,0,0,0,0,0,0,0,0,0,0,0,0,0,0,0,0,0,0,0,0,0,0,0,0,0,0,0,0],"id":7,"left_children":[1,3,5,7,9,11,13,15,17,19,21,23,25,27,29,-1,-1,-1,-1,-1,-1,-1,-1,-1,-1,-1,-1,-1,-1,-1,-1],"loss_changes":[1.4013177E2,2.768412E1,1.7527786E1,1.1955208E1,2.0924843E1,1.0864826E1,8.536591E0,1.4999573E1,6.2075815E0,7.0318947E0,5.478656E0,7.4522605E0,6.601742E0,4.97937E0,3.5562248E0,0E0,0E0,0E0,0E0,0E0,0E0,0E0,0E0,0E0,0E0,0E0,0E0,0E0,0E0,0E0,0E0],"parents":[2147483647,0,0,1,1,2,2,3,3,4,4,5,5,6,6,7,7,8,8,9,9,10,10,11,11,12,12,13,13,14,14],"right_children":[2,4,6,8,10,12,14,16,18,20,22,24,26,28,30,-1,-1,-1,-1,-1,-1,-1,-1,-1,-1,-1,-1,-1,-1,-1,-1],"split_conditions":[2.690143E-3,1.9256356E-3,8.0347055E-1,1.1323774E0,6.6872805E-1,3.1908997E-3,4.3162582E-3,1.1547344E-1,1.4168466E-3,-1.4023648E-3,1.7703797E-1,1.5213515E0,1.0983301E0,5.682777E-1,1.846039E0,-1.3686111E-2,3.0023701E-2,2.8770551E-2,6.699104E-3,7.217478E-2,1.455362E-2,3.008711E-2,-1.3737225E-3,-4.225355E-3,1.4531865E-2,-6.368654E-3,-2.1392316E-2,-4.6058847E-3,-1.6358558E-2,-2.2575857E-2,-3.9957266E-2],"split_indices":[0,0,1,6,6,0,0,6,0,5,9,9,6,6,1,0,0,0,0,0,0,0,0,0,0,0,0,0,0,0,0],"split_type":[0,0,0,0,0,0,0,0,0,0,0,0,0,0,0,0,0,0,0,0,0,0,0,0,0,0,0,0,0,0,0],"sum_hessian":[7.639493E3,3.910878E3,3.7286155E3,1.453596E3,2.457282E3,1.7291836E3,1.9994318E3,8.8564734E2,5.679486E2,1.0081515E3,1.4491306E3,6.2396716E2,1.1052164E3,1.5349862E3,4.6444565E2,6.0344524E1,8.253028E2,1.1488593E2,4.5306265E2,1.461522E1,9.9353625E2,4.0159523E1,1.4089711E3,3.5823227E2,2.6573492E2,8.2091394E2,2.843025E2,3.337418E2,1.2012444E3,3.4885007E2,1.1559559E2],"tree_param":{"num_deleted":"0","num_feature":"11","num_nodes":"31","size_leaf_vector":"1"}},{"base_weights":[-3.0742015E-3,-1.3753675E-1,2.4774708E-2,1.16218925E-1,-1.4843288E-1,3.060585E-3,8.968002E-2,2.3318729E-1,-4.2396367E-1,-2.8142765E-1,-1.2791765E-1,3.4395788E-2,-5.0401155E-2,-3.194825E-1,9.6234456E-2,4.5804532E-5,3.9257027E-2,-5.703788E-2,-1.4181119E-2,-2.0983126E-2,-5.430834E-2,-1.4617645E-2,-4.5406106E-3,5.9126127E-3,-3.112286E-3,-2.4555832E-2,-3.3908817E-3,1.8999692E-2,-4.7179025E-2,2.3790887E-2,7.1178484E-3],"categories":[],"categories_nodes":[],"categories_segments":[],"categories_sizes":[],"default_left":[0,0,0,0,0,0,0,0,0,0,0,0,0,0,0,0,0,0,0,0,0,0,0,0,0,0,0,0,0,0,0],"id":8,"left_children":[1,3,5,7,9,11,13,15,17,19,21,23,25,27,29,-1,-1,-1,-1,-1,-1,-1,-1,-1,-1,-1,-1,-1,-1,-1,-1],"loss_changes":[3.655362E1,4.6481647E0,1.1396988E1,4.4912767E0,4.346779E0,1.0154694E1,5.4673557E0,3.0739777E0,6.9666743E-1,2.4848328E0,4.564316E0,9.545338E0,5.6022873E0,4.242061E0,4.5570545E0,0E0,0E0,0E0,0E0,0E0,0E0,0E0,0E0,0E0,0E0,0E0,0E0,0E0,0E0,0E0,0E0],"parents":[2147483647,0,0,1,1,2,2,3,3,4,4,5,5,6,6,7,7,8,8,9,9,10,10,11,11,12,12,13,13,14,14],"right_children":[2,4,6,8,10,12,14,16,18,20,22,24,26,28,30,-1,-1,-1,-1,-1,-1,-1,-1,-1,-1,-1,-1,-1,-1,-1,-1],"split_conditions":[1.8946911E-3,3.6821846E-2,3.6762198E-3,6.6544865E-3,3.115217E-1,1.2112489E0,1.4290147E-1,-1.8538213E-3,3.3878017E-4,3.2986032E-3,1.4806066E-3,2.4089029E-3,-1.4023648E-3,-6.6710555E-4,1.0460598E-2,4.5804532E-5,3.9257027E-2,-5.703788E-2,-1.4181119E-2,-2.0983126E-2,-5.430834E-2,-1.4617645E-2,-4.5406106E-3,5.9126127E-3,-3.112286E-3,-2.4555832E-2,-3.3908817E-3,1.8999692E-2,-4.7179025E-2,2.3790887E-2,7.1178484E-3],"split_indices":[0,6,0,2,1,8,6,2,1,7,7,2,5,5,3,0,0,0,0,0,0,0,0,0,0,0,0,0,0,0,0],"split_type":[0,0,0,0,0,0,0,0,0,0,0,0,0,0,0,0,0,0,0,0,0,0,0,0,0,0,0,0,0,0,0],"sum_hessian":[9.759687E3,1.6738617E3,8.085824E3,6.851752E1,1.6053442E3,6.0596206E3,2.0262036E3,5.678903E1,1.1728486E1,2.1284016E2,1.392504E3,3.8206206E3,2.2390002E3,3.1193542E1,1.9950101E3,2.8645872E1,2.8143156E1,5.1602893E0,6.5681973E0,1.956159E2,1.722426E1,8.7422473E2,5.1827924E2,2.5552769E3,1.2653438E3,9.337367E1,2.1456265E3,9.453371E0,2.1740171E1,1.257199E2,1.8692902E3],"tree_param":{"num_deleted":"0","num_feature":"11","num_nodes":"31","size_leaf_vector":"1"}},{"base_weights":[1.5923689E-3,-1.4602584E-2,1.5063426E-1,2.489751E-2,-4.908396E-2,1.21599935E-1,3.4167543E-1,6.56268E-3,1.3508996E-1,1.8189337E-2,-7.9371445E-2,3.6007935E-1,9.374054E-2,5.0012976E-1,1.6231184E-1,-2.1263377E-3,6.4374977E-3,1.3630815E-2,-1.8258628E-2,-1.085993E-3,9.829264E-3,-7.420136E-3,1.1766161E-2,3.8023543E-2,-2.4081778E-2,5.9162855E-2,7.0911613E-3,6.410126E-2,1.9024443E-2,-3.8683407E-2,1.8048098E-2],"categories":[],"categories_nodes":[],"categories_segments":[],"categories_sizes":[],"default_left":[0,0,0,0,0,0,0,0,0,0,0,0,0,0,0,0,0,0,0,0,0,0,0,0,0,0,0,0,0,0,0],"id":9,"left_children":[1,3,5,7,9,11,13,15,17,19,21,23,25,27,29,-1,-1,-1,-1,-1,-1,-1,-1,-1,-1,-1,-1,-1,-1,-1,-1],"loss_changes":[2.35332E1,1.1979147E1,5.2587967E0,8.281576E0,9.56922E0,5.4877243E0,3.4860935E0,7.6815453E0,5.205325E0,4.402912E0,5.6007595E0,4.987257E0,4.5734067E0,4.47472E0,1.9604863E0,0E0,0E0,0E0,0E0,0E0,0E0,0E0,0E0,0E0,0E0,0E0,0E0,0E0,0E0,0E0,0E0],"parents":[2147483647,0,0,1,1,2,2,3,3,4,4,5,5,6,6,7,7,8,8,9,9,10,10,11,11,12,12,13,13,14,14],"right_children":[2,4,6,8,10,12,14,16,18,20,22,24,26,28,30,-1,-1,-1,-1,-1,-1,-1,-1,-1,-1,-1,-1,-1,-1,-1,-1],"split_conditions":[2.3636723E-2,8.2293284E-1,1.48349125E-2,8.5633874E-1,8.210101E-1,-2.1061513E-3,1.0782049E0,1.322174E-2,1.8843073E0,3.8192773E-3,2.6337435E0,4.7849927E-2,3.0397446E-4,1.2371613E0,1.1776986E0,-2.1263377E-3,6.4374977E-3,1.3630815E-2,-1.8258628E-2,-1.085993E-3,9.829264E-3,-7.420136E-3,1.1766161E-2,3.8023543E-2,-2.4081778E-2,5.9162855E-2,7.0911613E-3,6.410126E-2,1.9024443E-2,-3.8683407E-2,1.8048098E-2],"split_indices":[3,9,2,10,8,5,9,3,6,2,8,3,6,6,9,0,0,0,0,0,0,0,0,0,0,0,0,0,0,0,0],"split_type":[0,0,0,0,0,0,0,0,0,0,0,0,0,0,0,0,0,0,0,0,0,0,0,0,0,0,0,0,0,0,0],"sum_hessian":[9.747826E3,8.79325E3,9.545762E2,4.0984985E3,4.6947515E3,8.3006055E2,1.2451563E2,3.5147432E3,5.837556E2,1.4575972E3,3.2371545E3,8.557808E1,7.444824E2,6.516174E1,5.935389E1,2.4135544E3,1.1011887E3,5.449373E2,3.8818325E1,1.106774E3,3.5082315E2,3.1240876E3,1.13066956E2,7.562643E1,9.951648E0,1.1416268E1,7.3306616E2,3.3050526E1,3.2111217E1,3.841194E0,5.5512695E1],"tree_param":{"num_deleted":"0","num_feature":"11","num_nodes":"31","size_leaf_vector":"1"}},{"base_weights":[-4.1204423E-4,1.0675079E-1,-1.5362708E-1,1.9140671E-1,2.6528211E-2,-6.3565485E-2,-1.959546E-1,2.5384274E-1,9.4207264E-2,1.2205493E-1,-4.91188E-2,-3.57946E-2,-2.5659338E-1,2.6075227E-2,-2.0976056E-1,-1.2901721E-2,2.3547078E-2,2.1544086E-2,3.2851188E-3,3.691579E-2,8.682786E-3,-4.690728E-3,4.6950664E-2,-1.9286877E-3,-2.9686417E-2,-1.6385103E-2,-4.537791E-2,-1.7897435E-2,1.7812917E-2,-1.5417149E-2,-2.4248954E-2],"categories":[],"categories_nodes":[],"categories_segments":[],"categories_sizes":[],"default_left":[0,0,0,0,0,0,0,0,0,0,0,0,0,0,0,0,0,0,0,0,0,0,0,0,0,0,0,0,0,0,0],"id":10,"left_children":[1,3,5,7,9,11,13,15,17,19,21,23,25,27,29,-1,-1,-1,-1,-1,-1,-1,-1,-1,-1,-1,-1,-1,-1,-1,-1],"loss_changes":[1.2461767E2,3.0325836E1,1.1895485E1,1.3162636E1,1.6585114E1,5.352454E0,6.5178757E0,1.2477051E1,7.523571E0,6.2590265E0,4.704761E0,3.5885391E0,2.1205168E0,5.4828777E0,4.235771E0,0E0,0E0,0E0,0E0,0E0,0E0,0E0,0E0,0E0,0E0,0E0,0E0,0E0,0E0,0E0,0E0],"parents":[2147483647,0,0,1,1,2,2,3,3,4,4,5,5,6,6,7,7,8,8,9,9,10,10,11,11,12,12,13,13,14,14],"right_children":[2,4,6,8,10,12,14,16,18,20,22,24,26,28,30,-1,-1,-1,-1,-1,-1,-1,-1,-1,-1,-1,-1,-1,-1,-1,-1],"split_conditions":[2.8740284E-3,2.1598474E-3,5.7394195E-1,1.1231335E0,7.245986E-1,4.8270933E-3,3.3839774E-1,1.1547344E-1,1.5895092E-3,-1.0221541E-3,3.0037584E0,1.4055349E-2,1.9404055E0,7.2060376E-1,4.3162582E-3,-1.2901721E-2,2.3547078E-2,2.1544086E-2,3.2851188E-3,3.691579E-2,8.682786E-3,-4.690728E-3,4.6950664E-2,-1.9286877E-3,-2.9686417E-2,-1.6385103E-2,-4.537791E-2,-1.7897435E-2,1.7812917E-2,-1.5417149E-2,-2.4248954E-2],"split_indices":[0,0,6,6,1,0,1,6,0,5,8,2,8,6,0,0,0,0,0,0,0,0,0,0,0,0,0,0,0,0,0],"split_type":[0,0,0,0,0,0,0,0,0,0,0,0,0,0,0,0,0,0,0,0,0,0,0,0,0,0,0,0,0,0,0],"sum_hessian":[7.5878667E3,4.465133E3,3.1227341E3,2.1718616E3,2.2932712E3,9.992024E2,2.1235317E3,1.3214299E3,8.504316E2,1.013197E3,1.2800743E3,8.745644E2,1.2463798E2,1.2426065E2,1.999271E3,7.113749E1,1.2502925E3,2.1903435E2,6.313973E2,5.9468967E1,9.537281E2,1.2681923E3,1.18821335E1,8.404995E2,3.406489E1,1.0269288E2,2.1945099E1,5.42065E1,7.005415E1,1.455622E3,5.436491E2],"tree_param":{"num_deleted":"0","num_feature":"11","num_nodes":"31","size_leaf_vector":"1"}},{"base_weights":[-6.782431E-4,-1.3042608E-1,2.5712233E-2,-1.3548394E-1,3.2275847E-1,-2.4156056E-2,5.1905878E-2,3.2442024E-1,-1.4020824E-1,-5.5340778E-2,7.349134E-2,6.740803E-2,-4.6167716E-2,-5.165145E-2,6.6415854E-2,-2.1675544E-2,5.72549E-2,-2.7036719E-2,-1.0702725E-2,2.4354858E-2,-5.3235766E-2,3.2966673E-2,2.316478E-3,-2.4422005E-2,-2.730529E-3,-1.6625801E-2,1.3247885E-4,9.005663E-3,5.6813663E-4],"categories":[],"categories_nodes":[],"categories_segments":[],"categories_sizes":[],"default_left":[0,0,0,0,0,0,0,0,0,0,0,0,0,0,0,0,0,0,0,0,0,0,0,0,0,0,0,0,0],"id":11,"left_children":[1,3,5,7,9,11,13,15,17,19,-1,21,23,25,27,-1,-1,-1,-1,-1,-1,-1,-1,-1,-1,-1,-1,-1,-1],"loss_changes":[3.3275322E1,3.8086338E0,1.0549667E1,3.5763988E0,3.8226175E0,5.609457E0,7.9594803E0,3.5758867E0,4.051464E0,2.481215E0,0E0,6.9313574E0,7.587552E0,4.9886436E0,1.0966839E1,0E0,0E0,0E0,0E0,0E0,0E0,0E0,0E0,0E0,0E0,0E0,0E0,0E0,0E0],"parents":[2147483647,0,0,1,1,2,2,3,3,4,4,5,5,6,6,7,7,8,8,9,9,11,11,12,12,13,13,14,14],"right_children":[2,4,6,8,10,12,14,16,18,20,-1,22,24,26,28,-1,-1,-1,-1,-1,-1,-1,-1,-1,-1,-1,-1,-1,-1],"split_conditions":[1.8946911E-3,1.0095167E-3,5.909874E-1,-1.166249E-3,1.1391356E0,-6.308984E-4,-1.0452853E-3,7.154827E-1,2.1501272E1,1.2290037E-3,7.349134E-2,9.180635E-1,6.4415485E-1,9.7247446E-1,6.677507E-1,-2.1675544E-2,5.72549E-2,-2.7036719E-2,-1.0702725E-2,2.4354858E-2,-5.3235766E-2,3.2966673E-2,2.316478E-3,-2.4422005E-2,-2.730529E-3,-1.6625801E-2,1.3247885E-4,9.005663E-3,5.6813663E-4],"split_indices":[0,5,6,5,8,5,5,8,4,5,0,8,8,6,10,0,0,0,0,0,0,0,0,0,0,0,0,0,0],"split_type":[0,0,0,0,0,0,0,0,0,0,0,0,0,0,0,0,0,0,0,0,0,0,0,0,0,0,0,0,0],"sum_hessian":[9.715978E3,1.6415269E3,8.07445E3,1.6241018E3,1.742507E1,2.780646E3,5.293804E3,1.5825702E1,1.608276E3,1.0792171E1,6.6328993E0,5.3850616E2,2.24214E3,6.5027185E2,4.643532E3,6.052131E0,9.773571E0,1.1804798E2,1.490228E3,7.061941E0,3.7302299E0,5.900381E1,4.7950235E2,1.22318756E2,2.119821E3,1.7477812E2,4.7549374E2,2.7937412E3,1.8497911E3],"tree_param":{"num_deleted":"0","num_feature":"11","num_nodes":"29","size_leaf_vector":"1"}},{"base_weights":[8.0598064E-4,-4.5962363E-2,5.028841E-2,-6.66104E-2,5.5727E-2,1.6519071E-3,8.690562E-2,-8.528985E-3,-1.0483687E-1,6.623582E-2,-5.6258008E-2,9.9217586E-2,-3.4257308E-2,7.720349E-2,3.059052E-1,9.794404E-4,-1.5735686E-2,4.5275766E-2,-9.163128E-3,8.926865E-3,-5.036665E-3,-5.9307693E-3,1.4125885E-2,-4.9013523E-3,6.785841E-3,1.1353555E-2,2.8473658E-3,3.811425E-2,1.187687E-2],"categories":[],"categories_nodes":[],"categories_segments":[],"categories_sizes":[],"default_left":[0,0,0,0,0,0,0,0,0,0,0,0,0,0,0,0,0,0,0,0,0,0,0,0,0,0,0,0,0],"id":12,"left_children":[1,3,5,7,9,11,13,15,17,19,-1,21,23,25,27,-1,-1,-1,-1,-1,-1,-1,-1,-1,-1,-1,-1,-1,-1],"loss_changes":[2.2591164E1,1.0541212E1,8.447396E0,9.262033E0,6.4354353E0,7.144659E0,5.7260017E0,5.869873E0,4.812439E0,4.076538E0,0E0,6.220596E0,3.9852834E0,6.382411E0,2.647707E0,0E0,0E0,0E0,0E0,0E0,0E0,0E0,0E0,0E0,0E0,0E0,0E0,0E0,0E0],"parents":[2147483647,0,0,1,1,2,2,3,3,4,4,5,5,6,6,7,7,8,8,9,9,11,11,12,12,13,13,14,14],"right_children":[2,4,6,8,10,12,14,16,18,20,-1,22,24,26,28,-1,-1,-1,-1,-1,-1,-1,-1,-1,-1,-1,-1,-1,-1],"split_conditions":[2.7183734E-3,4.397977E-3,7.415952E-1,5.80003E-1,2.6291587E0,7.651859E-1,1.48349125E-2,6.695508E1,-1.7998276E-3,7.9082695E1,-5.6258008E-2,-4.8155987E-4,2.3636723E-2,3.9377826E-1,1.2200254E0,9.794404E-4,-1.5735686E-2,4.5275766E-2,-9.163128E-3,8.926865E-3,-5.036665E-3,-5.9307693E-3,1.4125885E-2,-4.9013523E-3,6.785841E-3,1.1353555E-2,2.8473658E-3,3.811425E-2,1.187687E-2],"split_indices":[0,2,1,8,6,8,2,4,5,4,0,5,3,10,6,0,0,0,0,0,0,0,0,0,0,0,0,0,0],"split_type":[0,0,0,0,0,0,0,0,0,0,0,0,0,0,0,0,0,0,0,0,0,0,0,0,0,0,0,0,0],"sum_hessian":[9.759929E3,5.0176064E3,4.7423228E3,4.1710244E3,8.4658215E2,2.0373177E3,2.705005E3,1.6560459E3,2.5149783E3,8.352578E2,1.1324385E1,5.476324E2,1.4896854E3,2.5915466E3,1.1345832E2,1.4880221E3,1.6802386E2,1.0814588E1,2.5041638E3,6.381762E2,1.9708162E2,1.5541469E2,3.9221768E2,1.2365105E3,2.5317494E2,1.130915E3,1.4606315E3,6.0166748E1,5.329157E1],"tree_param":{"num_deleted":"0","num_feature":"11","num_nodes":"29","size_leaf_vector":"1"}},{"base_weights":[3.3151763E-3,1.6625106E-1,-8.4663175E-2,2.5679165E-1,9.955849E-2,-1.4791283E-2,-1.5701614E-1,-1.18516564E-1,2.8398964E-1,2.2202374E-1,6.1709743E-2,8.105321E-2,-9.0514116E-2,-7.504054E-2,-1.9416806E-1,-3.8757892E-3,-5.0525896E-2,3.794702E-2,1.8814852E-2,1.4196829E-3,3.1553067E-2,9.563018E-3,-2.4125995E-3,-5.0096866E-3,1.149215E-2,-1.1477181E-2,-2.040625E-4,-3.5536094E-3,-2.7195163E-2,2.6472851E-3,-1.741582E-2],"categories":[],"categories_nodes":[],"categories_segments":[],"categories_sizes":[],"default_left":[0,0,0,0,0,0,0,0,0,0,0,0,0,0,0,0,0,0,0,0,0,0,0,0,0,0,0,0,0,0,0],"id":13,"left_children":[1,3,5,7,9,11,13,15,17,19,21,23,25,27,29,-1,-1,-1,-1,-1,-1,-1,-1,-1,-1,-1,-1,-1,-1,-1,-1],"loss_changes":[1.089686E2,1.6068993E1,2.49529E1,1.1567474E1,7.108E0,1.824076E1,7.3708725E0,2.6469426E0,1.0624634E1,1.1093447E1,5.380907E0,8.417254E0,5.50607E0,6.155169E0,4.0368767E0,0E0,0E0,0E0,0E0,0E0,0E0,0E0,0E0,0E0,0E0,0E0,0E0,0E0,0E0,0E0,0E0],"parents":[2147483647,0,0,1,1,2,2,3,3,4,4,5,5,6,6,7,7,8,8,9,9,10,10,11,11,12,12,13,13,14,14],"right_children":[2,4,6,8,10,12,14,16,18,20,22,24,26,28,30,-1,-1,-1,-1,-1,-1,-1,-1,-1,-1,-1,-1,-1,-1,-1,-1],"split_conditions":[2.2913204E-3,6.993389E-1,3.1607891E-3,1.1547344E-1,1.5895092E-3,7.245986E-1,5.7394195E-1,5.297366E-3,1.6732591E-3,5.7561337E-3,1.4550261E0,7.5785255E-1,1.2112489E0,5.108849E-3,3.2524663E-1,-3.8757892E-3,-5.0525896E-2,3.794702E-2,1.8814852E-2,1.4196829E-3,3.1553067E-2,9.563018E-3,-2.4125995E-3,-5.0096866E-3,1.149215E-2,-1.1477181E-2,-2.040625E-4,-3.5536094E-3,-2.7195163E-2,2.6472851E-3,-1.741582E-2],"split_indices":[0,6,0,6,0,1,6,7,0,3,1,8,8,0,1,0,0,0,0,0,0,0,0,0,0,0,0,0,0,0,0],"split_type":[0,0,0,0,0,0,0,0,0,0,0,0,0,0,0,0,0,0,0,0,0,0,0,0,0,0,0,0,0,0,0],"sum_hessian":[7.599685E3,2.6643745E3,4.9353105E3,1.1289213E3,1.5354531E3,2.511316E3,2.4239946E3,7.605612E1,1.0528651E3,3.613583E2,1.1740948E3,1.1083615E3,1.4029543E3,7.569052E2,1.6670895E3,6.690122E1,9.1549015E0,2.912954E2,7.6156976E2,1.5253857E2,2.0881973E2,7.5062756E2,4.2346722E2,3.091151E2,7.9924634E2,9.317415E2,4.7121283E2,6.674964E2,8.940883E1,7.565496E1,1.5914346E3],"tree_param":{"num_deleted":"0","num_feature":"11","num_nodes":"31","size_leaf_vector":"1"}},{"base_weights":[2.2431356E-3,-1.2777598E-1,2.5683528E-2,-3.0655992E-1,-1.12542816E-1,3.9491476E-3,9.17636E-2,4.5997243E-2,-4.1634852E-1,3.6164552E-1,-1.18499026E-1,2.7841106E-2,-4.286538E-2,-3.0749792E-1,9.808154E-2,-2.1225063E-2,3.4850165E-2,4.1886814E-2,-4.060799E-2,5.7652846E-2,-2.791463E-2,-1.062624E-2,2.3819627E-2,-9.886479E-3,3.9452887E-3,-1.391775E-2,-1.5441091E-3,1.0147402E-2,-3.970091E-2,1.03032505E-2,8.875929E-4],"categories":[],"categories_nodes":[],"categories_segments":[],"categories_sizes":[],"default_left":[0,0,0,0,0,0,0,0,0,0,0,0,0,0,0,0,0,0,0,0,0,0,0,0,0,0,0,0,0,0,0],"id":14,"left_children":[1,3,5,7,9,11,13,15,17,19,21,23,25,27,29,-1,-1,-1,-1,-1,-1,-1,-1,-1,-1,-1,-1,-1,-1,-1,-1],"loss_changes":[2.9588692E1,4.004223E0,1.1813194E1,4.50344E0,3.9068508E0,6.9254494E0,5.165472E0,3.1604636E0,5.1717243E0,3.9846652E0,3.5471382E0,1.098169E1,6.2434287E0,2.2324324E0,4.063301E0,0E0,0E0,0E0,0E0,0E0,0E0,0E0,0E0,0E0,0E0,0E0,0E0,0E0,0E0,0E0,0E0],"parents":[2147483647,0,0,1,1,2,2,3,3,4,4,5,5,6,6,7,7,8,8,9,9,10,10,11,11,12,12,13,13,14,14],"right_children":[2,4,6,8,10,12,14,16,18,20,22,24,26,28,30,-1,-1,-1,-1,-1,-1,-1,-1,-1,-1,-1,-1,-1,-1,-1,-1],"split_conditions":[1.8506887E-3,2.0930233E1,3.6762198E-3,-7.257551E-3,-1.0663171E-3,2.4089029E-3,1.2993915E-1,1.0840131E0,1.6703346E-1,3.3333332E1,8.887218E1,-1.0452853E-3,2.149163E-3,3.9173748E1,7.816155E-3,-2.1225063E-2,3.4850165E-2,4.1886814E-2,-4.060799E-2,5.7652846E-2,-2.791463E-2,-1.062624E-2,2.3819627E-2,-9.886479E-3,3.9452887E-3,-1.391775E-2,-1.5441091E-3,1.0147402E-2,-3.970091E-2,1.03032505E-2,8.875929E-4],"split_indices":[0,4,0,2,5,2,1,8,9,4,4,5,0,4,2,0,0,0,0,0,0,0,0,0,0,0,0,0,0,0,0],"split_type":[0,0,0,0,0,0,0,0,0,0,0,0,0,0,0,0,0,0,0,0,0,0,0,0,0,0,0,0,0,0,0],"sum_hessian":[9.706458E3,1.4819468E3,8.224511E3,1.1485285E2,1.367094E3,6.189714E3,2.0347972E3,2.7410923E1,8.7441925E1,1.621805E1,1.350876E3,4.098457E3,2.0912566E3,3.0954548E1,2.0038428E3,1.5297668E1,1.21132555E1,5.0868077E0,8.235512E1,1.1128799E1,5.089251E0,1.3298319E3,2.104403E1,4.6720816E2,3.631249E3,3.5387054E2,1.7373861E3,8.491178E0,2.2463371E1,1.5850669E3,4.1877582E2],"tree_param":{"num_deleted":"0","num_feature":"11","num_nodes":"31","size_leaf_vector":"1"}},{"base_weights":[-6.8782707E-4,-6.321008E-2,3.5134647E-2,-9.780361E-3,-1.2094166E-1,-1.3127812E-2,7.168762E-2,-3.4053963E-2,1.5165272E-1,-1.2544516E-1,6.290538E-1,8.669403E-2,-3.4940857E-2,-3.5582474E-3,8.8007145E-2,5.160308E-3,-6.3717384E-3,7.6061904E-2,1.1159003E-2,-1.3736502E-2,-3.8275153E-3,9.202227E-2,1.2127551E-2,5.069803E-3,5.553405E-2,-4.221188E-3,5.947251E-3,2.0646863E-3,-3.5144504E-2,-4.286409E-3,8.635853E-3],"categories":[],"categories_nodes":[],"categories_segments":[],"categories_sizes":[],"default_left":[0,0,0,0,0,0,0,0,0,0,0,0,0,0,0,0,0,0,0,0,0,0,0,0,0,0,0,0,0,0,0],"id":15,"left_children":[1,3,5,7,9,11,13,15,17,19,21,23,25,27,29,-1,-1,-1,-1,-1,-1,-1,-1,-1,-1,-1,-1,-1,-1,-1,-1],"loss_changes":[2.1849136E1,1.0959674E1,1.0942034E1,7.2410336E0,5.847416E0,5.824806E0,4.3341465E0,6.2303553E0,3.5393147E0,4.9318027E0,2.131033E0,7.3146486E0,3.393054E0,7.2013993E0,5.461981E0,0E0,0E0,0E0,0E0,0E0,0E0,0E0,0E0,0E0,0E0,0E0,0E0,0E0,0E0,0E0,0E0],"parents":[2147483647,0,0,1,1,2,2,3,3,4,4,5,5,6,6,7,7,8,8,9,9,10,10,11,11,12,12,13,13,14,14],"right_children":[2,4,6,8,10,12,14,16,18,20,22,24,26,28,30,-1,-1,-1,-1,-1,-1,-1,-1,-1,-1,-1,-1,-1,-1,-1,-1],"split_conditions":[2.3687647E-3,7.837544E-1,7.495892E-1,4.7669876E-3,1.4569488E-3,5.03878E-1,9.722585E-3,6.451798E-3,-1.0018508E-3,1.0364803E0,1.5609942E-2,4.8874483E-1,2.4222037E-2,3.7874798E-3,-1.2516086E-2,5.160308E-3,-6.3717384E-3,7.6061904E-2,1.1159003E-2,-1.3736502E-2,-3.8275153E-3,9.202227E-2,1.2127551E-2,5.069803E-3,5.553405E-2,-4.221188E-3,5.947251E-3,2.0646863E-3,-3.5144504E-2,-4.286409E-3,8.635853E-3],"split_indices":[0,8,1,2,5,8,3,3,5,1,3,8,3,0,2,0,0,0,0,0,0,0,0,0,0,0,0,0,0,0,0],"split_type":[0,0,0,0,0,0,0,0,0,0,0,0,0,0,0,0,0,0,0,0,0,0,0,0,0,0,0,0,0,0,0],"sum_hessian":[9.753387E3,3.5524329E3,6.2009536E3,1.8455621E3,1.7068707E3,2.672706E3,3.5282476E3,1.6050159E3,2.4054634E2,1.6975105E3,9.360298E0,4.7876868E2,2.1939373E3,6.289722E2,2.8992754E3,4.8379962E2,1.1212162E3,5.272034E0,2.352743E2,1.170264E3,5.2724646E2,4.2092075E0,5.151091E0,4.580105E2,2.0758167E1,1.9244376E3,2.694997E2,5.898398E2,3.9132435E1,2.5895203E2,2.6403232E3],"tree_param":{"num_deleted":"0","num_feature":"11","num_nodes":"31","size_leaf_vector":"1"}},{"base_weights":[-1.7047565E-3,9.393271E-2,-1.3561632E-1,1.6735055E-1,2.0554097E-2,-6.306422E-2,-1.9858089E-1,1.01812616E-1,2.6973113E-1,1.0930431E-1,-5.5219702E-2,-1.5620327E-1,7.5913174E-3,-1.8085273E-1,-4.0547714E-1,-2.386473E-2,9.652917E-3,2.742419E-2,4.251092E-3,7.85251E-3,3.3509962E-2,-8.7041315E-3,3.928699E-3,-1.1871283E-2,-3.5472926E-2,3.4195962E-3,-1.3366349E-2,-2.1008912E-2,-1.1205758E-2,2.5132963E-2,-3.650263E-2],"categories":[],"categories_nodes":[],"categories_segments":[],"categories_sizes":[],"default_left":[0,0,0,0,0,0,0,0,0,0,0,0,0,0,0,0,0,0,0,0,0,0,0,0,0,0,0,0,0,0,0],"id":16,"left_children":[1,3,5,7,9,11,13,15,17,19,21,23,25,27,29,-1,-1,-1,-1,-1,-1,-1,-1,-1,-1,-1,-1,-1,-1,-1,-1],"loss_changes":[9.7356316E1,2.3887474E1,1.4455727E1,1.4845531E1,1.4929145E1,9.694755E0,6.1442947E0,6.1148815E0,1.0033543E1,4.892933E0,5.73711E0,2.6864367E0,4.518036E0,5.0486183E0,2.3615646E0,0E0,0E0,0E0,0E0,0E0,0E0,0E0,0E0,0E0,0E0,0E0,0E0,0E0,0E0,0E0,0E0],"parents":[2147483647,0,0,1,1,2,2,3,3,4,4,5,5,6,6,7,7,8,8,9,9,10,10,11,11,12,12,13,13,14,14],"right_children":[2,4,6,8,10,12,14,16,18,20,22,24,26,28,30,-1,-1,-1,-1,-1,-1,-1,-1,-1,-1,-1,-1,-1,-1,-1,-1],"split_conditions":[2.8442994E-3,2.1598474E-3,8.0347055E-1,1.023524E0,7.598038E-1,1.0897279E0,5.512612E-3,-7.7726454E-3,1.1963726E0,2.8047657E-3,1.2595584E0,8.24369E-3,7.278825E-3,1.4689509E-2,2.266371E-1,-2.386473E-2,9.652917E-3,2.742419E-2,4.251092E-3,7.85251E-3,3.3509962E-2,-8.7041315E-3,3.928699E-3,-1.1871283E-2,-3.5472926E-2,3.4195962E-3,-1.3366349E-2,-2.1008912E-2,-1.1205758E-2,2.5132963E-2,-3.650263E-2],"split_indices":[0,0,1,8,1,8,0,2,1,0,8,7,7,3,8,0,0,0,0,0,0,0,0,0,0,0,0,0,0,0,0],"split_type":[0,0,0,0,0,0,0,0,0,0,0,0,0,0,0,0,0,0,0,0,0,0,0,0,0,0,0,0,0,0,0],"sum_hessian":[7.5998325E3,4.4336733E3,3.1661592E3,2.2156042E3,2.2180693E3,1.47201E3,1.6941493E3,1.3520787E3,8.635255E2,1.0213585E3,1.1967107E3,6.3445386E2,8.3755615E2,1.5621671E3,1.3198216E2,3.961049E1,1.3124683E3,6.955696E2,1.6795595E2,9.6535114E2,5.6007385E1,8.1679285E2,3.7991788E2,5.9810156E2,3.6352238E1,6.9975824E2,1.3779794E2,6.6226385E2,8.999032E2,3.987326E0,1.2799484E2],"tree_param":{"num_deleted":"0","num_feature":"11","num_nodes":"31","size_leaf_vector":"1"}},{"base_weights":[2.0802743E-3,-1.23667605E-1,2.1513157E-2,-3.412928E-1,-1.0273383E-1,-2.329678E-2,4.4996493E-2,4.3089293E-2,-3.9764696E-1,-1.2611736E-1,3.4545194E-2,-3.629403E-1,-1.8114703E-2,-4.14116E-2,5.677021E-2,1.7905561E-2,-3.6862016E-2,-2.4513053E-3,-1.5615493E-2,-1.7318694E-2,1.272858E-2,1.6118571E-2,-4.0247183E-2,-3.851942E-3,2.9822623E-3,-7.171813E-3,1.1840825E-2,7.947089E-3,1.2857663E-4],"categories":[],"categories_nodes":[],"categories_segments":[],"categories_sizes":[],"default_left":[0,0,0,0,0,0,0,0,0,0,0,0,0,0,0,0,0,0,0,0,0,0,0,0,0,0,0,0,0],"id":17,"left_children":[1,3,5,7,9,11,13,-1,15,17,19,21,23,25,27,-1,-1,-1,-1,-1,-1,-1,-1,-1,-1,-1,-1,-1,-1],"loss_changes":[2.3746742E1,5.890806E0,8.858061E0,5.637124E0,3.8180542E0,5.0886245E0,5.6211596E0,0E0,2.440199E0,5.6833572E0,4.798899E0,2.7442932E0,4.129553E0,5.158399E0,9.864701E0,0E0,0E0,0E0,0E0,0E0,0E0,0E0,0E0,0E0,0E0,0E0,0E0,0E0,0E0],"parents":[2147483647,0,0,1,1,2,2,3,3,4,4,5,5,6,6,8,8,9,9,10,10,11,11,12,12,13,13,14,14],"right_children":[2,4,6,8,10,12,14,-1,16,18,20,22,24,26,28,-1,-1,-1,-1,-1,-1,-1,-1,-1,-1,-1,-1,-1,-1],"split_conditions":[1.7871261E-3,2.1501272E1,5.909874E-1,1.6703346E-1,9.923697E-3,2.989286E-1,-1.0452853E-3,4.3089293E-2,-1.1947167E-3,5.224026E-3,3.7648983E1,1.07019514E-1,3.2180694E-3,1.9661999E0,6.6325134E-1,1.7905561E-2,-3.6862016E-2,-2.4513053E-3,-1.5615493E-2,-1.7318694E-2,1.272858E-2,1.6118571E-2,-4.0247183E-2,-3.851942E-3,2.9822623E-3,-7.171813E-3,1.1840825E-2,7.947089E-3,1.2857663E-4],"split_indices":[0,4,6,9,3,8,5,0,5,3,4,9,0,1,10,0,0,0,0,0,0,0,0,0,0,0,0,0,0],"split_type":[0,0,0,0,0,0,0,0,0,0,0,0,0,0,0,0,0,0,0,0,0,0,0,0,0,0,0,0,0],"sum_hessian":[9.715671E3,1.2997538E3,8.415917E3,1.1271178E2,1.187042E3,2.8939016E3,5.5220156E3,6.523694E0,1.0618808E2,1.0143442E3,1.7269785E2,4.2452377E1,2.8514492E3,6.6188434E2,4.8601313E3,5.665886E0,1.00522194E2,3.7777383E2,6.365703E2,5.6030773E1,1.16667076E2,6.958384E0,3.5493996E1,1.8868264E3,9.646227E2,5.351845E2,1.2669984E2,2.9192583E3,1.9408728E3],"tree_param":{"num_deleted":"0","num_feature":"11","num_nodes":"29","size_leaf_vector":"1"}},{"base_weights":[-5.875023E-4,-5.49619E-2,4.3320246E-2,7.195319E-3,-9.4441436E-2,2.1497075E-2,1.4580557E-1,5.013115E-1,-9.208334E-4,-1.20981656E-1,2.9516248E-3,4.531569E-2,-5.374046E-2,1.11073226E-1,3.211263E-1,6.798353E-2,2.0496793E-2,-2.0764798E-3,1.2937759E-2,-4.7306954E-3,-1.3066113E-2,1.9757845E-3,-2.312086E-2,9.740897E-4,7.657078E-3,-3.3017385E-3,-3.4126554E-2,1.0596122E-2,-2.3453398E-2,3.789967E-2,1.2109178E-2],"categories":[],"categories_nodes":[],"categories_segments":[],"categories_sizes":[],"default_left":[0,0,0,0,0,0,0,0,0,0,0,0,0,0,0,0,0,0,0,0,0,0,0,0,0,0,0,0,0,0,0],"id":18,"left_children":[1,3,5,7,9,11,13,15,17,19,21,23,25,27,29,-1,-1,-1,-1,-1,-1,-1,-1,-1,-1,-1,-1,-1,-1,-1,-1],"loss_changes":[2.3295353E1,1.069771E1,1.2070376E1,6.7946634E0,6.8913956E0,7.9801865E0,5.7341137E0,1.9334745E0,6.007504E0,4.4719715E0,3.197324E0,5.1246195E0,5.5319233E0,4.200838E0,3.4167824E0,0E0,0E0,0E0,0E0,0E0,0E0,0E0,0E0,0E0,0E0,0E0,0E0,0E0,0E0,0E0,0E0],"parents":[2147483647,0,0,1,1,2,2,3,3,4,4,5,5,6,6,7,7,8,8,9,9,10,10,11,11,12,12,13,13,14,14],"right_children":[2,4,6,8,10,12,14,16,18,20,22,24,26,28,30,-1,-1,-1,-1,-1,-1,-1,-1,-1,-1,-1,-1,-1,-1,-1,-1],"split_conditions":[2.5574197E-3,5.6921744E-1,2.3636723E-2,-1.1947167E-3,3.6535175E-3,1.5676477E0,1.3559925E-2,1.3857437E0,4.7669876E-3,1.4174721E-3,1.1482226E-3,9.906844E-4,2.253158E-2,4.7849927E-2,1.2371613E0,6.798353E-2,2.0496793E-2,-2.0764798E-3,1.2937759E-2,-4.7306954E-3,-1.3066113E-2,1.9757845E-3,-2.312086E-2,9.740897E-4,7.657078E-3,-3.3017385E-3,-3.4126554E-2,1.0596122E-2,-2.3453398E-2,3.789967E-2,1.2109178E-2],"split_indices":[0,8,3,5,2,9,2,6,2,7,5,2,3,3,6,0,0,0,0,0,0,0,0,0,0,0,0,0,0,0,0],"split_type":[0,0,0,0,0,0,0,0,0,0,0,0,0,0,0,0,0,0,0,0,0,0,0,0,0,0,0,0,0,0,0],"sum_hessian":[9.755393E3,4.358129E3,5.3972637E3,1.6931786E3,2.6649504E3,4.450736E3,9.465277E2,2.6380024E1,1.6667986E3,2.0940627E3,5.708876E2,3.3808333E3,1.0699028E3,7.913825E2,1.5514517E2,1.1319308E1,1.5060716E1,1.4456969E3,2.2110161E2,6.999773E2,1.3940854E3,5.3250287E2,3.838465E1,1.9257366E3,1.4550967E3,1.0270201E3,4.2882698E1,7.651952E2,2.618736E1,9.047553E1,6.466964E1],"tree_param":{"num_deleted":"0","num_feature":"11","num_nodes":"31","size_leaf_vector":"1"}},{"base_weights":[-1.8859179E-3,8.583268E-2,-1.3335656E-1,1.6171086E-1,3.136994E-2,-5.7682566E-2,-1.8379477E-1,-1.4178902E-1,1.7853506E-1,1.7690757E-1,2.604845E-4,-1.3435192E-1,7.528404E-3,6.965387E-2,-1.8618342E-1,-2.7345251E-2,2.0322483E-3,2.751101E-2,1.1394768E-2,-1.4899222E-2,2.1558523E-2,8.303917E-3,-2.7616832E-3,6.6855773E-3,-1.27557255E-2,-3.77128E-2,1.6401204E-3,-1.3258179E-2,-2.279579E-2],"categories":[],"categories_nodes":[],"categories_segments":[],"categories_sizes":[],"default_left":[0,0,0,0,0,0,0,0,0,0,0,0,0,0,0,0,0,0,0,0,0,0,0,0,0,0,0,0,0],"id":19,"left_children":[1,3,5,7,9,11,13,15,17,19,21,23,25,-1,27,-1,-1,-1,-1,-1,-1,-1,-1,-1,-1,-1,-1,-1,-1],"loss_changes":[8.784467E1,1.8875809E1,1.1624577E1,9.772129E0,1.2047876E1,6.103831E0,4.5349655E0,3.0132003E0,1.1633808E1,1.2707258E1,7.002224E0,1.8900194E0,3.5157447E0,0E0,4.4789314E0,0E0,0E0,0E0,0E0,0E0,0E0,0E0,0E0,0E0,0E0,0E0,0E0,0E0,0E0],"parents":[2147483647,0,0,1,1,2,2,3,3,4,4,5,5,6,6,7,7,8,8,9,9,10,10,11,11,12,12,14,14],"right_children":[2,4,6,8,10,12,14,16,18,20,22,24,26,-1,28,-1,-1,-1,-1,-1,-1,-1,-1,-1,-1,-1,-1,-1,-1],"split_conditions":[2.8740284E-3,6.6872805E-1,6.804365E-1,1.1547344E-1,1.6480891E-3,1.1313984E0,1.5744786E-1,-2.5428148E-4,1.8139275E-3,4.391983E-3,6.220826E-1,8.3928825E-3,1.8323278E-1,6.965387E-2,4.3162582E-3,-2.7345251E-2,2.0322483E-3,2.751101E-2,1.1394768E-2,-1.4899222E-2,2.1558523E-2,8.303917E-3,-2.7616832E-3,6.6855773E-3,-1.27557255E-2,-3.77128E-2,1.6401204E-3,-1.3258179E-2,-2.279579E-2],"split_indices":[0,6,1,6,0,8,6,2,0,3,1,3,1,0,0,0,0,0,0,0,0,0,0,0,0,0,0,0,0],"split_type":[0,0,0,0,0,0,0,0,0,0,0,0,0,0,0,0,0,0,0,0,0,0,0,0,0,0,0,0,0],"sum_hessian":[7.615201E3,4.5678384E3,3.0473628E3,1.9078408E3,2.6599976E3,1.2196414E3,1.8277214E3,9.981431E1,1.8080265E3,4.6762885E2,2.1923687E3,5.600837E2,6.595577E2,3.5288289E0,1.8241926E3,4.7402103E1,5.2412205E1,4.2267288E2,1.3853536E3,8.341732E1,3.8421152E2,5.5104553E2,1.6413231E3,3.8208195E1,5.218755E2,1.5830617E1,6.4372705E2,1.3352625E3,4.8893018E2],"tree_param":{"num_deleted":"0","num_feature":"11","num_nodes":"29","size_leaf_vector":"1"}},{"base_weights":[6.1105734E-6,-1.2869242E-1,1.9503914E-2,-2.860748E-1,-1.08298026E-1,-2.2963716E-2,4.1674115E-2,1.34347E-1,-3.555374E-1,-1.4719997E-1,-2.796479E-3,5.2977767E-2,-4.138579E-2,9.303367E-3,7.459083E-2,-1.4452213E-2,4.3446407E-2,2.4899561E-2,-3.279862E-2,-1.8372495E-2,-7.7175833E-3,-5.929917E-3,1.1107542E-2,-7.060384E-3,1.18195675E-2,-1.1355663E-2,-1.6291885E-3,-1.1335662E-2,1.6247608E-3,-2.490247E-3,7.9916455E-3],"categories":[],"categories_nodes":[],"categories_segments":[],"categories_sizes":[],"default_left":[0,0,0,0,0,0,0,0,0,0,0,0,0,0,0,0,0,0,0,0,0,0,0,0,0,0,0,0,0,0,0],"id":20,"left_children":[1,3,5,7,9,11,13,15,17,19,21,23,25,27,29,-1,-1,-1,-1,-1,-1,-1,-1,-1,-1,-1,-1,-1,-1,-1,-1],"loss_changes":[2.435408E1,4.067547E0,7.936494E0,4.3078985E0,4.6457024E0,4.047447E0,5.9001884E0,2.5423138E0,2.580636E0,3.1967182E0,2.7441318E0,6.6268864E0,4.7662373E0,3.9124045E0,5.5445776E0,0E0,0E0,0E0,0E0,0E0,0E0,0E0,0E0,0E0,0E0,0E0,0E0,0E0,0E0,0E0,0E0],"parents":[2147483647,0,0,1,1,2,2,3,3,4,4,5,5,6,6,7,7,8,8,9,9,10,10,11,11,12,12,13,13,14,14],"right_children":[2,4,6,8,10,12,14,16,18,20,22,24,26,28,30,-1,-1,-1,-1,-1,-1,-1,-1,-1,-1,-1,-1,-1,-1,-1,-1],"split_conditions":[1.7871261E-3,2.4477186E1,5.909874E-1,1.5070301E-1,1.3854648E0,-6.308984E-4,2.8842133E-3,1.0447216E-3,-1.115084E-3,1.3719931E-3,1.6480891E-3,-1.166249E-3,3.074385E-1,-1.0221541E-3,-1.1394807E-3,-1.4452213E-2,4.3446407E-2,2.4899561E-2,-3.279862E-2,-1.8372495E-2,-7.7175833E-3,-5.929917E-3,1.1107542E-2,-7.060384E-3,1.18195675E-2,-1.1355663E-2,-1.6291885E-3,-1.1335662E-2,1.6247608E-3,-2.490247E-3,7.9916455E-3],"split_indices":[0,4,6,1,1,5,0,0,5,7,0,5,1,5,5,0,0,0,0,0,0,0,0,0,0,0,0,0,0,0,0],"split_type":[0,0,0,0,0,0,0,0,0,0,0,0,0,0,0,0,0,0,0,0,0,0,0,0,0,0,0,0,0,0,0],"sum_hessian":[9.703379E3,1.2759113E3,8.427468E3,1.4487698E2,1.1310342E3,2.8905344E3,5.536933E3,2.0410227E1,1.2446676E2,8.2604755E2,3.0498666E2,5.6393677E2,2.3265977E3,2.7922646E3,2.7446685E3,1.1593562E1,8.816665E0,5.174279E0,1.1929248E2,3.7042422E2,4.5562335E2,2.0340845E2,1.01578224E2,2.1855327E2,3.4538348E2,4.5078546E2,1.8758121E3,1.7886578E2,2.613399E3,4.3234317E2,2.3123254E3],"tree_param":{"num_deleted":"0","num_feature":"11","num_nodes":"31","size_leaf_vector":"1"}},{"base_weights":[-1.2401113E-3,-4.975069E-2,3.649442E-2,-1.05163984E-1,-8.159569E-3,8.296336E-2,-5.8385957E-4,8.947177E-2,-1.0812494E-1,1.1696095E-1,-2.9221505E-2,7.1014486E-2,3.36391E-1,6.641391E-2,-2.628114E-2,-1.0365308E-2,5.4912944E-3,-7.8017004E-3,1.3511678E-2,-4.4791163E-3,7.833928E-3,4.2097005E-3,1.3671125E-2,3.7468307E-2,-8.942955E-3,4.6633035E-3,3.954507E-2,6.721104E-3,-3.6886053E-3],"categories":[],"categories_nodes":[],"categories_segments":[],"categories_sizes":[],"default_left":[0,0,0,0,0,0,0,0,0,0,0,0,0,0,0,0,0,0,0,0,0,0,0,0,0,0,0,0,0],"id":21,"left_children":[1,3,5,7,9,11,13,-1,15,17,19,21,23,25,27,-1,-1,-1,-1,-1,-1,-1,-1,-1,-1,-1,-1,-1,-1],"loss_changes":[1.7799967E1,9.804462E0,9.423925E0,6.3668537E0,6.4109406E0,7.3266163E0,5.2409735E0,0E0,4.3530903E0,3.0877175E0,5.9370685E0,4.4687243E0,5.0735064E0,3.8623736E0,3.9704914E0,0E0,0E0,0E0,0E0,0E0,0E0,0E0,0E0,0E0,0E0,0E0,0E0,0E0,0E0],"parents":[2147483647,0,0,1,1,2,2,3,3,4,4,5,5,6,6,8,8,9,9,10,10,11,11,12,12,13,13,14,14],"right_children":[2,4,6,8,10,12,14,-1,16,18,20,22,24,26,28,-1,-1,-1,-1,-1,-1,-1,-1,-1,-1,-1,-1,-1,-1],"split_conditions":[2.5396496E-3,7.28281E-1,8.540459E-1,-1.8794945E-3,5.4264152E-3,4.5461925E-3,8.3222705E-1,8.947177E-2,4.4512213E-3,9.6227974E-1,4.7669876E-3,8.660292E-4,1.8188442E0,6.1273216E-3,-1.166249E-3,-1.0365308E-2,5.4912944E-3,-7.8017004E-3,1.3511678E-2,-4.4791163E-3,7.833928E-3,4.2097005E-3,1.3671125E-2,3.7468307E-2,-8.942955E-3,4.6633035E-3,3.954507E-2,6.721104E-3,-3.6886053E-3],"split_indices":[0,6,9,5,3,7,8,0,7,6,2,5,1,0,5,0,0,0,0,0,0,0,0,0,0,0,0,0,0],"split_type":[0,0,0,0,0,0,0,0,0,0,0,0,0,0,0,0,0,0,0,0,0,0,0,0,0,0,0,0,0],"sum_hessian":[9.721982E3,4.253487E3,5.4684956E3,1.823048E3,2.4304387E3,2.4263706E3,3.0421252E3,3.7461734E0,1.8193018E3,3.4952106E2,2.0809177E3,2.318343E3,1.0802747E2,8.4291046E2,2.1992146E3,1.6847965E3,1.3450522E2,5.8346336E1,2.911747E2,1.744186E3,3.3673166E2,1.8720381E3,4.4630493E2,8.73712E1,2.0656273E1,8.2028906E2,2.2621359E1,3.0682407E2,1.8923906E3],"tree_param":{"num_deleted":"0","num_feature":"11","num_nodes":"29","size_leaf_vector":"1"}},{"base_weights":[-2.2618365E-3,1.3190684E-1,-7.817938E-2,1.8259741E-1,5.000135E-2,9.323227E-3,-1.2268297E-1,1.992789E-1,-1.4426653E-1,4.0622005E-1,3.2493077E-2,8.795244E-2,-5.496735E-2,-7.507381E-2,-1.7681277E-1,1.2775027E-2,2.4430618E-2,-1.7662888E-2,2.4550708E-2,-2.958536E-2,4.110712E-2,-2.0910269E-2,4.33047E-3,-2.8254879E-3,1.3214624E-2,-3.1506873E-3,-2.8648384E-2,-6.989315E-3,2.3844227E-2,-1.8704653E-2,-8.467453E-3],"categories":[],"categories_nodes":[],"categories_segments":[],"categories_sizes":[],"default_left":[0,0,0,0,0,0,0,0,0,0,0,0,0,0,0,0,0,0,0,0,0,0,0,0,0,0,0,0,0,0,0],"id":22,"left_children":[1,3,5,7,9,11,13,15,17,19,21,23,25,27,29,-1,-1,-1,-1,-1,-1,-1,-1,-1,-1,-1,-1,-1,-1,-1,-1],"loss_changes":[7.755248E1,1.1414085E1,1.8936363E1,9.293552E0,6.5554013E0,8.296324E0,8.293213E0,6.938507E0,2.3461838E0,3.0435581E0,5.177247E0,6.0454016E0,4.5469656E0,4.389717E0,5.010536E0,0E0,0E0,0E0,0E0,0E0,0E0,0E0,0E0,0E0,0E0,0E0,0E0,0E0,0E0,0E0,0E0],"parents":[2147483647,0,0,1,1,2,2,3,3,4,4,5,5,6,6,7,7,8,8,9,9,10,10,11,11,12,12,13,13,14,14],"right_children":[2,4,6,8,10,12,14,16,18,20,22,24,26,28,30,-1,-1,-1,-1,-1,-1,-1,-1,-1,-1,-1,-1,-1,-1,-1,-1],"split_conditions":[2.3016178E-3,1.1323774E0,5.682777E-1,4.496571E-3,1.97884E1,2.9508357E-3,3.264332E-3,1.2666852E0,2.2557222E-3,-1.9713437E-2,4.09697E-3,9.290166E-1,7.803468E1,2.6597615E-2,5.7613815E1,1.2775027E-2,2.4430618E-2,-1.7662888E-2,2.4550708E-2,-2.958536E-2,4.110712E-2,-2.0910269E-2,4.33047E-3,-2.8254879E-3,1.3214624E-2,-3.1506873E-3,-2.8648384E-2,-6.989315E-3,2.3844227E-2,-1.8704653E-2,-8.467453E-3],"split_indices":[0,6,6,7,4,0,0,9,0,10,3,9,4,3,4,0,0,0,0,0,0,0,0,0,0,0,0,0,0,0,0],"split_type":[0,0,0,0,0,0,0,0,0,0,0,0,0,0,0,0,0,0,0,0,0,0,0,0,0,0,0,0,0,0,0],"sum_hessian":[7.611805E3,2.750364E3,4.8614414E3,1.698159E3,1.052205E3,1.6392167E3,3.2222246E3,1.6160731E3,8.208593E1,4.825334E1,1.0039516E3,7.3721436E2,9.0200226E2,1.7156415E3,1.5065831E3,1.0405085E3,5.755645E2,7.203863E1,1.0047298E1,4.1648507E0,4.408849E1,6.1623203E1,9.4232837E2,2.639346E2,4.732798E2,8.492405E2,5.2761765E1,1.6825624E3,3.307907E1,9.6447296E2,5.421101E2],"tree_param":{"num_deleted":"0","num_feature":"11","num_nodes":"31","size_leaf_vector":"1"}},{"base_weights":[1.4788324E-4,-1.0679311E-1,2.140653E-2,-1.3681924E-1,-2.402599E-2,4.26522E-2,-2.5855077E-2,2.1685961E-1,-1.4571713E-1,-5.9884835E-2,3.6839873E-1,1.5393445E-2,8.782919E-2,-4.753189E-1,-1.869509E-2,-1.3812304E-2,4.3692265E-2,-1.728721E-2,-6.1962064E-3,1.63287E-2,-9.094764E-3,7.241635E-2,1.0259715E-2,6.774236E-3,-8.8946545E-4,6.037669E-4,1.1248529E-2,-2.3739899E-2,-6.343814E-2,-4.481953E-3,5.937881E-3],"categories":[],"categories_nodes":[],"categories_segments":[],"categories_sizes":[],"default_left":[0,0,0,0,0,0,0,0,0,0,0,0,0,0,0,0,0,0,0,0,0,0,0,0,0,0,0,0,0,0,0],"id":23,"left_children":[1,3,5,7,9,11,13,15,17,19,21,23,25,27,29,-1,-1,-1,-1,-1,-1,-1,-1,-1,-1,-1,-1,-1,-1,-1,-1],"loss_changes":[2.2096567E1,4.002157E0,8.142164E0,3.7528324E0,6.0767074E0,6.8871775E0,8.084875E0,3.4001825E0,4.83099E0,4.7110753E0,4.2288003E0,5.8037095E0,7.5612736E0,1.8844538E0,7.467707E0,0E0,0E0,0E0,0E0,0E0,0E0,0E0,0E0,0E0,0E0,0E0,0E0,0E0,0E0,0E0,0E0],"parents":[2147483647,0,0,1,1,2,2,3,3,4,4,5,5,6,6,7,7,8,8,9,9,10,10,11,11,12,12,13,13,14,14],"right_children":[2,4,6,8,10,12,14,16,18,20,22,24,26,28,30,-1,-1,-1,-1,-1,-1,-1,-1,-1,-1,-1,-1,-1,-1,-1,-1],"split_conditions":[1.8946911E-3,1.3854648E0,7.064269E-1,-8.123563E-3,7.9395056E-1,4.1102955E-1,1.341545E-1,1.3432332E1,3.2038995E-4,4.512426E-3,8.7587684E-1,-8.450751E-3,5.996921E-1,8.320877E-3,3.6420245E-3,-1.3812304E-2,4.3692265E-2,-1.728721E-2,-6.1962064E-3,1.63287E-2,-9.094764E-3,7.241635E-2,1.0259715E-2,6.774236E-3,-8.8946545E-4,6.037669E-4,1.1248529E-2,-2.3739899E-2,-6.343814E-2,-4.481953E-3,5.937881E-3],"split_indices":[0,1,10,2,9,10,8,4,2,3,9,2,1,2,0,0,0,0,0,0,0,0,0,0,0,0,0,0,0,0,0],"split_type":[0,0,0,0,0,0,0,0,0,0,0,0,0,0,0,0,0,0,0,0,0,0,0,0,0,0,0,0,0,0,0],"sum_hessian":[9.717518E3,1.6107356E3,8.106782E3,1.1814706E3,4.2926508E2,5.592751E3,2.5140312E3,2.8420572E1,1.1530499E3,3.941005E2,3.5164577E1,3.488943E3,2.1038076E3,3.839544E1,2.4756357E3,1.2682954E1,1.5737619E1,6.425021E2,5.1054785E2,6.1591602E1,3.3250888E2,1.1084883E1,2.4079695E1,1.00001294E3,2.4889302E3,7.480855E2,1.3557222E3,2.345833E1,1.4937109E1,1.7886144E3,6.8702136E2],"tree_param":{"num_deleted":"0","num_feature":"11","num_nodes":"31","size_leaf_vector":"1"}},{"base_weights":[-3.1413103E-3,-1.5279997E-2,1.05690636E-1,-7.036109E-2,2.1227212E-3,7.639678E-2,2.9851216E-1,4.9468422E-1,-7.4491225E-2,-2.856974E-2,3.015298E-2,9.509777E-2,-2.0803127E-1,-1.9012783E-1,3.3151436E-1,6.965502E-2,-3.5118014E-2,-1.3589171E-2,-3.3479887E-3,-1.0594065E-2,-1.3012714E-3,-1.9190874E-3,4.5759655E-3,2.9200286E-2,6.161974E-3,-5.123214E-2,-1.3682954E-3,1.9678414E-2,-5.625415E-2,7.9789415E-2,2.5291977E-2],"categories":[],"categories_nodes":[],"categories_segments":[],"categories_sizes":[],"default_left":[0,0,0,0,0,0,0,0,0,0,0,0,0,0,0,0,0,0,0,0,0,0,0,0,0,0,0,0,0,0,0],"id":24,"left_children":[1,3,5,7,9,11,13,15,17,19,21,23,25,27,29,-1,-1,-1,-1,-1,-1,-1,-1,-1,-1,-1,-1,-1,-1,-1,-1],"loss_changes":[1.2859216E1,8.394196E0,5.4943075E0,4.9434547E0,5.7266507E0,4.53711E0,2.1348324E0,4.875554E0,6.252062E0,4.0457525E0,4.345729E0,4.4538846E0,3.9832323E0,1.8961244E0,2.2098656E0,0E0,0E0,0E0,0E0,0E0,0E0,0E0,0E0,0E0,0E0,0E0,0E0,0E0,0E0,0E0,0E0],"parents":[2147483647,0,0,1,1,2,2,3,3,4,4,5,5,6,6,7,7,8,8,9,9,10,10,11,11,12,12,13,13,14,14],"right_children":[2,4,6,8,10,12,14,16,18,20,22,24,26,28,30,-1,-1,-1,-1,-1,-1,-1,-1,-1,-1,-1,-1,-1,-1,-1,-1],"split_conditions":[2.3636723E-2,2.0173818E-3,1.48349125E-2,-1.0181347E-2,8.1821495E-1,4.2662118E-2,2.8534138E-3,1.796364E-2,3.787234E1,3.0125284E1,1.0138569E-2,-2.1061513E-3,7.910111E-1,3.0092668E-2,3.3114324E-3,6.965502E-2,-3.5118014E-2,-1.3589171E-2,-3.3479887E-3,-1.0594065E-2,-1.3012714E-3,-1.9190874E-3,4.5759655E-3,2.9200286E-2,6.161974E-3,-5.123214E-2,-1.3682954E-3,1.9678414E-2,-5.625415E-2,7.9789415E-2,2.5291977E-2],"split_indices":[3,0,2,2,6,3,0,3,4,4,3,5,6,3,0,0,0,0,0,0,0,0,0,0,0,0,0,0,0,0,0],"split_type":[0,0,0,0,0,0,0,0,0,0,0,0,0,0,0,0,0,0,0,0,0,0,0,0,0,0,0,0,0,0,0],"sum_hessian":[9.731667E3,8.755926E3,9.757419E2,2.101489E3,6.6544365E3,8.482675E2,1.27474365E2,1.4387264E1,2.0871018E3,3.1763691E3,3.4780671E3,7.965598E2,5.1707718E1,7.7635746E0,1.1971079E2,1.0668024E1,3.7192397E0,6.07041E2,1.4800608E3,3.8425458E2,2.7921145E3,1.0779452E3,2.400122E3,6.5246994E1,7.313128E2,1.6217375E1,3.5490345E1,4.3681135E0,3.3954608E0,4.929987E0,1.1478081E2],"tree_param":{"num_deleted":"0","num_feature":"11","num_nodes":"31","size_leaf_vector":"1"}},{"base_weights":[8.6456386E-4,9.2037715E-2,-1.021987E-1,1.6156408E-1,3.3079866E-2,-1.5042613E-1,-3.8151495E-2,1.1519518E-1,2.4575274E-1,1.01029575E-1,-1.6882543E-2,-1.19047895E-1,-2.440045E-1,7.938394E-2,-9.145597E-2,1.6064221E-2,6.049209E-3,2.3499861E-2,-1.3398365E-2,5.753674E-2,7.7243433E-3,4.0300773E-3,-5.6456015E-3,-1.1246837E-2,1.4269904E-2,-2.1792484E-2,1.9005524E-2,-4.442787E-6,1.5070873E-2,-6.3459156E-3,-3.0800825E-2],"categories":[],"categories_nodes":[],"categories_segments":[],"categories_sizes":[],"default_left":[0,0,0,0,0,0,0,0,0,0,0,0,0,0,0,0,0,0,0,0,0,0,0,0,0,0,0,0,0,0,0],"id":25,"left_children":[1,3,5,7,9,11,13,15,17,19,21,23,25,27,29,-1,-1,-1,-1,-1,-1,-1,-1,-1,-1,-1,-1,-1,-1,-1,-1],"loss_changes":[7.121935E1,1.6479729E1,1.0983265E1,7.1746597E0,7.3940363E0,5.9291344E0,9.589996E0,3.8584929E0,8.152325E0,5.3349247E0,4.0023966E0,5.8146076E0,3.0009212E0,3.7163043E0,4.7637615E0,0E0,0E0,0E0,0E0,0E0,0E0,0E0,0E0,0E0,0E0,0E0,0E0,0E0,0E0,0E0,0E0],"parents":[2147483647,0,0,1,1,2,2,3,3,4,4,5,5,6,6,7,7,8,8,9,9,10,10,11,11,12,12,13,13,14,14],"right_children":[2,4,6,8,10,12,14,16,18,20,22,24,26,28,30,-1,-1,-1,-1,-1,-1,-1,-1,-1,-1,-1,-1,-1,-1,-1,-1],"split_conditions":[2.690143E-3,2.0275898E-3,1.2112489E0,1.0983301E0,6.6872805E-1,4.083309E-3,3.1607891E-3,1.5895092E-3,4.4512213E-3,-1.4023648E-3,4.2992336E-1,2.8901856E-2,4.7849927E-2,1.5213515E0,1.6220692E0,1.6064221E-2,6.049209E-3,2.3499861E-2,-1.3398365E-2,5.753674E-2,7.7243433E-3,4.0300773E-3,-5.6456015E-3,-1.1246837E-2,1.4269904E-2,-2.1792484E-2,1.9005524E-2,-4.442787E-6,1.5070873E-2,-6.3459156E-3,-3.0800825E-2],"split_indices":[0,0,8,9,6,0,0,0,7,5,10,3,3,9,6,0,0,0,0,0,0,0,0,0,0,0,0,0,0,0,0],"split_type":[0,0,0,0,0,0,0,0,0,0,0,0,0,0,0,0,0,0,0,0,0,0,0,0,0,0,0,0,0,0,0],"sum_hessian":[7.577265E3,4.0206091E3,3.556656E3,1.8441476E3,2.1764614E3,2.0281293E3,1.5285267E3,1.1907062E3,6.534414E2,9.2178986E2,1.2546716E3,1.5205411E3,5.0758813E2,4.7676938E2,1.0517573E3,4.4370935E2,7.4699677E2,6.0749695E2,4.5944458E1,1.4835419E1,9.0695447E2,5.460167E2,7.086549E2,1.4538528E3,6.668845E1,4.9493848E2,1.26496525E1,2.6378113E2,2.1298824E2,9.915498E2,6.0207565E1],"tree_param":{"num_deleted":"0","num_feature":"11","num_nodes":"31","size_leaf_vector":"1"}},{"base_weights":[5.40902E-3,-1.0938268E-1,2.2790994E-2,-1.1735813E-1,4.0477994E-1,1.2399645E-2,1.2328416E-1,-3.1357594E-2,-1.5407254E-1,-2.4049378E-3,6.547037E-1,-2.1235219E-1,1.6454754E-2,1.9065946E-1,1.3206267E-2,-5.397162E-3,2.6820669E-2,1.0505202E-2,-1.43502215E-2,4.5413222E-2,-3.806311E-2,8.102672E-2,-1.1188808E-2,-3.3729458E-3,-2.5341319E-2,2.203613E-3,-5.2030412E-3,1.3031365E-2,4.094179E-2,-9.835211E-3,1.0962884E-2],"categories":[],"categories_nodes":[],"categories_segments":[],"categories_sizes":[],"default_left":[0,0,0,0,0,0,0,0,0,0,0,0,0,0,0,0,0,0,0,0,0,0,0,0,0,0,0,0,0,0,0],"id":26,"left_children":[1,3,5,7,9,11,13,15,17,19,21,23,25,27,29,-1,-1,-1,-1,-1,-1,-1,-1,-1,-1,-1,-1,-1,-1,-1,-1],"loss_changes":[1.9377054E1,5.284608E0,8.805694E0,3.9685059E0,2.0096478E0,6.970802E0,5.858469E0,4.231424E0,3.6325665E0,2.2713623E0,2.9968767E0,1.9960232E0,5.5253916E0,5.253475E0,4.5089245E0,0E0,0E0,0E0,0E0,0E0,0E0,0E0,0E0,0E0,0E0,0E0,0E0,0E0,0E0,0E0,0E0],"parents":[2147483647,0,0,1,1,2,2,3,3,4,4,5,5,6,6,7,7,8,8,9,9,10,10,11,11,12,12,13,13,14,14],"right_children":[2,4,6,8,10,12,14,16,18,20,22,24,26,28,30,-1,-1,-1,-1,-1,-1,-1,-1,-1,-1,-1,-1,-1,-1,-1,-1],"split_conditions":[1.7871261E-3,8.887218E1,1.9513297E0,5.224026E-3,1.3188584E-3,4.840964E-3,1.9526691E-3,6.452369E1,-7.257551E-3,5.226142E-3,1.6601388E-3,7.472027E-1,7.285232E1,4.8270933E-3,6.2885475E-3,-5.397162E-3,2.6820669E-2,1.0505202E-2,-1.43502215E-2,4.5413222E-2,-3.806311E-2,8.102672E-2,-1.1188808E-2,-3.3729458E-3,-2.5341319E-2,2.203613E-3,-5.2030412E-3,1.3031365E-2,4.094179E-2,-9.835211E-3,1.0962884E-2],"split_indices":[0,4,1,3,0,3,2,4,2,2,0,8,4,0,2,0,0,0,0,0,0,0,0,0,0,0,0,0,0,0,0],"split_type":[0,0,0,0,0,0,0,0,0,0,0,0,0,0,0,0,0,0,0,0,0,0,0,0,0,0,0,0,0,0,0],"sum_hessian":[9.709068E3,1.2761299E3,8.432938E3,1.2573975E3,1.8732424E1,7.6436787E3,7.8926E2,3.7674854E2,8.806489E2,7.5013423E0,1.1231082E1,1.3455734E2,7.509121E3,4.8914023E2,3.001198E2,3.4555154E2,3.1197014E1,4.406005E1,8.3658887E2,3.3115547E0,4.1897874E0,7.986529E0,3.2445526E0,4.514552E1,8.941183E1,6.69362E3,8.155013E2,4.3485577E2,5.4284435E1,1.4199808E2,1.5812173E2],"tree_param":{"num_deleted":"0","num_feature":"11","num_nodes":"31","size_leaf_vector":"1"}},{"base_weights":[2.3387189E-3,-4.2814147E-2,3.717309E-2,-9.394002E-2,-5.154534E-3,8.0670014E-2,2.9983285E-3,8.5069165E-2,-9.682795E-2,-1.4769352E-2,2.66967E-1,5.937528E-2,1.9390994E-1,-1.4059935E-2,8.4003724E-2,-1.0880282E-2,-2.6971204E-4,8.819519E-3,-2.9777735E-3,-3.3297993E-2,3.1124473E-2,4.2907503E-3,2.8008105E-2,2.8930886E-2,4.659032E-3,-4.630963E-4,-1.828986E-2,1.7330559E-2,7.009909E-4],"categories":[],"categories_nodes":[],"categories_segments":[],"categories_sizes":[],"default_left":[0,0,0,0,0,0,0,0,0,0,0,0,0,0,0,0,0,0,0,0,0,0,0,0,0,0,0,0,0],"id":27,"left_children":[1,3,5,7,9,11,13,-1,15,17,19,21,23,25,27,-1,-1,-1,-1,-1,-1,-1,-1,-1,-1,-1,-1,-1,-1],"loss_changes":[1.5328564E1,8.171255E0,8.177511E0,5.7883224E0,6.4011245E0,5.825325E0,4.259723E0,0E0,5.244482E0,5.6779184E0,5.599447E0,4.8827586E0,7.7771873E0,4.4094453E0,4.8684645E0,0E0,0E0,0E0,0E0,0E0,0E0,0E0,0E0,0E0,0E0,0E0,0E0,0E0,0E0],"parents":[2147483647,0,0,1,1,2,2,3,3,4,4,5,5,6,6,8,8,9,9,10,10,11,11,12,12,13,13,14,14],"right_children":[2,4,6,8,10,12,14,-1,16,18,20,22,24,26,28,-1,-1,-1,-1,-1,-1,-1,-1,-1,-1,-1,-1,-1,-1],"split_conditions":[2.5396496E-3,7.28281E-1,8.540459E-1,-1.8794945E-3,1.0125843E0,8.5633874E-1,2.3636723E-2,8.5069165E-2,3.0767615E-3,5.4264152E-3,2.3481372E-4,1.2692262E-2,1.0897952E0,2.253158E-2,1.0682045E0,-1.0880282E-2,-2.6971204E-4,8.819519E-3,-2.9777735E-3,-3.3297993E-2,3.1124473E-2,4.2907503E-3,2.8008105E-2,2.8930886E-2,4.659032E-3,-4.630963E-4,-1.828986E-2,1.7330559E-2,7.009909E-4],"split_indices":[0,6,9,5,10,10,3,0,2,3,5,2,6,3,8,0,0,0,0,0,0,0,0,0,0,0,0,0,0],"split_type":[0,0,0,0,0,0,0,0,0,0,0,0,0,0,0,0,0,0,0,0,0,0,0,0,0,0,0,0,0],"sum_hessian":[9.743579E3,4.2432207E3,5.500359E3,1.7991879E3,2.4440327E3,2.4195042E3,3.0808547E3,3.8245592E0,1.7953633E3,2.3615388E3,8.249408E1,2.0378175E3,3.816866E2,2.54562E3,5.352348E2,1.3467102E3,4.4865305E2,3.4417783E2,2.017361E3,1.0411697E1,7.208238E1,1.9739976E3,6.3819942E1,1.8522249E2,1.9646411E2,2.4420774E3,1.03542694E2,2.0659949E2,3.2863535E2],"tree_param":{"num_deleted":"0","num_feature":"11","num_nodes":"29","size_leaf_vector":"1"}},{"base_weights":[7.0411275E-4,7.5238526E-2,-1.0955163E-1,1.6011293E-1,3.2540124E-2,-3.7512373E-2,-1.5026835E-1,1.0233513E-1,2.548273E-1,1.0141335E-1,-3.448258E-2,-1.7826041E-2,-2.5157055E-1,-1.2104165E-1,-2.2955033E-1,-1.1435351E-2,1.1777851E-2,3.2016102E-2,1.56829E-2,7.4458397E-3,3.2753307E-2,-3.3816833E-3,4.150376E-2,-3.6820024E-5,-2.0052878E-2,-6.502438E-3,-3.210712E-2,-1.18699055E-2,3.5395243E-3,5.9646115E-2,-2.0686941E-2],"categories":[],"categories_nodes":[],"categories_segments":[],"categories_sizes":[],"default_left":[0,0,0,0,0,0,0,0,0,0,0,0,0,0,0,0,0,0,0,0,0,0,0,0,0,0,0,0,0,0,0],"id":28,"left_children":[1,3,5,7,9,11,13,15,17,19,21,23,25,27,29,-1,-1,-1,-1,-1,-1,-1,-1,-1,-1,-1,-1,-1,-1,-1,-1],"loss_changes":[6.2113586E1,1.6338055E1,8.936657E0,8.232536E0,1.3859022E1,4.640263E0,4.484707E0,8.076546E0,4.8237E0,5.7738123E0,4.2378073E0,3.832785E0,2.019762E0,4.3187523E0,6.9099693E0,0E0,0E0,0E0,0E0,0E0,0E0,0E0,0E0,0E0,0E0,0E0,0E0,0E0,0E0,0E0,0E0],"parents":[2147483647,0,0,1,1,2,2,3,3,4,4,5,5,6,6,7,7,8,8,9,9,10,10,11,11,12,12,13,13,14,14],"right_children":[2,4,6,8,10,12,14,16,18,20,22,24,26,28,30,-1,-1,-1,-1,-1,-1,-1,-1,-1,-1,-1,-1,-1,-1,-1,-1],"split_conditions":[2.8442994E-3,1.9139391E-3,6.075452E-1,1.0136406E0,8.4320253E-1,5.108849E-3,4.285714E-3,4.391983E-3,3.8893342E-1,2.8047657E-3,8.887218E1,7.653453E1,5.061825E-1,2.5216555E-2,2.0228031E-1,-1.1435351E-2,1.1777851E-2,3.2016102E-2,1.56829E-2,7.4458397E-3,3.2753307E-2,-3.3816833E-3,4.150376E-2,-3.6820024E-5,-2.0052878E-2,-6.502438E-3,-3.210712E-2,-1.18699055E-2,3.5395243E-3,5.9646115E-2,-2.0686941E-2],"split_indices":[0,0,6,8,1,0,0,3,1,0,4,4,1,3,1,0,0,0,0,0,0,0,0,0,0,0,0,0,0,0,0],"split_type":[0,0,0,0,0,0,0,0,0,0,0,0,0,0,0,0,0,0,0,0,0,0,0,0,0,0,0,0,0,0,0],"sum_hessian":[7.556374E3,4.5087285E3,3.0476455E3,1.5081434E3,3.000585E3,1.1012131E3,1.9464324E3,9.3801465E2,5.701288E2,1.4796096E3,1.5209753E3,1.0094592E3,9.175386E1,1.424009E3,5.224234E2,1.24073044E2,8.139416E2,2.070543E2,3.6307446E2,1.4122019E3,6.7407715E1,1.5066189E3,1.4356459E1,9.358282E2,7.363106E1,3.9100655E1,5.2653206E1,1.2779998E3,1.4600928E2,6.9144826E0,5.155089E2],"tree_param":{"num_deleted":"0","num_feature":"11","num_nodes":"31","size_leaf_vector":"1"}},{"base_weights":[1.3813837E-3,-1.0287229E-1,1.7198658E-2,3.593788E-1,-1.084178E-1,-3.1910893E-2,4.1066E-2,-2.2284186E-2,7.896023E-1,1.2372958E-1,-1.2066853E-1,5.711652E-2,-5.3470988E-2,6.2516816E-2,-5.6630163E-3,3.0717643E-2,8.1054255E-2,2.7792847E-2,-7.3726703E-3,-2.6765428E-3,-1.3601962E-2,-7.830827E-3,1.2504336E-2,-2.1676337E-2,-3.5205383E-3,-3.6349217E-3,7.2011026E-3,-3.9820485E-2,1.1508094E-4],"categories":[],"categories_nodes":[],"categories_segments":[],"categories_sizes":[],"default_left":[0,0,0,0,0,0,0,0,0,0,0,0,0,0,0,0,0,0,0,0,0,0,0,0,0,0,0,0,0],"id":29,"left_children":[1,3,5,7,9,11,13,-1,15,17,19,21,23,25,27,-1,-1,-1,-1,-1,-1,-1,-1,-1,-1,-1,-1,-1,-1],"loss_changes":[1.6023203E1,3.320219E0,9.89016E0,4.326611E0,3.614335E0,5.3003902E0,5.6917715E0,0E0,3.1217146E-1,2.7632506E0,4.2159595E0,7.246656E0,5.3878293E0,9.100053E0,5.8049684E0,0E0,0E0,0E0,0E0,0E0,0E0,0E0,0E0,0E0,0E0,0E0,0E0,0E0,0E0],"parents":[2147483647,0,0,1,1,2,2,3,3,4,4,5,5,6,6,8,8,9,9,10,10,11,11,12,12,13,13,14,14],"right_children":[2,4,6,8,10,12,14,-1,16,18,20,22,24,26,28,-1,-1,-1,-1,-1,-1,-1,-1,-1,-1,-1,-1,-1,-1],"split_conditions":[1.7871261E-3,-1.0933811E-3,5.682777E-1,2.6458812E-1,3.6821846E-2,-6.308984E-4,7.026152E-1,-2.2284186E-2,1.4174721E-3,5.0505584E-1,5.224026E-3,-1.166249E-3,6.4415485E-1,-1.0452853E-3,1.4044069E-1,3.0717643E-2,8.1054255E-2,2.7792847E-2,-7.3726703E-3,-2.6765428E-3,-1.3601962E-2,-7.830827E-3,1.2504336E-2,-2.1676337E-2,-3.5205383E-3,-3.6349217E-3,7.2011026E-3,-3.9820485E-2,1.1508094E-4],"split_indices":[0,5,6,6,6,5,10,0,7,10,3,5,8,5,9,0,0,0,0,0,0,0,0,0,0,0,0,0,0],"split_type":[0,0,0,0,0,0,0,0,0,0,0,0,0,0,0,0,0,0,0,0,0,0,0,0,0,0,0,0,0],"sum_hessian":[9.714794E3,1.2790312E3,8.435763E3,1.4405941E1,1.2646254E3,2.7588347E3,5.676928E3,6.0524974E0,8.353444E0,6.2934605E1,1.2016908E3,5.375398E2,2.221295E3,3.8906147E3,1.7863132E3,3.2001858E0,5.1532583E0,3.1734983E1,3.1199623E1,3.6848392E2,8.3320685E2,2.0219621E2,3.353436E2,1.2420578E2,2.097089E3,6.774179E2,3.213197E3,2.569639E1,1.7606168E3],"tree_param":{"num_deleted":"0","num_feature":"11","num_nodes":"29","size_leaf_vector":"1"}},{"base_weights":[5.060231E-5,-4.8091438E-2,2.6849316E-2,-6.333916E-2,7.2821386E-2,2.1403559E-2,1.8988381E-1,-7.709107E-2,9.6504964E-2,1.2112261E-1,-4.077975E-1,2.6183555E-1,1.81444E-2,5.655909E-1,1.4248817E-1,-1.8104501E-3,-9.482252E-3,3.4063414E-3,3.9443884E-2,1.4829563E-5,2.3705022E-2,-4.5591686E-2,2.529311E-2,-2.980654E-3,3.0478733E-2,4.1452516E-3,-5.4032827E-4,1.8565798E-2,6.2955596E-2,-5.9994967E-3,1.9753603E-2],"categories":[],"categories_nodes":[],"categories_segments":[],"categories_sizes":[],"default_left":[0,0,0,0,0,0,0,0,0,0,0,0,0,0,0,0,0,0,0,0,0,0,0,0,0,0,0,0,0,0,0],"id":30,"left_children":[1,3,5,7,9,11,13,15,17,19,21,23,25,27,29,-1,-1,-1,-1,-1,-1,-1,-1,-1,-1,-1,-1,-1,-1,-1,-1],"loss_changes":[1.2542112E1,6.4138355E0,5.5406156E0,6.7945423E0,9.097532E0,4.731642E0,3.5116262E0,5.465416E0,5.063628E0,6.772493E0,3.4084158E0,2.3322368E0,4.475586E0,1.1911788E0,3.4736035E0,0E0,0E0,0E0,0E0,0E0,0E0,0E0,0E0,0E0,0E0,0E0,0E0,0E0,0E0,0E0,0E0],"parents":[2147483647,0,0,1,1,2,2,3,3,4,4,5,5,6,6,7,7,8,8,9,9,10,10,11,11,12,12,13,13,14,14],"right_children":[2,4,6,8,10,12,14,16,18,20,22,24,26,28,30,-1,-1,-1,-1,-1,-1,-1,-1,-1,-1,-1,-1,-1,-1,-1,-1],"split_conditions":[2.358825E-3,5.417979E-3,1.48349125E-2,6.635604E-4,1.0482066E-3,-2.307878E-3,3.7188247E-1,5.3963864E-1,1.0317621E0,1.0766413E0,1.5120386E-3,-2.0046834E-2,8.540459E-1,3.6420245E-3,6.2496343E-4,-1.8104501E-3,-9.482252E-3,3.4063414E-3,3.9443884E-2,1.4829563E-5,2.3705022E-2,-4.5591686E-2,2.529311E-2,-2.980654E-3,3.0478733E-2,4.1452516E-3,-5.4032827E-4,1.8565798E-2,6.2955596E-2,-5.9994967E-3,1.9753603E-2],"split_indices":[0,2,2,5,5,5,9,8,10,6,5,2,9,0,5,0,0,0,0,0,0,0,0,0,0,0,0,0,0,0,0],"split_type":[0,0,0,0,0,0,0,0,0,0,0,0,0,0,0,0,0,0,0,0,0,0,0,0,0,0,0,0,0,0,0],"sum_hessian":[9.719476E3,3.4753875E3,6.2440884E3,3.0866248E3,3.887628E2,6.0433564E3,2.007319E2,2.8425854E3,2.4403926E2,3.5394046E2,3.4822315E1,7.976358E1,5.963593E3,2.126108E1,1.7947081E2,1.0860717E3,1.7565138E3,2.1251917E2,3.1520092E1,2.009112E2,1.5302928E2,2.9656109E1,5.1662054E0,1.9758732E1,6.000485E1,2.6502012E3,3.3133916E3,7.8806133E0,1.3380466E1,5.3320885E1,1.2614993E2],"tree_param":{"num_deleted":"0","num_feature":"11","num_nodes":"31","size_leaf_vector":"1"}},{"base_weights":[1.3663253E-3,8.3870426E-2,-9.315017E-2,1.8643738E-1,5.524752E-2,-4.2475957E-2,-1.4142157E-1,-1.1680852E-1,2.1591854E-1,9.419066E-2,-1.925033E-2,4.1240584E-2,-8.881174E-2,1.5630285E-1,-1.5149568E-1,-2.9951489E-2,1.3532225E-2,3.4623433E-2,1.45824095E-2,-2.0814866E-2,8.577207E-3,6.289209E-2,-2.0885211E-3,1.5960431E-3,3.790396E-2,-6.1981697E-3,-2.4874605E-2,4.81063E-3,5.807587E-2,-1.0036578E-2,-1.9894756E-2],"categories":[],"categories_nodes":[],"categories_segments":[],"categories_sizes":[],"default_left":[0,0,0,0,0,0,0,0,0,0,0,0,0,0,0,0,0,0,0,0,0,0,0,0,0,0,0,0,0,0,0],"id":31,"left_children":[1,3,5,7,9,11,13,15,17,19,21,23,25,27,29,-1,-1,-1,-1,-1,-1,-1,-1,-1,-1,-1,-1,-1,-1,-1,-1],"loss_changes":[5.9202114E1,1.1890007E1,8.649324E0,7.9280586E0,9.200239E0,6.7053986E0,5.4576225E0,5.1907983E0,6.774227E0,4.7677536E0,4.4178066E0,5.593582E0,3.582183E0,3.1026618E0,4.808769E0,0E0,0E0,0E0,0E0,0E0,0E0,0E0,0E0,0E0,0E0,0E0,0E0,0E0,0E0,0E0,0E0],"parents":[2147483647,0,0,1,1,2,2,3,3,4,4,5,5,6,6,7,7,8,8,9,9,10,10,11,11,12,12,13,13,14,14],"right_children":[2,4,6,8,10,12,14,16,18,20,22,24,26,28,30,-1,-1,-1,-1,-1,-1,-1,-1,-1,-1,-1,-1,-1,-1,-1,-1],"split_conditions":[2.690143E-3,3.9381287E-1,8.1821495E-1,1.1547344E-1,2.2742662E-3,3.1607891E-3,3.3839774E-1,1.1889474E-3,1.6480891E-3,-1.115084E-3,1.07019514E-1,7.5525296E-1,7.653453E1,1.4554002E0,4.083309E-3,-2.9951489E-2,1.3532225E-2,3.4623433E-2,1.45824095E-2,-2.0814866E-2,8.577207E-3,6.289209E-2,-2.0885211E-3,1.5960431E-3,3.790396E-2,-6.1981697E-3,-2.4874605E-2,4.81063E-3,5.807587E-2,-1.0036578E-2,-1.9894756E-2],"split_indices":[0,1,6,6,0,0,1,2,0,5,9,6,4,6,0,0,0,0,0,0,0,0,0,0,0,0,0,0,0,0,0],"split_type":[0,0,0,0,0,0,0,0,0,0,0,0,0,0,0,0,0,0,0,0,0,0,0,0,0,0,0,0,0,0,0],"sum_hessian":[7.589961E3,4.052563E3,3.5373977E3,8.829823E2,3.1695808E3,1.7266648E3,1.8107329E3,7.797386E1,8.050085E2,2.0813223E3,1.0882585E3,6.1522516E2,1.1114396E3,5.8789337E1,1.7519436E3,4.1920303E1,3.6053562E1,1.4992078E2,6.550877E2,3.9745163E1,2.0415771E3,6.613014E0,1.0816455E3,5.838623E2,3.1362865E1,1.032311E3,7.91286E1,5.0366478E1,8.422857E0,1.2488651E3,5.0307846E2],"tree_param":{"num_deleted":"0","num_feature":"11","num_nodes":"31","size_leaf_vector":"1"}},{"base_weights":[1.8558373E-3,-9.500848E-2,1.6321916E-2,-1.6814938E-1,-3.175833E-2,2.6904163E-3,7.5839214E-2,1.8041907E-1,-1.9637524E-1,9.711586E-2,-7.2472446E-2,8.203937E-3,-1.5119736E-1,4.1715977E-1,6.155549E-2,-1.2847261E-2,2.5540313E-2,-3.715618E-2,-1.260068E-2,1.975059E-2,-9.413202E-3,-7.298585E-3,4.1130386E-2,-1.5747E-2,1.0492927E-3,-3.6556586E-3,-3.036671E-2,4.3143634E-2,1.2840196E-3,-8.5969195E-3,7.755217E-3],"categories":[],"categories_nodes":[],"categories_segments":[],"categories_sizes":[],"default_left":[0,0,0,0,0,0,0,0,0,0,0,0,0,0,0,0,0,0,0,0,0,0,0,0,0,0,0,0,0,0,0],"id":32,"left_children":[1,3,5,7,9,11,13,15,17,19,21,23,25,27,29,-1,-1,-1,-1,-1,-1,-1,-1,-1,-1,-1,-1,-1,-1,-1,-1],"loss_changes":[1.3589845E1,5.824541E0,6.845706E0,5.7828865E0,3.5593815E0,5.8273535E0,7.640422E0,1.8080902E0,6.203068E0,4.606952E0,3.879493E0,5.313451E0,5.2806883E0,2.2819633E0,7.303432E0,0E0,0E0,0E0,0E0,0E0,0E0,0E0,0E0,0E0,0E0,0E0,0E0,0E0,0E0,0E0,0E0],"parents":[2147483647,0,0,1,1,2,2,3,3,4,4,5,5,6,6,7,7,8,8,9,9,10,10,11,11,12,12,13,13,14,14],"right_children":[2,4,6,8,10,12,14,16,18,20,22,24,26,28,30,-1,-1,-1,-1,-1,-1,-1,-1,-1,-1,-1,-1,-1,-1,-1,-1],"split_conditions":[1.7871261E-3,-1.0456567E-3,3.9585046E-3,-7.257551E-3,1.3944188E-3,2.5216555E-2,1.01950485E-2,9.173235E-3,2.3337008E1,6.808407E-3,8.887218E1,4.840964E-3,7.175114E-1,4.4910116E-3,4.328296E-1,-1.2847261E-2,2.5540313E-2,-3.715618E-2,-1.260068E-2,1.975059E-2,-9.413202E-3,-7.298585E-3,4.1130386E-2,-1.5747E-2,1.0492927E-3,-3.6556586E-3,-3.036671E-2,4.3143634E-2,1.2840196E-3,-8.5969195E-3,7.755217E-3],"split_indices":[0,2,0,2,0,3,3,3,4,3,4,3,10,2,6,0,0,0,0,0,0,0,0,0,0,0,0,0,0,0,0],"split_type":[0,0,0,0,0,0,0,0,0,0,0,0,0,0,0,0,0,0,0,0,0,0,0,0,0,0,0,0,0,0,0],"sum_hessian":[9.696287E3,1.2591954E3,8.437092E3,5.831717E2,6.7602374E2,6.865665E3,1.5714272E3,4.3281765E1,5.398899E2,1.6196463E2,5.140591E2,6.629103E3,2.3656207E2,6.198733E1,1.50944E3,1.1436892E1,3.1844875E1,8.860503E1,4.5128488E2,9.805024E1,6.391439E1,5.0280084E2,1.1258275E1,1.3799306E2,6.49111E3,1.5591074E2,8.065133E1,5.0392742E1,1.159459E1,2.3252277E2,1.2769172E3],"tree_param":{"num_deleted":"0","num_feature":"11","num_nodes":"31","size_leaf_vector":"1"}},{"base_weights":[1.9147525E-3,-2.7603926E-2,3.6651414E-2,2.6672022E-2,-5.7957094E-2,2.4797883E-2,1.392218E-1,1.1770433E-1,7.8079575E-3,2.742306E-2,-7.4361704E-2,9.5314674E-2,4.7557023E-3,2.0856957E-1,-1.4494188E-1,8.79664E-3,7.520626E-2,-1.8800238E-2,1.5341092E-3,-7.93326E-3,7.4399225E-3,5.7025664E-2,-6.524331E-3,-4.7327433E-2,8.732303E-3,-2.4286635E-2,8.7222137E-4,1.907203E-2,-3.1884346E-2,-6.1581533E-2,-7.4040936E-3],"categories":[],"categories_nodes":[],"categories_segments":[],"categories_sizes":[],"default_left":[0,0,0,0,0,0,0,0,0,0,0,0,0,0,0,0,0,0,0,0,0,0,0,0,0,0,0,0,0,0,0],"id":33,"left_children":[1,3,5,7,9,11,13,15,17,19,21,23,25,27,29,-1,-1,-1,-1,-1,-1,-1,-1,-1,-1,-1,-1,-1,-1,-1,-1],"loss_changes":[9.97388E0,8.664629E0,5.4294806E0,3.2389965E0,4.7260637E0,5.6624494E0,9.148093E0,3.4388633E0,3.6712399E0,3.9588919E0,5.1020155E0,4.3467684E0,4.9945483E0,3.5194817E0,2.998949E0,0E0,0E0,0E0,0E0,0E0,0E0,0E0,0E0,0E0,0E0,0E0,0E0,0E0,0E0,0E0,0E0],"parents":[2147483647,0,0,1,1,2,2,3,3,4,4,5,5,6,6,7,7,8,8,9,9,10,10,11,11,12,12,13,13,14,14],"right_children":[2,4,6,8,10,12,14,16,18,20,22,24,26,28,30,-1,-1,-1,-1,-1,-1,-1,-1,-1,-1,-1,-1,-1,-1,-1,-1],"split_conditions":[2.793695E-3,5.3963864E-1,7.3190704E1,5.90778E-3,4.2278194E-1,1.7177482E-1,1.7603937E0,6.778623E-4,6.6338305E-4,2.503006E-1,-1.9782789E-3,9.200314E-2,9.89215E-4,2.71853E0,1.7996743E0,8.79664E-3,7.520626E-2,-1.8800238E-2,1.5341092E-3,-7.93326E-3,7.4399225E-3,5.7025664E-2,-6.524331E-3,-4.7327433E-2,8.732303E-3,-2.4286635E-2,8.7222137E-4,1.907203E-2,-3.1884346E-2,-6.1581533E-2,-7.4040936E-3],"split_indices":[0,8,4,3,9,10,9,5,7,9,5,8,7,6,9,0,0,0,0,0,0,0,0,0,0,0,0,0,0,0,0],"split_type":[0,0,0,0,0,0,0,0,0,0,0,0,0,0,0,0,0,0,0,0,0,0,0,0,0,0,0,0,0,0,0],"sum_hessian":[9.725019E3,5.2574897E3,4.467529E3,1.8857003E3,3.3717896E3,4.0058367E3,4.6169202E2,3.227871E2,1.5629132E3,5.4332184E2,2.8284678E3,8.8572595E2,3.1201106E3,3.7133652E2,9.035552E1,3.1802872E2,4.758382E0,6.602038E1,1.4968928E3,1.8037817E2,3.629437E2,8.167013E0,2.8203008E3,9.129593E0,8.765963E2,5.7091293E1,3.0630193E3,3.6214447E2,9.192049E0,7.152777E0,8.320275E1],"tree_param":{"num_deleted":"0","num_feature":"11","num_nodes":"31","size_leaf_vector":"1"}},{"base_weights":[-1.9912748E-4,6.26772E-2,-9.881975E-2,1.098924E-1,-2.700089E-3,-1.5646733E-2,-1.3494182E-1,4.4088986E-2,1.5719654E-1,1.6279456E-1,-2.9993951E-2,-3.7678473E-2,1.8648808E-1,-1.0337465E-1,-2.2289409E-1,9.387758E-3,-2.5908656E-3,1.4958723E-2,-4.840613E-3,-2.1955842E-2,2.2725727E-2,1.0662591E-2,-4.263821E-3,6.595099E-3,-6.8791434E-3,3.1658307E-2,-1.8107344E-3,-1.3666913E-2,-3.9006262E-3,-1.5143323E-2,-3.507192E-2],"categories":[],"categories_nodes":[],"categories_segments":[],"categories_sizes":[],"default_left":[0,0,0,0,0,0,0,0,0,0,0,0,0,0,0,0,0,0,0,0,0,0,0,0,0,0,0,0,0,0,0],"id":34,"left_children":[1,3,5,7,9,11,13,15,17,19,21,23,25,27,29,-1,-1,-1,-1,-1,-1,-1,-1,-1,-1,-1,-1,-1,-1,-1,-1],"loss_changes":[4.6913204E1,1.4261383E1,8.847378E0,8.343578E0,8.760444E0,3.9840071E0,5.6783066E0,5.5617466E0,6.2878876E0,1.2159531E1,5.2252903E0,4.025141E0,3.4059422E0,4.9860687E0,4.522438E0,0E0,0E0,0E0,0E0,0E0,0E0,0E0,0E0,0E0,0E0,0E0,0E0,0E0,0E0,0E0,0E0],"parents":[2147483647,0,0,1,1,2,2,3,3,4,4,5,5,6,6,7,7,8,8,9,9,10,10,11,11,12,12,13,13,14,14],"right_children":[2,4,6,8,10,12,14,16,18,20,22,24,26,28,30,-1,-1,-1,-1,-1,-1,-1,-1,-1,-1,-1,-1,-1,-1,-1,-1],"split_conditions":[2.8740284E-3,1.0616779E0,5.4644877E-1,9.280453E-1,1.5895092E-3,9.4953775E-1,4.3162582E-3,4.6270224E-1,8.002637E-4,4.391983E-3,2.4348547E-1,3.1908997E-3,7.116927E1,1.49912005E-2,1.846039E0,9.387758E-3,-2.5908656E-3,1.4958723E-2,-4.840613E-3,-2.1955842E-2,2.2725727E-2,1.0662591E-2,-4.263821E-3,6.595099E-3,-6.8791434E-3,3.1658307E-2,-1.8107344E-3,-1.3666913E-2,-3.9006262E-3,-1.5143323E-2,-3.507192E-2],"split_indices":[0,1,1,8,0,10,0,8,5,3,9,0,4,3,1,0,0,0,0,0,0,0,0,0,0,0,0,0,0,0,0],"split_type":[0,0,0,0,0,0,0,0,0,0,0,0,0,0,0,0,0,0,0,0,0,0,0,0,0,0,0,0,0,0,0],"sum_hessian":[7.563547E3,4.61902E3,2.9445269E3,2.6816575E3,1.9373627E3,8.920248E2,2.052502E3,1.1223379E3,1.5593195E3,2.7357755E2,1.663785E3,8.0508765E2,8.693716E1,1.5120015E3,5.405007E2,5.93625E2,5.287128E2,1.4337084E3,1.2561109E2,5.4128387E1,2.1944916E2,1.9049028E2,1.4732948E3,2.1945311E2,5.856345E2,4.546014E1,4.1477016E1,7.555779E2,7.564235E2,4.389341E2,1.0156655E2],"tree_param":{"num_deleted":"0","num_feature":"11","num_nodes":"31","size_leaf_vector":"1"}},{"base_weights":[5.2201238E-5,-8.95957E-2,1.5742965E-2,-1.4799812E-1,-5.0534256E-2,-2.38221E-2,3.6487024E-2,-2.3077378E-1,-4.6250038E-2,5.89018E-2,-9.144177E-2,-7.504448E-3,-1.1567505E-1,-4.9782872E-2,4.8475157E-2,-3.579859E-2,-1.4417663E-2,2.6385027E-3,-1.4610349E-2,-1.9969502E-3,2.5020476E-2,-9.029644E-3,2.8206518E-2,5.2947585E-2,-8.182366E-4,-1.5008006E-2,2.0208027E-2,-1.3740999E-2,-8.7967864E-4,6.850649E-3,-1.2673943E-4],"categories":[],"categories_nodes":[],"categories_segments":[],"categories_sizes":[],"default_left":[0,0,0,0,0,0,0,0,0,0,0,0,0,0,0,0,0,0,0,0,0,0,0,0,0,0,0,0,0,0,0],"id":35,"left_children":[1,3,5,7,9,11,13,15,17,19,21,23,25,27,29,-1,-1,-1,-1,-1,-1,-1,-1,-1,-1,-1,-1,-1,-1,-1,-1],"loss_changes":[1.3731459E1,3.3096914E0,6.8193913E0,4.893161E0,3.9128578E0,4.283019E0,5.6395135E0,3.6636696E0,2.5537934E0,4.626204E0,4.014994E0,3.2539387E0,9.3187475E0,2.9343193E0,7.6815796E0,0E0,0E0,0E0,0E0,0E0,0E0,0E0,0E0,0E0,0E0,0E0,0E0,0E0,0E0,0E0,0E0],"parents":[2147483647,0,0,1,1,2,2,3,3,4,4,5,5,6,6,7,7,8,8,9,9,10,10,11,11,12,12,13,13,14,14],"right_children":[2,4,6,8,10,12,14,16,18,20,22,24,26,28,30,-1,-1,-1,-1,-1,-1,-1,-1,-1,-1,-1,-1,-1,-1,-1,-1],"split_conditions":[1.8506887E-3,-1.7301427E-3,5.909874E-1,1.5895092E-3,4.820144E1,8.8297325E-1,-1.0452853E-3,-3.8856905E-4,1.0897952E0,2.19493E-3,8.887218E1,-2.2926988E-2,1.3150679E-2,9.7247446E-1,2.2638673E-3,-3.579859E-2,-1.4417663E-2,2.6385027E-3,-1.4610349E-2,-1.9969502E-3,2.5020476E-2,-9.029644E-3,2.8206518E-2,5.2947585E-2,-8.182366E-4,-1.5008006E-2,2.0208027E-2,-1.3740999E-2,-8.7967864E-4,6.850649E-3,-1.2673943E-4],"split_indices":[0,2,6,0,4,10,5,5,9,2,4,2,2,6,2,0,0,0,0,0,0,0,0,0,0,0,0,0,0,0,0],"split_type":[0,0,0,0,0,0,0,0,0,0,0,0,0,0,0,0,0,0,0,0,0,0,0,0,0,0,0,0,0,0,0],"sum_hessian":[9.7598545E3,1.4530815E3,8.306772E3,5.812464E2,8.718352E2,2.8571648E3,5.449608E3,3.198054E2,2.6144098E2,2.3710106E2,6.347342E2,2.427077E3,4.300879E2,6.6450385E2,4.7851045E3,7.6319534E1,2.4348586E2,1.623293E2,9.9111694E1,1.763053E2,6.0795753E1,6.140293E2,2.070488E1,7.160252E0,2.4199165E3,3.6730563E2,6.278227E1,1.7237253E2,4.921313E2,2.912314E3,1.8727903E3],"tree_param":{"num_deleted":"0","num_feature":"11","num_nodes":"31","size_leaf_vector":"1"}},{"base_weights":[-2.1249852E-3,-1.2664206E-2,9.221076E-2,-4.4609986E-2,1.2433617E-2,1.0517953E-1,-2.1953623E-1,-1.260062E-1,-2.7917076E-2,-1.9793503E-1,1.6479975E-2,9.294122E-2,4.262544E-1,-4.6181363E-1,2.913165E-1,-1.8854702E-2,-5.8552725E-3,1.4600346E-2,-3.4183343E-3,4.9325973E-2,-2.2723036E-2,-2.9000058E-3,3.1107715E-3,2.621109E-2,6.1205253E-3,1.8349815E-2,6.895599E-2,-1.7048609E-2,-5.9309393E-2,-8.768522E-4,6.208589E-2],"categories":[],"categories_nodes":[],"categories_segments":[],"categories_sizes":[],"default_left":[0,0,0,0,0,0,0,0,0,0,0,0,0,0,0,0,0,0,0,0,0,0,0,0,0,0,0,0,0,0,0],"id":36,"left_children":[1,3,5,7,9,11,13,15,17,19,21,23,25,27,29,-1,-1,-1,-1,-1,-1,-1,-1,-1,-1,-1,-1,-1,-1,-1,-1],"loss_changes":[9.696357E0,7.0340137E0,3.985529E0,5.2410455E0,4.1858034E0,3.6603718E0,5.019309E0,3.5782156E0,7.876176E0,5.167061E0,4.9092565E0,4.074242E0,2.602466E0,1.5340018E0,1.7703638E0,0E0,0E0,0E0,0E0,0E0,0E0,0E0,0E0,0E0,0E0,0E0,0E0,0E0,0E0,0E0,0E0],"parents":[2147483647,0,0,1,1,2,2,3,3,4,4,5,5,6,6,7,7,8,8,9,9,10,10,11,11,12,12,13,13,14,14],"right_children":[2,4,6,8,10,12,14,16,18,20,22,24,26,28,30,-1,-1,-1,-1,-1,-1,-1,-1,-1,-1,-1,-1,-1,-1,-1,-1],"split_conditions":[2.3636723E-2,7.495892E-1,4.7849927E-2,3.233639E1,-1.2516086E-2,2.7347184E-3,6.132198E-4,2.4773062E-3,1.6298933E-1,2.350552E-3,2.0964963E-3,-2.1061513E-3,5.8974847E-3,2.4905838E1,1.6299202E0,-1.8854702E-2,-5.8552725E-3,1.4600346E-2,-3.4183343E-3,4.9325973E-2,-2.2723036E-2,-2.9000058E-3,3.1107715E-3,2.621109E-2,6.1205253E-3,1.8349815E-2,6.895599E-2,-1.7048609E-2,-5.9309393E-2,-8.768522E-4,6.208589E-2],"split_indices":[3,1,3,4,2,5,5,7,1,0,0,5,0,4,1,0,0,0,0,0,0,0,0,0,0,0,0,0,0,0,0],"split_type":[0,0,0,0,0,0,0,0,0,0,0,0,0,0,0,0,0,0,0,0,0,0,0,0,0,0,0,0,0,0,0],"sum_hessian":[9.7505E3,8.77142E3,9.7908026E2,3.8588735E3,4.9125464E3,9.406131E2,3.8467167E1,6.5559265E2,3.2032808E3,9.180341E1,4.820743E3,9.0731854E2,3.3294514E1,2.6157627E1,1.230954E1,2.4378534E2,4.1180734E2,1.8509125E2,3.0181895E3,6.913077E0,8.4890335E1,1.3712292E3,3.449514E3,7.9147705E1,8.2817084E2,2.2539066E1,1.07554455E1,1.3291309E1,1.2866317E1,7.875899E0,4.4336405E0],"tree_param":{"num_deleted":"0","num_feature":"11","num_nodes":"31","size_leaf_vector":"1"}},{"base_weights":[-4.443378E-3,5.6135565E-2,-1.0101522E-1,1.3076356E-2,1.121145E-1,-3.1870253E-2,-1.351802E-1,5.8378816E-2,-5.46646E-2,-2.6222858E-1,1.2009459E-1,-1.0839669E-2,-2.487354E-1,-1.8278423E-1,-8.319516E-2,-1.8560806E-2,6.084958E-3,-1.3862698E-2,-2.4509723E-3,2.6695358E-3,-2.9793574E-2,2.130405E-2,7.2052563E-3,1.1274808E-4,-3.1558916E-2,-1.4928819E-2,-4.1557938E-2,-1.1375876E-2,-2.3264006E-2,-7.738438E-3,2.9767672E-2],"categories":[],"categories_nodes":[],"categories_segments":[],"categories_sizes":[],"default_left":[0,0,0,0,0,0,0,0,0,0,0,0,0,0,0,0,0,0,0,0,0,0,0,0,0,0,0,0,0,0,0],"id":37,"left_children":[1,3,5,7,9,11,13,15,17,19,21,23,25,27,29,-1,-1,-1,-1,-1,-1,-1,-1,-1,-1,-1,-1,-1,-1,-1,-1],"loss_changes":[4.429369E1,1.1213518E1,6.8903694E0,8.077218E0,6.074051E0,4.4052973E0,4.8181E0,5.7806106E0,2.9496188E0,1.1136389E0,9.115381E0,3.8686576E0,1.4134803E0,4.496521E0,3.2124772E0,0E0,0E0,0E0,0E0,0E0,0E0,0E0,0E0,0E0,0E0,0E0,0E0,0E0,0E0,0E0,0E0],"parents":[2147483647,0,0,1,1,2,2,3,3,4,4,5,5,6,6,7,7,8,8,9,9,10,10,11,11,12,12,13,13,14,14],"right_children":[2,4,6,8,10,12,14,16,18,20,22,24,26,28,30,-1,-1,-1,-1,-1,-1,-1,-1,-1,-1,-1,-1,-1,-1,-1,-1],"split_conditions":[2.8740284E-3,1.0136406E0,5.7394195E-1,2.2484781E-3,-1.0431676E-2,5.108849E-3,5.1303856E1,3.585375E-2,1.2261855E-3,-7.93839E-2,3.4078213E1,8.142857E1,1.9227792E0,4.083309E-3,1.1597053E0,-1.8560806E-2,6.084958E-3,-1.3862698E-2,-2.4509723E-3,2.6695358E-3,-2.9793574E-2,2.130405E-2,7.2052563E-3,1.1274808E-4,-3.1558916E-2,-1.4928819E-2,-4.1557938E-2,-1.1375876E-2,-2.3264006E-2,-7.738438E-3,2.9767672E-2],"split_indices":[0,8,6,0,2,0,4,10,7,10,4,4,8,0,10,0,0,0,0,0,0,0,0,0,0,0,0,0,0,0,0],"split_type":[0,0,0,0,0,0,0,0,0,0,0,0,0,0,0,0,0,0,0,0,0,0,0,0,0,0,0,0,0,0,0],"sum_hessian":[7.569317E3,4.651732E3,2.917585E3,2.629977E3,2.0217548E3,9.654955E2,1.9520896E3,1.5760892E3,1.0538877E3,4.1534344E1,1.9802205E3,8.811004E2,8.439509E1,1.01766846E3,9.3442114E2,7.109255E1,1.5049967E3,2.017366E2,8.5215106E2,9.749971E0,3.1784372E1,4.2045242E2,1.5597681E3,8.5329517E2,2.7805258E1,6.602945E1,1.8365639E1,6.6309674E2,3.5457172E2,9.1858325E2,1.5837891E1],"tree_param":{"num_deleted":"0","num_feature":"11","num_nodes":"31","size_leaf_vector":"1"}},{"base_weights":[2.0016986E-3,-8.395137E-2,1.896745E-2,-1.4953542E-1,-4.0147793E-2,2.0867153E-3,6.896431E-2,-2.3019066E-1,-6.466438E-2,-2.6039513E-2,-3.088068E-1,2.167454E-2,-4.3069974E-2,-3.1701306E-1,7.41403E-2,-3.4993537E-2,-1.4742759E-2,-1.2409476E-2,1.2189777E-2,2.9660482E-2,-3.3296281E-3,-4.4887774E-2,-6.4866105E-3,5.9927173E-4,1.1226092E-2,-6.0657286E-3,3.987354E-3,1.725384E-2,-3.6970317E-2,1.978255E-2,5.3346986E-3],"categories":[],"categories_nodes":[],"categories_segments":[],"categories_sizes":[],"default_left":[0,0,0,0,0,0,0,0,0,0,0,0,0,0,0,0,0,0,0,0,0,0,0,0,0,0,0,0,0,0,0],"id":38,"left_children":[1,3,5,7,9,11,13,15,17,19,21,23,25,27,29,-1,-1,-1,-1,-1,-1,-1,-1,-1,-1,-1,-1,-1,-1,-1,-1],"loss_changes":[1.4162946E1,4.5934544E0,6.8455043E0,4.3712635E0,3.6354866E0,5.3653784E0,4.113661E0,3.3082905E0,5.3279705E0,4.5166845E0,2.400186E0,6.8293147E0,4.6751194E0,1.7612753E0,3.6327171E0,0E0,0E0,0E0,0E0,0E0,0E0,0E0,0E0,0E0,0E0,0E0,0E0,0E0,0E0,0E0,0E0],"parents":[2147483647,0,0,1,1,2,2,3,3,4,4,5,5,6,6,7,7,8,8,9,9,10,10,11,11,12,12,13,13,14,14],"right_children":[2,4,6,8,10,12,14,16,18,20,22,24,26,28,30,-1,-1,-1,-1,-1,-1,-1,-1,-1,-1,-1,-1,-1,-1,-1,-1],"split_conditions":[1.8946911E-3,-1.7301427E-3,3.6762198E-3,1.5895092E-3,7.4715205E-3,7.064269E-1,8.2183674E-2,-3.8856905E-4,1.3689189E0,3.6821846E-2,7.0063096E-1,3.7965205E-4,1.4834044E0,-1.0948511E-2,1.0460598E-2,-3.4993537E-2,-1.4742759E-2,-1.2409476E-2,1.2189777E-2,2.9660482E-2,-3.3296281E-3,-4.4887774E-2,-6.4866105E-3,5.9927173E-4,1.1226092E-2,-6.0657286E-3,3.987354E-3,1.725384E-2,-3.6970317E-2,1.978255E-2,5.3346986E-3],"split_indices":[0,2,0,0,2,10,1,5,1,6,8,5,6,2,3,0,0,0,0,0,0,0,0,0,0,0,0,0,0,0,0],"split_type":[0,0,0,0,0,0,0,0,0,0,0,0,0,0,0,0,0,0,0,0,0,0,0,0,0,0,0,0,0,0,0],"sum_hessian":[9.710142E3,1.6000269E3,8.110115E3,6.3975397E2,9.602728E2,6.0638003E3,2.046315E3,3.27146E2,3.12608E2,9.134035E2,4.6869274E1,4.2296187E3,1.8341813E3,2.6280912E1,2.0200339E3,7.643171E1,2.507143E2,2.2497186E2,8.763613E1,3.0041136E1,8.833624E2,2.346552E1,2.3403753E1,3.7358018E3,4.93817E2,1.3955873E3,4.3859396E2,4.72512E0,2.1555794E1,1.3393109E2,1.8861029E3],"tree_param":{"num_deleted":"0","num_feature":"11","num_nodes":"31","size_leaf_vector":"1"}},{"base_weights":[3.597963E-3,-7.291852E-3,1.0262454E-1,-3.767241E-2,1.6388875E-2,3.96063E-1,8.976006E-2,2.410635E-2,-6.6836625E-2,-4.086348E-2,3.4834545E-2,7.012052E-1,2.5460944E-1,5.5840176E-2,1.6824044E-1,-3.094494E-4,1.1808166E-2,1.252588E-2,-6.3712345E-3,3.9369576E-2,-4.2954795E-3,3.4963243E-2,2.7137503E-3,3.959378E-2,8.119637E-2,-7.4557597E-3,3.8898695E-2,2.120826E-2,2.3943598E-3,2.3554478E-2,3.3025194E-3],"categories":[],"categories_nodes":[],"categories_segments":[],"categories_sizes":[],"default_left":[0,0,0,0,0,0,0,0,0,0,0,0,0,0,0,0,0,0,0,0,0,0,0,0,0,0,0,0,0,0,0],"id":39,"left_children":[1,3,5,7,9,11,13,15,17,19,21,23,25,27,29,-1,-1,-1,-1,-1,-1,-1,-1,-1,-1,-1,-1,-1,-1,-1,-1],"loss_changes":[1.0463748E1,6.2900352E0,3.593401E0,6.9016576E0,5.19036E0,1.5515442E0,2.4456677E0,3.9153142E0,4.535886E0,5.862229E0,4.0562577E0,2.8014898E-1,2.0526118E0,3.4518664E0,3.9027057E0,0E0,0E0,0E0,0E0,0E0,0E0,0E0,0E0,0E0,0E0,0E0,0E0,0E0,0E0,0E0,0E0],"parents":[2147483647,0,0,1,1,2,2,3,3,4,4,5,5,6,6,7,7,8,8,9,9,10,10,11,11,12,12,13,13,14,14],"right_children":[2,4,6,8,10,12,14,16,18,20,22,24,26,28,30,-1,-1,-1,-1,-1,-1,-1,-1,-1,-1,-1,-1,-1,-1,-1,-1],"split_conditions":[2.3636723E-2,7.495892E-1,2.3938077E-2,7.733489E-1,2.0173818E-3,2.7560228E-3,7.400067E-1,3.3114324E-3,1.6298933E-1,3.0623327E-3,-1.6237417E-1,1.7899672E0,3.6355297E-3,-2.1061513E-3,1.0782049E0,-3.094494E-4,1.1808166E-2,1.252588E-2,-6.3712345E-3,3.9369576E-2,-4.2954795E-3,3.4963243E-2,2.7137503E-3,3.959378E-2,8.119637E-2,-7.4557597E-3,3.8898695E-2,2.120826E-2,2.3943598E-3,2.3554478E-2,3.3025194E-3],"split_indices":[3,1,3,8,0,7,10,0,1,3,10,1,7,5,9,0,0,0,0,0,0,0,0,0,0,0,0,0,0,0,0],"split_type":[0,0,0,0,0,0,0,0,0,0,0,0,0,0,0,0,0,0,0,0,0,0,0,0,0,0,0,0,0,0,0],"sum_hessian":[9.701506E3,8.741177E3,9.6032874E2,3.8286812E3,4.912496E3,3.9081997E1,9.212467E2,1.227863E3,2.600818E3,1.1967533E3,3.7157427E3,1.1125357E1,2.795664E1,6.444301E2,2.7681662E2,9.8966016E2,2.3820296E2,9.435545E1,2.5064626E3,2.1648525E1,1.1751047E3,2.7403927E1,3.6883386E3,7.2454095E0,3.8799467E0,1.0619172E1,1.733747E1,7.95624E1,5.648677E2,1.497065E2,1.2711012E2],"tree_param":{"num_deleted":"0","num_feature":"11","num_nodes":"31","size_leaf_vector":"1"}},{"base_weights":[-5.3447955E-3,5.1182825E-2,-9.596235E-2,8.597746E-2,-9.5411595E-3,-4.3867867E-2,-1.4304629E-1,2.511753E-2,1.3045113E-1,1.2785524E-1,-3.295807E-2,-1.1652907E-1,3.5421588E-2,-5.483274E-2,-1.7997704E-1,7.832366E-3,-2.371059E-3,-1.1704815E-2,1.22129535E-2,3.8989661E-3,3.2520663E-2,5.1866686E-3,-4.7067744E-3,-1.0294828E-2,5.7781912E-2,1.3691432E-2,2.0688603E-4,4.604743E-4,-1.652788E-2,2.5954653E-2,-1.5923971E-2],"categories":[],"categories_nodes":[],"categories_segments":[],"categories_sizes":[],"default_left":[0,0,0,0,0,0,0,0,0,0,0,0,0,0,0,0,0,0,0,0,0,0,0,0,0,0,0,0,0,0,0],"id":40,"left_children":[1,3,5,7,9,11,13,15,17,19,21,23,25,27,29,-1,-1,-1,-1,-1,-1,-1,-1,-1,-1,-1,-1,-1,-1,-1,-1],"loss_changes":[3.8866016E1,9.873651E0,7.1431866E0,8.037355E0,5.483549E0,7.9847126E0,4.9764595E0,4.4637885E0,6.108534E0,5.165942E0,3.0702214E0,2.7231636E0,2.7484326E0,3.8125758E0,3.9114685E0,0E0,0E0,0E0,0E0,0E0,0E0,0E0,0E0,0E0,0E0,0E0,0E0,0E0,0E0,0E0,0E0],"parents":[2147483647,0,0,1,1,2,2,3,3,4,4,5,5,6,6,7,7,8,8,9,9,10,10,11,11,12,12,13,13,14,14],"right_children":[2,4,6,8,10,12,14,16,18,20,22,24,26,28,30,-1,-1,-1,-1,-1,-1,-1,-1,-1,-1,-1,-1,-1,-1,-1,-1],"split_conditions":[2.8740284E-3,1.164117E0,8.126893E-1,9.280453E-1,2.5679857E-1,1.2112489E0,4.6598303E-1,4.2322978E-1,-8.450751E-3,1.7899672E0,1.7146969E-3,4.7849927E-2,1.4303323E0,4.008905E-3,2.512243E-1,7.832366E-3,-2.371059E-3,-1.1704815E-2,1.22129535E-2,3.8989661E-3,3.2520663E-2,5.1866686E-3,-4.7067744E-3,-1.0294828E-2,5.7781912E-2,1.3691432E-2,2.0688603E-4,4.604743E-4,-1.652788E-2,2.5954653E-2,-1.5923971E-2],"split_indices":[0,1,1,8,9,8,9,8,2,1,0,3,9,0,6,0,0,0,0,0,0,0,0,0,0,0,0,0,0,0,0],"split_type":[0,0,0,0,0,0,0,0,0,0,0,0,0,0,0,0,0,0,0,0,0,0,0,0,0,0,0,0,0,0,0],"sum_hessian":[7.5855117E3,4.671713E3,2.9137993E3,2.9696802E3,1.7020323E3,1.3842135E3,1.5295857E3,1.2545111E3,1.7151692E3,2.4719287E2,1.4548395E3,7.220521E2,6.621614E2,4.5212213E2,1.0774636E3,5.5369275E2,7.0081836E2,8.020451E1,1.6349646E3,1.878998E2,5.9293068E1,2.7985E2,1.1749895E3,7.187602E2,3.2919378E0,1.3688107E2,5.252803E2,3.164982E2,1.3562392E2,1.5499096E1,1.0619645E3],"tree_param":{"num_deleted":"0","num_feature":"11","num_nodes":"31","size_leaf_vector":"1"}},{"base_weights":[3.3229764E-3,-3.2593906E-2,2.0946765E-2,-3.6117394E-2,3.079255E-1,-1.986531E-2,3.6638565E-2,-2.2863446E-2,-1.1308758E-1,8.014771E-2,1.4078058E-1,3.6095923E-1,-2.934215E-2,5.358984E-2,-1.6762791E-2,-6.9624614E-3,3.709806E-4,-1.8722339E-2,-3.3523822E-3,-6.1434475E-3,6.87941E-2,4.483657E-2,-4.475837E-3,-9.009347E-3,1.217175E-3,2.9195065E-3,1.2432008E-2,3.6436863E-2,-2.0671736E-3],"categories":[],"categories_nodes":[],"categories_segments":[],"categories_sizes":[],"default_left":[0,0,0,0,0,0,0,0,0,0,0,0,0,0,0,0,0,0,0,0,0,0,0,0,0,0,0,0,0],"id":41,"left_children":[1,3,5,7,9,11,13,15,17,-1,19,21,23,25,27,-1,-1,-1,-1,-1,-1,-1,-1,-1,-1,-1,-1,-1,-1],"loss_changes":[6.168509E0,3.8598466E0,4.1872272E0,3.2372432E0,3.3651557E0,6.564913E0,4.275415E0,4.3582225E0,3.6717129E0,0E0,3.9421744E0,3.0702848E0,5.9349484E0,6.386936E0,3.842814E0,0E0,0E0,0E0,0E0,0E0,0E0,0E0,0E0,0E0,0E0,0E0,0E0,0E0,0E0],"parents":[2147483647,0,0,1,1,2,2,3,3,4,4,5,5,6,6,7,7,8,8,10,10,11,11,12,12,13,13,14,14],"right_children":[2,4,6,8,10,12,14,16,18,-1,20,22,24,26,28,-1,-1,-1,-1,-1,-1,-1,-1,-1,-1,-1,-1,-1,-1],"split_conditions":[5.682777E-1,3.774273E-2,4.186494E-1,8.8297325E-1,1.677505E-1,-1.2516086E-2,6.3569683E1,2.3399079E-1,4.9614236E-3,8.014771E-2,1.7861066E0,3.4822105E1,3.6992407E-1,3.9718894E-4,-3.2868024E-4,-6.9624614E-3,3.709806E-4,-1.8722339E-2,-3.3523822E-3,-6.1434475E-3,6.87941E-2,4.483657E-2,-4.475837E-3,-9.009347E-3,1.217175E-3,2.9195065E-3,1.2432008E-2,3.6436863E-2,-2.0671736E-3],"split_indices":[6,3,8,10,10,2,4,10,2,0,9,4,10,5,5,0,0,0,0,0,0,0,0,0,0,0,0,0,0],"split_type":[0,0,0,0,0,0,0,0,0,0,0,0,0,0,0,0,0,0,0,0,0,0,0,0,0,0,0,0,0],"sum_hessian":[9.742932E3,3.2067659E3,6.536166E3,3.1748088E3,3.195703E1,1.8150974E3,4.7210684E3,2.7095352E3,4.6527368E2,5.691926E0,2.6265102E1,4.3171528E1,1.7719259E3,3.583537E3,1.1375312E3,8.5447296E2,1.8550621E3,1.8869147E2,2.765822E2,2.0594095E1,5.6710076E0,3.058294E1,1.2588591E1,6.42523E2,1.1294028E3,2.9684998E3,6.1503735E2,1.8047016E1,1.1194843E3],"tree_param":{"num_deleted":"0","num_feature":"11","num_nodes":"29","size_leaf_vector":"1"}},{"base_weights":[4.706086E-5,-9.3810335E-3,8.339891E-2,1.0444788E-1,-1.6534498E-2,5.9171923E-2,2.412465E-1,2.4149643E-1,3.495061E-2,-9.580544E-2,-2.1393779E-3,7.231902E-2,-3.2485572E-1,5.234558E-1,1.6967234E-1,4.540324E-2,1.2436853E-2,-4.699514E-4,2.7701665E-2,1.615728E-2,-8.867711E-3,1.4333701E-2,-5.608905E-4,3.9392825E-2,5.216009E-3,8.543568E-3,-3.81949E-2,6.637152E-2,2.8378344E-3,4.4815216E-2,7.3222495E-3],"categories":[],"categories_nodes":[],"categories_segments":[],"categories_sizes":[],"default_left":[0,0,0,0,0,0,0,0,0,0,0,0,0,0,0,0,0,0,0,0,0,0,0,0,0,0,0,0,0,0,0],"id":42,"left_children":[1,3,5,7,9,11,13,15,17,19,21,23,25,27,29,-1,-1,-1,-1,-1,-1,-1,-1,-1,-1,-1,-1,-1,-1,-1,-1],"loss_changes":[7.6147227E0,7.0900803E0,3.7512202E0,4.895308E0,9.347002E0,4.340069E0,2.5510616E0,4.742691E0,4.039026E0,3.086359E0,5.2811E0,3.5168777E0,1.5535123E0,3.2485986E0,3.1124868E0,0E0,0E0,0E0,0E0,0E0,0E0,0E0,0E0,0E0,0E0,0E0,0E0,0E0,0E0,0E0,0E0],"parents":[2147483647,0,0,1,1,2,2,3,3,4,4,5,5,6,6,7,7,8,8,9,9,10,10,11,11,12,12,13,13,14,14],"right_children":[2,4,6,8,10,12,14,16,18,20,22,24,26,28,30,-1,-1,-1,-1,-1,-1,-1,-1,-1,-1,-1,-1,-1,-1,-1,-1],"split_conditions":[2.3636723E-2,-1.166249E-3,1.48349125E-2,1.4506562E-2,3.3602913E1,2.4296145E0,5.2699107E-1,-3.770499E-3,4.716007E-3,-1.9603541E-1,1.6298933E-1,8.2183674E-2,2.5216555E-2,1.7390789E0,4.5860037E-1,4.540324E-2,1.2436853E-2,-4.699514E-4,2.7701665E-2,1.615728E-2,-8.867711E-3,1.4333701E-2,-5.608905E-4,3.9392825E-2,5.216009E-3,8.543568E-3,-3.81949E-2,6.637152E-2,2.8378344E-3,4.4815216E-2,7.3222495E-3],"split_indices":[3,5,2,3,4,9,9,2,0,10,1,1,3,6,6,0,0,0,0,0,0,0,0,0,0,0,0,0,0,0,0],"split_type":[0,0,0,0,0,0,0,0,0,0,0,0,0,0,0,0,0,0,0,0,0,0,0,0,0,0,0,0,0,0,0],"sum_hessian":[9.687808E3,8.704151E3,9.836565E2,5.1385626E2,8.190295E3,8.5396234E2,1.2969417E2,1.7206645E2,3.417898E2,1.2578608E3,6.932434E3,8.264797E2,2.748266E1,2.4961233E1,1.0473293E2,4.1095306E1,1.3097115E2,3.009063E2,4.088347E1,3.578706E1,1.2220739E3,1.7548239E2,6.7569517E3,2.1391106E1,8.0508856E2,6.2660294E0,2.121663E1,1.5976835E1,8.984398E0,1.8826944E1,8.590599E1],"tree_param":{"num_deleted":"0","num_feature":"11","num_nodes":"31","size_leaf_vector":"1"}},{"base_weights":[-3.8194554E-3,6.4299054E-2,-8.0230266E-2,1.6848564E-1,3.4733005E-2,-1.2922223E-1,-2.6334101E-2,-1.1217106E-2,2.117589E-1,6.468271E-2,-3.0075835E-2,-8.315643E-2,-1.891304E-1,-4.943476E-3,-2.2514336E-1,-4.1751355E-2,2.7885076E-3,2.0807428E-2,1.0106841E-3,1.2671799E-2,3.1310592E-3,-1.2675403E-2,-2.6743612E-4,-8.045914E-3,1.6378647E-2,5.862974E-3,-1.7482435E-2,4.563414E-3,-5.7515576E-3,4.1652806E-3,-2.2235947E-2],"categories":[],"categories_nodes":[],"categories_segments":[],"categories_sizes":[],"default_left":[0,0,0,0,0,0,0,0,0,0,0,0,0,0,0,0,0,0,0,0,0,0,0,0,0,0,0,0,0,0,0],"id":43,"left_children":[1,3,5,7,9,11,13,15,17,19,21,23,25,27,29,-1,-1,-1,-1,-1,-1,-1,-1,-1,-1,-1,-1,-1,-1,-1,-1],"loss_changes":[3.9450768E1,1.2337778E1,9.429052E0,6.888508E0,6.063013E0,5.1477184E0,7.237947E0,3.6674795E0,4.7094574E0,5.0145254E0,3.1657596E0,3.3795729E0,3.4840279E0,5.6591816E0,1.6652431E0,0E0,0E0,0E0,0E0,0E0,0E0,0E0,0E0,0E0,0E0,0E0,0E0,0E0,0E0,0E0,0E0],"parents":[2147483647,0,0,1,1,2,2,3,3,4,4,5,5,6,6,7,7,8,8,9,9,10,10,11,11,12,12,13,13,14,14],"right_children":[2,4,6,8,10,12,14,16,18,20,22,24,26,28,30,-1,-1,-1,-1,-1,-1,-1,-1,-1,-1,-1,-1,-1,-1,-1,-1],"split_conditions":[2.65104E-3,3.9381287E-1,1.1313984E0,1.8323278E-1,2.2742662E-3,3.4815376E-3,5.108849E-3,1.2177366E1,4.003952E-3,3.623107E1,1.2497243E-3,2.6597615E-2,1.0023527E-2,7.415952E-1,1.2595584E0,-4.1751355E-2,2.7885076E-3,2.0807428E-2,1.0106841E-3,1.2671799E-2,3.1310592E-3,-1.2675403E-2,-2.6743612E-4,-8.045914E-3,1.6378647E-2,5.862974E-3,-1.7482435E-2,4.563414E-3,-5.7515576E-3,4.1652806E-3,-2.2235947E-2],"split_indices":[0,1,8,1,0,0,0,4,7,4,7,3,3,1,8,0,0,0,0,0,0,0,0,0,0,0,0,0,0,0,0],"split_type":[0,0,0,0,0,0,0,0,0,0,0,0,0,0,0,0,0,0,0,0,0,0,0,0,0,0,0,0,0,0,0],"sum_hessian":[7.57742E3,4.0061692E3,3.571251E3,8.84526E2,3.1216433E3,1.8700059E3,1.701245E3,1.7180489E2,7.127211E2,2.1350076E3,9.866356E2,1.0584834E3,8.115225E2,1.5369082E3,1.643368E2,1.3580598E1,1.5822429E2,6.1143756E2,1.0128358E2,5.285958E2,1.6064119E3,1.811765E2,8.054591E2,1.0167471E3,4.17363E1,4.869607E1,7.628264E2,7.944357E2,7.424725E2,1.9248117E1,1.4508868E2],"tree_param":{"num_deleted":"0","num_feature":"11","num_nodes":"31","size_leaf_vector":"1"}},{"base_weights":[4.7038104E-3,-8.144194E-2,1.4618108E-2,-1.754231E-1,5.301912E-4,8.294216E-2,4.736642E-3,1.024563E-1,-2.00703E-1,-1.3906738E-2,5.097735E-1,-8.532857E-2,1.1753299E-1,-3.9981466E-2,1.8244319E-2,-5.2377353E-3,3.808664E-2,-3.485E-2,-1.41751E-2,5.5336867E-2,-2.063532E-3,-3.4928016E-2,7.2613E-2,-9.91248E-3,6.58834E-2,4.646534E-2,8.70838E-3,-2.4995788E-3,-2.100971E-2,-2.2554597E-4,4.656318E-3],"categories":[],"categories_nodes":[],"categories_segments":[],"categories_sizes":[],"default_left":[0,0,0,0,0,0,0,0,0,0,0,0,0,0,0,0,0,0,0,0,0,0,0,0,0,0,0,0,0,0,0],"id":44,"left_children":[1,3,5,7,9,11,13,15,17,19,21,23,25,27,29,-1,-1,-1,-1,-1,-1,-1,-1,-1,-1,-1,-1,-1,-1,-1,-1],"loss_changes":[8.293837E0,7.721377E0,5.8789077E0,3.3006506E0,3.9501557E0,6.4141636E0,4.596851E0,2.2731912E0,2.9740524E0,3.61878E0,5.0491257E0,5.1567383E0,5.85308E0,3.8609252E0,4.462528E0,0E0,0E0,0E0,0E0,0E0,0E0,0E0,0E0,0E0,0E0,0E0,0E0,0E0,0E0,0E0,0E0],"parents":[2147483647,0,0,1,1,2,2,3,3,4,4,5,5,6,6,7,7,8,8,9,9,10,10,11,11,12,12,13,13,14,14],"right_children":[2,4,6,8,10,12,14,16,18,20,22,24,26,28,30,-1,-1,-1,-1,-1,-1,-1,-1,-1,-1,-1,-1,-1,-1,-1,-1],"split_conditions":[1.6997146E-3,-9.80319E-4,-8.295947E-3,-6.997184E-3,8.887218E1,-1.9713437E-2,4.53844E-1,2.6096256E1,2.0930233E1,-1.0933811E-3,6.103601E-5,6.1273216E-3,2.1420163E-3,1.3339203E-3,3.1337466E-3,-5.2377353E-3,3.808664E-2,-3.485E-2,-1.41751E-2,5.5336867E-2,-2.063532E-3,-3.4928016E-2,7.2613E-2,