{"learner":{"attributes":{"best_iteration":"68","best_score":"1.055893552314806","scikit_learn":"{\"_estimator_type\": \"classifier\"}"},"feature_names":["atr_14","volatility_momentum","vol_ratio_lag3","vol_ratio_lag4","volatility_regime","hl_spread","vol_ratio_lag1","normalised_ema50","trend_strength","vol_momentum","bb_width","vol_ratio","macd_hist","upper_wick","vol_trend"],"feature_types":["float","float","float","float","float","float","float","float","float","float","float","float","float","float","float"],"gradient_booster":{"model":{"cats":{"enc":[],"feature_segments":[],"sorted_idx":[]},"gbtree_model_param":{"num_parallel_tree":"1","num_trees":"357"},"iteration_indptr":[0,3,6,9,12,15,18,21,24,27,30,33,36,39,42,45,48,51,54,57,60,63,66,69,72,75,78,81,84,87,90,93,96,99,102,105,108,111,114,117,120,123,126,129,132,135,138,141,144,147,150,153,156,159,162,165,168,171,174,177,180,183,186,189,192,195,198,201,204,207,210,213,216,219,222,225,228,231,234,237,240,243,246,249,252,255,258,261,264,267,270,273,276,279,282,285,288,291,294,297,300,303,306,309,312,315,318,321,324,327,330,333,336,339,342,345,348,351,354,357],"tree_info":[0,1,2,0,1,2,0,1,2,0,1,2,0,1,2,0,1,2,0,1,2,0,1,2,0,1,2,0,1,2,0,1,2,0,1,2,0,1,2,0,1,2,0,1,2,0,1,2,0,1,2,0,1,2,0,1,2,0,1,2,0,1,2,0,1,2,0,1,2,0,1,2,0,1,2,0,1,2,0,1,2,0,1,2,0,1,2,0,1,2,0,1,2,0,1,2,0,1,2,0,1,2,0,1,2,0,1,2,0,1,2,0,1,2,0,1,2,0,1,2,0,1,2,0,1,2,0,1,2,0,1,2,0,1,2,0,1,2,0,1,2,0,1,2,0,1,2,0,1,2,0,1,2,0,1,2,0,1,2,0,1,2,0,1,2,0,1,2,0,1,2,0,1,2,0,1,2,0,1,2,0,1,2,0,1,2,0,1,2,0,1,2,0,1,2,0,1,2,0,1,2,0,1,2,0,1,2,0,1,2,0,1,2,0,1,2,0,1,2,0,1,2,0,1,2,0,1,2,0,1,2,0,1,2,0,1,2,0,1,2,0,1,2,0,1,2,0,1,2,0,1,2,0,1,2,0,1,2,0,1,2,0,1,2,0,1,2,0,1,2,0,1,2,0,1,2,0,1,2,0,1,2,0,1,2,0,1,2,0,1,2,0,1,2,0,1,2,0,1,2,0,1,2,0,1,2,0,1,2,0,1,2,0,1,2,0,1,2,0,1,2,0,1,2,0,1,2,0,1,2,0,1,2,0,1,2,0,1,2,0,1,2,0,1,2,0,1,2,0,1,2,0,1,2,0,1,2],"trees":[{"base_weights":[-1.790632E-4,-7.071083E-2,5.508872E-2,-9.358269E-2,1.1036976E-2,-6.4168293E-3,1.0779969E-1,4.9079433E-2,-1.2259878E-1,-1.2323506E-2,1.3802248E-2,-8.470117E-4,1.2632905E-1,-1.4618628E-3,1.0091217E-2,-1.2516554E-2,-1.564274E-3,5.7687643E-3,-1.3095536E-3,2.0993943E-3,1.102047E-2],"categories":[],"categories_nodes":[],"categories_segments":[],"categories_sizes":[],"default_left":[0,0,0,0,0,0,0,0,0,0,0,0,0,0,0,0,0,0,0,0,0],"id":0,"left_children":[1,3,5,7,-1,9,11,13,15,-1,17,-1,19,-1,-1,-1,-1,-1,-1,-1,-1],"loss_changes":[1.5549863E1,8.797318E0,7.5925317E0,7.2549543E0,0E0,3.8606005E0,3.2717257E0,2.0958242E0,5.108963E0,0E0,1.9689369E0,0E0,1.1529045E0,0E0,0E0,0E0,0E0,0E0,0E0,0E0,0E0],"parents":[2147483647,0,0,1,1,2,2,3,3,5,5,6,6,7,7,8,8,10,10,12,12],"right_children":[2,4,6,8,-1,10,12,14,16,-1,18,-1,20,-1,-1,-1,-1,-1,-1,-1,-1],"split_conditions":[7.5130564E-1,2.4032949E-2,1.2457426E-1,8.013847E-1,1.1036976E-2,3.8764986E-1,6.562431E-4,9.301196E-3,8.355863E-1,-1.2323506E-2,-4.862318E-3,-8.470117E-4,9.961702E-3,-1.4618628E-3,1.0091217E-2,-1.2516554E-2,-1.564274E-3,5.7687643E-3,-1.3095536E-3,2.0993943E-3,1.102047E-2],"split_indices":[2,10,1,4,0,3,8,10,3,0,7,0,10,0,0,0,0,0,0,0,0],"split_type":[0,0,0,0,0,0,0,0,0,0,0,0,0,0,0,0,0,0,0,0,0],"sum_hessian":[3.9360425E3,1.7655444E3,2.170498E3,1.625555E3,1.399894E2,9.662359E2,1.2042621E3,2.4465022E2,1.3809048E3,1.2453315E2,8.4170276E2,1.2806601E2,1.076196E3,1.10401726E2,1.342485E2,9.33557E2,4.473478E2,3.2369788E2,5.180049E2,2.2212828E2,8.5406775E2],"tree_param":{"num_deleted":"0","num_feature":"15","num_nodes":"21","size_leaf_vector":"1"}},{"base_weights":[-1.506577E-2,1.3547744E-1,-8.548043E-2,2.1848875E-1,-0E0,-1.5595169E-2,-1.7733295E-1,2.488622E-1,-0E0,1.1494051E-1,-8.865359E-2,6.0828365E-2,-7.245635E-2,-6.260026E-2,-2.1690312E-1,2.5216779E-2,1.1557015E-2,-0E0,1.4461857E-2,-9.066607E-3,-0E0,8.420505E-3,-1.16671645E-5,-1.043684E-2,2.3170032E-3,-0E0,-7.828974E-3,-2.9054224E-3,-1.7997121E-2],"categories":[],"categories_nodes":[],"categories_segments":[],"categories_sizes":[],"default_left":[0,0,0,0,0,0,0,0,0,0,0,0,0,0,0,0,0,0,0,0,0,0,0,0,0,0,0,0,0],"id":1,"left_children":[1,3,5,7,9,11,13,15,-1,17,19,21,23,25,27,-1,-1,-1,-1,-1,-1,-1,-1,-1,-1,-1,-1,-1,-1],"loss_changes":[4.2824924E1,1.4218489E1,1.6916147E1,5.3770294E0,5.3079495E0,7.2198253E0,3.747425E0,2.4100761E0,0E0,1.8599193E0,5.241964E-1,2.5867302E0,7.1717405E0,1.3445332E0,1.5763588E0,0E0,0E0,0E0,0E0,0E0,0E0,0E0,0E0,0E0,0E0,0E0,0E0,0E0,0E0],"parents":[2147483647,0,0,1,1,2,2,3,3,4,4,5,5,6,6,7,7,9,9,10,10,11,11,12,12,13,13,14,14],"right_children":[2,4,6,8,10,12,14,16,-1,18,20,22,24,26,28,-1,-1,-1,-1,-1,-1,-1,-1,-1,-1,-1,-1,-1,-1],"split_conditions":[5.3533906E-1,1.2637307E-2,1.3568063E-2,4.935243E-3,3.0578806E-3,1.6720489E-3,9.367902E-1,2.217967E-3,-0E0,6.151733E-1,1.7834541E0,1.5047225E-4,1.3414086E0,2.8256106E-3,1.3226722E-3,2.5216779E-2,1.1557015E-2,-0E0,1.4461857E-2,-9.066607E-3,-0E0,8.420505E-3,-1.16671645E-5,-1.043684E-2,2.3170032E-3,-0E0,-7.828974E-3,-2.9054224E-3,-1.7997121E-2],"split_indices":[3,10,10,8,5,5,3,5,0,11,11,12,11,8,5,0,0,0,0,0,0,0,0,0,0,0,0,0,0],"split_type":[0,0,0,0,0,0,0,0,0,0,0,0,0,0,0,0,0,0,0,0,0,0,0,0,0,0,0,0,0],"sum_hessian":[4.0274602E3,1.2566581E3,2.770802E3,7.706477E2,4.8601038E2,1.6146042E3,1.1561979E3,6.7697534E2,9.3672386E1,2.1178105E2,2.742293E2,6.5208655E2,9.6251776E2,3.389402E2,8.172576E2,3.1314633E2,3.6382898E2,9.457744E1,1.1720362E2,1.7965187E2,9.457744E1,3.93243E2,2.588435E2,6.145271E2,3.4799066E2,9.910267E1,2.3983752E2,1.1358343E2,7.0367426E2],"tree_param":{"num_deleted":"0","num_feature":"15","num_nodes":"29","size_leaf_vector":"1"}},{"base_weights":[-8.561852E-4,-7.043718E-2,3.0361036E-2,2.977159E-2,-1.1333302E-1,9.806711E-3,9.678812E-2,-1.0043127E-2,8.025423E-3,-1.3844216E-1,3.3404096E-3,-0E0,8.917958E-3,2.15932E-2,1.74656E-1,-4.665379E-3,-0E0,-0E0,-1.2124532E-2,-4.4094864E-3,9.989386E-4,4.937412E-3,-5.900083E-4,6.684046E-4,1.8487083E-2],"categories":[],"categories_nodes":[],"categories_segments":[],"categories_sizes":[],"default_left":[0,0,0,0,0,0,0,0,0,0,0,0,0,0,0,0,0,0,0,0,0,0,0,0,0],"id":2,"left_children":[1,3,5,7,9,11,13,15,-1,17,-1,19,-1,21,23,-1,-1,-1,-1,-1,-1,-1,-1,-1,-1],"loss_changes":[8.797674E0,5.939256E0,3.1378312E0,1.5767195E0,4.2332296E0,1.7414626E0,2.3704014E0,3.9323935E-1,0E0,2.2157688E0,0E0,1.3543358E0,0E0,7.263309E-1,1.6127281E0,0E0,0E0,0E0,0E0,0E0,0E0,0E0,0E0,0E0,0E0],"parents":[2147483647,0,0,1,1,2,2,3,3,4,4,5,5,6,6,7,7,9,9,11,11,13,13,14,14],"right_children":[2,4,6,8,10,12,14,16,-1,18,-1,20,-1,22,24,-1,-1,-1,-1,-1,-1,-1,-1,-1,-1],"split_conditions":[5.3533906E-1,1.1525404E0,1.1598191E0,3.1992036E-3,6.717179E-3,8.166427E-3,1.3856517E0,2.658809E-1,8.025423E-3,8.400235E-1,3.3404096E-3,2.8687084E-1,8.917958E-3,7.43276E-1,6.6382796E-1,-4.665379E-3,-0E0,-0E0,-1.2124532E-2,-4.4094864E-3,9.989386E-4,4.937412E-3,-5.900083E-4,6.684046E-4,1.8487083E-2],"split_indices":[3,6,4,8,8,8,2,13,0,4,0,6,0,2,6,0,0,0,0,0,0,0,0,0,0],"split_type":[0,0,0,0,0,0,0,0,0,0,0,0,0,0,0,0,0,0,0,0,0,0,0,0,0],"sum_hessian":[3.9277651E3,1.2577798E3,2.6699854E3,3.4482556E2,9.129542E2,2.1093147E3,5.606706E2,1.9434825E2,1.5047731E2,8.155607E2,9.739348E1,1.9855986E3,1.2371604E2,3.277159E2,2.3295468E2,9.256768E1,1.0178058E2,1.2239992E2,6.931608E2,2.9569012E2,1.6899086E3,1.8996117E2,1.3775475E2,9.476122E1,1.3819345E2],"tree_param":{"num_deleted":"0","num_feature":"15","num_nodes":"25","size_leaf_vector":"1"}},{"base_weights":[-5.6455974E-3,-1.05626285E-1,3.4282576E-2,9.809198E-3,-1.3629963E-1,7.343895E-2,-1.3187252E-2,-2.1062958E-1,-3.6726434E-2,-1.7623749E-2,9.964034E-2,-8.618646E-2,3.5220332E-2,-8.349576E-3,-2.0815356E-2,-4.881786E-3,1.17421674E-4,2.0264657E-3,-7.870648E-3,-2.2187552E-3,8.761951E-3,-1.1880418E-2,6.1047585E-3,-6.6746413E-3,5.144989E-3],"categories":[],"categories_nodes":[],"categories_segments":[],"categories_sizes":[],"default_left":[0,0,0,0,0,0,0,0,0,0,0,0,0,0,0,0,0,0,0,0,0,0,0,0,0],"id":3,"left_children":[1,3,5,-1,7,9,11,13,15,17,19,21,23,-1,-1,-1,-1,-1,-1,-1,-1,-1,-1,-1,-1],"loss_changes":[1.6097717E1,8.696846E0,5.4880333E0,0E0,6.46805E0,4.208948E0,4.6027403E0,1.3080425E0,8.330877E-1,1.6714655E0,3.09824E0,6.821744E0,2.8413498E0,0E0,0E0,0E0,0E0,0E0,0E0,0E0,0E0,0E0,0E0,0E0,0E0],"parents":[2147483647,0,0,1,1,2,2,4,4,5,5,6,6,7,7,8,8,9,9,10,10,11,11,12,12],"right_children":[2,4,6,-1,8,10,12,14,16,18,20,22,24,-1,-1,-1,-1,-1,-1,-1,-1,-1,-1,-1,-1],"split_conditions":[5.0734276E-1,1.5794323E-1,8.85279E-1,9.809198E-3,3.4024653E-3,1.0782074E-3,1.0288376E0,1.1036909E0,5.030861E-3,1.8683102E-4,8.1349234E-4,5.459569E-3,7.71612E-2,-8.349576E-3,-2.0815356E-2,-4.881786E-3,1.17421674E-4,2.0264657E-3,-7.870648E-3,-2.2187552E-3,8.761951E-3,-1.1880418E-2,6.1047585E-3,-6.6746413E-3,5.144989E-3],"split_indices":[2,2,6,0,5,8,2,6,8,14,5,5,1,0,0,0,0,0,0,0,0,0,0,0,0],"split_type":[0,0,0,0,0,0,0,0,0,0,0,0,0,0,0,0,0,0,0,0,0,0,0,0,0],"sum_hessian":[3.9140498E3,1.1436239E3,2.770426E3,1.0758501E2,1.0360388E3,1.5688416E3,1.2015845E3,5.5469727E2,4.813416E2,3.105971E2,1.2582444E3,5.1362946E2,6.87955E2,2.6306345E2,2.9163382E2,3.4584564E2,1.3549594E2,1.75777E2,1.3482013E2,1.03785934E2,1.1544585E3,3.8194742E2,1.3168205E2,1.0714835E2,5.808067E2],"tree_param":{"num_deleted":"0","num_feature":"15","num_nodes":"25","size_leaf_vector":"1"}},{"base_weights":[-5.48453E-3,9.7287536E-2,-1.5854649E-1,2.1583468E-1,3.1073943E-3,-4.237766E-2,-2.2280021E-1,4.1643612E-2,3.226607E-1,1.8128636E-1,-5.746179E-2,-0E0,-1.4238519E-2,-6.8502456E-2,-1.895662E-2,-7.2021047E-3,8.6132735E-3,4.2424366E-2,1.7834244E-2,-0E0,1.8053478E-2,-1.3822289E-2,-2.464156E-4,-5.2195196E-3,8.183761E-3,-0E0,-1.0599831E-2],"categories":[],"categories_nodes":[],"categories_segments":[],"categories_sizes":[],"default_left":[0,0,0,0,0,0,0,0,0,0,0,0,0,0,0,0,0,0,0,0,0,0,0,0,0,0,0],"id":4,"left_children":[1,3,5,7,9,11,13,15,17,19,21,23,-1,25,-1,-1,-1,-1,-1,-1,-1,-1,-1,-1,-1,-1,-1],"loss_changes":[6.3963596E1,2.5762743E1,1.0836018E1,1.738617E1,1.5655793E1,4.545662E0,2.5065727E0,4.5251393E0,6.900444E0,3.4856224E0,6.0123806E0,3.8953075E0,0E0,1.2029856E0,0E0,0E0,0E0,0E0,0E0,0E0,0E0,0E0,0E0,0E0,0E0,0E0,0E0],"parents":[2147483647,0,0,1,1,2,2,3,3,4,4,5,5,6,6,7,7,8,8,9,9,10,10,11,11,13,13],"right_children":[2,4,6,8,10,12,14,16,18,20,22,24,-1,26,-1,-1,-1,-1,-1,-1,-1,-1,-1,-1,-1,-1,-1],"split_conditions":[2.9767347E-3,6.91869E-1,6.4771694E-1,9.151557E-1,1.8931952E-3,4.404863E-3,3.2388503E-3,7.3589414E-1,1.9383681E-3,7.719858E-1,8.58766E-1,1.0625215E0,-1.4238519E-2,3.1422132E-3,-1.895662E-2,-7.2021047E-3,8.6132735E-3,4.2424366E-2,1.7834244E-2,-0E0,1.8053478E-2,-1.3822289E-2,-2.464156E-4,-5.2195196E-3,8.183761E-3,-0E0,-1.0599831E-2],"split_indices":[0,3,3,4,0,0,0,4,0,4,4,4,0,8,0,0,0,0,0,0,0,0,0,0,0,0,0],"split_type":[0,0,0,0,0,0,0,0,0,0,0,0,0,0,0,0,0,0,0,0,0,0,0,0,0,0,0],"sum_hessian":[4.0140688E3,2.3863594E3,1.6277095E3,1.0241804E3,1.362179E3,6.163863E2,1.0113232E3,4.1540936E2,6.0877106E2,3.572887E2,1.00489026E3,4.72204E2,1.4418227E2,1.8757735E2,8.2374585E2,1.1833937E2,2.9706998E2,1.2450999E2,4.8426108E2,9.598973E1,2.6129898E2,2.651245E2,7.3976575E2,2.7272946E2,1.9947455E2,9.3868225E1,9.3709114E1],"tree_param":{"num_deleted":"0","num_feature":"15","num_nodes":"27","size_leaf_vector":"1"}},{"base_weights":[-1.4878415E-2,8.822381E-2,-2.5026856E-2,-4.8967646E-5,1.3847166E-2,-7.002435E-2,-6.356486E-4,-7.8082955E-3,-1.1572386E-1,5.2110996E-2,-2.9104415E-2,-6.44996E-3,3.9654663E-3,-1.0386627E-2,-1.2071434E-3,-0E0,1.39765795E-2,-1.286552E-2,-1.0528433E-3],"categories":[],"categories_nodes":[],"categories_segments":[],"categories_sizes":[],"default_left":[0,0,0,0,0,0,0,0,0,0,0,0,0,0,0,0,0,0,0],"id":5,"left_children":[1,3,5,-1,-1,7,9,11,13,15,17,-1,-1,-1,-1,-1,-1,-1,-1],"loss_changes":[3.8740625E0,3.5327108E0,3.6747031E0,0E0,0E0,2.8476634E0,3.6081657E0,2.9196875E0,6.1922836E-1,6.168251E0,2.6421328E0,0E0,0E0,0E0,0E0,0E0,0E0,0E0,0E0],"parents":[2147483647,0,0,1,1,2,2,5,5,6,6,7,7,8,8,9,9,10,10],"right_children":[2,4,6,-1,-1,8,10,12,14,16,18,-1,-1,-1,-1,-1,-1,-1,-1],"split_conditions":[7.445153E-1,4.5062912E-1,5.7362795E-1,-4.8967646E-5,1.3847166E-2,1.1308349E0,-1.7224908E-3,9.567707E-1,5.2131806E-4,-1.213537E-5,2.2075312E-1,-6.44996E-3,3.9654663E-3,-1.0386627E-2,-1.2071434E-3,-0E0,1.39765795E-2,-1.286552E-2,-1.0528433E-3],"split_indices":[4,6,2,0,0,6,14,4,12,12,6,0,0,0,0,0,0,0,0],"split_type":[0,0,0,0,0,0,0,0,0,0,0,0,0,0,0,0,0,0,0],"sum_hessian":[3.9417996E3,2.9898532E2,3.6428142E3,1.363464E2,1.626389E2,1.1998495E3,2.4429646E3,5.611957E2,6.386539E2,7.9199005E2,1.6509746E3,2.776267E2,2.8356897E2,4.811956E2,1.5745825E2,5.6285406E2,2.29136E2,1.13476906E2,1.5374977E3],"tree_param":{"num_deleted":"0","num_feature":"15","num_nodes":"19","size_leaf_vector":"1"}},{"base_weights":[-0E0,-8.85648E-2,8.392974E-2,-1.7070912E-1,-4.5168564E-2,1.3813913E-1,-0E0,-1.8203565E-3,-2.0056592E-1,-1.3318453E-2,-1.0590401E-2,-0E0,1.5593535E-1,-2.858432E-2,6.740925E-3,-1.8565126E-2,-4.4296863E-3,-5.457999E-3,1.3966627E-3,-0E0,1.3471748E-2,-0E0,-9.577057E-3],"categories":[],"categories_nodes":[],"categories_segments":[],"categories_sizes":[],"default_left":[0,0,0,0,0,0,0,0,0,0,0,0,0,0,0,0,0,0,0,0,0,0,0],"id":6,"left_children":[1,3,5,7,9,11,13,-1,15,17,-1,-1,19,21,-1,-1,-1,-1,-1,-1,-1,-1,-1],"loss_changes":[2.9325653E1,5.7488737E0,9.608169E0,1.5789356E0,3.2406473E0,3.7490253E0,1.7953079E0,0E0,1.3913078E0,2.2431848E0,0E0,0E0,3.241251E0,2.1546328E0,0E0,0E0,0E0,0E0,0E0,0E0,0E0,0E0,0E0],"parents":[2147483647,0,0,1,1,2,2,3,3,4,4,5,5,6,6,8,8,9,9,12,12,13,13],"right_children":[2,4,6,8,10,12,14,-1,16,18,-1,-1,20,22,-1,-1,-1,-1,-1,-1,-1,-1,-1],"split_conditions":[2.725085E-3,4.995124E-1,3.543686E-1,5.8027697E-1,1.6774808E0,6.3690194E-4,2.3739409E-2,-1.8203565E-3,2.9528295E-3,2.0234992E-3,-1.0590401E-2,-0E0,1.0120869E-2,8.587978E-3,6.740925E-3,-1.8565126E-2,-4.4296863E-3,-5.457999E-3,1.3966627E-3,-0E0,1.3471748E-2,-0E0,-9.577057E-3],"split_indices":[0,3,9,11,3,8,10,0,14,0,0,0,10,14,0,0,0,0,0,0,0,0,0],"split_type":[0,0,0,0,0,0,0,0,0,0,0,0,0,0,0,0,0,0,0,0,0,0,0],"sum_hessian":[3.9090557E3,1.9246798E3,1.9843759E3,6.097796E2,1.3149003E3,1.2254125E3,7.589633E2,1.3560887E2,4.7417072E2,1.0361694E3,2.787308E2,1.1318443E2,1.112228E3,6.1400385E2,1.4495947E2,3.261558E2,1.4801494E2,4.0960123E2,6.2656824E2,1.5751605E2,9.5471204E2,4.6361636E2,1.503875E2],"tree_param":{"num_deleted":"0","num_feature":"15","num_nodes":"23","size_leaf_vector":"1"}},{"base_weights":[-3.4521306E-3,1.1720674E-1,-1.61288E-1,4.8426695E-2,2.3224807E-1,-9.78201E-2,-2.5346076E-1,1.6923098E-2,1.4612976E-3,2.571113E-2,1.4387329E-1,-1.3980822E-1,5.043088E-2,-4.21018E-3,-2.0780355E-2,2.9569871E-3,-4.890276E-3,1.6595803E-4,1.6505647E-2,-1.4543275E-2,-4.674493E-3,8.478915E-3,-0E0],"categories":[],"categories_nodes":[],"categories_segments":[],"categories_sizes":[],"default_left":[0,0,0,0,0,0,0,0,0,0,0,0,0,0,0,0,0,0,0,0,0,0,0],"id":7,"left_children":[1,3,5,7,9,11,13,-1,15,-1,17,19,21,-1,-1,-1,-1,-1,-1,-1,-1,-1,-1],"loss_changes":[7.818043E1,1.667969E1,8.363415E0,1.1137147E1,4.703579E0,7.516119E0,9.7543335E-1,0E0,2.9235382E0,0E0,4.2605E0,2.2462807E0,9.7271913E-1,0E0,0E0,0E0,0E0,0E0,0E0,0E0,0E0,0E0,0E0],"parents":[2147483647,0,0,1,1,2,2,3,3,4,4,5,5,6,6,8,8,10,10,11,11,12,12],"right_children":[2,4,6,8,10,12,14,-1,16,-1,18,20,22,-1,-1,-1,-1,-1,-1,-1,-1,-1,-1],"split_conditions":[2.8770964E-3,1.1463023E0,3.947757E-3,1.6729485E-3,2.1300488E-3,6.191773E-1,3.97395E-1,1.6923098E-2,3.6556788E-3,2.571113E-2,-9.409369E-2,3.8752381E-3,4.0937972E-1,-4.21018E-3,-2.0780355E-2,2.9569871E-3,-4.890276E-3,1.6595803E-4,1.6505647E-2,-1.4543275E-2,-4.674493E-3,8.478915E-3,-0E0],"split_indices":[0,6,0,0,0,9,3,0,8,0,9,8,13,0,0,0,0,0,0,0,0,0,0],"split_type":[0,0,0,0,0,0,0,0,0,0,0,0,0,0,0,0,0,0,0,0,0,0,0],"sum_hessian":[4.060464E3,2.286372E3,1.7740922E3,1.4721237E3,8.1424835E2,1.1022188E3,6.718734E2,2.765344E2,1.1955892E3,3.220023E2,4.922461E2,8.850731E2,2.1714565E2,9.1626076E1,5.802473E2,8.129635E2,3.8262576E2,1.9708223E2,2.9516385E2,4.7929822E2,4.057749E2,1.08434456E2,1.0871118E2],"tree_param":{"num_deleted":"0","num_feature":"15","num_nodes":"23","size_leaf_vector":"1"}},{"base_weights":[1.8808262E-3,-6.037416E-2,9.610256E-2,1.3747928E-2,-1.4243053E-1,-0E0,1.1813089E-1,-1.1251654E-2,4.7781523E-2,-2.6424086E-2,-1.0484199E-1,2.8473053E-3,-6.9309706E-3,1.891153E-2,8.646426E-2,1.6706442E-2,2.796956E-4,-9.582718E-4,-1.1747087E-2,1.5728198E-2,3.2578604E-3],"categories":[],"categories_nodes":[],"categories_segments":[],"categories_sizes":[],"default_left":[0,0,0,0,0,0,0,0,0,0,0,0,0,0,0,0,0,0,0,0,0],"id":8,"left_children":[1,3,5,7,9,11,13,-1,15,-1,17,-1,-1,-1,19,-1,-1,-1,-1,-1,-1],"loss_changes":[2.3091364E1,1.4778168E1,3.8318157E0,6.2826743E0,5.988737E0,1.2311319E0,3.5221386E0,0E0,6.7671556E0,0E0,3.797409E0,0E0,0E0,0E0,4.5460443E0,0E0,0E0,0E0,0E0,0E0,0E0],"parents":[2147483647,0,0,1,1,2,2,3,3,4,4,5,5,6,6,8,8,10,10,14,14],"right_children":[2,4,6,8,10,12,14,-1,16,-1,18,-1,-1,-1,20,-1,-1,-1,-1,-1,-1],"split_conditions":[2.9767347E-3,9.4296294E-1,2.0052514E-3,1.5328741E-3,1.7676677E-3,1.8761115E-2,1.0803971E-2,-1.1251654E-2,7.445153E-1,-2.6424086E-2,8.1824255E-1,2.8473053E-3,-6.9309706E-3,1.891153E-2,2.8148212E-3,1.6706442E-2,2.796956E-4,-9.582718E-4,-1.1747087E-2,1.5728198E-2,3.2578604E-3],"split_indices":[0,4,5,0,0,10,10,0,4,0,6,0,0,0,5,0,0,0,0,0,0],"split_type":[0,0,0,0,0,0,0,0,0,0,0,0,0,0,0,0,0,0,0,0,0],"sum_hessian":[3.8737292E3,2.3053333E3,1.568396E3,1.1876732E3,1.11766E3,2.6150092E2,1.3068951E3,1.7155782E2,1.0161154E3,1.3103308E2,9.8662695E2,1.6116011E2,1.00340805E2,2.017016E2,1.1051935E3,1.707354E2,8.4538007E2,3.8894128E2,5.9768567E2,2.4592502E2,8.592685E2],"tree_param":{"num_deleted":"0","num_feature":"15","num_nodes":"21","size_leaf_vector":"1"}},{"base_weights":[5.7989557E-4,4.223775E-2,-6.714128E-2,8.630992E-4,1.4506829E-1,-1.4552511E-2,-3.4219436E-2,1.1014513E-1,-1.6219E-2,-0E0,1.6656083E-1,-5.572732E-2,1.0821214E-2,-0E0,1.4462623E-2,8.671998E-3,-2.3805178E-3,1.44121945E-2,-0E0,-5.543225E-3,4.0846734E-4,-2.1920023E-3,5.157663E-3],"categories":[],"categories_nodes":[],"categories_segments":[],"categories_sizes":[],"default_left":[0,0,0,0,0,0,0,0,0,0,0,0,0,0,0,0,0,0,0,0,0,0,0],"id":9,"left_children":[1,3,5,7,9,-1,11,13,15,-1,17,19,21,-1,-1,-1,-1,-1,-1,-1,-1,-1,-1],"loss_changes":[1.1159307E1,1.0012638E1,4.8756714E0,3.9315538E0,1.8235502E0,0E0,1.4100312E0,1.7731981E0,2.7827294E0,0E0,1.4342804E0,1.2933836E0,9.8683107E-1,0E0,0E0,0E0,0E0,0E0,0E0,0E0,0E0,0E0,0E0],"parents":[2147483647,0,0,1,1,2,2,3,3,4,4,6,6,7,7,8,8,10,10,11,11,12,12],"right_children":[2,4,6,8,10,-1,12,14,16,-1,18,20,22,-1,-1,-1,-1,-1,-1,-1,-1,-1,-1],"split_conditions":[3.3626124E-1,1.8055372E-1,2.3874994E-3,-7.912613E-1,-8.183581E-1,-1.4552511E-2,5.6870636E-3,1.3226722E-3,2.4442166E-2,-0E0,1.130903E0,2.1507207E-1,1.8360686E0,-0E0,1.4462623E-2,8.671998E-3,-2.3805178E-3,1.44121945E-2,-0E0,-5.543225E-3,4.0846734E-4,-2.1920023E-3,5.157663E-3],"split_indices":[9,1,5,9,9,0,5,5,13,0,11,1,11,0,0,0,0,0,0,0,0,0,0],"split_type":[0,0,0,0,0,0,0,0,0,0,0,0,0,0,0,0,0,0,0,0,0,0,0],"sum_hessian":[3.9644934E3,2.5026511E3,1.4618424E3,1.8301914E3,6.7245966E2,2.5743265E2,1.2044098E3,2.7321875E2,1.5569727E3,1.0068108E2,5.7177856E2,8.850057E2,3.1940405E2,1.447181E2,1.2850066E2,1.1761222E2,1.4393604E3,4.744313E2,9.734726E1,7.476959E2,1.3730972E2,1.4362456E2,1.757795E2],"tree_param":{"num_deleted":"0","num_feature":"15","num_nodes":"23","size_leaf_vector":"1"}},{"base_weights":[-8.582919E-3,1.519131E-1,-1.3166182E-1,2.7398145E-1,8.6676896E-2,-5.2395407E-2,-2.1017164E-1,2.4430485E-2,1.1803525E-2,3.2786974E-3,1.8811436E-1,-1.24361254E-1,1.648872E-2,-1.1584647E-1,-2.7381375E-1,8.042889E-3,-1.9034225E-3,1.617003E-2,3.6176795E-3,-1.0930758E-3,-1.2380486E-2,7.7247904E-3,-9.991115E-3,-1.115882E-2,-0E0,-2.2792816E-2,-4.803858E-3],"categories":[],"categories_nodes":[],"categories_segments":[],"categories_sizes":[],"default_left":[0,0,0,0,0,0,0,0,0,0,0,0,0,0,0,0,0,0,0,0,0,0,0,0,0,0,0],"id":10,"left_children":[1,3,5,7,9,11,13,-1,-1,15,17,19,21,23,25,-1,-1,-1,-1,-1,-1,-1,-1,-1,-1,-1,-1],"loss_changes":[8.0056694E1,1.1751034E1,1.2940765E1,1.2883377E-1,9.110039E0,6.5237617E0,4.3429337E0,0E0,0E0,2.4649353E0,3.722E-1,1.7812119E0,7.6302786E0,1.6766458E0,1.4857521E0,0E0,0E0,0E0,0E0,0E0,0E0,0E0,0E0,0E0,0E0,0E0,0E0],"parents":[2147483647,0,0,1,1,2,2,3,3,4,4,5,5,6,6,9,9,10,10,11,11,12,12,13,13,14,14],"right_children":[2,4,6,8,10,12,14,-1,-1,16,18,20,22,24,26,-1,-1,-1,-1,-1,-1,-1,-1,-1,-1,-1,-1],"split_conditions":[2.5575594E-3,1.8476932E-3,9.553451E-1,1.1678888E0,2.1360444E-1,1.3154672E0,3.2887359E-3,2.4430485E-2,1.1803525E-2,6.353622E-1,4.047155E-3,2.9873857E-3,3.947757E-3,5.2919625E-3,7.230055E-3,8.042889E-3,-1.9034225E-3,1.617003E-2,3.6176795E-3,-1.0930758E-3,-1.2380486E-2,7.7247904E-3,-9.991115E-3,-1.115882E-2,-0E0,-2.2792816E-2,-4.803858E-3],"split_indices":[0,0,3,3,9,11,0,0,0,3,8,0,0,8,14,0,0,0,0,0,0,0,0,0,0,0,0],"split_type":[0,0,0,0,0,0,0,0,0,0,0,0,0,0,0,0,0,0,0,0,0,0,0,0,0,0,0],"sum_hessian":[4.0238162E3,1.7277023E3,2.296114E3,5.571993E2,1.170503E3,1.1871229E3,1.108991E3,3.458619E2,2.1133734E2,6.780305E2,4.9247253E2,6.082235E2,5.788994E2,4.964874E2,6.125036E2,1.7351495E2,5.045156E2,3.8086368E2,1.1160885E2,1.9768834E2,4.1053516E2,3.9131198E2,1.8758745E2,3.7831497E2,1.1817245E2,5.162922E2,9.621143E1],"tree_param":{"num_deleted":"0","num_feature":"15","num_nodes":"27","size_leaf_vector":"1"}},{"base_weights":[7.2756573E-3,-9.0080805E-2,5.5604864E-2,4.417841E-2,-1.2782547E-1,1.0735245E-1,-2.0520565E-4,-0E0,8.914626E-3,-2.2796147E-1,-6.8510085E-2,6.4176708E-3,1.5269712E-1,-4.3837346E-2,6.0453627E-2,-2.0135874E-2,-4.579831E-3,-0E0,-8.4636025E-3,3.7327178E-3,-4.5265174E-3,1.7649753E-3,1.400553E-2,1.2516277E-3,-8.358938E-3,-1.1429063E-3,8.470032E-3],"categories":[],"categories_nodes":[],"categories_segments":[],"categories_sizes":[],"default_left":[0,0,0,0,0,0,0,0,0,0,0,0,0,0,0,0,0,0,0,0,0,0,0,0,0,0,0],"id":11,"left_children":[1,3,5,7,9,11,13,-1,-1,15,17,19,21,23,25,-1,-1,-1,-1,-1,-1,-1,-1,-1,-1,-1,-1],"loss_changes":[1.8295105E1,6.9295254E0,8.1815E0,1.0096601E0,4.3812065E0,5.7228527E0,3.2690651E0,0E0,0E0,3.2237244E-1,1.8610761E0,1.3908975E0,2.8574314E0,3.6207676E0,2.367373E0,0E0,0E0,0E0,0E0,0E0,0E0,0E0,0E0,0E0,0E0,0E0,0E0],"parents":[2147483647,0,0,1,1,2,2,3,3,4,4,5,5,6,6,9,9,10,10,11,11,12,12,13,13,14,14],"right_children":[2,4,6,8,10,12,14,-1,-1,16,18,20,22,24,26,-1,-1,-1,-1,-1,-1,-1,-1,-1,-1,-1,-1],"split_conditions":[1.0061643E-1,-8.13513E-3,2.1818688E-3,1.2700514E0,6.259419E-2,5.7362795E-1,2.1507207E-1,-0E0,8.914626E-3,-2.3604715E-3,-3.318255E-4,1.6531328E0,3.9714184E-1,1.7402446E-4,6.720557E-1,-2.0135874E-2,-4.579831E-3,-0E0,-8.4636025E-3,3.7327178E-3,-4.5265174E-3,1.7649753E-3,1.400553E-2,1.2516277E-3,-8.358938E-3,-1.1429063E-3,8.470032E-3],"split_indices":[1,7,7,2,1,2,1,0,0,7,12,11,11,12,11,0,0,0,0,0,0,0,0,0,0,0,0],"split_type":[0,0,0,0,0,0,0,0,0,0,0,0,0,0,0,0,0,0,0,0,0,0,0,0,0,0,0],"sum_hessian":[3.8889255E3,1.25213E3,2.6367957E3,2.4606747E2,1.00606256E3,1.4050168E3,1.2317787E3,1.5283347E2,9.323402E1,3.2616403E2,6.7989856E2,4.7450177E2,9.3051514E2,7.6545276E2,4.6632587E2,2.3465782E2,9.150621E1,2.8524838E2,3.9465018E2,3.349149E2,1.3958688E2,2.2057906E2,7.099361E2,3.6969067E2,3.9576212E2,1.5535593E2,3.1096994E2],"tree_param":{"num_deleted":"0","num_feature":"15","num_nodes":"27","size_leaf_vector":"1"}},{"base_weights":[1.0771661E-2,-5.695166E-2,7.335887E-2,4.993282E-3,-1.0224529E-1,1.4360036E-1,-0E0,-2.347445E-2,6.838279E-2,-1.2165402E-1,1.5837026E-3,-0E0,1.577225E-1,4.5204453E-2,-7.430069E-2,3.547229E-3,-7.441284E-3,-8.674251E-5,1.0148789E-2,-1.2411062E-2,-2.8756813E-3,9.464704E-3,2.2441378E-2,-0E0,1.2441771E-2,-0E0,-8.738845E-3],"categories":[],"categories_nodes":[],"categories_segments":[],"categories_sizes":[],"default_left":[0,0,0,0,0,0,0,0,0,0,0,0,0,0,0,0,0,0,0,0,0,0,0,0,0,0,0],"id":12,"left_children":[1,3,5,7,9,11,13,15,17,19,-1,-1,21,23,25,-1,-1,-1,-1,-1,-1,-1,-1,-1,-1,-1,-1],"loss_changes":[1.678075E1,5.688273E0,1.0299906E1,1.606916E0,3.202423E0,1.6428032E0,3.5189064E0,2.8519323E0,1.9690526E0,2.4545994E0,0E0,0E0,1.5751991E0,3.2259471E0,1.7122073E0,0E0,0E0,0E0,0E0,0E0,0E0,0E0,0E0,0E0,0E0,0E0,0E0],"parents":[2147483647,0,0,1,1,2,2,3,3,4,4,5,5,6,6,7,7,8,8,9,9,12,12,13,13,14,14],"right_children":[2,4,6,8,10,12,14,16,18,20,-1,-1,22,24,26,-1,-1,-1,-1,-1,-1,-1,-1,-1,-1,-1,-1],"split_conditions":[2.6590892E-3,5.8027697E-1,1.0179878E0,1.9645285E-4,8.4636396E-1,-1.085339E-2,3.639528E-4,-3.0178644E-4,1.9787156E-3,9.553451E-1,1.5837026E-3,-0E0,4.596534E-3,1.8979961E0,1.7668009E-1,3.547229E-3,-7.441284E-3,-8.674251E-5,1.0148789E-2,-1.2411062E-2,-2.8756813E-3,9.464704E-3,2.2441378E-2,-0E0,1.2441771E-2,-0E0,-8.738845E-3],"split_indices":[0,11,11,12,13,7,12,12,0,3,0,0,0,11,13,0,0,0,0,0,0,0,0,0,0,0,0],"split_type":[0,0,0,0,0,0,0,0,0,0,0,0,0,0,0,0,0,0,0,0,0,0,0,0,0,0,0],"sum_hessian":[3.9068972E3,1.8401301E3,2.066767E3,7.3850586E2,1.1016243E3,1.0264111E3,1.040356E3,4.6438565E2,2.741202E2,9.856804E2,1.1594381E2,1.1241804E2,9.139931E2,6.763654E2,3.6399057E2,2.0922472E2,2.5516095E2,1.0526771E2,1.688525E2,6.067619E2,3.7891852E2,7.9274963E2,1.2124347E2,5.20926E2,1.5543938E2,9.389421E1,2.7009637E2],"tree_param":{"num_deleted":"0","num_feature":"15","num_nodes":"27","size_leaf_vector":"1"}},{"base_weights":[9.46647E-3,1.933045E-1,-6.1638907E-2,1.2183061E-1,3.0436787E-1,-1.3315168E-1,2.6708988E-2,1.6933119E-2,4.688679E-2,2.7588028E-2,8.02232E-3,-4.805416E-2,-2.0517004E-1,7.905398E-2,-1.122552E-1,-0E0,1.3570633E-2,3.3348536E-3,-6.860008E-3,-1.8363938E-2,-7.3830206E-3,-1.9560936E-3,8.650689E-3,-8.726074E-4,-1.2298107E-2],"categories":[],"categories_nodes":[],"categories_segments":[],"categories_sizes":[],"default_left":[0,0,0,0,0,0,0,0,0,0,0,0,0,0,0,0,0,0,0,0,0,0,0,0,0],"id":13,"left_children":[1,3,5,7,9,11,13,-1,15,-1,-1,17,19,21,23,-1,-1,-1,-1,-1,-1,-1,-1,-1,-1],"loss_changes":[5.3615612E1,6.4398003E0,1.8929699E1,4.256689E0,1.9631653E0,8.654039E0,9.3254E0,0E0,3.2564912E0,0E0,0E0,3.433378E0,1.3695374E0,4.0353103E0,8.0661535E-1,0E0,0E0,0E0,0E0,0E0,0E0,0E0,0E0,0E0,0E0],"parents":[2147483647,0,0,1,1,2,2,3,3,4,4,5,5,6,6,8,8,11,11,12,12,13,13,14,14],"right_children":[2,4,6,8,10,12,14,-1,16,-1,-1,18,20,22,24,-1,-1,-1,-1,-1,-1,-1,-1,-1,-1],"split_conditions":[2.206843E-3,1.0954269E0,2.542307E-1,-5.1666534E-1,5.1563936E-1,3.0010764E-3,3.8742041E-3,1.6933119E-2,1.6315936E0,2.7588028E-2,8.02232E-3,-4.4172455E-4,1.3411794E0,7.3276734E-1,5.997708E-1,-0E0,1.3570633E-2,3.3348536E-3,-6.860008E-3,-1.8363938E-2,-7.3830206E-3,-1.9560936E-3,8.650689E-3,-8.726074E-4,-1.2298107E-2],"split_indices":[0,6,9,9,3,0,0,0,3,0,0,12,6,6,3,0,0,0,0,0,0,0,0,0,0],"split_type":[0,0,0,0,0,0,0,0,0,0,0,0,0,0,0,0,0,0,0,0,0,0,0,0,0],"sum_hessian":[4.0207866E3,1.1322927E3,2.888494E3,7.368667E2,3.9542603E2,1.6218273E3,1.2666666E3,2.7131546E2,4.655512E2,2.7458893E2,1.2083708E2,7.8700665E2,8.348206E2,9.5059894E2,3.1606766E2,3.4773404E2,1.1781716E2,2.1232343E2,5.746832E2,5.7194073E2,2.628799E2,2.0492636E2,7.4567255E2,1.4374765E2,1.7232002E2],"tree_param":{"num_deleted":"0","num_feature":"15","num_nodes":"25","size_leaf_vector":"1"}},{"base_weights":[-0E0,-1.4845487E-1,4.5015167E-2,-2.2455512E-1,-7.71607E-2,-0E0,1.07212596E-1,-2.297127E-2,-7.50368E-3,1.0945841E-3,-1.1544423E-1,-1.0580226E-1,1.4199573E-2,-3.4097799E-3,1.2649184E-1,-1.33713735E-2,-2.362695E-3,-1.3625718E-2,-0E0,3.7804542E-3,-1.8083534E-3,1.5907325E-2,6.398247E-3],"categories":[],"categories_nodes":[],"categories_segments":[],"categories_sizes":[],"default_left":[0,0,0,0,0,0,0,0,0,0,0,0,0,0,0,0,0,0,0,0,0,0,0],"id":14,"left_children":[1,3,5,7,9,11,13,-1,-1,-1,15,17,19,-1,21,-1,-1,-1,-1,-1,-1,-1,-1],"loss_changes":[2.606202E1,3.1598454E0,8.629488E0,1.4579544E0,2.3586001E0,2.806195E0,4.2555847E0,0E0,0E0,0E0,1.0101695E0,1.1048694E0,2.2498152E0,0E0,2.3918858E0,0E0,0E0,0E0,0E0,0E0,0E0,0E0,0E0],"parents":[2147483647,0,0,1,1,2,2,3,3,4,4,5,5,6,6,10,10,11,11,12,12,14,14],"right_children":[2,4,6,8,10,12,14,-1,-1,-1,16,18,20,-1,22,-1,-1,-1,-1,-1,-1,-1,-1],"split_conditions":[2.1133202E-3,1.7062604E-3,3.2887359E-3,-1.0153367E-3,-6.035175E-1,-9.0506306E-4,-1.6394809E-3,-2.297127E-2,-7.50368E-3,1.0945841E-3,-2.3945846E-5,2.2271017E-3,2.042097E-4,-3.4097799E-3,-4.5088E-4,-1.33713735E-2,-2.362695E-3,-1.3625718E-2,-0E0,3.7804542E-3,-1.8083534E-3,1.5907325E-2,6.398247E-3],"split_indices":[0,0,0,7,9,12,12,0,0,0,12,8,12,0,12,0,0,0,0,0,0,0,0],"split_type":[0,0,0,0,0,0,0,0,0,0,0,0,0,0,0,0,0,0,0,0,0,0,0],"sum_hessian":[3.893113E3,8.8784515E2,3.0052678E3,3.7918344E2,5.0866168E2,1.7385927E3,1.2666752E3,1.9496838E2,1.8421507E2,1.1584291E2,3.928188E2,2.0593942E2,1.5326532E3,1.11728745E2,1.1549464E3,1.83981E2,2.0883777E2,9.450603E1,1.1143339E2,8.538299E2,6.7882336E2,3.262929E2,8.2865356E2],"tree_param":{"num_deleted":"0","num_feature":"15","num_nodes":"23","size_leaf_vector":"1"}},{"base_weights":[3.236967E-2,-4.579263E-2,7.4274264E-2,4.6319127E-2,-1.1851317E-1,1.2448417E-1,2.2761744E-2,3.8250724E-3,1.3909134E-2,-7.0509235E-3,-1.6815186E-1,-6.8048167E-4,1.4605488E-1,6.918838E-2,-1.0831441E-2,1.2308089E-2,-2.0693743E-3,-7.017618E-3,2.334368E-3,-1.5328422E-2,-0E0,1.3438626E-3,1.2723449E-2,9.7508146E-4,1.0798334E-2,-2.914983E-3,4.70659E-3],"categories":[],"categories_nodes":[],"categories_segments":[],"categories_sizes":[],"default_left":[0,0,0,0,0,0,0,0,0,0,0,0,0,0,0,0,0,0,0,0,0,0,0,0,0,0,0],"id":15,"left_children":[1,3,5,7,9,11,13,15,-1,17,19,-1,21,23,25,-1,-1,-1,-1,-1,-1,-1,-1,-1,-1,-1,-1],"loss_changes":[1.326395E1,9.569627E0,6.080347E0,2.4887471E0,3.5359545E0,4.391321E0,2.436098E0,3.1455805E0,0E0,1.294001E0,2.7875967E0,0E0,2.247755E0,1.8571768E0,1.4392534E0,0E0,0E0,0E0,0E0,0E0,0E0,0E0,0E0,0E0,0E0,0E0,0E0],"parents":[2147483647,0,0,1,1,2,2,3,3,4,4,5,5,6,6,7,7,9,9,10,10,12,12,13,13,14,14],"right_children":[2,4,6,8,10,12,14,16,-1,18,20,-1,22,24,26,-1,-1,-1,-1,-1,-1,-1,-1,-1,-1,-1,-1],"split_conditions":[2.3643093E-3,8.731959E-1,9.771951E-1,1.2895568E-1,5.620024E-1,8.04903E-4,1.0585083E0,6.885617E-1,1.3909134E-2,1.5394068E-3,1.3642672E-1,-6.8048167E-4,5.0734276E-1,9.8491484E-1,2.146002E0,1.2308089E-2,-2.0693743E-3,-7.017618E-3,2.334368E-3,-1.5328422E-2,-0E0,1.3438626E-3,1.2723449E-2,9.7508146E-4,1.0798334E-2,-2.914983E-3,4.70659E-3],"split_indices":[0,4,6,1,6,8,4,4,0,8,1,0,2,4,6,0,0,0,0,0,0,0,0,0,0,0,0],"split_type":[0,0,0,0,0,0,0,0,0,0,0,0,0,0,0,0,0,0,0,0,0,0,0,0,0,0,0],"sum_hessian":[3.9733115E3,1.3459679E3,2.6273435E3,5.6721686E2,7.787511E2,1.2709507E3,1.3563928E3,4.7316406E2,9.4052765E1,2.7584552E2,5.0290558E2,1.4705861E2,1.1238921E3,6.222786E2,7.3411414E2,9.144701E1,3.8171707E2,1.1627835E2,1.5956717E2,4.1059695E2,9.230864E1,1.9992432E2,9.239677E2,4.0030502E2,2.2197362E2,5.8619946E2,1.4791469E2],"tree_param":{"num_deleted":"0","num_feature":"15","num_nodes":"27","size_leaf_vector":"1"}},{"base_weights":[4.2765676E-3,9.128322E-2,-1.037457E-1,-1.858773E-2,1.14946984E-1,-2.3299634E-2,-1.4225924E-2,2.6158443E-1,5.6702897E-2,-9.280319E-2,3.0529236E-2,3.3845868E-2,1.4572645E-2,-6.8757115E-3,5.563483E-3,-0E0,-9.581262E-3,5.7253847E-3,-2.2730986E-3],"categories":[],"categories_nodes":[],"categories_segments":[],"categories_sizes":[],"default_left":[0,0,0,0,0,0,0,0,0,0,0,0,0,0,0,0,0,0,0],"id":16,"left_children":[1,3,5,-1,7,9,-1,11,13,15,17,-1,-1,-1,-1,-1,-1,-1,-1],"loss_changes":[3.7691E1,1.7756092E1,1.0844542E1,0E0,1.6372572E1,3.9070265E0,0E0,2.8575745E0,3.8864393E0,1.4561942E0,1.6461853E0,0E0,0E0,0E0,0E0,0E0,0E0,0E0,0E0],"parents":[2147483647,0,0,1,1,2,2,4,4,5,5,7,7,8,8,9,9,10,10],"right_children":[2,4,6,-1,8,10,-1,12,14,16,18,-1,-1,-1,-1,-1,-1,-1,-1],"split_conditions":[1.4193611E-1,6.885617E-1,9.630376E-1,-1.858773E-2,4.6619138E-1,1.0237001E0,-1.4225924E-2,6.259419E-2,-1.2613693E-2,1.6224502E-1,9.108449E-1,3.3845868E-2,1.4572645E-2,-6.8757115E-3,5.563483E-3,-0E0,-9.581262E-3,5.7253847E-3,-2.2730986E-3],"split_indices":[1,4,3,0,2,4,0,1,14,1,2,0,0,0,0,0,0,0,0],"split_type":[0,0,0,0,0,0,0,0,0,0,0,0,0,0,0,0,0,0,0],"sum_hessian":[3.982857E3,2.2322197E3,1.7506371E3,1.228881E2,2.1093318E3,9.343435E2,8.1629364E2,5.593686E2,1.5499631E3,4.4162625E2,4.9271725E2,1.08499435E2,4.5086917E2,1.2072294E2,1.4292401E3,1.2027074E2,3.213555E2,3.2591803E2,1.6679921E2],"tree_param":{"num_deleted":"0","num_feature":"15","num_nodes":"19","size_leaf_vector":"1"}},{"base_weights":[-0E0,-1.5754253E-1,2.5578044E-2,3.060927E-3,-2.1734403E-1,-2.1986046E-3,1.1244297E-1,-1.9988466E-2,-4.8566028E-3,-6.937135E-2,2.5663137E-2,1.8907197E-1,-3.2213014E-3,-7.0764245E-3,-0E0,6.486132E-3,-1.0819217E-3,1.7047767E-2,-0E0,-5.676233E-3,4.1523753E-3],"categories":[],"categories_nodes":[],"categories_segments":[],"categories_sizes":[],"default_left":[0,0,0,0,0,0,0,0,0,0,0,0,0,0,0,0,0,0,0,0,0],"id":17,"left_children":[1,3,5,-1,7,9,11,-1,-1,13,15,17,19,-1,-1,-1,-1,-1,-1,-1,-1],"loss_changes":[1.5779892E1,7.467163E0,8.737087E0,0E0,1.2667446E0,5.012864E0,8.582585E0,0E0,0E0,1.7572856E0,4.585147E0,3.3705177E0,1.5652559E0,0E0,0E0,0E0,0E0,0E0,0E0,0E0,0E0],"parents":[2147483647,0,0,1,1,2,2,4,4,5,5,6,6,9,9,10,10,11,11,12,12],"right_children":[2,4,6,-1,8,10,12,-1,-1,14,16,18,20,-1,-1,-1,-1,-1,-1,-1,-1],"split_conditions":[1.8330548E-3,7.1520615E-1,3.7048408E-3,3.060927E-3,1.7062604E-3,5.1960063E-1,2.3306547E-2,-1.9988466E-2,-4.8566028E-3,3.1302457E-3,1.0596261E-2,1.3058286E0,1.195603E0,-7.0764245E-3,-0E0,6.486132E-3,-1.0819217E-3,1.7047767E-2,-0E0,-5.676233E-3,4.1523753E-3],"split_indices":[0,4,0,0,0,3,10,0,0,0,10,4,2,0,0,0,0,0,0,0,0],"split_type":[0,0,0,0,0,0,0,0,0,0,0,0,0,0,0,0,0,0,0,0,0],"sum_hessian":[3.9112974E3,5.293557E2,3.3819417E3,1.0536129E2,4.2399445E2,2.5328438E3,8.4909784E2,2.9198633E2,1.3200813E2,7.860192E2,1.7468246E3,5.2941394E2,3.1968393E2,6.2795624E2,1.58063E2,7.393296E2,1.007495E3,4.3575006E2,9.366388E1,1.7804141E2,1.416425E2],"tree_param":{"num_deleted":"0","num_feature":"15","num_nodes":"21","size_leaf_vector":"1"}},{"base_weights":[-1.7366376E-3,-4.7414746E-2,5.202868E-2,-0E0,-9.923991E-2,9.881667E-2,-1.7032903E-2,9.813496E-2,-3.084552E-2,-1.7436782E-1,-0E0,-2.2500668E-2,1.2887554E-1,-4.6779994E-2,4.5383284E-3,-0E0,1.247913E-2,-1.0334897E-2,-0E0,-3.8291516E-3,-1.599867E-2,-2.7743941E-3,6.040014E-3,-0E0,-6.196872E-3,1.2028498E-2,2.5024093E-3,-5.4907524E-3,1.0645295E-3],"categories":[],"categories_nodes":[],"categories_segments":[],"categories_sizes":[],"default_left":[0,0,0,0,0,0,0,0,0,0,0,0,0,0,0,0,0,0,0,0,0,0,0,0,0,0,0,0,0],"id":18,"left_children":[1,3,5,7,9,11,13,15,17,19,21,23,25,27,-1,-1,-1,-1,-1,-1,-1,-1,-1,-1,-1,-1,-1,-1,-1],"loss_changes":[9.761718E0,5.382596E0,6.180181E0,3.572394E0,8.570777E0,4.5965595E0,1.5676868E0,1.9626086E0,2.3876512E0,1.3848782E0,1.5300809E0,6.235756E-1,1.6195736E0,1.1638051E0,0E0,0E0,0E0,0E0,0E0,0E0,0E0,0E0,0E0,0E0,0E0,0E0,0E0,0E0,0E0],"parents":[2147483647,0,0,1,1,2,2,3,3,4,4,5,5,6,6,7,7,8,8,9,9,10,10,11,11,12,12,13,13],"right_children":[2,4,6,8,10,12,14,16,18,20,22,24,26,28,-1,-1,-1,-1,-1,-1,-1,-1,-1,-1,-1,-1,-1,-1,-1],"split_conditions":[1.4111426E-1,6.785569E-2,3.4854752E-1,8.147796E-2,3.2766366E-3,1.428184E-3,1.160291E0,-1.3642684E-3,9.065146E-4,8.58766E-1,1.0709047E0,9.670108E-1,3.3767387E-1,7.138547E-1,4.5383284E-3,-0E0,1.247913E-2,-1.0334897E-2,-0E0,-3.8291516E-3,-1.599867E-2,-2.7743941E-3,6.040014E-3,-0E0,-6.196872E-3,1.2028498E-2,2.5024093E-3,-5.4907524E-3,1.0645295E-3],"split_indices":[1,9,9,13,5,5,3,14,5,4,4,4,13,13,0,0,0,0,0,0,0,0,0,0,0,0,0,0,0],"split_type":[0,0,0,0,0,0,0,0,0,0,0,0,0,0,0,0,0,0,0,0,0,0,0,0,0,0,0,0,0],"sum_hessian":[3.9501296E3,2.1853154E3,1.7648145E3,1.1529237E3,1.0323916E3,1.089415E3,6.753994E2,2.646947E2,8.88229E2,6.049267E2,4.2746497E2,1.8527002E2,9.0414496E2,5.370569E2,1.3834253E2,1.0912638E2,1.5556833E2,1.578853E2,7.303437E2,1.7756197E2,4.273647E2,2.6226587E2,1.651991E2,9.3521095E1,9.174892E1,6.427285E2,2.6141647E2,4.3125186E2,1.0580503E2],"tree_param":{"num_deleted":"0","num_feature":"15","num_nodes":"29","size_leaf_vector":"1"}},{"base_weights":[-8.864974E-3,9.1354415E-2,-1.453078E-1,2.2733927E-1,3.9270323E-2,-1.656066E-1,-1.3909329E-2,-0E0,2.651403E-1,-4.7126576E-2,1.1966556E-1,-7.482108E-2,-1.8341435E-1,3.3726057E-3,-1.1800585E-2,2.324703E-2,2.83173E-3,-5.6133373E-3,3.413112E-3,1.3104705E-2,-0E0,-1.0210841E-2,-0E0,-1.642287E-2,-9.338801E-3],"categories":[],"categories_nodes":[],"categories_segments":[],"categories_sizes":[],"default_left":[0,0,0,0,0,0,0,0,0,0,0,0,0,0,0,0,0,0,0,0,0,0,0,0,0],"id":19,"left_children":[1,3,5,7,9,11,13,-1,15,17,19,21,23,-1,-1,-1,-1,-1,-1,-1,-1,-1,-1,-1,-1],"loss_changes":[5.5747803E1,1.4993851E1,3.7310104E0,4.2602997E0,1.2416379E1,9.0244293E-1,2.9957426E0,0E0,2.9905167E0,2.2167099E0,5.273651E0,1.7657435E0,2.6232147E-1,0E0,0E0,0E0,0E0,0E0,0E0,0E0,0E0,0E0,0E0,0E0,0E0],"parents":[2147483647,0,0,1,1,2,2,3,3,4,4,5,5,6,6,8,8,9,9,10,10,11,11,12,12],"right_children":[2,4,6,8,10,12,14,-1,16,18,20,22,24,-1,-1,-1,-1,-1,-1,-1,-1,-1,-1,-1,-1],"split_conditions":[2.8867752E-3,1.8715555E-3,7.023173E-1,4.432648E-3,-1.822819E-1,4.5860037E-1,3.947757E-3,-0E0,3.6556788E-3,1.5835244E-2,1.3726562E-1,4.6312944E-3,2.542307E-1,3.3726057E-3,-1.1800585E-2,2.324703E-2,2.83173E-3,-5.6133373E-3,3.413112E-3,1.3104705E-2,-0E0,-1.0210841E-2,-0E0,-1.642287E-2,-9.338801E-3],"split_indices":[0,0,9,10,9,11,0,0,8,10,1,8,9,0,0,0,0,0,0,0,0,0,0,0,0],"split_type":[0,0,0,0,0,0,0,0,0,0,0,0,0,0,0,0,0,0,0,0,0,0,0,0,0],"sum_hessian":[4.0246245E3,2.3031218E3,1.7215027E3,5.9646765E2,1.7066542E3,1.4555208E3,2.6598193E2,1.01808876E2,4.9465878E2,7.9703174E2,9.096224E2,2.9750842E2,1.1580125E3,1.7244498E2,9.353695E1,3.9543433E2,9.922447E1,6.598635E2,1.3716826E2,6.0332367E2,3.062987E2,1.7740334E2,1.2010508E2,6.6596E2,4.9205234E2],"tree_param":{"num_deleted":"0","num_feature":"15","num_nodes":"25","size_leaf_vector":"1"}},{"base_weights":[2.4922437E-3,-1.1375864E-1,4.0225863E-2,-2.163906E-1,-2.2536816E-2,6.931649E-2,-0E0,-2.0587532E-2,-5.3741504E-3,2.469521E-3,-1.2575402E-2,-2.5771242E-2,8.767761E-2,-8.489562E-2,6.0694072E-2,-4.697876E-3,7.431872E-3,3.4937738E-3,-8.189754E-3,9.356841E-3,1.3854178E-3,-8.531166E-3,-0E0,7.342553E-3,7.664186E-5],"categories":[],"categories_nodes":[],"categories_segments":[],"categories_sizes":[],"default_left":[0,0,0,0,0,0,0,0,0,0,0,0,0,0,0,0,0,0,0,0,0,0,0,0,0],"id":20,"left_children":[1,3,5,7,9,11,13,-1,-1,15,-1,17,19,21,23,-1,-1,-1,-1,-1,-1,-1,-1,-1,-1],"loss_changes":[1.6802502E1,7.445116E0,3.768097E0,1.3126297E0,2.7129076E0,3.4603653E0,6.4248095E0,0E0,0E0,3.0065758E0,0E0,1.9205313E0,3.1158123E0,1.7506275E0,1.0130248E0,0E0,0E0,0E0,0E0,0E0,0E0,0E0,0E0,0E0,0E0],"parents":[2147483647,0,0,1,1,2,2,3,3,4,4,5,5,6,6,9,9,11,11,12,12,13,13,14,14],"right_children":[2,4,6,8,10,12,14,-1,-1,16,-1,18,20,22,24,-1,-1,-1,-1,-1,-1,-1,-1,-1,-1],"split_conditions":[2.1133202E-3,-8.183827E-5,3.160177E-1,2.8256106E-3,3.4858936E-3,-1.0257736E-3,2.95197E-3,-2.0587532E-2,-5.3741504E-3,1.8069823E-3,-1.2575402E-2,-8.024217E-3,2.8281885E-3,5.030861E-3,5.252778E-3,-4.697876E-3,7.431872E-3,3.4937738E-3,-8.189754E-3,9.356841E-3,1.3854178E-3,-8.531166E-3,-0E0,7.342553E-3,7.664186E-5],"split_indices":[0,12,9,8,14,12,0,0,0,0,0,7,7,8,5,0,0,0,0,0,0,0,0,0,0],"split_type":[0,0,0,0,0,0,0,0,0,0,0,0,0,0,0,0,0,0,0,0,0,0,0,0,0],"sum_hessian":[3.8769836E3,9.1037946E2,2.9666042E3,3.9261948E2,5.1775995E2,1.7721469E3,1.1944575E3,2.4992822E2,1.4269127E2,4.2628717E2,9.147276E1,2.431536E2,1.5289932E3,5.2258905E2,6.7186847E2,2.2797305E2,1.9831413E2,1.0242294E2,1.4073065E2,9.543153E2,5.746779E2,4.281832E2,9.4405846E1,3.6137915E2,3.104893E2],"tree_param":{"num_deleted":"0","num_feature":"15","num_nodes":"25","size_leaf_vector":"1"}},{"base_weights":[8.45263E-3,4.5515087E-2,-7.09264E-2,-0E0,1.108694E-1,1.1532124E-2,-1.1063718E-1,6.971157E-2,-2.6493842E-2,1.4120129E-1,3.6593184E-2,-4.249702E-3,6.280895E-2,-1.3132517E-1,-0E0,8.413988E-3,-1.7915744E-3,-7.636633E-3,6.060607E-4,1.4252765E-2,3.0904121E-3,9.41154E-3,-0E0,-0E0,8.699153E-3,-1.4909349E-2,-7.218117E-3],"categories":[],"categories_nodes":[],"categories_segments":[],"categories_sizes":[],"default_left":[0,0,0,0,0,0,0,0,0,0,0,0,0,0,0,0,0,0,0,0,0,0,0,0,0,0,0],"id":21,"left_children":[1,3,5,7,9,11,13,15,17,19,21,-1,23,25,-1,-1,-1,-1,-1,-1,-1,-1,-1,-1,-1,-1,-1],"loss_changes":[1.1617495E1,8.213935E0,4.5256686E0,3.0635917E0,1.6078243E0,1.3929306E0,2.504405E0,2.226601E0,3.5435696E0,2.3073387E0,1.4066688E0,0E0,8.6182463E-1,7.629299E-2,0E0,0E0,0E0,0E0,0E0,0E0,0E0,0E0,0E0,0E0,0E0,0E0,0E0],"parents":[2147483647,0,0,1,1,2,2,3,3,4,4,5,5,6,6,7,7,8,8,9,9,10,10,12,12,13,13],"right_children":[2,4,6,8,10,12,14,16,18,20,22,-1,24,26,-1,-1,-1,-1,-1,-1,-1,-1,-1,-1,-1,-1,-1],"split_conditions":[4.3427125E-1,1.496789E-1,1.0388306E0,-6.5264635E-4,1.5471859E0,5.331173E-1,7.5130564E-1,1.5041399E0,8.6152405E-2,1.1849203E0,1.0694751E-4,-4.249702E-3,1.2394862E-1,9.455507E-2,-0E0,8.413988E-3,-1.7915744E-3,-7.636633E-3,6.060607E-4,1.4252765E-2,3.0904121E-3,9.41154E-3,-0E0,-0E0,8.699153E-3,-1.4909349E-2,-7.218117E-3],"split_indices":[9,1,6,12,2,9,2,6,1,6,12,0,1,1,0,0,0,0,0,0,0,0,0,0,0,0,0],"split_type":[0,0,0,0,0,0,0,0,0,0,0,0,0,0,0,0,0,0,0,0,0,0,0,0,0,0,0],"sum_hessian":[3.9552612E3,2.7426934E3,1.212568E3,1.626222E3,1.1164712E3,3.5850317E2,8.5406476E2,4.3977127E2,1.1864508E3,7.3581445E2,3.8065677E2,1.1333979E2,2.4516339E2,7.4650116E2,1.0756363E2,3.385247E2,1.01246574E2,4.104054E2,7.760455E2,4.5893842E2,2.7687604E2,1.089062E2,2.7175055E2,1.1812394E2,1.2703945E2,1.9124542E2,5.5525574E2],"tree_param":{"num_deleted":"0","num_feature":"15","num_nodes":"27","size_leaf_vector":"1"}},{"base_weights":[2.3691266E-4,1.5164459E-1,-8.794856E-2,-0E0,2.5712058E-1,-0E0,-1.5912648E-1,-1.0320803E-1,5.7585184E-2,3.8133582E-1,1.5902409E-1,8.002863E-2,-7.087064E-2,-1.10929884E-1,-2.0060314E-2,-0E0,-1.324585E-2,1.1659748E-2,-8.0351444E-4,3.3881754E-2,1.1432892E-2,1.0855194E-3,1.5387304E-2,-0E0,1.199612E-2,-7.4358843E-3,1.8414598E-3,-9.670997E-3,-0E0],"categories":[],"categories_nodes":[],"categories_segments":[],"categories_sizes":[],"default_left":[0,0,0,0,0,0,0,0,0,0,0,0,0,0,0,0,0,0,0,0,0,0,0,0,0,0,0,0,0],"id":22,"left_children":[1,3,5,7,9,11,13,15,17,19,21,23,25,27,-1,-1,-1,-1,-1,-1,-1,-1,-1,-1,-1,-1,-1,-1,-1],"loss_changes":[5.425635E1,2.4399448E1,1.5764109E1,3.9004111E0,7.255783E0,6.633309E0,4.79591E0,1.960017E0,3.4012282E0,1.4364471E0,2.4017296E0,3.4598105E0,2.0158756E0,1.9618464E0,0E0,0E0,0E0,0E0,0E0,0E0,0E0,0E0,0E0,0E0,0E0,0E0,0E0,0E0,0E0],"parents":[2147483647,0,0,1,1,2,2,3,3,4,4,5,5,6,6,7,7,8,8,9,9,10,10,11,11,12,12,13,13],"right_children":[2,4,6,8,10,12,14,16,18,20,22,24,26,28,-1,-1,-1,-1,-1,-1,-1,-1,-1,-1,-1,-1,-1,-1,-1],"split_conditions":[2.4185367E-3,8.731959E-1,7.5130564E-1,7.5242287E-1,1.9383681E-3,3.1567914E-3,3.995711E-3,4.41549E-1,1.9032642E-3,1.3690742E0,9.373347E-1,1.004782E0,1.2878908E-2,8.57054E-3,-2.0060314E-2,-0E0,-1.324585E-2,1.1659748E-2,-8.0351444E-4,3.3881754E-2,1.1432892E-2,1.0855194E-3,1.5387304E-2,-0E0,1.199612E-2,-7.4358843E-3,1.8414598E-3,-9.670997E-3,-0E0],"split_indices":[0,4,2,4,0,0,0,11,0,2,4,4,14,7,0,0,0,0,0,0,0,0,0,0,0,0,0,0,0],"split_type":[0,0,0,0,0,0,0,0,0,0,0,0,0,0,0,0,0,0,0,0,0,0,0,0,0,0,0,0,0],"sum_hessian":[4.006863E3,1.4904728E3,2.5163904E3,6.139378E2,8.76535E2,1.1368297E3,1.3795607E3,2.2211427E2,3.9182355E2,3.436077E2,5.3292725E2,5.289869E2,6.0784283E2,1.00220966E3,3.77351E2,9.1446815E1,1.3066747E2,1.830648E2,2.0875874E2,2.3877519E2,1.04832504E2,1.5505019E2,3.7787708E2,2.681774E2,2.6080945E2,5.1161893E2,9.622387E1,8.738283E2,1.2838133E2],"tree_param":{"num_deleted":"0","num_feature":"15","num_nodes":"29","size_leaf_vector":"1"}},{"base_weights":[2.5367572E-3,-3.1300053E-2,6.167778E-2,4.707481E-3,-8.137532E-2,1.07873306E-1,5.346899E-3,-8.7499134E-2,3.8143676E-2,-0E0,-1.2074349E-1,1.5603999E-2,1.7652491E-2,-7.0140087E-3,3.471561E-2,-9.081098E-3,-9.4877364E-4,4.8196055E-3,-1.8004465E-3,4.9911654E-3,-8.228785E-3,-0E0,-1.2209939E-2,4.0308507E-3,-3.3911164E-3,7.101618E-3,-0E0],"categories":[],"categories_nodes":[],"categories_segments":[],"categories_sizes":[],"default_left":[0,0,0,0,0,0,0,0,0,0,0,0,0,0,0,0,0,0,0,0,0,0,0,0,0,0,0],"id":23,"left_children":[1,3,5,7,9,11,13,15,17,19,21,-1,23,-1,25,-1,-1,-1,-1,-1,-1,-1,-1,-1,-1,-1,-1],"loss_changes":[8.050012E0,4.814088E0,3.3182716E0,4.1077337E0,3.3950858E0,5.6690874E0,1.8899424E0,1.5234756E-1,1.9052063E0,2.8455615E0,3.5937586E0,0E0,1.0674819E0,0E0,1.0680377E0,0E0,0E0,0E0,0E0,0E0,0E0,0E0,0E0,0E0,0E0,0E0,0E0],"parents":[2147483647,0,0,1,1,2,2,3,3,4,4,5,5,6,6,7,7,8,8,9,9,10,10,12,12,14,14],"right_children":[2,4,6,8,10,12,14,16,18,20,22,-1,24,-1,26,-1,-1,-1,-1,-1,-1,-1,-1,-1,-1,-1,-1],"split_conditions":[3.0578806E-3,8.396392E-1,5.6499317E-5,3.0170673E-1,-4.9731743E-1,4.3427125E-1,4.9033022E-1,1.5378013E-3,3.8699466E-3,1.848504E0,1.184027E-3,1.5603999E-2,1.5964109E0,-7.0140087E-3,1.1308349E0,-9.081098E-3,-9.4877364E-4,4.8196055E-3,-1.8004465E-3,4.9911654E-3,-8.228785E-3,-0E0,-1.2209939E-2,4.0308507E-3,-3.3911164E-3,7.101618E-3,-0E0],"split_indices":[5,6,7,6,9,9,6,5,7,6,8,0,6,0,6,0,0,0,0,0,0,0,0,0,0,0,0],"split_type":[0,0,0,0,0,0,0,0,0,0,0,0,0,0,0,0,0,0,0,0,0,0,0,0,0,0,0],"sum_hessian":[3.9163325E3,2.4441985E3,1.4721339E3,1.3745994E3,1.0695992E3,7.53274E2,7.188599E2,3.201362E2,1.0544631E3,3.6008887E2,7.095104E2,3.25059E2,4.28215E2,1.1959852E2,5.992614E2,1.7167827E2,1.4845793E2,8.0221484E2,2.5224826E2,2.2420557E2,1.3588329E2,1.7985294E2,5.296575E2,3.2373358E2,1.0448141E2,1.8938507E2,4.098763E2],"tree_param":{"num_deleted":"0","num_feature":"15","num_nodes":"27","size_leaf_vector":"1"}},{"base_weights":[1.6680316E-3,-6.017628E-2,6.323816E-2,3.3586223E-2,-9.5991164E-2,1.3690133E-1,-4.7778306E-3,9.893743E-2,-4.9305063E-2,-1.53061785E-2,-1.2350328E-1,-0E0,1.5253675E-1,9.040063E-2,-4.9272597E-2,-0E0,1.2550819E-2,-0E0,-5.5596377E-3,-4.752169E-3,1.7270279E-3,-0E0,-1.0813243E-2,1.4844509E-2,5.861665E-3,1.2336753E-2,-0E0,-7.6513537E-3,-0E0],"categories":[],"categories_nodes":[],"categories_segments":[],"categories_sizes":[],"default_left":[0,0,0,0,0,0,0,0,0,0,0,0,0,0,0,0,0,0,0,0,0,0,0,0,0,0,0,0,0],"id":24,"left_children":[1,3,5,7,9,11,13,15,17,19,21,-1,23,25,27,-1,-1,-1,-1,-1,-1,-1,-1,-1,-1,-1,-1,-1,-1],"loss_changes":[1.5095495E1,6.8601146E0,1.0787538E1,3.0876253E0,2.5016403E0,2.3895397E0,4.256601E0,2.14939E0,8.7946594E-2,9.9457574E-1,2.4662094E0,0E0,1.4006081E0,2.3045592E0,2.3431015E0,0E0,0E0,0E0,0E0,0E0,0E0,0E0,0E0,0E0,0E0,0E0,0E0,0E0,0E0],"parents":[2147483647,0,0,1,1,2,2,3,3,4,4,5,5,6,6,7,7,8,8,9,9,10,10,12,12,13,13,14,14],"right_children":[2,4,6,8,10,12,14,16,18,20,22,-1,24,26,28,-1,-1,-1,-1,-1,-1,-1,-1,-1,-1,-1,-1,-1,-1],"split_conditions":[2.725085E-3,4.0662605E-1,9.9932677E-1,9.254948E-1,5.23777E-1,6.7748583E-4,1.8257804E-1,1.8337137E-3,5.639289E-1,7.160801E-1,7.891614E-1,-0E0,1.0568603E0,1.1632018E0,3.6642705E-3,-0E0,1.2550819E-2,-0E0,-5.5596377E-3,-4.752169E-3,1.7270279E-3,-0E0,-1.0813243E-2,1.4844509E-2,5.861665E-3,1.2336753E-2,-0E0,-7.6513537E-3,-0E0],"split_indices":[0,6,11,4,11,8,13,8,11,6,4,0,4,4,0,0,0,0,0,0,0,0,0,0,0,0,0,0,0],"split_type":[0,0,0,0,0,0,0,0,0,0,0,0,0,0,0,0,0,0,0,0,0,0,0,0,0,0,0,0,0],"sum_hessian":[3.9268564E3,1.9201333E3,2.0067231E3,4.9374756E2,1.4263857E3,9.8926227E2,1.0174609E3,3.0683218E2,1.8691537E2,4.1398648E2,1.01239923E3,9.2985756E1,8.9627655E2,2.8402335E2,7.334375E2,1.297516E2,1.770806E2,9.535588E1,9.155949E1,2.3610469E2,1.7788179E2,1.3681915E2,8.755801E2,5.1077707E2,3.8549945E2,1.6294423E2,1.2107912E2,3.9180005E2,3.4163745E2],"tree_param":{"num_deleted":"0","num_feature":"15","num_nodes":"29","size_leaf_vector":"1"}},{"base_weights":[9.830329E-3,7.276654E-2,-9.858833E-2,1.470013E-1,-0E0,-1.6474627E-1,-4.0079713E-2,-0E0,1.7790174E-1,1.3357406E-2,-2.2280257E-2,-1.9568688E-1,-0E0,1.930764E-2,-9.45777E-2,-6.7180647E-3,4.342215E-3,2.5255278E-2,9.586875E-3,-6.5475185E-3,3.4784009E-3,-2.0144342E-2,-9.300813E-3,-3.8280277E-4,5.170657E-3,-0E0,-1.08939465E-2],"categories":[],"categories_nodes":[],"categories_segments":[],"categories_sizes":[],"default_left":[0,0,0,0,0,0,0,0,0,0,0,0,0,0,0,0,0,0,0,0,0,0,0,0,0,0,0],"id":25,"left_children":[1,3,5,7,9,11,13,15,17,-1,19,21,-1,23,25,-1,-1,-1,-1,-1,-1,-1,-1,-1,-1,-1,-1],"loss_changes":[2.728352E1,1.3706427E1,4.5039005E0,6.1395626E0,5.4287734E0,2.7019444E0,3.0781314E0,1.291832E0,5.5088196E0,0E0,5.429867E0,2.3937988E-1,0E0,7.497854E-1,2.2471457E0,0E0,0E0,0E0,0E0,0E0,0E0,0E0,0E0,0E0,0E0,0E0,0E0],"parents":[2147483647,0,0,1,1,2,2,3,3,4,4,5,5,6,6,7,7,8,8,10,10,11,11,13,13,14,14],"right_children":[2,4,6,8,10,12,14,16,18,-1,20,22,-1,24,26,-1,-1,-1,-1,-1,-1,-1,-1,-1,-1,-1,-1],"split_conditions":[1.5541507E-1,8.595125E-1,8.747868E-1,-7.271933E-3,2.4437495E-1,1.17814E-3,6.1051345E-1,1.0331655E0,6.945061E-2,1.3357406E-2,7.621133E-1,2.042097E-4,-0E0,1.0585083E0,1.9470346E-1,-6.7180647E-3,4.342215E-3,2.5255278E-2,9.586875E-3,-6.5475185E-3,3.4784009E-3,-2.0144342E-2,-9.300813E-3,-3.8280277E-4,5.170657E-3,-0E0,-1.08939465E-2],"split_indices":[1,3,11,7,11,12,3,4,1,0,11,12,0,4,1,0,0,0,0,0,0,0,0,0,0,0,0],"split_type":[0,0,0,0,0,0,0,0,0,0,0,0,0,0,0,0,0,0,0,0,0,0,0,0,0,0,0],"sum_hessian":[3.9822222E3,2.551289E3,1.4309332E3,1.2467158E3,1.3045731E3,6.184895E2,8.124438E2,2.0683281E2,1.039883E3,1.3904927E2,1.1655239E3,5.0402533E2,1.1446414E2,3.5158752E2,4.6085623E2,9.299245E1,1.1384036E2,2.1229971E2,8.275833E2,6.3485724E2,5.306666E2,2.0063165E2,3.0339368E2,1.7889146E2,1.7269608E2,1.6210371E2,2.987525E2],"tree_param":{"num_deleted":"0","num_feature":"15","num_nodes":"27","size_leaf_vector":"1"}},{"base_weights":[5.431149E-3,-1.1672718E-1,4.830306E-2,3.923054E-2,-1.7378847E-1,-1.4304331E-2,8.466308E-2,-1.8631201E-3,1.2307361E-2,-2.170489E-2,-9.785562E-2,-5.1305737E-2,6.974412E-2,1.6270536E-1,4.7430288E-2,-3.4567886E-3,-1.7143E-2,1.3068456E-3,-5.621382E-3,-0E0,8.732696E-3,1.9297114E-3,1.3622937E-2,-5.6011635E-5,8.701674E-3],"categories":[],"categories_nodes":[],"categories_segments":[],"categories_sizes":[],"default_left":[0,0,0,0,0,0,0,0,0,0,0,0,0,0,0,0,0,0,0,0,0,0,0,0,0],"id":26,"left_children":[1,3,5,7,9,11,13,-1,-1,-1,15,17,19,21,23,-1,-1,-1,-1,-1,-1,-1,-1,-1,-1],"loss_changes":[2.0198479E1,9.568113E0,7.028353E0,2.744922E0,4.0851955E0,3.211177E0,4.3888655E0,0E0,0E0,0E0,1.8605361E0,1.5078039E0,1.1037018E0,2.5623322E-1,4.9497185E0,0E0,0E0,0E0,0E0,0E0,0E0,0E0,0E0,0E0,0E0],"parents":[2147483647,0,0,1,1,2,2,3,3,4,4,5,5,6,6,10,10,11,11,12,12,13,13,14,14],"right_children":[2,4,6,8,10,12,14,-1,-1,-1,16,18,20,22,24,-1,-1,-1,-1,-1,-1,-1,-1,-1,-1],"split_conditions":[2.14817E-3,7.859438E-1,6.0460615E-1,1.795977E-3,1.7062604E-3,4.676454E-3,9.308012E-1,-1.8631201E-3,1.2307361E-2,-2.170489E-2,3.7852563E-3,1.0782074E-3,3.3039472E-3,8.697994E-1,3.4510973E-3,-3.4567886E-3,-1.7143E-2,1.3068456E-3,-5.621382E-3,-0E0,8.732696E-3,1.9297114E-3,1.3622937E-2,-5.6011635E-5,8.701674E-3],"split_indices":[0,4,3,5,0,5,4,0,0,0,7,8,0,3,0,0,0,0,0,0,0,0,0,0,0],"split_type":[0,0,0,0,0,0,0,0,0,0,0,0,0,0,0,0,0,0,0,0,0,0,0,0,0],"sum_hessian":[3.8848826E3,9.724312E2,2.9124514E3,2.3922758E2,7.332036E2,1.0249816E3,1.8874698E3,1.4062965E2,9.859794E1,2.5091508E2,4.822885E2,7.561159E2,2.6886566E2,5.4942456E2,1.3380453E3,3.8570407E2,9.658447E1,1.3733118E2,6.187847E2,9.788312E1,1.7098254E2,9.660612E1,4.5281842E2,7.4817834E2,5.8986694E2],"tree_param":{"num_deleted":"0","num_feature":"15","num_nodes":"25","size_leaf_vector":"1"}},{"base_weights":[-3.0198891E-3,-6.6329196E-2,4.4524413E-2,-1.02767706E-1,3.7171405E-2,1.38364E-1,2.3115966E-2,-1.8253282E-1,-5.7613917E-2,-9.083013E-3,9.929251E-2,5.336576E-2,1.5773524E-2,1.4295234E-1,5.0698016E-3,-0E0,-2.0030156E-2,-7.0634796E-3,1.4435168E-3,1.6487553E-3,-5.8086477E-3,1.5326571E-2,-0E0,7.275549E-3,-0E0,1.6439846E-2,4.386507E-5,-1.4436786E-3,3.1658637E-3],"categories":[],"categories_nodes":[],"categories_segments":[],"categories_sizes":[],"default_left":[0,0,0,0,0,0,0,0,0,0,0,0,0,0,0,0,0,0,0,0,0,0,0,0,0,0,0,0,0],"id":27,"left_children":[1,3,5,7,9,11,13,15,17,19,21,23,-1,25,27,-1,-1,-1,-1,-1,-1,-1,-1,-1,-1,-1,-1,-1,-1],"loss_changes":[1.1859641E1,6.8607125E0,3.5607047E0,3.3805962E0,1.6726081E0,6.9108725E-1,3.2589836E0,6.1028433E0,2.8416443E0,7.401829E-1,2.3363838E0,4.7409898E-1,0E0,1.1125498E0,1.587462E0,0E0,0E0,0E0,0E0,0E0,0E0,0E0,0E0,0E0,0E0,0E0,0E0,0E0,0E0],"parents":[2147483647,0,0,1,1,2,2,3,3,4,4,5,5,6,6,7,7,8,8,9,9,10,10,11,11,13,13,14,14],"right_children":[2,4,6,8,10,12,14,16,18,20,22,24,-1,26,28,-1,-1,-1,-1,-1,-1,-1,-1,-1,-1,-1,-1,-1,-1],"split_conditions":[7.460333E-1,4.2790356E-3,-7.912613E-1,2.0499602E-3,3.1853332E-3,-9.140368E-1,8.9410275E-1,1.3563932E-1,7.097268E-1,1.3206536E-2,4.3360388E-1,1.5976532E0,1.5773524E-2,2.780127E-3,1.3279327E-2,-0E0,-2.0030156E-2,-7.0634796E-3,1.4435168E-3,1.6487553E-3,-5.8086477E-3,1.5326571E-2,-0E0,7.275549E-3,-0E0,1.6439846E-2,4.386507E-5,-1.4436786E-3,3.1658637E-3],"split_indices":[3,7,9,5,5,9,3,13,2,10,3,3,0,5,10,0,0,0,0,0,0,0,0,0,0,0,0,0,0],"split_type":[0,0,0,0,0,0,0,0,0,0,0,0,0,0,0,0,0,0,0,0,0,0,0,0,0,0,0,0,0],"sum_hessian":[3.8717522E3,1.7012693E3,2.170483E3,1.29287E3,4.0839923E2,3.4420758E2,1.8262753E3,4.101598E2,8.8271027E2,1.9778276E2,2.1061646E2,1.9974522E2,1.4446236E2,1.8875478E2,1.6375205E3,1.3592479E2,2.7423502E2,6.434148E2,2.3929546E2,9.4562775E1,1.03219986E2,9.513467E1,1.1548178E2,1.0154799E2,9.819723E1,9.610502E1,9.264975E1,9.136553E2,7.2386523E2],"tree_param":{"num_deleted":"0","num_feature":"15","num_nodes":"29","size_leaf_vector":"1"}},{"base_weights":[-8.880716E-4,8.225763E-2,-7.0155986E-2,1.1894429E-1,-8.951377E-2,-1.071663E-1,6.647059E-2,5.7278324E-2,2.1393119E-1,-0E0,-1.2742452E-2,-6.374186E-2,-1.6362384E-1,1.1454897E-1,-4.138366E-3,1.03477845E-2,1.7764949E-4,3.8412265E-3,1.8095015E-2,-8.83064E-3,-0E0,-1.4924799E-2,-4.959655E-3,-0E0,1.04620345E-2],"categories":[],"categories_nodes":[],"categories_segments":[],"categories_sizes":[],"default_left":[0,0,0,0,0,0,0,0,0,0,0,0,0,0,0,0,0,0,0,0,0,0,0,0,0],"id":28,"left_children":[1,3,5,7,9,11,13,15,17,-1,-1,19,21,23,-1,-1,-1,-1,-1,-1,-1,-1,-1,-1,-1],"loss_changes":[2.2975395E1,1.1576356E1,1.1508374E1,7.282633E0,2.526708E0,3.0802765E0,3.0395205E0,3.5236447E0,6.445141E-1,0E0,0E0,3.9474354E0,8.470993E-1,3.9299393E-1,0E0,0E0,0E0,0E0,0E0,0E0,0E0,0E0,0E0,0E0,0E0],"parents":[2147483647,0,0,1,1,2,2,3,3,4,4,5,5,6,6,7,7,8,8,11,11,12,12,13,13],"right_children":[2,4,6,8,10,12,14,16,18,-1,-1,20,22,24,-1,-1,-1,-1,-1,-1,-1,-1,-1,-1,-1],"split_conditions":[1.2121891E-1,5.1995735E-3,6.191773E-1,1.1678501E0,-6.379547E-4,1.9470346E-1,5.727876E-3,7.117381E-2,-5.2134943E-1,-0E0,-1.2742452E-2,1.1623402E-3,1.3724178E0,-6.6348824E-5,-4.138366E-3,1.03477845E-2,1.7764949E-4,3.8412265E-3,1.8095015E-2,-8.83064E-3,-0E0,-1.4924799E-2,-4.959655E-3,-0E0,1.04620345E-2],"split_indices":[1,8,9,6,12,1,8,1,9,0,0,14,6,12,0,0,0,0,0,0,0,0,0,0,0],"split_type":[0,0,0,0,0,0,0,0,0,0,0,0,0,0,0,0,0,0,0,0,0,0,0,0,0],"sum_hessian":[3.9656877E3,1.7691849E3,2.196503E3,1.4852539E3,2.839311E2,1.7589869E3,4.3751593E2,9.4777435E2,5.3747955E2,1.2611772E2,1.5781335E2,1.0628555E3,6.961314E2,3.4235324E2,9.516269E1,3.4178912E2,6.0598517E2,1.033565E2,4.3412305E2,5.9709735E2,4.6575815E2,4.7048056E2,2.2565085E2,9.121401E1,2.5113922E2],"tree_param":{"num_deleted":"0","num_feature":"15","num_nodes":"25","size_leaf_vector":"1"}},{"base_weights":[1.1708178E-2,-5.134852E-2,4.7241833E-2,-1.6252416E-1,-0E0,-1.6479027E-2,9.326543E-2,-0E0,-1.608979E-2,7.548874E-2,-2.699479E-2,-1.0990829E-2,5.377895E-3,4.7307E-2,1.6069378E-1,-0E0,1.1443908E-2,-5.643162E-3,5.718482E-4,4.8326016E-3,-5.4142247E-3,9.785638E-3,1.3993739E-5,7.673274E-3,1.9144846E-2],"categories":[],"categories_nodes":[],"categories_segments":[],"categories_sizes":[],"default_left":[0,0,0,0,0,0,0,0,0,0,0,0,0,0,0,0,0,0,0,0,0,0,0,0,0],"id":29,"left_children":[1,3,5,7,9,11,13,-1,-1,15,17,-1,19,21,23,-1,-1,-1,-1,-1,-1,-1,-1,-1,-1],"loss_changes":[8.8092375E0,8.379077E0,7.92277E0,3.592389E0,2.1021955E0,3.6275048E0,3.6294937E0,0E0,0E0,2.1732779E0,1.4288595E0,0E0,3.979804E0,3.1539567E0,9.929848E-1,0E0,0E0,0E0,0E0,0E0,0E0,0E0,0E0,0E0,0E0],"parents":[2147483647,0,0,1,1,2,2,3,3,4,4,5,5,6,6,9,9,10,10,12,12,13,13,14,14],"right_children":[2,4,6,8,10,12,14,-1,-1,16,18,-1,20,22,24,-1,-1,-1,-1,-1,-1,-1,-1,-1,-1],"split_conditions":[5.849582E-1,9.853272E-2,1.729249E-3,2.3383226E-1,-1.498195E-4,8.1349234E-4,1.362254E0,-0E0,-1.608979E-2,1.1833574E-2,1.6956176E-1,-1.0990829E-2,1.1962855E-2,1.0596261E-2,2.1843705E-1,-0E0,1.1443908E-2,-5.643162E-3,5.718482E-4,4.8326016E-3,-5.4142247E-3,9.785638E-3,1.3993739E-5,7.673274E-3,1.9144846E-2],"split_indices":[2,1,5,2,12,5,2,0,0,10,1,0,10,10,1,0,0,0,0,0,0,0,0,0,0],"split_type":[0,0,0,0,0,0,0,0,0,0,0,0,0,0,0,0,0,0,0,0,0,0,0,0,0],"sum_hessian":[3.9053677E3,1.355887E3,2.5494807E3,4.3740976E2,9.1847723E2,1.0297134E3,1.5197673E3,1.0829911E2,3.2911066E2,2.6654312E2,6.519341E2,1.6796904E2,8.617443E2,9.6338794E2,5.5637946E2,1.1722358E2,1.4931955E2,3.252864E2,3.266477E2,5.26946E2,3.347983E2,3.0395486E2,6.5943304E2,3.912239E2,1.6515555E2],"tree_param":{"num_deleted":"0","num_feature":"15","num_nodes":"25","size_leaf_vector":"1"}},{"base_weights":[-0E0,-5.1461894E-2,4.541024E-2,6.1234175E-3,-6.485128E-2,8.0973156E-2,-5.5169355E-2,-9.258365E-2,-0E0,-0E0,9.248448E-2,-9.525734E-2,4.7888566E-4,8.9853397E-4,-8.675206E-3,-3.2764508E-3,3.350599E-3,6.6859843E-3,-7.7341134E-3,9.4963955E-3,3.2973266E-3,-0E0,-1.0625594E-2],"categories":[],"categories_nodes":[],"categories_segments":[],"categories_sizes":[],"default_left":[0,0,0,0,0,0,0,0,0,0,0,0,0,0,0,0,0,0,0,0,0,0,0],"id":30,"left_children":[1,3,5,-1,7,9,11,13,15,17,19,21,-1,-1,-1,-1,-1,-1,-1,-1,-1,-1,-1],"loss_changes":[9.269018E0,3.3036761E0,7.7367153E0,0E0,3.016725E0,1.531887E0,1.7335542E0,3.262847E0,1.0756009E0,2.0572548E0,1.3508644E0,1.3035684E0,0E0,0E0,0E0,0E0,0E0,0E0,0E0,0E0,0E0,0E0,0E0],"parents":[2147483647,0,0,1,1,2,2,4,4,5,5,6,6,7,7,8,8,9,9,10,10,11,11],"right_children":[2,4,6,-1,8,10,12,14,16,18,20,22,-1,-1,-1,-1,-1,-1,-1,-1,-1,-1,-1],"split_conditions":[2.67904E-3,6.885617E-1,1.5688006E0,6.1234175E-3,1.314191E-3,8.04903E-4,2.1191113E0,5.7094137E-4,7.5130564E-1,4.2637007E-4,1.0585083E0,1.4876273E-1,4.7888566E-4,8.9853397E-4,-8.675206E-3,-3.2764508E-3,3.350599E-3,6.6859843E-3,-7.7341134E-3,9.4963955E-3,3.2973266E-3,-0E0,-1.0625594E-2],"split_indices":[0,4,11,0,14,8,11,8,2,8,4,1,0,0,0,0,0,0,0,0,0,0,0],"split_type":[0,0,0,0,0,0,0,0,0,0,0,0,0,0,0,0,0,0,0,0,0,0,0],"sum_hessian":[3.9327124E3,1.842443E3,2.0902695E3,1.2843622E2,1.7140067E3,1.582143E3,5.0812665E2,1.1843341E3,5.296726E2,1.9417342E2,1.3879695E3,3.4952625E2,1.5860042E2,1.6823793E2,1.0160962E3,2.798665E2,2.4980612E2,1.03010735E2,9.116268E1,7.5641766E2,6.315518E2,1.3090128E2,2.1862497E2],"tree_param":{"num_deleted":"0","num_feature":"15","num_nodes":"23","size_leaf_vector":"1"}},{"base_weights":[-0E0,6.288004E-2,-7.063178E-2,1.6305159E-1,6.0003283E-3,-1.9704312E-1,-4.7136758E-2,-3.250414E-3,2.0721802E-1,6.708913E-2,-3.7727606E-2,-1.892431E-2,-3.2498958E-3,3.0388556E-2,-7.7815704E-2,1.8271323E-2,-0E0,1.2844038E-2,7.374812E-6,2.3925402E-4,-7.81521E-3,-0E0,7.7831475E-3,-2.8789707E-3,-1.4343403E-2],"categories":[],"categories_nodes":[],"categories_segments":[],"categories_sizes":[],"default_left":[0,0,0,0,0,0,0,0,0,0,0,0,0,0,0,0,0,0,0,0,0,0,0,0,0],"id":31,"left_children":[1,3,5,7,9,11,13,-1,15,17,19,-1,-1,21,23,-1,-1,-1,-1,-1,-1,-1,-1,-1,-1],"loss_changes":[1.7798096E1,1.1078782E1,4.339493E0,7.544256E0,3.8751512E0,5.3326035E-1,4.230198E0,0E0,4.039362E0,3.4916914E0,2.546444E0,0E0,0E0,1.3365996E0,4.2973423E0,0E0,0E0,0E0,0E0,0E0,0E0,0E0,0E0,0E0,0E0],"parents":[2147483647,0,0,1,1,2,2,3,3,4,4,5,5,6,6,8,8,9,9,10,10,13,13,14,14],"right_children":[2,4,6,8,10,12,14,-1,16,18,20,-1,-1,22,24,-1,-1,-1,-1,-1,-1,-1,-1,-1,-1],"split_conditions":[1.3358358E-1,5.47996E-1,8.462492E-1,7.7875036E-1,1.4822134E-3,3.7201361E-3,2.0352919E-3,-3.250414E-3,4.4474453E-3,6.872987E-2,1.2387413E0,-1.892431E-2,-3.2498958E-3,2.2802016E-1,1.3190131E0,1.8271323E-2,-0E0,1.2844038E-2,7.374812E-6,2.3925402E-4,-7.81521E-3,-0E0,7.7831475E-3,-2.8789707E-3,-1.4343403E-2],"split_indices":[1,2,4,4,5,8,5,0,5,1,2,0,0,13,2,0,0,0,0,0,0,0,0,0,0],"split_type":[0,0,0,0,0,0,0,0,0,0,0,0,0,0,0,0,0,0,0,0,0,0,0,0,0],"sum_hessian":[3.9675974E3,2.0737327E3,1.8938646E3,7.0892426E2,1.3648085E3,2.4512755E2,1.648737E3,1.0597116E2,6.0295306E2,6.116895E2,7.53119E2,1.5160336E2,9.352418E1,4.228858E2,1.2258512E3,5.1059732E2,9.235577E1,2.0325264E2,4.0843686E2,4.2780698E2,3.2531204E2,2.7447125E2,1.4841455E2,9.5161414E2,2.7423706E2],"tree_param":{"num_deleted":"0","num_feature":"15","num_nodes":"25","size_leaf_vector":"1"}},{"base_weights":[-8.352441E-3,-4.3529667E-2,5.358768E-2,7.049242E-2,-5.9465636E-2,1.3942815E-1,-0E0,-2.4729238E-3,1.1645728E-2,-9.170697E-2,-0E0,-0E0,2.0544586E-1,-7.14168E-2,2.6589455E-2,-1.4902284E-2,-5.210808E-3,5.313758E-3,-1.8157063E-3,6.689572E-3,2.0027062E-2,-8.733074E-3,-0E0,-1.6827899E-3,6.9913147E-3],"categories":[],"categories_nodes":[],"categories_segments":[],"categories_sizes":[],"default_left":[0,0,0,0,0,0,0,0,0,0,0,0,0,0,0,0,0,0,0,0,0,0,0,0,0],"id":32,"left_children":[1,3,5,7,9,11,13,-1,-1,15,17,-1,19,21,23,-1,-1,-1,-1,-1,-1,-1,-1,-1,-1],"loss_changes":[8.484316E0,4.6420836E0,5.870761E0,3.092731E0,3.9417315E0,4.8203363E0,1.5690575E0,0E0,0E0,1.9279652E0,1.2724769E0,0E0,2.9251194E-1,5.139543E-1,2.5724223E0,0E0,0E0,0E0,0E0,0E0,0E0,0E0,0E0,0E0,0E0],"parents":[2147483647,0,0,1,1,2,2,3,3,4,4,5,5,6,6,9,9,10,10,12,12,13,13,14,14],"right_children":[2,4,6,8,10,12,14,-1,-1,16,18,-1,20,22,24,-1,-1,-1,-1,-1,-1,-1,-1,-1,-1],"split_conditions":[1.6416477E-1,7.5242287E-1,1.9893567E-3,4.41549E-1,1.2019547E0,5.997708E-1,4.686664E-1,-2.4729238E-3,1.1645728E-2,5.878122E-2,-7.7787912E-3,-0E0,2.0118392E-1,3.346593E-1,9.792733E-1,-1.4902284E-2,-5.210808E-3,5.313758E-3,-1.8157063E-3,6.689572E-3,2.0027062E-2,-8.733074E-3,-0E0,-1.6827899E-3,6.9913147E-3],"split_indices":[1,4,7,11,3,3,3,0,0,1,7,0,1,13,11,0,0,0,0,0,0,0,0,0,0],"split_type":[0,0,0,0,0,0,0,0,0,0,0,0,0,0,0,0,0,0,0,0,0,0,0,0,0],"sum_hessian":[3.8813137E3,2.5283572E3,1.3529564E3,2.658162E2,2.262541E3,4.8749542E2,8.65461E2,9.7316605E1,1.684996E2,1.4102435E3,8.5229755E2,1.5784155E2,3.2965387E2,1.9561433E2,6.698467E2,1.9253716E2,1.2177063E3,1.591384E2,6.931591E2,1.5164383E2,1.7801004E2,1.03488235E2,9.21261E1,3.4847385E2,3.2137283E2],"tree_param":{"num_deleted":"0","num_feature":"15","num_nodes":"25","size_leaf_vector":"1"}},{"base_weights":[1.8046258E-2,-1.4182101E-2,7.858606E-2,8.1724845E-2,-2.7910404E-2,1.1511591E-1,5.897497E-3,-0E0,1.2451665E-2,-8.8197306E-2,-1.2192291E-3,5.8501367E-2,1.2198913E-2,5.65601E-3,-4.706746E-3,-7.734182E-3,-0E0,9.486836E-3,-1.4712207E-3,9.164747E-3,-5.2581998E-3,-3.956455E-3,1.4470653E-3],"categories":[],"categories_nodes":[],"categories_segments":[],"categories_sizes":[],"default_left":[0,0,0,0,0,0,0,0,0,0,0,0,0,0,0,0,0,0,0,0,0,0,0],"id":33,"left_children":[1,3,5,7,9,11,13,-1,-1,15,17,19,-1,-1,21,-1,-1,-1,-1,-1,-1,-1,-1],"loss_changes":[7.9402804E0,3.0803692E0,3.1475525E0,1.7784145E0,3.1875157E0,1.0995722E0,7.3230386E-1,0E0,0E0,7.1463203E-1,3.283536E0,4.166935E0,0E0,0E0,6.4815193E-1,0E0,0E0,0E0,0E0,0E0,0E0,0E0,0E0],"parents":[2147483647,0,0,1,1,2,2,3,3,4,4,5,5,6,6,9,9,10,10,11,11,14,14],"right_children":[2,4,6,8,10,12,14,-1,-1,16,18,20,-1,-1,22,-1,-1,-1,-1,-1,-1,-1,-1],"split_conditions":[3.1706796E-3,2.7261326E-1,3.7315303E-1,-3.330415E-1,2.0119792E-3,-1.585948E-5,-8.024217E-3,-0E0,1.2451665E-2,7.360697E-1,2.1300488E-3,1.9864799E-1,1.2198913E-2,5.65601E-3,3.9004697E-3,-7.734182E-3,-0E0,9.486836E-3,-1.4712207E-3,9.164747E-3,-5.2581998E-3,-3.956455E-3,1.4470653E-3],"split_indices":[0,6,9,9,0,7,7,0,0,9,0,1,0,0,0,0,0,0,0,0,0,0,0],"split_type":[0,0,0,0,0,0,0,0,0,0,0,0,0,0,0,0,0,0,0,0,0,0,0],"sum_hessian":[3.8838137E3,2.490913E3,1.3929006E3,2.574251E2,2.233488E3,8.762741E2,5.1662646E2,1.4050478E2,1.1692032E2,6.179781E2,1.61551E3,4.5632516E2,4.1994894E2,1.1633154E2,4.0029492E2,5.2599725E2,9.198082E1,1.5742145E2,1.4580886E3,3.3263477E2,1.236904E2,1.9464262E2,2.056523E2],"tree_param":{"num_deleted":"0","num_feature":"15","num_nodes":"23","size_leaf_vector":"1"}},{"base_weights":[8.935569E-3,9.985364E-2,-1.0775416E-1,5.30618E-2,1.9856152E-1,-1.5954232E-1,-2.1635437E-2,1.6252458E-1,1.2156763E-2,-0E0,2.253144E-1,-6.144185E-2,-1.858056E-1,4.4564355E-2,-9.5062636E-2,1.7263906E-2,3.1880704E-3,3.6617718E-3,-5.8422834E-3,2.3855606E-2,1.2405057E-2,5.984074E-4,-1.11863E-2,-1.5184422E-2,-2.1631364E-3,8.624972E-3,-1.9392E-3,3.957829E-4,-1.2914115E-2],"categories":[],"categories_nodes":[],"categories_segments":[],"categories_sizes":[],"default_left":[0,0,0,0,0,0,0,0,0,0,0,0,0,0,0,0,0,0,0,0,0,0,0,0,0,0,0,0,0],"id":34,"left_children":[1,3,5,7,9,11,13,15,17,-1,19,21,23,25,27,-1,-1,-1,-1,-1,-1,-1,-1,-1,-1,-1,-1,-1,-1],"loss_changes":[4.2946358E1,9.229303E0,6.879545E0,6.3603396E0,2.6638184E0,1.33531E0,3.7775614E0,1.7289877E0,3.8826237E0,0E0,1.10090256E-1,2.408733E0,5.9589195E-1,2.181971E0,3.6654766E0,0E0,0E0,0E0,0E0,0E0,0E0,0E0,0E0,0E0,0E0,0E0,0E0,0E0,0E0],"parents":[2147483647,0,0,1,1,2,2,3,3,4,4,5,5,6,6,7,7,8,8,10,10,11,11,12,12,13,13,14,14],"right_children":[2,4,6,8,10,12,14,16,18,-1,20,22,24,26,28,-1,-1,-1,-1,-1,-1,-1,-1,-1,-1,-1,-1,-1,-1],"split_conditions":[2.8670654E-3,4.5515755E-1,1.2751094E0,1.8189728E-3,6.1271733E-1,4.6331596E-1,7.994422E-1,-3.641812E-1,1.6079307E0,-0E0,2.0020066E-3,3.4383507E-3,1.6637838E0,3.9004697E-3,6.720557E-1,1.7263906E-2,3.1880704E-3,3.6617718E-3,-5.8422834E-3,2.3855606E-2,1.2405057E-2,5.984074E-4,-1.11863E-2,-1.5184422E-2,-2.1631364E-3,8.624972E-3,-1.9392E-3,3.957829E-4,-1.2914115E-2],"split_indices":[0,9,6,0,6,11,2,9,2,0,0,0,11,0,11,0,0,0,0,0,0,0,0,0,0,0,0,0,0],"split_type":[0,0,0,0,0,0,0,0,0,0,0,0,0,0,0,0,0,0,0,0,0,0,0,0,0,0,0,0,0],"sum_hessian":[4.0177122E3,2.2828503E3,1.7348617E3,1.5994454E3,6.8340497E2,1.0393938E3,6.954679E2,3.8937473E2,1.2100707E3,1.0394334E2,5.794616E2,2.701981E2,7.6919574E2,3.346333E2,3.608346E2,2.1682933E2,1.725454E2,9.051587E2,3.04912E2,1.7625487E2,4.0320676E2,1.2712905E2,1.4306903E2,6.717747E2,9.742103E1,1.9778421E2,1.368491E2,1.3400426E2,2.2683032E2],"tree_param":{"num_deleted":"0","num_feature":"15","num_nodes":"29","size_leaf_vector":"1"}},{"base_weights":[6.1552674E-3,-8.844343E-2,4.21198E-2,-1.2859711E-1,-5.9126006E-3,1.7416265E-2,1.1294908E-1,-1.6029035E-1,-0E0,4.7255814E-2,-1.1011665E-2,2.8201587E-2,-9.659155E-3,1.7673847E-1,-0E0,-1.5053524E-2,-1.3570936E-3,8.867426E-3,-0E0,-6.291801E-3,3.1530943E-3,5.738682E-4,1.6401105E-2,3.273947E-3,-6.003173E-3],"categories":[],"categories_nodes":[],"categories_segments":[],"categories_sizes":[],"default_left":[0,0,0,0,0,0,0,0,0,0,0,0,0,0,0,0,0,0,0,0,0,0,0,0,0],"id":35,"left_children":[1,3,5,7,9,11,13,15,-1,17,-1,19,-1,21,23,-1,-1,-1,-1,-1,-1,-1,-1,-1,-1],"loss_changes":[1.319896E1,2.8177738E0,4.4003816E0,2.9476204E0,3.5583057E0,3.0431705E0,5.22785E0,1.8610363E0,0E0,1.2258787E0,0E0,2.9984713E0,0E0,1.9172173E0,9.9401784E-1,0E0,0E0,0E0,0E0,0E0,0E0,0E0,0E0,0E0,0E0],"parents":[2147483647,0,0,1,1,2,2,3,3,4,4,5,5,6,6,7,7,9,9,11,11,13,13,14,14],"right_children":[2,4,6,8,10,12,14,16,-1,18,-1,20,-1,22,24,-1,-1,-1,-1,-1,-1,-1,-1,-1,-1],"split_conditions":[2.206843E-3,9.853272E-2,3.97388E-3,1.7402446E-4,3.4858936E-3,2.5155595E-1,2.487427E-3,1.9688634E-3,-0E0,3.1333652E-4,-1.1011665E-2,-1.1400166E-3,-9.659155E-3,-1.1932205E-3,1.1504361E-3,-1.5053524E-2,-1.3570936E-3,8.867426E-3,-0E0,-6.291801E-3,3.1530943E-3,5.738682E-4,1.6401105E-2,3.273947E-3,-6.003173E-3],"split_indices":[0,1,0,12,14,1,14,0,0,12,0,12,0,12,12,0,0,0,0,0,0,0,0,0,0],"split_type":[0,0,0,0,0,0,0,0,0,0,0,0,0,0,0,0,0,0,0,0,0,0,0,0,0],"sum_hessian":[3.9100103E3,1.0332909E3,2.8767195E3,6.4942535E2,3.8386563E2,2.1989304E3,6.777889E2,5.2672577E2,1.2269953E2,2.6084543E2,1.2302019E2,2.090198E3,1.0873258E2,4.342238E2,2.435651E2,3.8305402E2,1.4367177E2,1.1801963E2,1.428258E2,1.7661926E2,1.9135786E3,1.0939572E2,3.2482806E2,1.5224939E2,9.131571E1],"tree_param":{"num_deleted":"0","num_feature":"15","num_nodes":"25","size_leaf_vector":"1"}},{"base_weights":[1.0365725E-2,1.6428463E-1,-4.21879E-3,-0E0,1.5906453E-2,-4.781373E-2,2.7592165E-2,6.8727625E-3,-6.183197E-2,5.6884672E-2,-5.020756E-2,-0E0,-6.73231E-3,-2.1607743E-3,5.921565E-3,2.3684186E-4,-7.2501404E-3],"categories":[],"categories_nodes":[],"categories_segments":[],"categories_sizes":[],"default_left":[0,0,0,0,0,0,0,0,0,0,0,0,0,0,0,0,0],"id":36,"left_children":[1,3,5,-1,-1,7,9,-1,11,13,15,-1,-1,-1,-1,-1,-1],"loss_changes":[9.634445E0,2.0666304E0,5.096909E0,0E0,0E0,3.0307605E0,4.6872506E0,0E0,2.3929305E0,3.0375152E0,1.7045546E0,0E0,0E0,0E0,0E0,0E0,0E0],"parents":[2147483647,0,0,1,1,2,2,5,5,6,6,8,8,9,9,10,10],"right_children":[2,4,6,-1,-1,8,10,-1,12,14,16,-1,-1,-1,-1,-1,-1],"split_conditions":[-1.1400166E-3,1.18953295E-1,2.540806E-3,-0E0,1.5906453E-2,4.3177693E-3,1.5134813E0,6.8727625E-3,4.6331596E-1,-5.6783104E-4,3.035081E-1,-0E0,-6.73231E-3,-2.1607743E-3,5.921565E-3,2.3684186E-4,-7.2501404E-3],"split_indices":[12,13,0,0,0,10,11,0,11,12,13,0,0,0,0,0,0],"split_type":[0,0,0,0,0,0,0,0,0,0,0,0,0,0,0,0,0],"sum_hessian":[3.9255168E3,3.5346313E2,3.5720537E3,9.647712E1,2.5698602E2,1.5673757E3,2.004678E3,1.03944695E2,1.463431E3,1.5047205E3,4.9995746E2,4.59728E2,1.003703E3,2.5335289E2,1.2513676E3,1.8837198E2,3.115855E2],"tree_param":{"num_deleted":"0","num_feature":"15","num_nodes":"17","size_leaf_vector":"1"}},{"base_weights":[-0E0,-4.2627648E-2,5.441979E-2,3.160925E-2,-7.779263E-2,8.8485114E-2,-4.4219647E-2,8.848804E-2,-9.6260635E-3,-1.3966131E-1,-3.1783372E-2,1.10820614E-1,-3.051868E-3,-8.8287935E-2,8.0792175E-4,2.6716338E-3,1.6785286E-2,-3.158228E-3,-1.367509E-2,2.1789607E-3,-4.7654957E-3,9.516747E-3,-8.3075213E-4,-0E0,-1.2318717E-2],"categories":[],"categories_nodes":[],"categories_segments":[],"categories_sizes":[],"default_left":[0,0,0,0,0,0,0,0,0,0,0,0,0,0,0,0,0,0,0,0,0,0,0,0,0],"id":37,"left_children":[1,3,5,7,9,11,13,15,-1,17,19,21,-1,23,-1,-1,-1,-1,-1,-1,-1,-1,-1,-1,-1],"loss_changes":[9.384933E0,6.1960044E0,6.243285E0,6.302186E0,3.6258297E0,4.330266E0,1.431644E0,2.496118E0,0E0,1.312974E0,2.0376673E0,2.7248278E0,0E0,1.4350231E0,0E0,0E0,0E0,0E0,0E0,0E0,0E0,0E0,0E0,0E0,0E0],"parents":[2147483647,0,0,1,1,2,2,3,3,4,4,5,5,6,6,7,7,9,9,10,10,11,11,13,13],"right_children":[2,4,6,8,10,12,14,16,-1,18,20,22,-1,24,-1,-1,-1,-1,-1,-1,-1,-1,-1,-1,-1],"split_conditions":[1.08809E0,3.9714184E-1,5.1227594E-3,4.6312944E-3,6.840305E-3,8.6234626E-4,3.639528E-4,3.4778965E-1,-9.6260635E-3,4.9363038E-1,8.5102925E-3,2.3865259E0,-3.051868E-3,1.4941434E0,8.0792175E-4,2.6716338E-3,1.6785286E-2,-3.158228E-3,-1.367509E-2,2.1789607E-3,-4.7654957E-3,9.516747E-3,-8.3075213E-4,-0E0,-1.2318717E-2],"split_indices":[6,11,8,8,9,12,12,11,0,11,10,11,0,11,0,0,0,0,0,0,0,0,0,0,0],"split_type":[0,0,0,0,0,0,0,0,0,0,0,0,0,0,0,0,0,0,0,0,0,0,0,0,0],"sum_hessian":[4.013316E3,2.2553442E3,1.7579717E3,6.8134717E2,1.5739971E3,1.3443727E3,4.1359903E2,5.293942E2,1.519529E2,6.1192645E2,9.620707E2,1.1795872E3,1.6478546E2,2.7250723E2,1.410918E2,4.191825E2,1.1021175E2,2.2458966E2,3.8733676E2,2.7421164E2,6.87859E2,1.0870939E3,9.2493286E1,1.4964864E2,1.2285859E2],"tree_param":{"num_deleted":"0","num_feature":"15","num_nodes":"25","size_leaf_vector":"1"}},{"base_weights":[9.938123E-3,-1.0698402E-2,1.8544326E-2,-2.827646E-2,4.567098E-2,7.420204E-3,-4.991005E-2,9.463546E-2,2.1113835E-2,-9.153428E-3,-1.1578221E-3,-2.9956705E-3,9.344433E-3,2.733318E-3,-2.7531653E-3],"categories":[],"categories_nodes":[],"categories_segments":[],"categories_sizes":[],"default_left":[0,0,0,0,0,0,0,0,0,0,0,0,0,0,0],"id":38,"left_children":[1,-1,3,5,7,-1,9,11,13,-1,-1,-1,-1,-1,-1],"loss_changes":[4.561228E0,0E0,4.8843956E0,3.468268E0,2.3582191E0,0E0,2.1961095E0,3.3666353E0,1.4992077E0,0E0,0E0,0E0,0E0,0E0,0E0],"parents":[2147483647,0,0,2,2,3,3,4,4,6,6,7,7,8,8],"right_children":[2,-1,4,6,8,-1,10,12,14,-1,-1,-1,-1,-1,-1],"split_conditions":[8.1349234E-4,-1.0698402E-2,5.7138026E-1,-8.303487E-3,1.7486262E-3,7.420204E-3,1.5198661E-1,6.4298315E-3,2.3516128E-2,-9.153428E-3,-1.1578221E-3,-2.9956705E-3,9.344433E-3,2.733318E-3,-2.7531653E-3],"split_indices":[5,0,3,7,8,0,13,10,10,0,0,0,0,0,0],"split_type":[0,0,0,0,0,0,0,0,0,0,0,0,0,0,0],"sum_hessian":[3.9122456E3,1.6662218E2,3.7456235E3,1.3084769E3,2.4371467E3,1.5015326E2,1.1583236E3,7.3231744E2,1.7048292E3,3.2075793E2,8.3756573E2,9.811041E1,6.3420703E2,1.424418E3,2.8041116E2],"tree_param":{"num_deleted":"0","num_feature":"15","num_nodes":"15","size_leaf_vector":"1"}},{"base_weights":[-3.0793285E-3,-1.9956078E-2,1.2860541E-1,2.5730161E-2,-6.2426593E-2,1.6368622E-1,1.6471613E-3,1.2436156E-1,-3.3938836E-3,-1.4390086E-1,-3.3810314E-2,3.4948727E-3,1.7599884E-2,-0E0,1.3214631E-2,-2.549144E-3,6.1468575E-3,-0E0,-1.474215E-2,-6.140174E-5,-7.171958E-3],"categories":[],"categories_nodes":[],"categories_segments":[],"categories_sizes":[],"default_left":[0,0,0,0,0,0,0,0,0,0,0,0,0,0,0,0,0,0,0,0,0],"id":39,"left_children":[1,3,5,7,9,11,-1,13,15,17,19,-1,-1,-1,-1,-1,-1,-1,-1,-1,-1],"loss_changes":[8.295567E0,7.0879426E0,6.1351395E-1,5.3777294E0,3.4857926E0,7.191081E-1,0E0,3.1559997E0,3.0491009E0,2.3662481E0,2.4895663E0,0E0,0E0,0E0,0E0,0E0,0E0,0E0,0E0,0E0,0E0],"parents":[2147483647,0,0,1,1,2,2,3,3,4,4,5,5,7,7,8,8,9,9,10,10],"right_children":[2,4,6,8,10,12,-1,14,16,18,20,-1,-1,-1,-1,-1,-1,-1,-1,-1,-1],"split_conditions":[2.3739409E-2,-1.6525084E-1,3.543686E-1,8.147796E-2,2.217967E-3,2.996054E-3,1.6471613E-3,1.2658155E-3,4.3724016E-3,8.5702866E-1,1.099262E0,3.4948727E-3,1.7599884E-2,-0E0,1.3214631E-2,-2.549144E-3,6.1468575E-3,-0E0,-1.474215E-2,-6.140174E-5,-7.171958E-3],"split_indices":[10,9,9,13,5,5,0,8,7,4,4,0,0,0,0,0,0,0,0,0,0],"split_type":[0,0,0,0,0,0,0,0,0,0,0,0,0,0,0,0,0,0,0,0,0],"sum_hessian":[3.932459E3,3.53089E3,4.0156912E2,1.6494731E3,1.8814167E3,2.615778E2,1.3999132E2,4.0126868E2,1.2482045E3,4.2755588E2,1.4538608E3,1.3263635E2,1.2894144E2,1.0157908E2,2.996896E2,9.6877356E2,2.7943094E2,1.3862285E2,2.88933E2,1.0049923E3,4.4886856E2],"tree_param":{"num_deleted":"0","num_feature":"15","num_nodes":"21","size_leaf_vector":"1"}},{"base_weights":[-6.725203E-3,1.1406864E-1,-5.8733825E-2,3.7618706E-3,1.7921256E-1,-1.4678207E-2,-1.3294105E-1,5.4330144E-2,-9.484443E-3,-1.3039444E-3,2.1634278E-1,-8.6542845E-2,2.9250504E-2,-1.9334742E-1,-2.0343307E-2,8.140138E-3,-2.971575E-3,1.9184245E-2,-0E0,-0E0,-8.887555E-3,-4.987902E-3,7.4919052E-3,-9.5434504E-4,-1.6439866E-2,-0E0,-3.2038328E-3],"categories":[],"categories_nodes":[],"categories_segments":[],"categories_sizes":[],"default_left":[0,0,0,0,0,0,0,0,0,0,0,0,0,0,0,0,0,0,0,0,0,0,0,0,0,0,0],"id":40,"left_children":[1,3,5,7,9,11,13,15,-1,-1,17,19,21,23,25,-1,-1,-1,-1,-1,-1,-1,-1,-1,-1,-1,-1],"loss_changes":[2.5036757E1,7.6177177E0,8.5457535E0,2.9311013E0,6.2525463E0,6.137688E0,5.8111725E0,2.3196871E0,0E0,0E0,4.817127E0,2.3276482E0,7.64439E0,1.5343552E0,3.7179515E-1,0E0,0E0,0E0,0E0,0E0,0E0,0E0,0E0,0E0,0E0,0E0,0E0],"parents":[2147483647,0,0,1,1,2,2,3,3,4,4,5,5,6,6,7,7,10,10,11,11,12,12,13,13,14,14],"right_children":[2,4,6,8,10,12,14,16,-1,-1,18,20,22,24,26,-1,-1,-1,-1,-1,-1,-1,-1,-1,-1,-1,-1],"split_conditions":[9.337269E-2,6.151733E-1,1.8371232E-1,1.6439025E-3,7.7875036E-1,-7.2084414E-4,6.3351667E-3,-2.3945846E-5,-9.484443E-3,-1.3039444E-3,4.3329513E-3,4.2475533E-1,9.0968746E-1,1.6168378E-3,3.118294E-3,8.140138E-3,-2.971575E-3,1.9184245E-2,-0E0,-0E0,-8.887555E-3,-4.987902E-3,7.4919052E-3,-9.5434504E-4,-1.6439866E-2,-0E0,-3.2038328E-3],"split_indices":[1,11,1,5,4,14,14,12,0,0,5,3,4,5,5,0,0,0,0,0,0,0,0,0,0,0,0],"split_type":[0,0,0,0,0,0,0,0,0,0,0,0,0,0,0,0,0,0,0,0,0,0,0,0,0,0,0],"sum_hessian":[3.993009E3,1.1677941E3,2.8252148E3,4.6772763E2,7.0006647E2,1.8262388E3,9.9897614E2,3.698369E2,9.789072E1,9.206166E1,6.080048E2,7.283252E2,1.0979136E3,6.144051E2,3.8457108E2,2.6729913E2,1.0253779E2,5.1481134E2,9.319344E1,1.7001642E2,5.583088E2,4.351307E2,6.627829E2,9.746457E1,5.169405E2,1.0037341E2,2.8419766E2],"tree_param":{"num_deleted":"0","num_feature":"15","num_nodes":"27","size_leaf_vector":"1"}},{"base_weights":[1.736424E-2,-3.1855468E-2,1.02468856E-1,-1.6046466E-1,-6.3106E-3,1.2093436E-1,9.758024E-3,1.7255689E-3,-2.3921852E-1,4.1738775E-2,-5.4167435E-2,2.0105281E-1,9.700507E-2,-1.9741268E-3,6.5081944E-3,-4.0382273E-3,-2.375699E-2,6.8943957E-3,-1.1762923E-3,-0E0,-7.6319827E-3,2.0929331E-2,4.1293446E-3,-0E0,9.86045E-3],"categories":[],"categories_nodes":[],"categories_segments":[],"categories_sizes":[],"default_left":[0,0,0,0,0,0,0,0,0,0,0,0,0,0,0,0,0,0,0,0,0,0,0,0,0],"id":41,"left_children":[1,3,5,7,9,11,13,-1,15,17,19,21,23,-1,-1,-1,-1,-1,-1,-1,-1,-1,-1,-1,-1],"loss_changes":[1.6846197E1,7.2762003E0,1.8810015E0,6.5694237E0,4.9394865E0,5.109005E-1,1.1641846E0,0E0,1.8570671E0,3.2342381E0,3.055985E0,4.7493935E-1,3.1860228E0,0E0,0E0,0E0,0E0,0E0,0E0,0E0,0E0,0E0,0E0,0E0,0E0],"parents":[2147483647,0,0,1,1,2,2,3,3,4,4,5,5,6,6,8,8,9,9,10,10,11,11,12,12],"right_children":[2,4,6,8,10,12,14,-1,16,18,20,22,24,-1,-1,-1,-1,-1,-1,-1,-1,-1,-1,-1,-1],"split_conditions":[3.1157127E-3,1.7062604E-3,2.530273E-2,7.316353E-1,9.4296294E-1,3.3039472E-3,3.1986203E-2,1.7255689E-3,5.629434E-3,1.0697431E-2,-4.7472658E-4,1.0312275E0,3.5631615E-3,-1.9741268E-3,6.5081944E-3,-4.0382273E-3,-2.375699E-2,6.8943957E-3,-1.1762923E-3,-0E0,-7.6319827E-3,2.0929331E-2,4.1293446E-3,-0E0,9.86045E-3],"split_indices":[0,0,10,4,4,0,10,0,10,10,14,4,0,0,0,0,0,0,0,0,0,0,0,0,0],"split_type":[0,0,0,0,0,0,0,0,0,0,0,0,0,0,0,0,0,0,0,0,0,0,0,0,0],"sum_hessian":[3.9103503E3,2.4482314E3,1.462119E3,3.596394E2,2.088592E3,1.171569E3,2.9055005E2,9.32769E1,2.6636252E2,9.9292896E2,1.0956631E3,1.9437613E2,9.771929E2,1.6198515E2,1.285649E2,1.0281044E2,1.6355208E2,5.7392633E2,4.1900266E2,4.8920377E2,6.064593E2,9.6903755E1,9.7472374E1,2.5316774E2,7.2402515E2],"tree_param":{"num_deleted":"0","num_feature":"15","num_nodes":"25","size_leaf_vector":"1"}},{"base_weights":[-4.0381327E-3,-5.0900206E-2,4.520109E-2,1.5418343E-2,-8.238932E-2,7.4013695E-2,-4.181621E-2,5.5372577E-2,-9.808802E-3,-1.375498E-1,-4.4979632E-2,-0E0,8.69483E-2,-1.1132749E-1,3.7680904E-3,-0E0,8.873805E-3,-1.4438921E-2,-8.182748E-4,1.1999849E-3,-5.3315796E-3,1.0858905E-2,2.7637018E-3,-0E0,-1.6062614E-2],"categories":[],"categories_nodes":[],"categories_segments":[],"categories_sizes":[],"default_left":[0,0,0,0,0,0,0,0,0,0,0,0,0,0,0,0,0,0,0,0,0,0,0,0,0],"id":42,"left_children":[1,3,5,7,9,11,13,15,-1,17,19,-1,21,23,-1,-1,-1,-1,-1,-1,-1,-1,-1,-1,-1],"loss_changes":[9.117389E0,4.6632895E0,4.8996434E0,3.4122827E0,2.015316E0,1.7140603E0,3.1557937E0,2.3790178E0,0E0,2.533267E0,1.7376726E0,0E0,2.6841192E0,2.79583E0,0E0,0E0,0E0,0E0,0E0,0E0,0E0,0E0,0E0,0E0,0E0],"parents":[2147483647,0,0,1,1,2,2,3,3,4,4,5,5,6,6,7,7,9,9,10,10,12,12,13,13],"right_children":[2,4,6,8,10,12,14,16,-1,18,20,-1,22,24,-1,-1,-1,-1,-1,-1,-1,-1,-1,-1,-1],"split_conditions":[2.829282E-3,4.6331596E-1,1.607884E0,1.0371586E0,4.686664E-1,9.913348E-3,4.090424E-3,1.1378837E0,-9.808802E-3,1.5333173E-3,8.502642E-1,-0E0,1.6157128E-2,1.6956176E-1,3.7680904E-3,-0E0,8.873805E-3,-1.4438921E-2,-8.182748E-4,1.1999849E-3,-5.3315796E-3,1.0858905E-2,2.7637018E-3,-0E0,-1.6062614E-2],"split_indices":[0,11,11,4,3,10,0,3,0,7,4,0,10,1,0,0,0,0,0,0,0,0,0,0,0],"split_type":[0,0,0,0,0,0,0,0,0,0,0,0,0,0,0,0,0,0,0,0,0,0,0,0,0],"sum_hessian":[3.9057312E3,2.0511228E3,1.8546084E3,6.137581E2,1.4373646E3,1.4368508E3,4.177575E2,5.153353E2,9.842282E1,5.1049963E2,9.26865E2,1.7360938E2,1.2632415E3,2.653535E2,1.52404E2,2.395933E2,2.75742E2,3.272217E2,1.8327791E2,2.186501E2,7.0821484E2,5.372438E2,7.259977E2,1.4207587E2,1.2327763E2],"tree_param":{"num_deleted":"0","num_feature":"15","num_nodes":"25","size_leaf_vector":"1"}},{"base_weights":[8.380663E-3,7.545154E-2,-7.5646095E-2,-1.320289E-1,1.0638984E-1,-1.0246007E-2,-1.3100162E-1,-1.4784698E-3,-1.4912984E-2,1.3057533E-1,-7.513512E-3,4.2708315E-2,-9.4842E-2,-1.491313E-1,-1.9387818E-3,1.7455861E-2,7.840294E-3,-3.4400832E-4,6.929637E-3,-1.0628673E-2,-0E0,-1.2271787E-2,-1.5950813E-3],"categories":[],"categories_nodes":[],"categories_segments":[],"categories_sizes":[],"default_left":[0,0,0,0,0,0,0,0,0,0,0,0,0,0,0,0,0,0,0,0,0,0,0],"id":43,"left_children":[1,3,5,7,9,11,13,-1,-1,15,-1,17,19,21,-1,-1,-1,-1,-1,-1,-1,-1,-1],"loss_changes":[2.2440115E1,1.4525351E1,5.581687E0,9.206276E-1,1.0229103E1,4.1466727E0,8.1044483E-1,0E0,0E0,2.865923E0,0E0,1.5818491E0,1.7020922E0,2.4561882E-1,0E0,0E0,0E0,0E0,0E0,0E0,0E0,0E0,0E0],"parents":[2147483647,0,0,1,1,2,2,3,3,4,4,5,5,6,6,9,9,11,11,12,12,13,13],"right_children":[2,4,6,8,10,12,14,-1,-1,16,-1,18,20,22,-1,-1,-1,-1,-1,-1,-1,-1,-1],"split_conditions":[1.4193611E-1,7.564373E-1,8.45754E-1,8.396981E-2,2.151593E-2,2.0278203E-1,7.0387316E-3,-1.4784698E-3,-1.4912984E-2,6.1626773E-2,-7.513512E-3,1.2996447E0,5.8794844E-1,2.2265451E-2,-1.9387818E-3,1.7455861E-2,7.840294E-3,-3.4400832E-4,6.929637E-3,-1.0628673E-2,-0E0,-1.2271787E-2,-1.5950813E-3],"split_indices":[1,4,3,1,10,1,14,0,0,1,0,6,3,10,0,0,0,0,0,0,0,0,0],"split_type":[0,0,0,0,0,0,0,0,0,0,0,0,0,0,0,0,0,0,0,0,0,0,0],"sum_hessian":[3.9480254E3,2.2284434E3,1.7195822E3,2.6178284E2,1.9666604E3,8.374037E2,8.821785E2,1.3084486E2,1.3093799E2,1.7861088E3,1.805517E2,4.8504333E2,3.5236032E2,7.076926E2,1.744859E2,3.169186E2,1.4691902E3,2.0368872E2,2.8135464E2,2.3857845E2,1.1378187E2,6.0514996E2,1.0254267E2],"tree_param":{"num_deleted":"0","num_feature":"15","num_nodes":"23","size_leaf_vector":"1"}},{"base_weights":[-4.513538E-3,-2.8079906E-2,6.644813E-2,-4.4812965E-3,-8.2914546E-2,-1.0345875E-3,8.59477E-2,-7.670498E-2,2.2142356E-2,-1.3959469E-2,-4.72627E-2,1.20413326E-1,-0E0,-1.278361E-2,-0E0,4.2815343E-3,-5.23849E-3,1.1634663E-3,-7.2235814E-3,1.1060194E-2,-0E0,-4.38596E-3,1.9301405E-3],"categories":[],"categories_nodes":[],"categories_segments":[],"categories_sizes":[],"default_left":[0,0,0,0,0,0,0,0,0,0,0,0,0,0,0,0,0,0,0,0,0,0,0],"id":44,"left_children":[1,3,5,7,9,-1,11,13,15,-1,17,19,21,-1,-1,-1,-1,-1,-1,-1,-1,-1,-1],"loss_changes":[6.415258E0,3.4690514E0,1.826438E0,4.4934034E0,1.7818317E0,0E0,2.8538413E0,4.977537E0,4.896948E0,0E0,2.4620328E0,1.3460064E0,4.680363E-1,0E0,0E0,0E0,0E0,0E0,0E0,0E0,0E0,0E0,0E0],"parents":[2147483647,0,0,1,1,2,2,3,3,4,4,6,6,7,7,8,8,10,10,11,11,12,12],"right_children":[2,4,6,8,10,-1,12,14,16,-1,18,20,22,-1,-1,-1,-1,-1,-1,-1,-1,-1,-1],"split_conditions":[4.0448015E-3,1.1528594E0,1.0179878E0,1.2717181E-3,2.1646577E-3,-1.0345875E-3,2.0705752E0,-2.0973093E-4,2.487427E-3,-1.3959469E-2,9.695627E-3,1.2186435E0,6.358896E-3,-1.278361E-2,-0E0,4.2815343E-3,-5.23849E-3,1.1634663E-3,-7.2235814E-3,1.1060194E-2,-0E0,-4.38596E-3,1.9301405E-3],"split_indices":[5,11,11,5,5,0,11,14,14,0,10,4,5,0,0,0,0,0,0,0,0,0,0],"split_type":[0,0,0,0,0,0,0,0,0,0,0,0,0,0,0,0,0,0,0,0,0,0,0],"sum_hessian":[3.911326E3,2.9949265E3,9.163994E2,2.1681204E3,8.268063E2,1.3192526E2,7.844741E2,6.2428046E2,1.5438398E3,1.6175948E2,6.650468E2,5.8823334E2,1.962408E2,2.9071872E2,3.335617E2,1.1647631E3,3.7907678E2,2.5009114E2,4.1495566E2,4.5834253E2,1.2989081E2,1.0127383E2,9.4966965E1],"tree_param":{"num_deleted":"0","num_feature":"15","num_nodes":"23","size_leaf_vector":"1"}},{"base_weights":[1.2084219E-2,-3.4286115E-2,4.8926603E-2,-0E0,-1.2676734E-1,3.38444E-2,1.3620809E-2,-3.2749124E-2,5.28261E-2,-1.4412645E-2,-0E0,-1.8592102E-2,6.1295696E-2,-0E0,-5.733711E-3,-0E0,5.9870244E-3,1.7424357E-3,-3.9781625E-3,5.3111166E-3,-0E0],"categories":[],"categories_nodes":[],"categories_segments":[],"categories_sizes":[],"default_left":[0,0,0,0,0,0,0,0,0,0,0,0,0,0,0,0,0,0,0,0,0],"id":45,"left_children":[1,3,5,7,9,11,-1,13,15,-1,-1,17,19,-1,-1,-1,-1,-1,-1,-1,-1],"loss_changes":[6.8643293E0,4.9901094E0,3.347599E0,2.1892538E0,2.8177762E0,3.2348084E0,0E0,9.9909055E-1,8.422804E-1,0E0,0E0,1.1083413E0,9.112668E-1,0E0,0E0,0E0,0E0,0E0,0E0,0E0,0E0],"parents":[2147483647,0,0,1,1,2,2,3,3,4,4,5,5,7,7,8,8,11,11,12,12],"right_children":[2,4,6,8,10,12,-1,14,16,-1,-1,18,20,-1,-1,-1,-1,-1,-1,-1,-1],"split_conditions":[7.253639E-1,1.4063534E0,2.6607528E-2,3.8412076E-3,3.223349E-3,-1.4081534E-3,1.3620809E-2,1.1314491E-2,9.78601E-2,-1.4412645E-2,-0E0,5.8381134E-1,7.0387316E-3,-0E0,-5.733711E-3,-0E0,5.9870244E-3,1.7424357E-3,-3.9781625E-3,5.3111166E-3,-0E0],"split_indices":[2,6,10,8,14,14,0,10,1,0,0,6,14,0,0,0,0,0,0,0,0],"split_type":[0,0,0,0,0,0,0,0,0,0,0,0,0,0,0,0,0,0,0,0,0],"sum_hessian":[3.9432566E3,1.6883676E3,2.254889E3,1.2699418E3,4.1842584E2,2.0738472E3,1.8104167E2,8.263128E2,4.4362897E2,2.5451268E2,1.6391316E2,6.5404974E2,1.4197975E3,5.1057263E2,3.1574014E2,1.19557915E2,3.2407108E2,2.3218744E2,4.218623E2,1.2679276E3,1.5186981E2],"tree_param":{"num_deleted":"0","num_feature":"15","num_nodes":"21","size_leaf_vector":"1"}},{"base_weights":[1.7589297E-2,1.1460274E-1,-8.287963E-2,2.1229716E-1,5.843415E-2,-1.4274885E-1,-9.248955E-3,2.8962302E-3,2.4086517E-1,1.4161116E-1,1.1589486E-2,-0E0,-1.5972807E-1,2.233939E-2,-1.2982894E-1,3.800578E-3,2.016029E-2,1.5012994E-2,-0E0,-2.9501969E-3,2.4476282E-3,-1.603152E-2,-8.171134E-3,1.1253237E-2,-3.9864753E-4,-0E0,-1.4718843E-2],"categories":[],"categories_nodes":[],"categories_segments":[],"categories_sizes":[],"default_left":[0,0,0,0,0,0,0,0,0,0,0,0,0,0,0,0,0,0,0,0,0,0,0,0,0,0,0],"id":46,"left_children":[1,3,5,7,9,11,13,-1,15,17,19,-1,21,23,25,-1,-1,-1,-1,-1,-1,-1,-1,-1,-1,-1,-1],"loss_changes":[3.9469166E1,9.871969E0,7.878808E0,2.0774422E0,4.579776E0,2.6748905E0,4.1201215E0,0E0,1.0834732E0,3.5675516E0,9.6535623E-1,0E0,5.96262E-1,3.2169418E0,1.1581395E0,0E0,0E0,0E0,0E0,0E0,0E0,0E0,0E0,0E0,0E0,0E0,0E0],"parents":[2147483647,0,0,1,1,2,2,3,3,4,4,5,5,6,6,8,8,9,9,10,10,12,12,13,13,14,14],"right_children":[2,4,6,8,10,12,14,-1,16,18,20,-1,22,24,26,-1,-1,-1,-1,-1,-1,-1,-1,-1,-1,-1,-1],"split_conditions":[2.725085E-3,5.297605E-1,1.130903E0,5.396679E-1,1.9263198E-3,8.9371905E-2,6.411544E-3,2.8962302E-3,9.955232E-2,2.9055406E-3,8.8494755E-2,-0E0,2.9538986E-3,2.95197E-3,4.0199445E-3,3.800578E-3,2.016029E-2,1.5012994E-2,-0E0,-2.9501969E-3,2.4476282E-3,-1.603152E-2,-8.171134E-3,1.1253237E-2,-3.9864753E-4,-0E0,-1.4718843E-2],"split_indices":[0,3,11,11,0,1,8,0,13,8,13,0,8,0,0,0,0,0,0,0,0,0,0,0,0,0,0],"split_type":[0,0,0,0,0,0,0,0,0,0,0,0,0,0,0,0,0,0,0,0,0,0,0,0,0,0,0],"sum_hessian":[4.000476E3,2.0584822E3,1.9419938E3,7.029961E2,1.3554861E3,1.0262053E3,9.157885E2,1.2847588E2,5.745202E2,4.389533E2,9.165328E2,1.0512214E2,9.210832E2,7.0482074E2,2.1096774E2,9.5132965E1,4.7938724E2,3.0703766E2,1.3191565E2,1.9435011E2,7.221827E2,3.8862405E2,5.324591E2,1.4470056E2,5.601202E2,9.528446E1,1.1568329E2],"tree_param":{"num_deleted":"0","num_feature":"15","num_nodes":"27","size_leaf_vector":"1"}},{"base_weights":[-0E0,-4.0561687E-2,1.3553524E-1,-1.5307772E-1,-1.8898482E-2,1.7955722E-1,-0E0,5.1465128E-3,-2.2606629E-1,2.5774417E-2,-6.78808E-2,9.7970776E-2,1.9673964E-2,-0E0,-1.896913E-3,-0E0,-2.1724947E-2,3.5630781E-3,-5.645004E-3,-0E0,-8.392101E-3,1.1656648E-2,-0E0],"categories":[],"categories_nodes":[],"categories_segments":[],"categories_sizes":[],"default_left":[0,0,0,0,0,0,0,0,0,0,0,0,0,0,0,0,0,0,0,0,0,0,0],"id":47,"left_children":[1,3,5,7,9,11,13,-1,15,17,19,21,-1,-1,-1,-1,-1,-1,-1,-1,-1,-1,-1],"loss_changes":[2.1722498E1,6.5078855E0,6.1526527E0,8.29527E0,5.914375E0,2.4805355E0,7.92695E-2,0E0,3.5592537E0,2.733889E0,3.7894058E0,1.7009888E0,0E0,0E0,0E0,0E0,0E0,0E0,0E0,0E0,0E0,0E0,0E0],"parents":[2147483647,0,0,1,1,2,2,3,3,4,4,5,5,6,6,8,8,9,9,10,10,11,11],"right_children":[2,4,6,8,10,12,14,-1,16,18,20,22,-1,-1,-1,-1,-1,-1,-1,-1,-1,-1,-1],"split_conditions":[3.6833445E-3,1.7934436E-3,2.8261986E-2,7.316353E-1,9.758123E-1,1.141861E0,-5.6510284E-3,5.1465128E-3,5.1289224E-3,1.5300078E0,8.1824255E-1,1.1213478E0,1.9673964E-2,-0E0,-1.896913E-3,-0E0,-2.1724947E-2,3.5630781E-3,-5.645004E-3,-0E0,-8.392101E-3,1.1656648E-2,-0E0],"split_indices":[0,0,10,4,4,4,14,0,10,6,6,6,0,0,0,0,0,0,0,0,0,0,0],"split_type":[0,0,0,0,0,0,0,0,0,0,0,0,0,0,0,0,0,0,0,0,0,0,0],"sum_hessian":[3.9080076E3,3.013761E3,8.942465E2,4.3409747E2,2.5796636E3,6.9310486E2,2.0114165E2,9.164681E1,3.4245068E2,1.3017991E3,1.2778644E3,3.916202E2,3.0148465E2,9.143112E1,1.0971053E2,9.248963E1,2.4996104E2,1.121361E3,1.8043811E2,4.9903433E2,7.788301E2,2.2081581E2,1.7080438E2],"tree_param":{"num_deleted":"0","num_feature":"15","num_nodes":"23","size_leaf_vector":"1"}},{"base_weights":[1.2792883E-2,8.8542816E-4,1.0818629E-1,2.8934233E-2,-8.8558786E-2,1.4048664E-1,-0E0,1.5198223E-2,1.0421277E-2,-1.2178231E-3,-1.14645185E-2,-0E0,1.4269205E-2,-1.2086735E-3,3.5545784E-3,-2.9257487E-3,2.208002E-3],"categories":[],"categories_nodes":[],"categories_segments":[],"categories_sizes":[],"default_left":[0,0,0,0,0,0,0,0,0,0,0,0,0,0,0,0,0],"id":48,"left_children":[1,3,5,7,9,11,-1,13,-1,15,-1,-1,-1,-1,-1,-1,-1],"loss_changes":[3.9194288E0,8.644019E0,1.0909305E0,3.3299747E0,3.6906428E0,1.1920285E0,0E0,2.630858E0,0E0,5.039761E-1,0E0,0E0,0E0,0E0,0E0,0E0,0E0],"parents":[2147483647,0,0,1,1,2,2,3,3,4,4,5,5,7,7,9,9],"right_children":[2,4,6,8,10,12,-1,14,-1,16,-1,-1,-1,-1,-1,-1,-1],"split_conditions":[5.6870636E-3,1.3883924E0,1.1378837E0,2.5155595E-1,1.333285E0,1.2564377E-2,-0E0,1.0643907E0,1.0421277E-2,1.675135E0,-1.14645185E-2,-0E0,1.4269205E-2,-1.2086735E-3,3.5545784E-3,-2.9257487E-3,2.208002E-3],"split_indices":[5,11,3,1,6,10,0,3,0,11,0,0,0,0,0,0,0],"split_type":[0,0,0,0,0,0,0,0,0,0,0,0,0,0,0,0,0],"sum_hessian":[3.8987437E3,3.5261948E3,3.725488E2,2.734161E3,7.920338E2,2.693544E2,1.03194405E2,2.4835962E3,2.5056482E2,3.7034805E2,4.2168576E2,9.32058E1,1.7614859E2,1.1801714E3,1.3034247E3,2.3517499E2,1.3517308E2],"tree_param":{"num_deleted":"0","num_feature":"15","num_nodes":"17","size_leaf_vector":"1"}},{"base_weights":[6.3976124E-3,1.08406074E-1,-1.6365211E-2,-9.374079E-3,1.527715E-1,5.293793E-2,-5.4486264E-2,1.7693764E-1,1.7925287E-3,-8.1458E-3,7.58497E-2,-3.2527197E-2,-1.330969E-1,5.748083E-3,1.8114215E-2,-1.0243972E-4,9.038659E-3,-9.7312555E-3,-6.2475755E-4,-0E0,-1.2974832E-2],"categories":[],"categories_nodes":[],"categories_segments":[],"categories_sizes":[],"default_left":[0,0,0,0,0,0,0,0,0,0,0,0,0,0,0,0,0,0,0,0,0],"id":49,"left_children":[1,3,5,-1,7,9,11,13,-1,-1,15,17,19,-1,-1,-1,-1,-1,-1,-1,-1],"loss_changes":[9.81511E0,8.436498E0,8.681308E0,0E0,1.0686989E0,4.1088734E0,2.8551378E0,1.5306892E0,0E0,0E0,3.983817E0,3.4157703E0,1.9377108E0,0E0,0E0,0E0,0E0,0E0,0E0,0E0,0E0],"parents":[2147483647,0,0,1,1,2,2,4,4,5,5,6,6,7,7,10,10,11,11,12,12],"right_children":[2,4,6,-1,8,10,12,14,-1,-1,16,18,20,-1,-1,-1,-1,-1,-1,-1,-1],"split_conditions":[3.903156E-1,1.4571063E-1,9.640704E-3,-9.374079E-3,8.932425E-1,4.432648E-3,1.747956E0,9.47289E-1,1.7925287E-3,-8.1458E-3,8.636179E-1,8.462492E-1,3.688706E-1,5.748083E-3,1.8114215E-2,-1.0243972E-4,9.038659E-3,-9.7312555E-3,-6.2475755E-4,-0E0,-1.2974832E-2],"split_indices":[2,2,10,0,9,10,2,4,0,0,4,4,11,0,0,0,0,0,0,0,0],"split_type":[0,0,0,0,0,0,0,0,0,0,0,0,0,0,0,0,0,0,0,0,0],"sum_hessian":[4.0059175E3,7.579665E2,3.247951E3,9.934292E1,6.5862354E2,1.1053143E3,2.1426365E3,5.180388E2,1.4058475E2,1.0403639E2,1.00127795E3,1.7414141E3,4.012225E2,2.4087616E2,2.7716266E2,3.262005E2,6.7507745E2,2.9718506E2,1.444229E3,9.923787E1,3.0198465E2],"tree_param":{"num_deleted":"0","num_feature":"15","num_nodes":"21","size_leaf_vector":"1"}},{"base_weights":[-5.583024E-3,-9.318481E-2,3.1532865E-2,-1.2013718E-1,2.4842042E-3,7.298936E-2,-1.2212098E-2,-7.256915E-2,-1.8501894E-1,4.3639246E-2,1.7759345E-1,2.4914052E-2,-5.8602735E-2,-1.0403839E-2,-1.3467687E-3,-2.4838222E-3,-1.7481962E-2,4.3279654E-3,-4.5031196E-4,1.7412761E-2,1.2220271E-3,-3.0908014E-3,5.2065835E-3,-8.333859E-3,-0E0],"categories":[],"categories_nodes":[],"categories_segments":[],"categories_sizes":[],"default_left":[0,0,0,0,0,0,0,0,0,0,0,0,0,0,0,0,0,0,0,0,0,0,0,0,0],"id":50,"left_children":[1,3,5,7,-1,9,11,13,15,17,19,21,23,-1,-1,-1,-1,-1,-1,-1,-1,-1,-1,-1,-1],"loss_changes":[1.3081014E1,4.590884E0,5.2498302E0,1.7111702E0,0E0,3.2777524E0,2.3978825E0,1.5692763E0,1.2564468E0,1.0517976E0,1.0910225E0,2.1002958E0,2.327501E0,0E0,0E0,0E0,0E0,0E0,0E0,0E0,0E0,0E0,0E0,0E0,0E0],"parents":[2147483647,0,0,1,1,2,2,3,3,5,5,6,6,7,7,8,8,9,9,10,10,11,11,12,12],"right_children":[2,4,6,8,-1,10,12,14,16,18,20,22,24,-1,-1,-1,-1,-1,-1,-1,-1,-1,-1,-1,-1],"split_conditions":[9.9205315E-2,3.7027525E-3,1.4832256E-3,1.0823119E0,2.4842042E-3,2.0118392E-1,2.714428E-1,1.207747E-3,-4.3162125E-1,6.388211E-1,1.0547646E-3,-6.035175E-1,4.368402E-3,-1.0403839E-2,-1.3467687E-3,-2.4838222E-3,-1.7481962E-2,4.3279654E-3,-4.5031196E-4,1.7412761E-2,1.2220271E-3,-3.0908014E-3,5.2065835E-3,-8.333859E-3,-0E0],"split_indices":[1,5,14,6,0,1,9,5,9,9,12,9,5,0,0,0,0,0,0,0,0,0,0,0,0],"split_type":[0,0,0,0,0,0,0,0,0,0,0,0,0,0,0,0,0,0,0,0,0,0,0,0,0],"sum_hessian":[3.8995679E3,1.1916538E3,2.707914E3,1.01383185E3,1.7782198E2,1.4412145E3,1.2666995E3,6.484821E2,3.6534976E2,1.1801132E3,2.611014E2,6.501235E2,6.16576E2,2.4535397E2,4.031281E2,1.1533397E2,2.500158E2,1.0026549E3,1.7745822E2,1.6937428E2,9.172713E1,2.1635696E2,4.3376648E2,3.555822E2,2.6099374E2],"tree_param":{"num_deleted":"0","num_feature":"15","num_nodes":"25","size_leaf_vector":"1"}},{"base_weights":[-1.3686199E-2,-6.050915E-2,2.0033123E-2,6.7242775E-3,-7.358746E-2,6.7687675E-2,-3.9821286E-2,-1.1658187E-1,-3.3745836E-2,8.657372E-2,-1.457957E-2,-7.441698E-2,5.7537705E-3,-1.07056135E-2,-0E0,4.3599275E-3,-3.9095194E-3,-0E0,8.085957E-3,1.1907537E-3,-6.3173436E-3,-9.195375E-3,6.193743E-5],"categories":[],"categories_nodes":[],"categories_segments":[],"categories_sizes":[],"default_left":[0,0,0,0,0,0,0,0,0,0,0,0,0,0,0,0,0,0,0,0,0,0,0],"id":51,"left_children":[1,3,5,-1,7,9,11,13,15,17,19,21,-1,-1,-1,-1,-1,-1,-1,-1,-1,-1,-1],"loss_changes":[6.3322E0,3.3273468E0,6.468797E0,0E0,1.9299784E0,2.3555093E0,3.863647E0,1.8090696E0,1.4974694E0,2.3767786E0,7.7654016E-1,3.2889414E0,0E0,0E0,0E0,0E0,0E0,0E0,0E0,0E0,0E0,0E0,0E0],"parents":[2147483647,0,0,1,1,2,2,4,4,5,5,6,6,7,7,8,8,9,9,10,10,11,11],"right_children":[2,4,6,-1,8,10,12,14,16,18,20,22,-1,-1,-1,-1,-1,-1,-1,-1,-1,-1,-1],"split_conditions":[2.59569E-3,4.3177693E-3,2.542307E-1,6.7242775E-3,7.460333E-1,1.9463075E0,1.3775797E0,5.8695555E-1,9.2800194E-1,9.913348E-3,3.4192232E-3,7.5242275E-1,5.7537705E-3,-1.07056135E-2,-0E0,4.3599275E-3,-3.9095194E-3,-0E0,8.085957E-3,1.1907537E-3,-6.3173436E-3,-9.195375E-3,6.193743E-5],"split_indices":[0,10,9,0,3,3,3,13,3,10,0,9,0,0,0,0,0,0,0,0,0,0,0],"split_type":[0,0,0,0,0,0,0,0,0,0,0,0,0,0,0,0,0,0,0,0,0,0,0],"sum_hessian":[3.857126E3,1.6691483E3,2.1879778E3,9.690055E1,1.5722477E3,1.2618165E3,9.2616125E2,6.823184E2,8.899293E2,1.0732427E3,1.885739E2,7.497716E2,1.7638963E2,5.501034E2,1.3221501E2,9.510726E1,7.948221E2,1.634575E2,9.0978516E2,9.119106E1,9.7382835E1,4.9500397E2,2.5476762E2],"tree_param":{"num_deleted":"0","num_feature":"15","num_nodes":"23","size_leaf_vector":"1"}},{"base_weights":[-3.4341365E-3,5.998182E-2,-4.2384338E-2,8.640556E-2,-7.0849724E-2,1.4468808E-1,-6.145935E-2,1.6972601E-1,3.349255E-2,-0E0,-9.385264E-3,1.6067734E-2,2.2344599E-3,-4.6997607E-2,-1.223685E-2,1.790502E-2,-0E0,-1.4619696E-3,8.459126E-3,-6.8782666E-3,-0E0],"categories":[],"categories_nodes":[],"categories_segments":[],"categories_sizes":[],"default_left":[0,0,0,0,0,0,0,0,0,0,0,0,0,0,0,0,0,0,0,0,0],"id":52,"left_children":[1,3,5,7,9,11,13,15,17,-1,-1,-1,-1,19,-1,-1,-1,-1,-1,-1,-1],"loss_changes":[9.97565E0,5.3740964E0,8.917015E0,4.6047516E0,6.4034295E-1,4.2988348E-1,2.2887163E0,6.049629E0,3.9645035E0,0E0,0E0,0E0,0E0,4.4148574E0,0E0,0E0,0E0,0E0,0E0,0E0,0E0],"parents":[2147483647,0,0,1,1,2,2,3,3,4,4,5,5,6,6,7,7,8,8,13,13],"right_children":[2,4,6,8,10,12,14,16,18,-1,-1,-1,-1,20,-1,-1,-1,-1,-1,-1,-1],"split_conditions":[5.997708E-1,5.9193904E-3,8.691503E-4,-2.4228976E-3,5.35038E-5,-8.183827E-5,5.459569E-3,4.3329513E-3,1.2832009E0,-0E0,-9.385264E-3,1.6067734E-2,2.2344599E-3,7.621133E-1,-1.223685E-2,1.790502E-2,-0E0,-1.4619696E-3,8.459126E-3,-6.8782666E-3,-0E0],"split_indices":[3,8,5,14,12,12,5,5,11,0,0,0,0,11,0,0,0,0,0,0,0],"split_type":[0,0,0,0,0,0,0,0,0,0,0,0,0,0,0,0,0,0,0,0,0],"sum_hessian":[4.0388535E3,1.4861525E3,2.5527012E3,1.2718932E3,2.1425923E2,2.0252313E2,2.350178E3,4.4412497E2,8.277683E2,1.13684616E2,1.0057462E2,9.2451126E1,1.10072E2,2.1170374E3,2.3314066E2,3.2949194E2,1.14633026E2,4.6467365E2,3.6309464E2,1.091475E3,1.0255623E3],"tree_param":{"num_deleted":"0","num_feature":"15","num_nodes":"21","size_leaf_vector":"1"}},{"base_weights":[-4.2722435E-3,-9.409602E-2,2.920646E-2,-4.4409838E-2,-1.4006408E-1,-2.824967E-3,6.4560354E-2,-8.469858E-2,2.0682563E-3,-2.0508935E-1,-7.5897574E-2,7.733348E-2,-2.7929574E-2,9.532138E-2,5.8928323E-3,-1.019908E-2,-0E0,-2.163179E-2,-4.1929693E-3,-0E0,-1.5916059E-2,-0E0,1.3564574E-2,-5.318029E-3,5.3312615E-3,6.0174472E-5,1.1938749E-2,-2.715772E-3,4.9101794E-3],"categories":[],"categories_nodes":[],"categories_segments":[],"categories_sizes":[],"default_left":[0,0,0,0,0,0,0,0,0,0,0,0,0,0,0,0,0,0,0,0,0,0,0,0,0,0,0,0,0],"id":53,"left_children":[1,3,5,7,9,11,13,15,-1,17,19,21,23,25,27,-1,-1,-1,-1,-1,-1,-1,-1,-1,-1,-1,-1,-1,-1],"loss_changes":[1.2143168E1,1.5331163E0,3.503947E0,2.0699606E0,5.3739357E-1,2.6720977E0,2.058621E0,2.4692247E0,0E0,6.079941E-1,3.0361738E0,2.8823023E0,4.838568E0,4.374186E0,1.5531536E0,0E0,0E0,0E0,0E0,0E0,0E0,0E0,0E0,0E0,0E0,0E0,0E0,0E0,0E0],"parents":[2147483647,0,0,1,1,2,2,3,3,4,4,5,5,6,6,7,7,9,9,10,10,11,11,12,12,13,13,14,14],"right_children":[2,4,6,8,10,12,14,16,-1,18,20,22,24,26,28,-1,-1,-1,-1,-1,-1,-1,-1,-1,-1,-1,-1,-1,-1],"split_conditions":[2.258394E-3,8.747868E-1,9.2800194E-1,1.0398085E-2,1.8069823E-3,1.184027E-3,4.3713897E-3,1.3276192E0,2.0682563E-3,-9.399258E-4,1.0857787E-2,3.075869E-3,5.9797475E-3,2.8770964E-3,6.5734778E-3,-1.019908E-2,-0E0,-2.163179E-2,-4.1929693E-3,-0E0,-1.5916059E-2,-0E0,1.3564574E-2,-5.318029E-3,5.3312615E-3,6.0174472E-5,1.1938749E-2,-2.715772E-3,4.9101794E-3],"split_indices":[0,11,3,10,0,8,8,3,0,7,10,0,8,0,8,0,0,0,0,0,0,0,0,0,0,0,0,0,0],"split_type":[0,0,0,0,0,0,0,0,0,0,0,0,0,0,0,0,0,0,0,0,0,0,0,0,0,0,0,0,0],"sum_hessian":[3.9016443E3,1.090244E3,2.8114001E3,5.903173E2,4.999267E2,1.4114832E3,1.399917E3,4.1910468E2,1.7121262E2,1.9256343E2,3.0736325E2,2.824073E2,1.1290759E3,8.5749133E2,5.4242566E2,2.922228E2,1.2688188E2,9.443057E1,9.813285E1,2.130025E2,9.436076E1,1.533881E2,1.2901917E2,8.274033E2,3.0167264E2,3.7788437E2,4.79607E2,2.7335928E2,2.6906638E2],"tree_param":{"num_deleted":"0","num_feature":"15","num_nodes":"29","size_leaf_vector":"1"}},{"base_weights":[3.62506E-4,-4.1447848E-2,4.451783E-2,-0E0,-7.066578E-2,1.3057584E-1,1.7874828E-2,-8.039196E-2,7.4671894E-2,-5.381879E-3,-1.2694433E-1,1.8129513E-1,-0E0,3.0828908E-3,1.03864735E-2,-9.5001794E-4,-1.3340341E-2,8.540303E-3,-0E0,-3.0782928E-3,4.675795E-3,-1.2475455E-2,-0E0,3.2731313E-3,1.973711E-2,-2.7784015E-4,9.111883E-3],"categories":[],"categories_nodes":[],"categories_segments":[],"categories_sizes":[],"default_left":[0,0,0,0,0,0,0,0,0,0,0,0,0,0,0,0,0,0,0,0,0,0,0,0,0,0,0],"id":54,"left_children":[1,3,5,7,9,11,13,15,17,19,21,23,-1,25,-1,-1,-1,-1,-1,-1,-1,-1,-1,-1,-1,-1,-1],"loss_changes":[7.265838E0,2.553477E0,3.7524683E0,4.8413954E0,3.7073164E0,2.3339696E0,2.0728967E0,1.4744151E0,1.6154475E0,1.3735225E0,2.2952833E0,1.4976673E0,0E0,1.712095E0,0E0,0E0,0E0,0E0,0E0,0E0,0E0,0E0,0E0,0E0,0E0,0E0,0E0],"parents":[2147483647,0,0,1,1,2,2,3,3,4,4,5,5,6,6,7,7,8,8,9,9,10,10,11,11,13,13],"right_children":[2,4,6,8,10,12,14,16,18,20,22,24,-1,26,-1,-1,-1,-1,-1,-1,-1,-1,-1,-1,-1,-1,-1],"split_conditions":[1.3299039E-1,-4.24098E-3,8.9230496E-1,7.350447E-2,-1.6525084E-1,5.503956E-3,2.214524E0,5.9767738E-2,1.124021E0,-4.1974822E-1,3.3497885E-3,4.8404522E-4,-0E0,3.307629E-1,1.03864735E-2,-9.5001794E-4,-1.3340341E-2,8.540303E-3,-0E0,-3.0782928E-3,4.675795E-3,-1.2475455E-2,-0E0,3.2731313E-3,1.973711E-2,-2.7784015E-4,9.111883E-3],"split_indices":[1,7,4,1,9,7,6,1,4,9,5,7,0,1,0,0,0,0,0,0,0,0,0,0,0,0,0],"split_type":[0,0,0,0,0,0,0,0,0,0,0,0,0,0,0,0,0,0,0,0,0,0,0,0,0,0,0],"sum_hessian":[3.893979E3,1.9444636E3,1.9495154E3,7.752255E2,1.1692382E3,4.025055E2,1.5470099E3,3.5642126E2,4.1880426E2,5.8956946E2,5.7966876E2,2.7170557E2,1.3079991E2,1.4275934E3,1.1941654E2,2.4915086E2,1.072704E2,3.0170154E2,1.1710273E2,4.3807877E2,1.5149066E2,4.226657E2,1.5700302E2,1.3066687E2,1.410387E2,1.326274E3,1.0131926E2],"tree_param":{"num_deleted":"0","num_feature":"15","num_nodes":"27","size_leaf_vector":"1"}},{"base_weights":[-1.5245517E-2,2.9075662E-2,-7.9060785E-2,-4.2080496E-2,6.741663E-2,-1.08888045E-1,2.4454303E-2,3.1796787E-2,-1.1773633E-1,-3.7284803E-2,9.863275E-2,-0E0,-1.2877406E-1,7.741213E-2,-1.8066274E-3,-3.8974355E-3,6.4598853E-3,-1.2917426E-2,-2.5779996E-3,-0E0,-9.260206E-3,1.1547844E-2,-1.4956399E-3,-4.234122E-3,6.345851E-3,-1.3993023E-2,-5.9796157E-3,-0E0,1.1586985E-2],"categories":[],"categories_nodes":[],"categories_segments":[],"categories_sizes":[],"default_left":[0,0,0,0,0,0,0,0,0,0,0,0,0,0,0,0,0,0,0,0,0,0,0,0,0,0,0,0,0],"id":55,"left_children":[1,3,5,7,9,11,13,15,17,19,